4.913803562521934509e-02,5.030045658349990845e-02,-1.815840601921081543e-01,-3.421594947576522827e-02,-7.270206511020660400e-02,1.120885238051414490e-01,1.513646841049194336e-01,-2.071714699268341064e-01,-2.215753793716430664e-01,-2.682739496231079102e-01,-2.019865997135639191e-02,2.899850606918334961e-01,-2.878378890454769135e-02,-1.483860462903976440e-01,-1.833716034889221191e-01,-4.292249307036399841e-02,1.002558097243309021e-01,1.371796578168869019e-01,3.072798848152160645e-01,2.013139128684997559e-01,7.468061149120330811e-02,2.042208611965179443e-01,1.612885855138301849e-02,1.259568482637405396e-01,1.544869691133499146e-01,9.845516085624694824e-02,1.565110981464385986e-01,2.420901805162429810e-01,1.302272379398345947e-01,1.630829870700836182e-01,5.468480661511421204e-02,5.659965798258781433e-02,1.009613350033760071e-01,4.874185472726821899e-02,6.657141447067260742e-02,1.569579690694808960e-01,2.501581609249114990e-01,-1.169012263417243958e-01,-1.279915720224380493e-01,9.513675421476364136e-02,-1.601861864328384399e-01,2.032837718725204468e-01,2.583191692829132080e-01,1.456827372312545776e-01,-6.987272202968597412e-02,-2.135733366012573242e-01,-1.538437753915786743e-01,8.492153137922286987e-02,1.191849485039710999e-01,-1.638120114803314209e-01,1.751801222562789917e-01,2.410189658403396606e-01,-1.847943477332592010e-02,4.745240882039070129e-02,-2.359239459037780762e-01,1.181991398334503174e-02,1.716311275959014893e-01,-5.118968710303306580e-02,-1.212613210082054138e-01,-1.319894939661026001e-01,3.133958950638771057e-02,1.867300868034362793e-01,2.229890227317810059e-01,-1.478607654571533203e-01,-2.197008430957794189e-01,2.049925178289413452e-01,3.387066349387168884e-02,1.886762492358684540e-02,-5.603570118546485901e-02,-2.366356551647186279e-01,2.205719947814941406e-01,-5.385079979896545410e-02,9.594476781785488129e-03,2.591156587004661560e-02,-6.534800678491592407e-02,1.979144848883152008e-02,1.749432384967803955e-01,6.178604066371917725e-02,5.957009270787239075e-02,-6.429476290941238403e-02,-1.159831732511520386e-01,2.410269081592559814e-01,2.285324186086654663e-01,-8.383087068796157837e-02,-2.303463518619537354e-01,2.580409049987792969e-01,5.945998802781105042e-02,-1.887688972055912018e-02,-1.701062172651290894e-02,-3.627241030335426331e-02,-4.323095828294754028e-02,1.109584979712963104e-02,1.035460904240608215e-01,1.959928125143051147e-02,-2.771129906177520752e-01,2.421467751264572144e-01,2.359114140272140503e-01,1.012515276670455933e-01,-1.771430671215057373e-02,-1.702045500278472900e-01,-1.085861250758171082e-01,3.403454646468162537e-02,-1.888309866189956665e-01,-1.569180935621261597e-01,7.459603250026702881e-02,2.219571769237518311e-01,-4.082153365015983582e-02,-1.429958492517471313e-01,-4.068272560834884644e-02,2.645899951457977295e-01,1.304978579282760620e-01,2.382715642452239990e-01,-1.822439394891262054e-02,2.532721161842346191e-01,2.649560272693634033e-01,-8.909300714731216431e-02,1.761200577020645142e-01,8.504053205251693726e-02,-4.337041825056076050e-02,2.885145843029022217e-01,1.803211122751235962e-01,1.482647508382797241e-01,-1.178984995931386948e-02,-3.111201105639338493e-03,1.009204611182212830e-01,1.953737065196037292e-02,1.225459575653076172e-01,1.307659037411212921e-02,1.488969922065734863e-01,5.988463759422302246e-02,2.570211887359619141e-01,1.180208027362823486e-01,2.150378525257110596e-01,1.358649432659149170e-01,1.286875903606414795e-01,2.378240674734115601e-01,1.464473009109497070e-01,2.600617408752441406e-01,1.690653264522552490e-01,1.278498768806457520e-01,-5.430322140455245972e-02,-1.810111999511718750e-01,1.536870654672384262e-02,-3.779657185077667236e-02,-1.053889840841293335e-02,-1.632090061902999878e-01,-3.059889972209930420e-01,-9.318658709526062012e-02,-1.857330650091171265e-01,1.341352015733718872e-01,