-1.851071044802665710e-02,-7.158006727695465088e-02,3.523576632142066956e-02,-4.658736661076545715e-02,8.807802945375442505e-02,-6.383994221687316895e-02,5.229437351226806641e-02,-1.187807992100715637e-01,-8.307836949825286865e-02,-1.455242186784744263e-01,4.663373529911041260e-02,-2.325797267258167267e-02,5.317695811390876770e-02,-8.316832780838012695e-02,8.947956562042236328e-02,-6.917772814631462097e-03,-2.000520005822181702e-02,-1.612054556608200073e-02,6.882424931973218918e-03,8.106166124343872070e-02,6.030527874827384949e-02,-6.605212390422821045e-02,-9.186949580907821655e-02,7.738324999809265137e-02,-1.444333344697952271e-01,-1.244713291525840759e-01,9.329010546207427979e-02,5.657343566417694092e-02,3.814500756561756134e-03,-7.084418088197708130e-03,-7.136458158493041992e-02,7.954736053943634033e-02,9.314113110303878784e-02,6.048305705189704895e-02,-9.677460789680480957e-02,-1.386134773492813110e-01,1.372972577810287476e-01,-1.175921484827995300e-01,6.161612644791603088e-02,-3.565350547432899475e-03,-8.131267130374908447e-02,-1.216936018317937851e-02,-1.113214530050754547e-02,-4.561029374599456787e-02,-6.214922294020652771e-02,-6.270949542522430420e-02,-1.220238134264945984e-01,7.253095973283052444e-03,-3.287729993462562561e-02,-1.524201687425374985e-02,2.094689942896366119e-02,-4.122085496783256531e-02,-1.258745938539505005e-01,6.868480890989303589e-02,-1.355545073747634888e-01,1.235532760620117188e-01,1.066675856709480286e-01,-1.389729827642440796e-01,3.001266345381736755e-02,5.901108682155609131e-02,-6.976647675037384033e-02,2.955175936222076416e-02,7.754567265510559082e-02,3.002214245498180389e-02,-8.654800476506352425e-04,-7.542569190263748169e-02,-2.249860018491744995e-02,1.291803121566772461e-01,3.117427974939346313e-02,1.192682757973670959e-01,9.366889297962188721e-02,-4.988538101315498352e-02,-1.122962236404418945e-01,-1.588068008422851562e-01,6.662327051162719727e-02,-1.189583986997604370e-01,1.127523407340049744e-01,-1.273961830884218216e-02,4.270433261990547180e-02,-2.417748607695102692e-02,4.808196797966957092e-03,9.360994398593902588e-02,-4.050706326961517334e-02,-2.664875797927379608e-02,-4.641707986593246460e-02,-4.030976817011833191e-02,-7.521548867225646973e-02,6.727139651775360107e-02,-9.441170096397399902e-02,-5.476112291216850281e-02,-1.169766411185264587e-01,-1.657877266407012939e-01,8.064221590757369995e-02,-1.007883995771408081e-01,1.528436201624572277e-03,-2.697412483394145966e-02,-1.665174961090087891e-01,7.299771904945373535e-02,-8.168721199035644531e-02,2.695958502590656281e-02,4.276931658387184143e-02,-1.054045036435127258e-01,4.957456141710281372e-02,-1.304532587528228760e-01,1.226238831877708435e-01,9.205278009176254272e-02,-5.617025867104530334e-02,-1.185702607035636902e-01,1.553468033671379089e-02,-8.904696255922317505e-02,-4.903044924139976501e-02,-1.143424287438392639e-01,-1.271931529045104980e-01,-4.637261107563972473e-02,-5.569288507103919983e-02,3.309736773371696472e-02,-1.393255591392517090e-01,4.005045630037784576e-03,6.584328413009643555e-02,5.892832949757575989e-02,-6.842339783906936646e-02,-6.073752883821725845e-03,-6.403397768735885620e-02,3.477059304714202881e-02,1.476058661937713623e-01,-1.177318021655082703e-02,-1.064579486846923828e-01,-6.037199124693870544e-02,1.118323281407356262e-01,1.387974619865417480e-01,-8.113607764244079590e-02,-1.203450188040733337e-02,4.722595214843750000e-02,6.856873631477355957e-02,-6.559795886278152466e-02,1.709361076354980469e-01,-8.154627867043018341e-03,-4.309869185090065002e-02,-3.695157542824745178e-02,-1.030394583940505981e-01,3.987196832895278931e-02,8.005144074559211731e-03,-1.145625337958335876e-01,-9.528113156557083130e-02,2.614656835794448853e-02,1.776473522186279297e-01,-8.902338892221450806e-02,1.770832389593124390e-02,3.641447424888610840e-02,-8.137899637222290039e-02,1.333496868610382080e-01,8.190848678350448608e-02,1.093902587890625000e-01,-6.231483817100524902e-02,1.569658368825912476e-01,-1.078969463706016541e-01,5.265158787369728088e-02,4.395095631480216980e-02,1.173935756087303162e-01,-5.637051537632942200e-02,-1.529626697301864624e-01,-9.362126886844635010e-02,-7.693248987197875977e-02,-4.472808912396430969e-02,1.196338608860969543e-01,-4.536790028214454651e-02,1.172245070338249207e-01,7.049179077148437500e-02,7.764764875173568726e-02,-5.283424630761146545e-02,-6.157724186778068542e-02,4.051056876778602600e-02,8.250560611486434937e-02,-1.254646480083465576e-01,4.871376603841781616e-02,1.062496453523635864e-01,-1.356663554906845093e-01,7.270897179841995239e-02,7.118541002273559570e-02,-3.808340057730674744e-02,-1.015643700957298279e-01,-6.818623095750808716e-02,7.353361696004867554e-02,3.274929523468017578e-02,4.395186528563499451e-02,-5.326825380325317383e-02,-4.051711410284042358e-02,9.984981268644332886e-02,1.064796149730682373e-01,1.394008845090866089e-01,-8.661121129989624023e-02,8.047664910554885864e-02,-4.206296801567077637e-02,4.315654560923576355e-02,-7.414390146732330322e-02,-8.864976465702056885e-02,-7.173947989940643311e-02,7.681651413440704346e-02,-1.164684072136878967e-01,-2.686829119920730591e-02,-1.081061661243438721e-01,5.694484338164329529e-02,-8.010085672140121460e-02,-6.459805369377136230e-02,7.056502997875213623e-02,3.135989233851432800e-02,-1.423250138759613037e-01,5.046964064240455627e-02,5.669786036014556885e-02,3.883295878767967224e-02,3.654813393950462341e-02,1.648904569447040558e-02,1.245166584849357605e-01,1.388129144906997681e-01,-7.047046720981597900e-02,8.943010866641998291e-02,-4.848179966211318970e-02,-4.013124853372573853e-02,-7.370542734861373901e-03,-1.457005590200424194e-01,-1.429363042116165161e-01,-3.805014863610267639e-02,-1.432180055417120457e-03,3.120299614965915680e-02,1.073039472103118896e-01,-8.359626680612564087e-02,-6.047619879245758057e-02,-1.123893782496452332e-01,-3.984783589839935303e-02,1.028308942914009094e-01,-1.326813995838165283e-01,-4.767317697405815125e-02,-1.202333867549896240e-01,-3.006978891789913177e-02,-9.903256595134735107e-02,1.064973920583724976e-01,1.004634946584701538e-01,9.902518987655639648e-02,-1.508395671844482422e-01,3.513090312480926514e-02,-3.643117379397153854e-03,1.596758700907230377e-02,-4.256133455783128738e-03,9.397362917661666870e-02,1.000153739005327225e-02,9.671968221664428711e-02,-5.555085092782974243e-02,-3.133763093501329422e-03,7.677076011896133423e-02,2.275468548759818077e-03,-8.999053388833999634e-02,-8.542434871196746826e-02,-1.356774717569351196e-01,5.683885514736175537e-02,-9.287661314010620117e-02,6.001798808574676514e-02,-6.769530475139617920e-02,9.325125813484191895e-02,9.504328668117523193e-02,8.038710057735443115e-02,5.660681799054145813e-02,-1.050816401839256287e-01,7.290279120206832886e-02,-9.391787648200988770e-02,1.342634856700897217e-01,-3.069143928587436676e-02,-6.861831247806549072e-02,-8.881707675755023956e-03,7.145948708057403564e-02,-9.465112537145614624e-02,-1.047897189855575562e-01,-1.445158720016479492e-01,-5.543088167905807495e-02,9.118960052728652954e-02,-4.728223755955696106e-02,8.577898889780044556e-02,2.604766376316547394e-02,-5.781153216958045959e-03,-8.096951246261596680e-02,-1.474166638217866421e-03,1.158730387687683105e-01,-8.165230043232440948e-03,-3.062383271753787994e-02,4.220568761229515076e-02,3.863916918635368347e-02,6.902571767568588257e-02,2.249327488243579865e-03,7.474798709154129028e-02,7.768143713474273682e-02,6.343885511159896851e-02,1.287731435149908066e-02,1.332696229219436646e-01,2.499228902161121368e-02,-1.104852091521024704e-02,-2.910206839442253113e-02,1.008073538541793823e-01,-1.137879770249128342e-02,1.034821718931198120e-01,-1.011732965707778931e-01,1.480470877140760422e-02,-8.239410817623138428e-03,2.174655720591545105e-02,2.803078293800354004e-02,-1.303832232952117920e-01,-3.077852725982666016e-02,3.332934528589248657e-02,8.083633333444595337e-02,2.667249552905559540e-02,-1.344507187604904175e-01,-1.319861114025115967e-01,-1.264044195413589478e-01,-1.676915585994720459e-01,-8.910864591598510742e-02,-2.109385132789611816e-01,7.961910218000411987e-02,-1.621861159801483154e-01,-2.822314761579036713e-02,-3.247374668717384338e-02,1.007613465189933777e-01,4.300802201032638550e-02,-1.119821965694427490e-01,-1.007293686270713806e-01,3.085824660956859589e-03,4.033641517162322998e-02,-1.394759565591812134e-01,9.272225201129913330e-02,-1.241884976625442505e-01,-4.781823605298995972e-02,-1.005865186452865601e-01,4.155710712075233459e-02,8.252623677253723145e-02,2.191695384681224823e-03,1.453490108251571655e-01,-1.314401533454656601e-02,8.868643082678318024e-03,1.069533266127109528e-02,6.005411222577095032e-02,9.490831941366195679e-02,5.719401687383651733e-02,-5.330719798803329468e-02,-1.014844924211502075e-01,-1.527462154626846313e-01,6.377415359020233154e-02,-5.346480384469032288e-02,-6.854902952909469604e-02,-4.438153281807899475e-02,-1.042421609163284302e-01,-1.719335466623306274e-02,4.596021026372909546e-02,-8.240679651498794556e-02,-2.017545886337757111e-02,1.260425895452499390e-02,1.472303718328475952e-01,-1.493478268384933472e-01,-1.070519983768463135e-01,-4.461575672030448914e-02,-7.777323573827743530e-02,-1.509429216384887695e-01,-9.256750345230102539e-02,-3.024398162961006165e-02,-1.509544998407363892e-01,3.188877180218696594e-02,-3.971373289823532104e-02,-4.789462313055992126e-02,-3.102589771151542664e-02,2.787201292812824249e-02,-2.722558937966823578e-02,7.600133121013641357e-02,4.094692412763834000e-03,-1.023262962698936462e-01,-1.626604646444320679e-01,2.268495596945285797e-02,-1.386671215295791626e-01,-4.830854013562202454e-02,1.028642579913139343e-01,-4.761519655585289001e-02,8.955483883619308472e-02,3.571641445159912109e-02,9.921324998140335083e-02,-9.378992835991084576e-04,1.031948253512382507e-02,-1.353204995393753052e-01,1.202844157814979553e-01,5.528683587908744812e-02,-1.262726038694381714e-01,1.070956438779830933e-01,1.846614107489585876e-02,1.662121117115020752e-01,-7.397235929965972900e-02,-4.746923968195915222e-02,-4.992143809795379639e-02,-2.282844111323356628e-02,-1.192917823791503906e-01,6.339224427938461304e-02,8.267524093389511108e-02,-3.761528432369232178e-02,4.048928618431091309e-02,1.830728501081466675e-01,4.695626348257064819e-02,1.198599562048912048e-01,6.112631410360336304e-02,-7.766501605510711670e-02,4.072676971554756165e-02,4.723575711250305176e-02,-1.117641404271125793e-01,5.414459854364395142e-02,-1.142718791961669922e-01,-4.850789904594421387e-03,1.285791695117950439e-01,1.143814027309417725e-01,9.804637730121612549e-02,6.069355085492134094e-02,1.145224794745445251e-01,-4.242432117462158203e-02,-1.132448315620422363e-01,5.363146588206291199e-02,-9.754396975040435791e-02,3.294929489493370056e-02,-1.353531777858734131e-01,-1.120536327362060547e-01,-2.589074335992336273e-02,8.025044947862625122e-02,-6.387040950357913971e-03,-8.473867177963256836e-02,3.568876907229423523e-02,1.512364149093627930e-01,4.630936309695243835e-02,-1.000233888626098633e-01,-1.481031030416488647e-01,6.163895013742148876e-04,-5.912764742970466614e-02,5.030928552150726318e-02,-8.674366027116775513e-02,-1.128427386283874512e-01,5.338470917195081711e-03,-6.243205815553665161e-02,-6.868218630552291870e-02,2.717951871454715729e-02,-1.142580807209014893e-01,-5.169763416051864624e-02,-9.939993172883987427e-02,9.668868780136108398e-02,1.563486270606517792e-02,-1.052669137716293335e-01,1.260593384504318237e-01,4.103328287601470947e-02,1.098079048097133636e-02,-2.026033587753772736e-02,-1.234957482665777206e-02,-4.171360284090042114e-02,5.113349109888076782e-02,-1.529242750257253647e-02,1.415774077177047729e-01,-1.044782400131225586e-01,4.447942133992910385e-03,-1.073981150984764099e-01,1.131590381264686584e-01,-9.187155961990356445e-02,-5.086828395724296570e-02,-1.391110122203826904e-01,5.566355958580970764e-02,-6.028040125966072083e-02,1.725224591791629791e-02,1.303711626678705215e-02,-1.784016489982604980e-01,-1.644963026046752930e-02,9.087173640727996826e-02,-4.973426461219787598e-02,1.120244488120079041e-01,4.844336211681365967e-02,5.515469238162040710e-02,-3.729439899325370789e-02,-9.520040452480316162e-02,-1.478360034525394440e-02,4.441967606544494629e-02,7.592380791902542114e-02,-7.282388210296630859e-02,3.564639948308467865e-03,9.994878619909286499e-02,-6.569714099168777466e-02,8.624015003442764282e-02,-6.455211434513330460e-03,-5.216478928923606873e-02,-1.279569715261459351e-01,3.546173125505447388e-02,-9.505039453506469727e-02,-3.157431632280349731e-02,-1.125400587916374207e-01,4.286308307200670242e-03,-1.570179462432861328e-01,5.013702437281608582e-02,1.818508841097354889e-03,4.612986370921134949e-02,8.363622426986694336e-02,-6.975759565830230713e-02,-1.136805564165115356e-01,1.080387160181999207e-01,-8.935068547725677490e-02,-9.286677837371826172e-02,1.771251438185572624e-03,8.622259646654129028e-02,-9.143536537885665894e-02,3.135658428072929382e-02,3.295597061514854431e-02,-3.493691096082329750e-03,-3.719532862305641174e-02,-5.850972980260848999e-02,3.309652954339981079e-02,-8.159092068672180176e-02,-1.323617249727249146e-01,-2.776948921382427216e-02,1.076391618698835373e-02,-1.046373695135116577e-01,5.296425521373748779e-02,-3.014291636645793915e-02,-1.007655113935470581e-01,-1.740374118089675903e-01,1.172014977782964706e-02,-1.293114423751831055e-01,3.937099128961563110e-02,-3.025640361011028290e-02,7.828506641089916229e-03,-7.499735802412033081e-02,1.392066925764083862e-01,-1.084051579236984253e-01,-1.426955461502075195e-01,-6.044680625200271606e-02,8.270815014839172363e-02,-7.654213905334472656e-02,-7.463663071393966675e-02,6.095076724886894226e-02,7.211123406887054443e-02,-1.477010697126388550e-01,-6.040573492646217346e-02,1.517651975154876709e-01,-8.554749935865402222e-02,-8.922293037176132202e-02,-2.009835541248321533e-01,-9.204871021211147308e-03,1.249317778274416924e-03,-1.000495776534080505e-01,7.642872631549835205e-02,-7.528282701969146729e-02,2.028047479689121246e-02,-1.205746270716190338e-02,-1.515360549092292786e-02,3.592420369386672974e-03,-1.451668590307235718e-01,-1.692567914724349976e-01,9.110916405916213989e-02,9.789989888668060303e-02,-1.729100011289119720e-02,1.160709783434867859e-01,6.432766467332839966e-02,7.426471263170242310e-02,7.374158501625061035e-02,1.929065398871898651e-02,8.795639127492904663e-02,6.160717748571187258e-05,1.032809019088745117e-01,2.135591395199298859e-02,7.529960572719573975e-02,8.944671601057052612e-02,1.070614159107208252e-01,-5.980332195758819580e-02,-8.573689311742782593e-02,1.904077711515128613e-03,1.348922699689865112e-01,6.852922588586807251e-02,-8.411280065774917603e-02,-6.376665085554122925e-03,7.053332403302192688e-03,-1.983711682260036469e-02,-3.703763708472251892e-02,-7.789894193410873413e-02,-7.547987252473831177e-02,-7.726407796144485474e-02,1.964232325553894043e-02,-7.304944097995758057e-02,-5.493338033556938171e-02,-1.198247889988124371e-03,9.025608748197555542e-02,3.502956405282020569e-02,3.257235884666442871e-02,-1.558622121810913086e-01,6.728136539459228516e-02,1.280598193407058716e-01,-7.991967350244522095e-02,-2.273776009678840637e-02,-1.504567638039588928e-02,-4.295321926474571228e-02,5.197431519627571106e-02,7.139008492231369019e-02,-6.835269927978515625e-02,1.315330434590578079e-02,6.046248599886894226e-02,-9.875635057687759399e-02,4.449282586574554443e-02,-8.186040818691253662e-02,1.293464284390211105e-02,1.126326844096183777e-01,5.958361178636550903e-02,-9.511337429285049438e-02,-9.467724710702896118e-02,1.748358607292175293e-01,1.320048868656158447e-01,1.807637885212898254e-02,1.054808497428894043e-01,1.682889461517333984e-01,-1.463721096515655518e-01,2.262468636035919189e-02,5.800140649080276489e-02,7.255045324563980103e-02,-1.087873578071594238e-01,1.614113338291645050e-02,4.530956968665122986e-02,7.677152752876281738e-02,1.345979571342468262e-01,-1.189412921667098999e-01,3.845419362187385559e-02,-7.775665074586868286e-02,8.947537839412689209e-02,-4.817823693156242371e-02,1.030955016613006592e-01,1.825087936595082283e-03,2.039625495672225952e-02,1.235662251710891724e-01,-7.672519236803054810e-02,-3.653485700488090515e-02,-1.033613830804824829e-01,-3.369305282831192017e-02,1.062980573624372482e-02,9.939810633659362793e-02,-1.539341509342193604e-01,-1.151069551706314087e-01,-7.610423117876052856e-02,-1.462057530879974365e-01,-1.117111444473266602e-01,-8.846156299114227295e-02,1.513464003801345825e-01,9.967110119760036469e-03,1.133574843406677246e-01,8.288521319627761841e-02,-1.618139147758483887e-01,1.643371582031250000e-01,8.985856175422668457e-02,7.943574339151382446e-02,3.111883625388145447e-02,-4.226583987474441528e-02,-6.452481448650360107e-02,-8.108194172382354736e-02,-6.961390376091003418e-02,-6.492243707180023193e-02,-2.778274379670619965e-02,1.529229581356048584e-01,-1.032909229397773743e-01,-7.133963704109191895e-02,4.932447150349617004e-02,1.426710002124309540e-02,-8.831670857034623623e-04,9.548831731081008911e-03,2.499799057841300964e-02,-1.288961917161941528e-01,-4.218399897217750549e-02,-1.608105450868606567e-01,8.602069318294525146e-02,5.713604763150215149e-02,6.486734747886657715e-02,4.471985623240470886e-02,-3.834766149520874023e-02,8.366489410400390625e-02,-3.206719830632209778e-02,-5.631274729967117310e-02,-3.009245358407497406e-02,-1.886322349309921265e-02,-3.184505179524421692e-02,6.222915649414062500e-02,7.966692559421062469e-03,-7.769091427326202393e-02,2.924988418817520142e-02,3.582812845706939697e-02,-7.850359380245208740e-02,8.859281241893768311e-02,-1.209568008780479431e-01,-8.712972700595855713e-02,-2.780161425471305847e-02,5.447899177670478821e-02,5.481027439236640930e-02,-8.860787004232406616e-02,9.095350978896021843e-04,8.779798448085784912e-02,-1.337679177522659302e-01,-1.143862828612327576e-01,-1.195213058963418007e-03,5.114911496639251709e-02,7.843310385942459106e-02,-1.221023201942443848e-01,7.936555892229080200e-02,-1.770635508000850677e-02,4.339293390512466431e-02,1.019939184188842773e-01,9.521850198507308960e-02,8.298047631978988647e-02,1.177338063716888428e-01,-1.955385319888591766e-02,-9.121996909379959106e-02,1.213793605566024780e-01,9.876272827386856079e-02,-1.068454459309577942e-01,-7.762897014617919922e-02,6.536384671926498413e-02,-1.547203864902257919e-03,6.076445803046226501e-02,2.019293420016765594e-02,-1.379551440477371216e-01,1.211008653044700623e-01,1.315122246742248535e-01,-5.066956579685211182e-02,9.795807301998138428e-02,7.396478205919265747e-02,1.714179106056690216e-02,4.672425240278244019e-02,-1.190240234136581421e-01,-3.419893234968185425e-02,-1.744521781802177429e-02,-8.085262030363082886e-02,-9.370266646146774292e-02,9.199162572622299194e-02,-2.142812125384807587e-02,-3.457444906234741211e-02,7.342340797185897827e-02,3.791723027825355530e-02,-8.784440159797668457e-02,-2.313388884067535400e-01,8.798862248659133911e-02,-2.950110659003257751e-02,-1.840405315160751343e-01,8.684130012989044189e-02,-1.845793724060058594e-01,-1.840163618326187134e-01,1.148533523082733154e-01,6.277515087276697159e-03,9.136261790990829468e-02,2.652531675994396210e-02,1.878013275563716888e-02,-4.383114352822303772e-02,2.073093503713607788e-02,4.238608852028846741e-02,8.003924787044525146e-02,-2.720425091683864594e-02,-3.576343506574630737e-02,2.115442976355552673e-02,-7.800611853599548340e-02,-1.090340614318847656e-01,-1.175203546881675720e-01,6.228976696729660034e-02,1.853750646114349365e-02,-4.100765567272901535e-03,2.882243320345878601e-02,9.262633323669433594e-02,1.107110306620597839e-01,-7.428938057273626328e-03,-5.875428766012191772e-02,8.941114693880081177e-02,1.830284893512725830e-01,-7.364049553871154785e-02,-4.548706486821174622e-02,-1.157136410474777222e-01,1.659398972988128662e-01,-7.118276553228497505e-04,-7.829591631889343262e-02,-8.763457089662551880e-02,-2.027345448732376099e-01,2.419945225119590759e-02,-1.532313823699951172e-01,9.997233748435974121e-02,-1.188647933304309845e-02,2.205484546720981598e-02,3.116167895495891571e-02,6.002603098750114441e-02,6.107797101140022278e-02,3.499552235007286072e-02,-1.277538482099771500e-02,-1.076091639697551727e-02,-1.054300218820571899e-01,2.451640320941805840e-04,-1.672718487679958344e-02,-1.557777542620897293e-02,-1.272267103195190430e-02,1.703736484050750732e-01,6.822054833173751831e-02,9.342995285987854004e-02,-5.828718841075897217e-02,-2.087959945201873779e-01,-1.548910606652498245e-02,-1.380194425582885742e-01,-2.469062246382236481e-02,2.458146307617425919e-03,-1.587986797094345093e-01,8.596771955490112305e-02,1.615421473979949951e-02,4.294417798519134521e-02,-2.291648462414741516e-02,9.030626714229583740e-02,-8.996521681547164917e-02,9.534684359095990658e-04,-7.416494190692901611e-02,-8.603268861770629883e-02,-4.559899866580963135e-02,1.614182442426681519e-02,-1.640656031668186188e-02,4.538405220955610275e-03,-1.583652198314666748e-01,9.058433026075363159e-02,-3.640716895461082458e-03,2.419222518801689148e-02,-8.364033699035644531e-02,-1.699372082948684692e-01,1.016608029603958130e-01,5.982486531138420105e-02,2.458575740456581116e-02,9.135445579886436462e-03,8.210747689008712769e-02,1.220732647925615311e-02,-1.645547747611999512e-01,-1.783356815576553345e-01,-7.008930202573537827e-03,-1.004787385463714600e-01,1.073896661400794983e-01,3.161180019378662109e-02,4.308017902076244354e-03,1.043059676885604858e-01,1.379275694489479065e-02,5.734685808420181274e-02,-7.008507102727890015e-02,-2.837505564093589783e-02,-8.094320446252822876e-02,5.337269976735115051e-02,-1.415305286645889282e-01,-3.536271676421165466e-02,