5.647637322545051575e-02,1.488946527242660522e-01,9.563776105642318726e-02,3.279626742005348206e-02,6.316483765840530396e-02,-1.364845223724842072e-02,3.390131052583456039e-03,-8.610999584197998047e-02,5.734844878315925598e-02,1.182029861956834793e-02,9.005638957023620605e-02,-4.146219044923782349e-02,1.144850626587867737e-02,-4.696764424443244934e-02,8.941654115915298462e-02,1.095662564039230347e-01,1.219408437609672546e-01,-4.514080658555030823e-02,1.859969273209571838e-02,-1.005640253424644470e-01,1.515150517225265503e-01,6.889782845973968506e-02,2.308790758252143860e-02,-5.000806599855422974e-02,-8.835408091545104980e-02,4.725150018930435181e-02,9.175300598144531250e-02,-2.318109758198261261e-02,6.507746875286102295e-02,-1.740898564457893372e-02,1.402422785758972168e-01,1.269453912973403931e-01,1.093100383877754211e-01,9.026364982128143311e-02,1.691779471002519131e-03,-1.384065835736691952e-03,-3.330845013260841370e-02,-6.182181090116500854e-02,7.495567947626113892e-02,-5.841834098100662231e-02,-7.830847054719924927e-02,-6.720475852489471436e-02,-3.968066722154617310e-02,-7.014897465705871582e-02,-5.047173798084259033e-02,-1.768784224987030029e-02,1.613454334437847137e-02,6.484702974557876587e-02,6.623300909996032715e-02,-1.518960297107696533e-02,-5.051320418715476990e-02,-3.885091841220855713e-02,-1.801697351038455963e-02,-6.772579508833587170e-04,-2.067291550338268280e-02,-2.320171706378459930e-02,-1.334836184978485107e-01,-1.570004597306251526e-02,-3.593008592724800110e-02,-1.423968747258186340e-02,-8.523035794496536255e-02,-1.021985709667205811e-01,4.071901086717844009e-03,3.430220484733581543e-02,-2.660901285707950592e-02,-1.590675413608551025e-01,-1.235082000494003296e-01,-5.888016521930694580e-02,-2.096621505916118622e-02,5.790337175130844116e-02,-5.747741833329200745e-02,1.187923625111579895e-01,-8.171655237674713135e-03,-2.359551005065441132e-02,-1.830949075520038605e-02,-1.334232240915298462e-01,-1.340979933738708496e-01,-8.887305855751037598e-02,3.695612400770187378e-02,-3.274594247341156006e-02,-4.161258041858673096e-02,-1.225637644529342651e-01,2.472034469246864319e-02,-5.822370573878288269e-02,8.724356442689895630e-02,-4.839501157402992249e-02,-1.201726421713829041e-01,-2.740345150232315063e-02,3.433089330792427063e-02,-4.477918520569801331e-02,-1.239784508943557739e-01,-1.120907813310623169e-01,-2.892000973224639893e-02,9.955239295959472656e-02,-1.314455643296241760e-02,1.125673996284604073e-03,-4.162090271711349487e-02,-1.017714515328407288e-01,2.892691874876618385e-03,7.314150780439376831e-02,1.642844378948211670e-01,3.850080817937850952e-02,1.126401349902153015e-01,-3.835324943065643311e-02,-7.480323314666748047e-02,-7.476443797349929810e-02,-1.009336411952972412e-01,-1.092185825109481812e-01,2.509118290618062019e-03,-9.067503362894058228e-02,-2.294374257326126099e-02,8.283951319754123688e-03,-1.237821802496910095e-01,3.107023984193801880e-02,-7.386183738708496094e-02,1.047550365328788757e-01,-2.148474194109439850e-02,-3.813856467604637146e-02,1.017097458243370056e-01,7.739250361919403076e-02,1.630053967237472534e-01,1.447103358805179596e-02,1.381680089980363846e-02,8.884143829345703125e-02,-2.696522884070873260e-02,1.625204682350158691e-01,1.428966522216796875e-01,9.400953352451324463e-02,-1.287009939551353455e-02,4.621183127164840698e-02,1.049771159887313843e-01,1.226470470428466797e-01,7.127288728952407837e-02,2.129963971674442291e-02,-2.013882063329219818e-02,5.421432480216026306e-02,-6.060652434825897217e-02,-7.711532711982727051e-02,-9.687350690364837646e-02,5.092123523354530334e-03,-1.760407984256744385e-01,-8.686573803424835205e-02,-8.911487646400928497e-03,-5.909993872046470642e-02,-5.625694617629051208e-02,5.410648882389068604e-02,6.872665882110595703e-02,1.205809637904167175e-01,9.437033534049987793e-02,3.698692098259925842e-02,-1.569741778075695038e-02,5.677338317036628723e-02,-4.454666376113891602e-02,-3.252401575446128845e-02,-5.350415408611297607e-02,1.208449602127075195e-01,3.521720692515373230e-02,-1.572580635547637939e-01,-1.600791513919830322e-01,2.832433767616748810e-02,1.372873336076736450e-01,-1.034913882613182068e-01,-1.189232394099235535e-01,-1.251900047063827515e-01,-4.565931484103202820e-02,-9.598574787378311157e-02,-8.798517286777496338e-02,-7.769923657178878784e-02,2.305280230939388275e-02,3.432250395417213440e-02,-9.474223107099533081e-02,-7.630712538957595825e-02,-4.980700463056564331e-02,8.300811052322387695e-02,4.820594564080238342e-02,-3.875222057104110718e-02,-9.859175235033035278e-02,-6.256432086229324341e-02,-3.707224130630493164e-02,5.687863379716873169e-02,-4.151005670428276062e-02,2.375008538365364075e-02,-6.038599833846092224e-02,4.550693556666374207e-03,5.523282662034034729e-02,5.510139465332031250e-02,-1.359975058585405350e-02,2.257442474365234375e-02,8.654715865850448608e-02,6.870297342538833618e-02,5.737308040261268616e-02,5.431307852268218994e-02,4.662048816680908203e-02,8.733233064413070679e-02,5.124525725841522217e-02,3.698715567588806152e-02,-1.539296843111515045e-02,7.230219244956970215e-02,3.400103375315666199e-02,1.691596768796443939e-02,4.500656947493553162e-02,-9.817322343587875366e-02,-1.122349575161933899e-01,-4.186681658029556274e-02,9.268316626548767090e-02,5.214155837893486023e-02,-1.017219573259353638e-01,-9.450159221887588501e-02,3.706492111086845398e-02,4.157287627458572388e-02,-9.325599670410156250e-02,-4.646905581466853619e-04,3.442798182368278503e-02,3.658674657344818115e-02,1.122375801205635071e-01,-6.865195184946060181e-02,3.271945938467979431e-02,-6.952489912509918213e-02,-1.878316141664981842e-02,1.710574515163898468e-02,4.594247788190841675e-02,-8.854223042726516724e-02,-6.717836856842041016e-02,-2.281258255243301392e-02,7.950358092784881592e-03,4.115263745188713074e-02,-8.053734898567199707e-02,-1.216141954064369202e-01,-1.885174773633480072e-02,1.375973671674728394e-01,-6.005302816629409790e-02,-4.177888389676809311e-03,-7.822199165821075439e-02,1.074899360537528992e-01,2.192931994795799255e-02,-1.901614665985107422e-02,-3.281525894999504089e-02,-7.190348953008651733e-02,5.927184224128723145e-02,6.660781055688858032e-02,-8.962605148553848267e-03,-5.637008696794509888e-02,1.607325114309787750e-02,2.097408100962638855e-02,-1.235594507306814194e-02,-5.867937952280044556e-02,-7.310935109853744507e-02,4.458429291844367981e-02,6.703928858041763306e-02,-2.644272893667221069e-02,-5.377397313714027405e-02,-8.538657426834106445e-02,7.537847757339477539e-02,-3.444163873791694641e-02,2.916735364124178886e-03,-8.439116179943084717e-03,7.317613065242767334e-02,7.558209449052810669e-02,-4.520543664693832397e-02,-1.568216597661375999e-03,3.616640344262123108e-02,7.361251860857009888e-02,-5.570520646870136261e-03,3.223338397219777107e-03,-3.764776885509490967e-02,6.870388984680175781e-02,-4.431616887450218201e-02,-4.143749177455902100e-02,1.676296629011631012e-02,3.101987764239311218e-02,-9.710992872714996338e-02,-4.737660661339759827e-02,-4.849030449986457825e-02,-5.193164572119712830e-02,-3.770536929368972778e-02,-8.150719851255416870e-02,3.491505980491638184e-02,-1.275313198566436768e-01,-5.708506330847740173e-02,5.330925062298774719e-02,-6.769991666078567505e-02,-8.447799086570739746e-02,3.204499185085296631e-02,1.289683859795331955e-02,-1.601132377982139587e-02,5.800784751772880554e-02,-2.810567244887351990e-02,5.749879404902458191e-02,-4.904101788997650146e-02,1.111160740256309509e-01,1.057032868266105652e-01,1.195984929800033569e-01,-5.694514885544776917e-02,-7.283493876457214355e-02,1.034485362470149994e-02,1.047421619296073914e-01,-2.296075597405433655e-02,8.196896314620971680e-02,5.040555819869041443e-02,-4.486981779336929321e-02,1.098143588751554489e-02,-7.557284832000732422e-02,-3.480245172977447510e-02,-4.731186106801033020e-02,2.560478821396827698e-02,-1.993720978498458862e-02,1.555357221513986588e-02,-6.283351033926010132e-02,-1.942275911569595337e-01,-1.295683681964874268e-01,3.684071823954582214e-02,5.527330562472343445e-02,-4.945308715105056763e-02,-1.822833120822906494e-01,-6.256582587957382202e-02,5.016411468386650085e-02,8.400190621614456177e-02,7.381904125213623047e-02,6.940092891454696655e-02,1.254882514476776123e-01,-1.206515636295080185e-02,-1.298371329903602600e-02,4.789024963974952698e-02,1.133181303739547729e-01,1.549898833036422729e-01,1.644297875463962555e-02,9.822052717208862305e-02,-3.948857635259628296e-02,-1.017767786979675293e-01,-2.482510171830654144e-02,4.857267811894416809e-02,1.207309812307357788e-01,-9.499452263116836548e-02,6.154233217239379883e-02,1.153836399316787720e-01,1.147840321063995361e-01,8.123711496591567993e-02,-6.590560078620910645e-02,6.695280224084854126e-02,3.559169173240661621e-02,-1.007840037345886230e-02,5.421720445156097412e-02,3.570959344506263733e-02,-1.346062589436769485e-02,1.058588251471519470e-01,-1.516030542552471161e-02,9.632987529039382935e-02,5.021306872367858887e-02,-2.061697188764810562e-03,1.151102930307388306e-01,-5.952879786491394043e-02,5.298262834548950195e-02,-9.157117456197738647e-03,-5.152638629078865051e-02,-1.613597199320793152e-02,9.091801941394805908e-03,7.053803186863660812e-03,9.836272895336151123e-02,-5.818254500627517700e-02,1.049558445811271667e-01,-4.640422761440277100e-02,1.182949021458625793e-01,-7.306434679776430130e-03,3.124047070741653442e-02,6.778167933225631714e-02,-5.925068259239196777e-02,4.614064097404479980e-02,-2.205884084105491638e-02,5.149511247873306274e-02,3.553657233715057373e-02,-8.971392363309860229e-02,-1.273642294108867645e-02,-1.427180599421262741e-02,-3.459890559315681458e-02,-8.189198374748229980e-02,-6.311247497797012329e-02,7.006191462278366089e-02,-6.054262630641460419e-03,-1.962380297482013702e-02,1.554395351558923721e-02,-7.278055697679519653e-02,1.677392721176147461e-01,5.148522183299064636e-02,-1.574416086077690125e-02,1.164505332708358765e-01,1.122520305216312408e-02,5.635070800781250000e-02,1.057784887962043285e-03,-3.793087974190711975e-02,1.220591515302658081e-01,-6.721328943967819214e-02,-8.962968736886978149e-02,-3.220713138580322266e-02,8.987021446228027344e-02,5.487846210598945618e-02,-1.569786518812179565e-01,-1.033892761915922165e-02,-7.105591148138046265e-02,-3.682301612570881844e-03,5.540671572089195251e-02,6.042463332414627075e-02,-1.609140634536743164e-02,1.160562857985496521e-01,1.003969237208366394e-01,9.222064912319183350e-02,6.876246538013219833e-03,-1.930140331387519836e-02,2.480641566216945648e-02,-2.963556349277496338e-02,8.652064204216003418e-02,6.142215803265571594e-02,9.388752281665802002e-02,8.723875507712364197e-03,4.754937812685966492e-02,5.908724851906299591e-03,2.360093221068382263e-02,1.081561204046010971e-02,5.589806288480758667e-02,-1.765309646725654602e-02,-8.105371892452239990e-02,-1.072631869465112686e-02,-8.156543225049972534e-02,-6.098126992583274841e-02,-8.629335463047027588e-02,3.177000209689140320e-02,2.762132883071899414e-02,9.869313240051269531e-02,-1.966942101716995239e-02,3.695267438888549805e-02,-6.147580593824386597e-02,1.687618345022201538e-01,3.710908070206642151e-02,-8.644688129425048828e-02,-2.083082124590873718e-02,-8.093476062640547752e-04,6.964110583066940308e-02,1.966190524399280548e-02,-3.811880946159362793e-02,-2.859578840434551239e-02,-8.830454200506210327e-03,8.377023786306381226e-02,4.020781815052032471e-02,9.477347880601882935e-02,8.966213464736938477e-02,-4.764300957322120667e-02,7.842538505792617798e-02,3.406580537557601929e-02,-1.030480116605758667e-02,1.084713265299797058e-01,3.889341279864311218e-02,-1.469469256699085236e-02,4.460523650050163269e-02,-5.183941498398780823e-02,4.360979050397872925e-02,-2.900989167392253876e-02,4.362626001238822937e-02,3.551892936229705811e-02,7.099054753780364990e-02,1.245432347059249878e-01,7.388085126876831055e-02,5.755404382944107056e-02,2.818155884742736816e-01,1.643377244472503662e-01,1.907049417495727539e-01,2.562574744224548340e-01,8.419017493724822998e-02,1.513240933418273926e-01,2.025551944971084595e-01,7.832400500774383545e-02,1.638350337743759155e-01,-1.545567065477371216e-03,-5.454262718558311462e-02,-3.824143856763839722e-02,-7.702233642339706421e-02,-1.433609724044799805e-01,3.697096928954124451e-02,7.436023652553558350e-02,-6.871730089187622070e-02,1.832613162696361542e-02,-1.046435534954071045e-01,6.276284903287887573e-02,8.382429927587509155e-02,5.757641978561878204e-03,-1.218983307480812073e-01,-9.473992139101028442e-02,8.138410747051239014e-02,9.992877393960952759e-02,8.839562535285949707e-02,3.891768679022789001e-02,4.508522152900695801e-02,9.452053159475326538e-02,1.239508390426635742e-02,1.612725667655467987e-02,8.426062017679214478e-02,1.440279837697744370e-02,1.060660853981971741e-01,6.831856817007064819e-02,6.833653897047042847e-02,3.143616393208503723e-02,5.788659676909446716e-02,-6.292320787906646729e-02,1.909943670034408569e-02,-2.028131671249866486e-02,-8.277518302202224731e-02,-7.258777320384979248e-02,-9.407237917184829712e-02,1.032276079058647156e-02,-2.801208384335041046e-02,-9.341400116682052612e-03,-2.074648253619670868e-02,-8.189431577920913696e-02,-6.718194484710693359e-02,-1.417980492115020752e-01,-6.549038738012313843e-02,1.033171452581882477e-02,-1.608801186084747314e-01,-1.961017996072769165e-01,-1.027040779590606689e-01,-1.176861673593521118e-01,-1.324401143938302994e-02,-4.757659509778022766e-02,-9.532058238983154297e-02,-1.410456150770187378e-01,-1.887848675251007080e-01,-8.319155871868133545e-02,8.192867040634155273e-02,-2.555401809513568878e-02,6.221191212534904480e-02,1.508179865777492523e-02,-2.395141124725341797e-02,7.715934514999389648e-02,1.331754960119724274e-02,-4.972900822758674622e-02,2.498908713459968567e-02,-1.033342350274324417e-02,-3.764680400490760803e-02,-3.570809960365295410e-02,-7.672327756881713867e-02,-2.080556936562061310e-02,-1.131821498274803162e-01,-6.710992008447647095e-02,-9.516897052526473999e-02,-2.069954872131347656e-01,-1.489804238080978394e-01,-1.438850462436676025e-01,-8.426489681005477905e-02,-3.753540664911270142e-02,-4.005033522844314575e-02,-8.110381662845611572e-02,-9.474244713783264160e-02,-4.857134819030761719e-02,-2.841195091605186462e-02,2.835896611213684082e-02,-4.589078202843666077e-02,-1.357349753379821777e-01,-5.800854414701461792e-02,3.337494283914566040e-02,5.545039102435112000e-02,-2.380668744444847107e-02,7.399274036288261414e-03,8.609608560800552368e-02,5.321020632982254028e-02,3.504800796508789062e-02,9.582234919071197510e-02,3.110954351723194122e-02,1.539682876318693161e-02,1.533618941903114319e-02,1.436742991209030151e-01,9.913627803325653076e-02,2.694635093212127686e-02,-8.862128108739852905e-02,-4.042326286435127258e-02,-3.938909247517585754e-02,-8.105342090129852295e-02,-1.207990851253271103e-02,-9.329326450824737549e-02,7.031125575304031372e-02,7.718174159526824951e-02,-7.400224357843399048e-02,4.376607760787010193e-02,-3.543991222977638245e-02,4.803660139441490173e-02,1.116195023059844971e-01,2.046035230159759521e-02,3.486255556344985962e-02,3.379030153155326843e-02,7.272636890411376953e-02,2.658962621353566647e-04,1.095567643642425537e-01,-3.946539387106895447e-02,9.110933542251586914e-02,1.228164657950401306e-01,9.503202885389328003e-02,1.750447154045104980e-01,9.627985954284667969e-02,2.763205580413341522e-02,1.606231927871704102e-02,1.649332195520401001e-01,1.470765769481658936e-01,1.125617325305938721e-01,6.170837953686714172e-02,1.614840626716613770e-01,-5.540349334478378296e-02,1.000191196799278259e-01,1.413369625806808472e-01,8.341451734304428101e-02,3.702354431152343750e-02,9.251596033573150635e-02,1.828789710998535156e-01,7.575429975986480713e-02,1.733933538198471069e-01,1.672903150320053101e-01,1.674911975860595703e-01,9.442409127950668335e-02,9.448970854282379150e-02,1.473805755376815796e-01,1.761861741542816162e-01,1.062711626291275024e-01,1.088919490575790405e-02,7.733900845050811768e-02,-4.137331619858741760e-02,8.665262162685394287e-02,1.195754557847976685e-01,5.147195234894752502e-02,8.117822557687759399e-02,9.372621774673461914e-02,6.820333749055862427e-02,-9.563019871711730957e-02,-2.441989630460739136e-02,1.582421013154089451e-03,1.079587787389755249e-01,-2.849237062036991119e-02,-9.805664420127868652e-02,-3.931664861738681793e-03,-2.950933016836643219e-02,-6.499111186712980270e-03,-2.898074500262737274e-02,3.246014565229415894e-02,-3.383766114711761475e-02,-5.006838589906692505e-02,7.064759731292724609e-02,9.450227767229080200e-02,1.028664857149124146e-01,-5.130118224769830704e-04,-3.018237650394439697e-03,7.592686265707015991e-02,1.254133135080337524e-01,3.952459990978240967e-02,3.402921929955482483e-02,-3.573273122310638428e-02,-8.056515455245971680e-02,-4.557212814688682556e-02,-1.059256419539451599e-01,-5.954512581229209900e-02,2.779591828584671021e-02,-1.182601377367973328e-01,9.379506111145019531e-03,-7.918911427259445190e-02,-1.643469333648681641e-01,-6.445490568876266479e-02,-6.610100716352462769e-02,1.369018014520406723e-02,-1.329942196607589722e-01,-8.458889275789260864e-02,-1.164960637688636780e-01,-9.135471284389495850e-02,-4.608320072293281555e-02,-9.145545214414596558e-02,-8.400804549455642700e-02,-4.364034906029701233e-02,-1.662186533212661743e-01,-7.037362456321716309e-02,-1.346176564693450928e-01,-1.262731254100799561e-01,-9.521533548831939697e-02,-4.890033975243568420e-02,7.711352407932281494e-02,-1.230097636580467224e-01,-3.950393572449684143e-02,-6.371419876813888550e-02,4.919525608420372009e-02,4.934972524642944336e-02,-1.293672621250152588e-01,-4.765146150020882487e-05,-1.022750213742256165e-01,-6.242596358060836792e-02,-1.975498534739017487e-02,-6.841405481100082397e-02,-3.088375367224216461e-02,-4.892244935035705566e-02,-1.433556675910949707e-01,-5.992622673511505127e-02,-8.259247243404388428e-02,-3.264072909951210022e-02,-3.375201299786567688e-02,-5.867405235767364502e-02,-1.097018923610448837e-02,-3.966455906629562378e-02,-1.337711811065673828e-01,-9.051486849784851074e-02,7.172936946153640747e-02,-5.457998067140579224e-02,-1.739030517637729645e-02,-8.023919910192489624e-02,-9.052065759897232056e-02,-1.044153049588203430e-02,2.345263026654720306e-02,-4.342846944928169250e-02,5.165656656026840210e-02,-2.658616937696933746e-02,-5.270090699195861816e-02,7.957833260297775269e-02,1.387345194816589355e-01,8.966156840324401855e-02,1.153895035386085510e-01,7.986916229128837585e-03,1.491906493902206421e-01,1.328176166862249374e-02,9.714069217443466187e-02,-3.902833908796310425e-02,-1.211500912904739380e-01,-9.294771403074264526e-02,-3.428775817155838013e-02,-6.022638082504272461e-02,-5.406542494893074036e-02,4.868927597999572754e-02,5.413707345724105835e-02,3.002818115055561066e-02,1.012371778488159180e-01,7.481507956981658936e-02,9.649656713008880615e-02,-1.896062307059764862e-02,2.498334646224975586e-02,1.848752610385417938e-02,-5.831969156861305237e-02,9.887877851724624634e-02,6.898041069507598877e-02,3.884301334619522095e-02,8.646389096975326538e-02,-4.205401241779327393e-02,2.816907502710819244e-02,4.273384064435958862e-02,9.635827690362930298e-02,1.424294561147689819e-01,9.922932088375091553e-02,1.209101006388664246e-01,1.365984231233596802e-01,1.425139307975769043e-01,1.365798860788345337e-01,6.034297496080398560e-02,-4.890347644686698914e-02,9.276050329208374023e-02,3.362902626395225525e-02,2.026851288974285126e-02,3.334705159068107605e-02,5.538693442940711975e-02,9.775605052709579468e-02,1.273716837167739868e-01,6.722620129585266113e-02,7.446626573801040649e-02,3.457666561007499695e-02,6.774367392063140869e-02,4.787531122565269470e-02,-8.888934389688074589e-04,-3.355974331498146057e-02,4.714215639978647232e-03,-8.412805944681167603e-02,-3.883579000830650330e-02,-4.411023482680320740e-02,-1.079770997166633606e-01,1.177648529410362244e-01,8.175440877676010132e-02,2.340613864362239838e-02,1.003210339695215225e-02,-3.682174906134605408e-02,7.880826597101986408e-04,-1.216539740562438965e-02,-9.570316225290298462e-02,-1.141575276851654053e-01,1.248202752321958542e-02,1.176692098379135132e-01,-9.820457547903060913e-03,4.967420548200607300e-02,1.054573655128479004e-01,-6.078786682337522507e-03,1.527627408504486084e-01,7.438226789236068726e-02,4.477528110146522522e-02,1.533077806234359741e-01,8.329370617866516113e-02,5.397733300924301147e-02,1.349824965000152588e-01,8.466266095638275146e-02,1.266676263185217977e-04,9.720087796449661255e-02,-1.338929962366819382e-02,2.459006942808628082e-02,-4.789638519287109375e-02,-1.273734495043754578e-02,-1.370826810598373413e-01,2.881945483386516571e-02,-2.107670763507485390e-03,-1.103557720780372620e-01,-5.878651887178421021e-02,-1.081819236278533936e-01,-6.961207836866378784e-02,1.785108633339405060e-02,-2.539143664762377739e-03,-1.249132975935935974e-01,-5.263887718319892883e-02,-1.814333200454711914e-01,9.837006218731403351e-04,-3.275033086538314819e-02,1.833087950944900513e-02,-1.639478653669357300e-02,-1.772658675909042358e-01,-1.647593826055526733e-01,-1.660018861293792725e-01,-1.157514825463294983e-01,-9.987202286720275879e-02,-1.273657232522964478e-01,-1.164288669824600220e-01,-6.123232841491699219e-02,-1.680843383073806763e-01,-1.514759957790374756e-01,1.033525168895721436e-01,5.857719480991363525e-02,-8.526683785021305084e-03,-1.590037196874618530e-01,-5.744715686887502670e-03,2.713905833661556244e-02,-4.438126087188720703e-02,1.519240066409111023e-02,-1.053689643740653992e-01,-2.149297483265399933e-02,-9.278238564729690552e-02,-7.565804570913314819e-02,-1.611980423331260681e-02,-1.408829167485237122e-02,-8.692289888858795166e-02,-9.686256945133209229e-02,-1.535185873508453369e-01,-1.781786531209945679e-01,-5.493080243468284607e-02,-1.724099516868591309e-01,-1.610346436500549316e-01,-1.645566523075103760e-01,-2.016621679067611694e-01,-1.116154491901397705e-01,-2.770748734474182129e-02,-1.344880368560552597e-02,-4.960000514984130859e-02,-6.216824427247047424e-02,4.261876270174980164e-02,7.512068748474121094e-02,1.001829281449317932e-01,9.015630930662155151e-02,1.310244500637054443e-01,1.273531317710876465e-01,1.463109552860260010e-01,6.773146241903305054e-02,1.089895293116569519e-01,1.157737374305725098e-01,-6.010541226714849472e-03,3.395093604922294617e-02,-1.113611236214637756e-01,-1.619084477424621582e-01,-1.766093671321868896e-01,-1.669700741767883301e-01,-1.829429417848587036e-01,-1.730889976024627686e-01,-1.184889450669288635e-01,-1.627510339021682739e-01,-1.575666218996047974e-01,-4.314637556672096252e-02,-5.280395038425922394e-03,-4.851751774549484253e-02,-1.611029207706451416e-01,-1.385117620229721069e-01,2.168714255094528198e-02,5.851759109646081924e-03,1.258922815322875977e-01,3.508666704874485731e-04,7.535878568887710571e-02,1.625888943672180176e-01,2.806575782597064972e-02,1.582254022359848022e-01,1.425906270742416382e-01,1.906486004590988159e-01,9.689519554376602173e-02,3.849270567297935486e-02,1.057641506195068359e-01,7.644937932491302490e-02,-2.806360600516200066e-03,8.719530701637268066e-02,-1.772600561380386353e-01,-1.838803887367248535e-01,-1.382930725812911987e-01,-1.904711872339248657e-01,-1.349879354238510132e-01,8.818536251783370972e-02,4.171606898307800293e-02,-7.649802416563034058e-02,-3.837426379323005676e-02,-5.849640816450119019e-02,-1.341797411441802979e-02,5.570340156555175781e-02,5.598815623670816422e-03,-5.968555808067321777e-03,-3.011147305369377136e-02,5.397095903754234314e-02,7.916778326034545898e-02,-6.850755214691162109e-02,1.008767634630203247e-02,-4.046499729156494141e-02,-2.514074556529521942e-02,5.883134901523590088e-02,1.779571175575256348e-04,4.925839602947235107e-02,-1.458938326686620712e-02,-6.833855062723159790e-02,7.364116609096527100e-03,-3.584247455000877380e-02,3.244179859757423401e-02,-7.806851994246244431e-03,2.276260778307914734e-02,-2.403938211500644684e-02,9.775702841579914093e-03,-4.111911728978157043e-02,-9.013457596302032471e-02,-6.647633016109466553e-02,-1.208641938865184784e-02,-1.192954182624816895e-02,-6.557869911193847656e-02,3.246346488595008850e-02,-2.971165440976619720e-02,-3.931921347975730896e-02,-8.805569261312484741e-02,5.976840853691101074e-02,2.920345030725002289e-02,-7.341768126934766769e-03,-5.978613346815109253e-02,-8.330617845058441162e-02,-5.401401594281196594e-02,2.779210917651653290e-02,6.096787005662918091e-02,-3.782332316040992737e-02,1.115091051906347275e-02,-8.895561099052429199e-02,-8.730991184711456299e-02,-9.106906503438949585e-02,4.616990312933921814e-02,5.099139735102653503e-02,-6.286299973726272583e-02,5.760347470641136169e-02,-4.536920785903930664e-02,-4.694386199116706848e-02,8.777300268411636353e-02,-9.682624600827693939e-03,3.933525644242763519e-03,-1.749656908214092255e-02,-9.139357134699821472e-03,-3.849311545491218567e-02,1.441423781216144562e-02,5.469580367207527161e-02,6.004244461655616760e-02,-6.490413844585418701e-02,-5.630007386207580566e-02,-7.401697337627410889e-03,3.997667878866195679e-02,1.245154067873954773e-02,2.727563120424747467e-02,-1.759509742259979248e-02,1.690308563411235809e-02,-2.337947860360145569e-02,6.944628804922103882e-02,-8.904115296900272369e-03,2.555357106029987335e-02,3.239836916327476501e-02,3.400531038641929626e-02,-5.816955864429473877e-02,-6.197089795023202896e-03,-2.177665196359157562e-02,-7.847049832344055176e-02,-4.257051646709442139e-02,3.851457312703132629e-02,1.934969797730445862e-03,5.416660755872726440e-02,-1.294306665658950806e-02,-3.303650021553039551e-02,-8.043685555458068848e-02,-3.556851670145988464e-02,4.018942359834909439e-03,1.939736865460872650e-02,-9.032457321882247925e-02,-6.394553929567337036e-02,-4.258341621607542038e-03,-3.176790848374366760e-02,3.782287612557411194e-02,-2.199800312519073486e-02,-2.468397468328475952e-02,-6.618628650903701782e-02,-2.422521635890007019e-02,3.553486987948417664e-02,-2.363380603492259979e-02,-5.406630039215087891e-02,3.397008776664733887e-02,-6.388502568006515503e-02,-1.347708888351917267e-02,3.373375162482261658e-02,-8.802632987499237061e-02,-6.240509822964668274e-02,3.375193476676940918e-02,-7.572798430919647217e-02,-4.783689230680465698e-02,3.408360108733177185e-02,1.548770070075988770e-02,-5.429873988032341003e-02,-2.531290799379348755e-02,1.544346939772367477e-02,3.613737225532531738e-02,-6.868033856153488159e-02,-7.432316243648529053e-02,-1.580622419714927673e-02,4.446855932474136353e-02,-5.233673378825187683e-02,2.801016345620155334e-02,2.308916067704558372e-03,3.318289667367935181e-02,2.628801763057708740e-02,1.275979820638895035e-02,4.449753463268280029e-02,4.431964363902807236e-03,-3.429274633526802063e-02,1.979603990912437439e-02,1.294283848255872726e-02,-1.614657789468765259e-02,-3.986760228872299194e-02,7.791190873831510544e-03,-8.525145798921585083e-02,-6.125127151608467102e-02,-7.349278777837753296e-02,3.700844198465347290e-02,3.829890489578247070e-02,-3.257499635219573975e-02,-6.749179214239120483e-02,-1.198615692555904388e-02,-6.876462697982788086e-02,-1.937630027532577515e-02,-4.477773606777191162e-02,-3.402126580476760864e-02,-4.736001044511795044e-02,-4.188009351491928101e-02,-1.384951472282409668e-01,-6.144980713725090027e-02,-1.382801830768585205e-01,-1.926807761192321777e-01,1.622131839394569397e-02,-3.253927826881408691e-02,-9.585206396877765656e-03,-9.782828390598297119e-02,-1.335573494434356689e-01,8.901632577180862427e-02,1.437490880489349365e-01,-1.286400482058525085e-02,-2.348453402519226074e-01,-9.307718276977539062e-02,-7.285851240158081055e-02,1.257071495056152344e-01,-2.005969546735286713e-02,-1.537280678749084473e-01,-1.742079555988311768e-01,-6.411283463239669800e-02,7.061631232500076294e-02,4.512753710150718689e-02,6.096111238002777100e-02,4.903359711170196533e-02,4.015008732676506042e-02,1.124989613890647888e-01,9.687309712171554565e-02,-6.848401576280593872e-02,9.492602199316024780e-02,9.415418654680252075e-02,2.072423323988914490e-02,8.154437690973281860e-02,1.846187189221382141e-02,6.543780118227005005e-02,1.550948768854141235e-01,6.242964416742324829e-02,-9.572756290435791016e-02,-8.595879375934600830e-02,9.603200107812881470e-02,3.182788193225860596e-02,1.160600632429122925e-01,8.532144129276275635e-03,-1.673706620931625366e-01,4.765929281711578369e-02,7.720053195953369141e-02,8.457130938768386841e-02,-5.601172894239425659e-02,4.043376445770263672e-02,-7.357034832239151001e-02,1.059467555023729801e-03,1.031047329306602478e-01,9.785893559455871582e-02,-4.157711192965507507e-02,-5.302484706044197083e-02,1.523848026990890503e-01,6.164980679750442505e-02,1.475858837366104126e-01,-1.143022701144218445e-01,-7.255492359399795532e-02,2.444806545972824097e-01,1.683577597141265869e-01,5.005534365773200989e-02,-9.995105862617492676e-02,4.456226248294115067e-03,1.622612029314041138e-01,1.216481104493141174e-01,3.143815696239471436e-02,-1.239957064390182495e-01,-5.966004449874162674e-03,1.183012127876281738e-01,2.116616070270538330e-01,1.210887134075164795e-01,-3.273363038897514343e-02,-1.019688844680786133e-01,1.284632682800292969e-01,1.212316974997520447e-01,4.191487282514572144e-02,-2.873938716948032379e-02,2.840004116296768188e-02,1.913009434938430786e-01,5.979103967547416687e-02,6.405638158321380615e-02,-5.280420556664466858e-02,8.343213051557540894e-02,1.619120389223098755e-01,2.269292324781417847e-01,6.058312952518463135e-02,-1.529360562562942505e-01,3.005096688866615295e-02,1.000043526291847229e-01,2.017198801040649414e-01,1.429487466812133789e-01,-1.761586964130401611e-01,-4.130886867642402649e-02,1.619906872510910034e-01,8.759804815053939819e-02,9.270920604467391968e-02,-5.663667805492877960e-03,9.770792722702026367e-02,9.101898968219757080e-02,-7.907059788703918457e-02,-8.747741580009460449e-02,9.431498497724533081e-02,9.876065701246261597e-02,-6.082278117537498474e-02,-9.270368516445159912e-02,-1.422628164291381836e-01,4.378160834312438965e-02,8.648467063903808594e-02,-2.380252815783023834e-02,-8.062759041786193848e-02,-7.117089629173278809e-02,-6.049574352800846100e-03,1.936385594308376312e-02,-1.786734908819198608e-02,-6.535790394991636276e-03,-1.277744174003601074e-01,-1.385647105053067207e-03,-8.059244602918624878e-02,-1.210261285305023193e-01,-6.033063307404518127e-02,-3.953098878264427185e-02,1.246807426214218140e-01,9.419897943735122681e-02,5.034227296710014343e-02,9.493734687566757202e-03,-9.193430742016062140e-06,5.056747421622276306e-02,8.595392853021621704e-02,5.086978524923324585e-02,-4.526965692639350891e-02,-3.065194189548492432e-02,-5.341975390911102295e-02,4.701664671301841736e-02,-4.296259582042694092e-02,-4.043150320649147034e-02,-1.518977433443069458e-01,-6.396824121475219727e-02,-4.258548468351364136e-02,6.781513988971710205e-02,-9.443835914134979248e-02,-1.138384640216827393e-01,-1.082845032215118408e-01,2.340057119727134705e-02,3.573530586436390877e-03,-9.454058110713958740e-02,-1.064786463975906372e-01,2.333752810955047607e-01,1.645503044128417969e-01,8.493614196777343750e-02,-1.541212499141693115e-01,-2.071942239999771118e-01,2.660311460494995117e-01,3.222569823265075684e-01,1.933711618185043335e-01,5.873813852667808533e-02,-7.479233294725418091e-02,1.024521365761756897e-01,1.821054965257644653e-01,1.480603069067001343e-01,1.761486381292343140e-01,6.717336177825927734e-02,-8.324569463729858398e-02,4.128501191735267639e-02,-5.367075279355049133e-02,9.984118491411209106e-02,1.432939469814300537e-01,7.651931792497634888e-02,-5.970744043588638306e-02,-2.115181237459182739e-01,-6.467945128679275513e-02,4.161826521158218384e-02,7.292464375495910645e-02,-5.667488090693950653e-03,-6.100300326943397522e-02,-6.240076944231987000e-02,-1.138911917805671692e-01,1.169552132487297058e-01,-6.485994439572095871e-03,1.104312613606452942e-01,-7.191903889179229736e-02,-2.399435639381408691e-01,4.071507975459098816e-02,9.653159976005554199e-02,9.554202854633331299e-02,-1.160477008670568466e-02,-1.099589318037033081e-01,5.568188801407814026e-02,1.009182631969451904e-02,9.596282988786697388e-02,7.047894597053527832e-02,-2.459193766117095947e-02,-9.979321062564849854e-02,-8.042009919881820679e-02,3.299106145277619362e-03,8.124626427888870239e-02,3.846258670091629028e-02,-5.730335786938667297e-02,6.586796790361404419e-02,-1.243973895907402039e-01,-1.492861807346343994e-01,-7.540962100028991699e-02,-1.644382178783416748e-01,6.710378080606460571e-02,1.307224482297897339e-02,2.510686405003070831e-02,-4.496166110038757324e-02,-2.283759713172912598e-01,-1.285782009363174438e-01,-9.213216602802276611e-02,1.109814420342445374e-01,-4.962357133626937866e-02,-1.973913609981536865e-01,-9.617578238248825073e-02,-2.255803160369396210e-02,7.874505221843719482e-02,9.444972127676010132e-02,-1.517604291439056396e-01,-1.298693865537643433e-01,-6.286574155092239380e-02,1.111212447285652161e-01,8.171085268259048462e-02,-5.729870870709419250e-03,1.303781419992446899e-01,-4.020865261554718018e-02,-2.936745295301079750e-03,-1.684412658214569092e-01,-1.113767623901367188e-01,-1.039183214306831360e-01,1.412394456565380096e-02,3.693035617470741272e-02,-3.261130303144454956e-03,-9.766277670860290527e-02,-1.577994972467422485e-01,-3.622467163950204849e-03,-2.995174005627632141e-02,5.001165345311164856e-02,-1.326630413532257080e-01,-7.408727705478668213e-02,1.501930598169565201e-02,4.656869545578956604e-02,5.582711100578308105e-02,-1.096283048391342163e-01,-1.272165775299072266e-01,-6.146892905235290527e-02,1.344803869724273682e-01,6.343339383602142334e-02,-3.682231763377785683e-03,-1.715900935232639313e-02,-1.340355873107910156e-01,-2.167346924543380737e-01,-1.998859047889709473e-01,1.682215332984924316e-01,8.490508049726486206e-02,3.637611493468284607e-02,8.130812644958496094e-02,-9.248328208923339844e-02,1.427010595798492432e-01,1.567862331867218018e-01,7.283183187246322632e-02,1.714736036956310272e-02,-1.117760501801967621e-02,-6.609120219945907593e-02,-1.133022457361221313e-01,-1.275557130575180054e-01,-3.631188720464706421e-02,2.658924460411071777e-02,-3.345806896686553955e-02,-3.091222234070301056e-02,-7.698835432529449463e-02,-4.003660380840301514e-02,3.297015279531478882e-02,1.498419418931007385e-02,3.031440265476703644e-02,-1.442829966545104980e-01,-1.647148281335830688e-01,-8.423011004924774170e-02,1.510375440120697021e-01,1.539402902126312256e-01,1.062308251857757568e-01,-1.459641456604003906e-01,-2.157012224197387695e-01,1.773831993341445923e-01,1.868536025285720825e-01,1.821549534797668457e-01,1.065127700567245483e-01,3.529349714517593384e-02,1.501636803150177002e-01,6.185889616608619690e-02,2.952293865382671356e-02,8.700814098119735718e-02,8.057528734207153320e-02,-9.299163520336151123e-02,-1.104652583599090576e-01,1.233505737036466599e-02,-5.216785892844200134e-02,-8.697196096181869507e-02,1.157551631331443787e-01,5.705412477254867554e-02,1.399473100900650024e-01,7.117151468992233276e-02,1.136055961251258850e-01,3.921657335013151169e-03,6.945274304598569870e-03,4.032547771930694580e-02,-8.261954784393310547e-02,8.081398904323577881e-02,6.511264364235103130e-04,-1.260534226894378662e-01,-1.181886047124862671e-01,-2.646819502115249634e-02,-9.187104552984237671e-02,1.312629133462905884e-02,-5.283826962113380432e-02,-1.080248430371284485e-01,-1.284602135419845581e-01,-7.365389913320541382e-02,1.598383188247680664e-01,9.283133782446384430e-03,-2.754825912415981293e-02,-4.592123627662658691e-02,-1.446627825498580933e-01,-6.053660064935684204e-02,2.253593178465962410e-03,2.401260135229676962e-04,5.123434588313102722e-02,4.383649304509162903e-02,6.546221673488616943e-02,1.010116040706634521e-01,4.722454026341438293e-02,4.213563632220029831e-03,7.978726923465728760e-02,1.555323302745819092e-01,8.870859444141387939e-02,2.785328403115272522e-02,-1.340509951114654541e-02,1.079629212617874146e-01,1.124822422862052917e-01,1.106442324817180634e-02,-6.030107662081718445e-02,-8.471366018056869507e-02,5.820002406835556030e-02,-1.045009791851043701e-01,-9.467515349388122559e-02,-8.555161207914352417e-02,-1.135118678212165833e-01,-1.786646805703639984e-02,-9.785551577806472778e-02,4.403472319245338440e-02,-1.238199882209300995e-02,-9.803184308111667633e-03,2.522940002381801605e-02,2.981540001928806305e-02,-2.556604519486427307e-02,-2.263591252267360687e-02,2.485491149127483368e-02,-4.120664671063423157e-03,-5.490450188517570496e-02,7.052537985146045685e-03,-1.165279895067214966e-01,-1.712622120976448059e-02,-4.391613975167274475e-02,-2.405111864209175110e-02,-7.867640256881713867e-02,-9.018984436988830566e-02,-6.393438577651977539e-02,3.028821386396884918e-02,-6.072333082556724548e-02,-1.122697964310646057e-01,-1.978320330381393433e-01,-3.612304851412773132e-02,1.015129014849662781e-01,-2.058872580528259277e-02,6.172633543610572815e-02,-5.689680576324462891e-02,-5.237744748592376709e-02,-4.267879948019981384e-02,-7.411362975835800171e-02,3.002295037731528282e-03,5.510992556810379028e-02,-1.938058435916900635e-02,1.342077925801277161e-02,-2.858245931565761566e-02,-3.357237204909324646e-02,-1.103521287441253662e-01,-3.667738288640975952e-02,-1.274111494421958923e-02,-1.440988034009933472e-01,-3.428398072719573975e-02,-7.731346040964126587e-02,-1.642738878726959229e-01,-6.939845532178878784e-02,-1.030218079686164856e-01,-4.014235734939575195e-02,-3.470597416162490845e-02,-1.162523031234741211e-02,1.136014237999916077e-01,1.204569265246391296e-01,5.759448930621147156e-02,1.217467486858367920e-01,1.323069334030151367e-01,8.970136754214763641e-03,1.359431147575378418e-01,1.317966580390930176e-01,6.693004071712493896e-02,5.796523392200469971e-02,-1.449753809720277786e-02,-6.510753184556961060e-02,-3.220791229978203773e-03,-8.921175450086593628e-02,-1.154293864965438843e-01,4.052675887942314148e-02,-7.217208296060562134e-02,-1.790643632411956787e-01,-1.587609350681304932e-01,-7.369205355644226074e-02,-8.010657131671905518e-02,1.015190407633781433e-02,-2.435088530182838440e-02,9.934898465871810913e-02,-5.150859057903289795e-02,-5.533837154507637024e-02,-1.327032893896102905e-01,-7.282271236181259155e-02,-4.767248407006263733e-02,-2.287104493007063866e-03,-6.635306868702173233e-03,7.143522053956985474e-02,6.620996445417404175e-02,8.036301285028457642e-02,9.630688279867172241e-02,1.568918079137802124e-01,1.627227514982223511e-01,1.209266111254692078e-01,1.252686530351638794e-01,5.635244771838188171e-02,9.756527841091156006e-03,-3.871778957545757294e-03,6.568174809217453003e-02,-8.627263456583023071e-02,-9.627073258161544800e-02,-2.114383317530155182e-02,-6.654287874698638916e-02,-1.617084592580795288e-01,-2.252482622861862183e-01,-5.497534573078155518e-02,-7.364384084939956665e-02,-3.323219344019889832e-02,-1.308471113443374634e-01,-1.353390812873840332e-01,4.559300467371940613e-02,-1.141904667019844055e-02,5.709165241569280624e-03,-3.860665950924158096e-03,9.811028838157653809e-02,1.015149056911468506e-01,2.239806652069091797e-01,1.404302269220352173e-01,5.951173603534698486e-02,6.020263582468032837e-02,-2.629998326301574707e-02,2.592673152685165405e-02,1.364398598670959473e-01,5.068575963377952576e-02,-1.736949011683464050e-02,-6.380492355674505234e-03,-4.632304608821868896e-02,5.221315845847129822e-02,1.091684326529502869e-01,7.412826176732778549e-03,5.516985803842544556e-02,9.748779237270355225e-02,1.652040146291255951e-02,2.817226573824882507e-02,5.185559857636690140e-03,9.128596633672714233e-03,-3.447608277201652527e-02,8.448607474565505981e-02,-6.387852877378463745e-02,-2.981653623282909393e-02,6.184468790888786316e-02,5.725257098674774170e-02,8.434655144810676575e-03,4.124218598008155823e-02,8.559984713792800903e-02,-2.954905107617378235e-02,4.899247363209724426e-02,8.153256028890609741e-02,8.134935051202774048e-02,1.143857464194297791e-01,1.193988770246505737e-01,1.539333909749984741e-02,9.060153365135192871e-02,5.511727929115295410e-02,7.614556699991226196e-02,-6.603879481554031372e-02,-7.930745184421539307e-02,1.372559927403926849e-02,-1.406290009617805481e-02,5.926866456866264343e-02,-5.853122100234031677e-02,-2.689000777900218964e-02,3.631943091750144958e-02,4.101559147238731384e-02,-9.766753017902374268e-02,-1.113862544298171997e-01,-1.279718894511461258e-02,-2.381001785397529602e-02,5.054480396211147308e-03,-1.118655875325202942e-02,-6.381209194660186768e-02,-1.067431941628456116e-01,-7.693795859813690186e-02,-1.110821813344955444e-01,-1.677509211003780365e-02,-1.344829946756362915e-01,-7.013592869043350220e-02,-8.682531863451004028e-02,-5.752645060420036316e-02,-2.848915010690689087e-02,-1.493604928255081177e-01,-1.888796500861644745e-02,-2.834102883934974670e-02,-4.644742235541343689e-03,-2.976048178970813751e-02,-7.476983964443206787e-02,-1.676994003355503082e-02,-1.030406355857849121e-02,4.647626355290412903e-02,-1.188286244869232178e-01,1.293142605572938919e-02,-9.021876752376556396e-02,-3.483218327164649963e-02,-9.777762740850448608e-02,-2.448199549689888954e-03,2.219362556934356689e-02,-4.477086663246154785e-02,-6.132006645202636719e-02,-1.016701087355613708e-01,-5.577290058135986328e-02,-3.774158656597137451e-02,-2.636675350368022919e-02,-6.758517026901245117e-02,-1.746933758258819580e-01,-1.442426741123199463e-01,-3.108840622007846832e-02,-5.489324033260345459e-02,8.640844374895095825e-02,-4.029156267642974854e-02,5.080709606409072876e-02,-5.032263696193695068e-02,-2.521470189094543457e-02,-1.381880231201648712e-02,-8.462365716695785522e-02,-2.444782853126525879e-02,9.449038654565811157e-02,1.132479384541511536e-01,3.411949798464775085e-02,-2.927268855273723602e-02,2.255247533321380615e-02,-2.066633850336074829e-02,-9.341721422970294952e-03,1.033772006630897522e-01,-5.374198034405708313e-02,-9.150507301092147827e-02,-1.523986905813217163e-01,-1.145798712968826294e-01,-1.742226183414459229e-01,-1.452857851982116699e-01,-5.992101505398750305e-02,3.294144943356513977e-02,4.202515631914138794e-02,9.897558391094207764e-02,1.102231964468955994e-01,1.291536688804626465e-01,9.118206799030303955e-02,7.312112301588058472e-02,2.127385325729846954e-02,-2.917353808879852295e-02,1.637573353946208954e-02,-5.939939618110656738e-02,-5.556118208914995193e-03,-1.382479071617126465e-02,4.507966712117195129e-02,-3.074518218636512756e-02,1.164557337760925293e-01,1.635637581348419189e-01,7.671616226434707642e-02,1.126658320426940918e-01,1.178844496607780457e-01,5.418304353952407837e-02,1.505241394042968750e-01,5.491315200924873352e-02,9.757340699434280396e-02,9.057564288377761841e-02,-4.146653041243553162e-02,-1.913629323244094849e-01,-3.113999776542186737e-02,6.083213537931442261e-02,4.435552284121513367e-02,-7.190340757369995117e-02,-5.300338938832283020e-02,-3.110549971461296082e-02,-1.834217905998229980e-01,-7.622412592172622681e-02,-6.200805306434631348e-02,-1.755202710628509521e-01,6.892573833465576172e-02,8.976875990629196167e-02,1.315495967864990234e-01,-1.293339878320693970e-01,-2.110242247581481934e-01,1.060590893030166626e-01,1.763262599706649780e-01,-7.856324315071105957e-02,-9.708928316831588745e-02,-1.274747550487518311e-01,-2.799377590417861938e-02,-1.136670820415019989e-02,3.570127114653587341e-02,-8.944232016801834106e-02,-9.329311549663543701e-02,1.035913154482841492e-01,1.033213809132575989e-01,1.841473579406738281e-01,1.008116304874420166e-01,-5.792823620140552521e-03,-2.597802318632602692e-02,7.172202225774526596e-03,-2.272662706673145294e-02,-2.505368553102016449e-03,8.829811960458755493e-02,-6.165178120136260986e-02,-5.071940645575523376e-02,-1.629254668951034546e-01,-1.685086190700531006e-01,2.977851405739784241e-02,6.675520539283752441e-02,-3.145328536629676819e-02,-1.238562539219856262e-01,-2.498323470354080200e-02,1.231501325964927673e-01,4.986391961574554443e-02,1.632215529680252075e-01,1.486523151397705078e-01,5.631920415908098221e-03,1.864032261073589325e-02,-1.486802399158477783e-01,-1.020352318882942200e-01,-9.185183048248291016e-02,-5.828225985169410706e-02,-6.275847554206848145e-02,-8.513827621936798096e-02,-2.085160762071609497e-01,-1.814040243625640869e-01,-1.134951189160346985e-01,4.085254669189453125e-02,-5.599407851696014404e-02,-1.181991845369338989e-01,-2.579247355461120605e-01,-1.150194928050041199e-01,-1.211051736027002335e-02,-5.335272848606109619e-02,2.949348464608192444e-02,-1.495839208364486694e-01,-1.293022632598876953e-01,-1.849421416409313679e-03,2.072939090430736542e-02,8.315903693437576294e-02,8.320850133895874023e-02,1.394351422786712646e-01,2.690776064991950989e-02,-1.172175481915473938e-01,-7.600362598896026611e-02,-7.977565377950668335e-02,-1.194508522748947144e-01,1.060796994715929031e-02,-2.609550766646862030e-02,-7.436100393533706665e-02,-5.703305825591087341e-02,-1.456932127475738525e-01,6.782756000757217407e-02,-6.630206946283578873e-03,-1.064686253666877747e-01,-9.080399572849273682e-02,-9.990451484918594360e-02,4.454502370208501816e-03,-4.488618299365043640e-02,6.640107184648513794e-02,3.163882717490196228e-02,-2.332076244056224823e-02,1.351119577884674072e-01,1.122421026229858398e-01,5.099731031805276871e-03,1.153724193572998047e-01,2.751075197011232376e-03,1.014547049999237061e-02,-2.487196959555149078e-02,3.621255233883857727e-02,1.262459252029657364e-02,2.996224351227283478e-02,-8.968464285135269165e-02,-1.784714870154857635e-02,-1.768094301223754883e-01,-2.212211340665817261e-01,-3.976742550730705261e-02,1.440632343292236328e-02,-6.069694086909294128e-02,4.730958491563796997e-03,7.133544981479644775e-02,1.470392793416976929e-01,1.044489517807960510e-01,9.233619272708892822e-02,1.061421483755111694e-01,2.683093771338462830e-02,1.469458192586898804e-01,-4.594782739877700806e-02,1.608590930700302124e-01,1.218275278806686401e-01,1.018456444144248962e-01,-1.303053088486194611e-02,-5.951864644885063171e-02,4.340151697397232056e-02,1.975205838680267334e-01,1.232085824012756348e-01,1.432771533727645874e-01,4.839747212827205658e-03,1.885060779750347137e-02,8.605542033910751343e-02,3.844243660569190979e-02,-5.172655731439590454e-02,-3.938910737633705139e-02,-6.944499164819717407e-02,-5.123367160558700562e-02,-1.727231442928314209e-01,-1.330456286668777466e-01,-1.341644376516342163e-01,1.373414546251296997e-01,-5.916888266801834106e-02,-1.109232157468795776e-01,-7.009681314229965210e-02,1.014246046543121338e-01,9.468938410282135010e-02,1.885996162891387939e-01,-1.099642086774110794e-02,7.103861309587955475e-03,-3.532327711582183838e-02,-1.883752830326557159e-02,2.666567219421267509e-03,7.979992777109146118e-03,-5.042815208435058594e-02,2.131245099008083344e-02,-1.011241972446441650e-01,2.424346841871738434e-02,4.514940455555915833e-02,5.870886519551277161e-02,-1.063937470316886902e-01,-2.732429839670658112e-02,2.248875796794891357e-02,1.001720428466796875e-01,1.215281561017036438e-01,1.247351337224245071e-02,-3.847696119919419289e-03,2.338595874607563019e-02,1.848287135362625122e-02,5.757890269160270691e-02,-7.216716557741165161e-02,-4.738242551684379578e-02,1.171334758400917053e-01,4.894425347447395325e-02,3.217123821377754211e-02,-6.080994009971618652e-02,2.252127602696418762e-02,4.237040132284164429e-02,-8.102695643901824951e-02,-1.400785893201828003e-01,-1.229561790823936462e-01,3.110863827168941498e-02,1.116072908043861389e-01,-8.017541468143463135e-02,-1.111828535795211792e-01,-9.331783652305603027e-02,-1.322868745774030685e-02,1.168968155980110168e-02,-7.741318643093109131e-02,-1.270486414432525635e-01,-7.758994400501251221e-02,8.347439020872116089e-02,1.047123819589614868e-01,1.017107293009757996e-01,3.268474712967872620e-02,2.628771215677261353e-02,1.136981770396232605e-01,2.899444662034511566e-02,9.261672943830490112e-02,4.718406498432159424e-02,1.065944209694862366e-01,6.698794662952423096e-02,1.545866578817367554e-02,-1.680706627666950226e-02,7.773119211196899414e-02,-3.526040166616439819e-02,-4.211602360010147095e-02,1.767331808805465698e-01,1.196129918098449707e-01,3.343690559267997742e-02,-5.100747197866439819e-02,-5.243444349616765976e-03,6.040960177779197693e-02,7.060343772172927856e-02,3.010571748018264771e-02,-4.718906432390213013e-02,7.452264428138732910e-02,1.306316703557968140e-01,-8.356630802154541016e-02,-9.269162267446517944e-02,6.377344578504562378e-02,5.059382319450378418e-02,3.069370053708553314e-03,3.903596103191375732e-02,-6.844633817672729492e-02,3.850116208195686340e-02,-1.287000626325607300e-02,1.408134698867797852e-01,8.270768821239471436e-02,7.863739877939224243e-02,1.272780075669288635e-02,1.333639770746231079e-01,9.598436951637268066e-02,1.120893582701683044e-01,3.387944400310516357e-02,5.606981739401817322e-02,2.824132330715656281e-03,-2.507649594917893410e-03,5.763491615653038025e-02,-9.873719885945320129e-03,-4.494762420654296875e-02,1.806879229843616486e-02,6.828234344720840454e-02,-1.775841787457466125e-02,5.150298029184341431e-02,-7.657237350940704346e-02,1.200468465685844421e-01,8.895844221115112305e-02,2.738003619015216827e-02,7.728656381368637085e-02,4.430044069886207581e-02,1.366605460643768311e-01,2.134464308619499207e-02,-6.846117973327636719e-02,1.993214897811412811e-02,4.167354479432106018e-02,6.854674220085144043e-02,7.065334916114807129e-02,5.440931767225265503e-02,1.076296065002679825e-02,-9.630480408668518066e-02,-5.614071339368820190e-02,8.857389539480209351e-02,7.218205370008945465e-03,8.128587156534194946e-02,4.391042515635490417e-02,3.900325298309326172e-02,8.191414922475814819e-02,9.048344939947128296e-02,1.050850972533226013e-01,9.489646553993225098e-02,7.813291996717453003e-02,1.537188328802585602e-02,8.179935812950134277e-02,-2.809113450348377228e-02,3.675508499145507812e-02,-1.206298694014549255e-01,-9.409115463495254517e-02,-1.467540562152862549e-01,-4.034075513482093811e-02,-4.979994520545005798e-02,9.081646567210555077e-04,-4.605850577354431152e-02,-5.059393122792243958e-02,-3.896957635879516602e-02,-1.484007835388183594e-01,-2.525556087493896484e-02,2.195520140230655670e-02,-8.620034158229827881e-02,-1.100858300924301147e-01,-2.867896109819412231e-02,1.734074391424655914e-02,3.971960395574569702e-02,1.164182424545288086e-01,6.554011721163988113e-03,8.702041581273078918e-03,1.091831102967262268e-01,1.257265359163284302e-01,-1.707036717562004924e-04,5.419909954071044922e-02,6.106047332286834717e-02,3.184635424986481667e-03,-8.709137141704559326e-02,-1.246034502983093262e-01,7.989569753408432007e-02,-3.455207915976643562e-03,-4.249115660786628723e-02,-1.748613268136978149e-01,-2.306170165538787842e-01,-5.900725722312927246e-03,2.686187624931335449e-02,-8.292928338050842285e-02,-2.073815315961837769e-01,-1.211927309632301331e-01,-6.287905573844909668e-02,1.343588531017303467e-02,8.226579520851373672e-04,-2.227513641119003296e-01,-1.999656707048416138e-01,5.458286497741937637e-03,2.662754245102405548e-02,-1.360787600278854370e-01,-1.830472648143768311e-01,-1.113386377692222595e-01,1.309397444128990173e-02,1.191803906112909317e-02,1.963145332410931587e-03,-9.724764525890350342e-02,5.485318973660469055e-02,8.582428097724914551e-03,6.632474064826965332e-02,-8.837611973285675049e-02,-1.150720641016960144e-01,7.345085591077804565e-02,7.790054380893707275e-02,4.316992312669754028e-02,-1.899527013301849365e-01,-2.466244623064994812e-02,3.544163703918457031e-02,5.944846943020820618e-02,1.073710322380065918e-01,-6.981167197227478027e-02,3.529455047100782394e-03,7.823453843593597412e-02,8.189330250024795532e-02,4.817149788141250610e-02,4.870056733489036560e-02,1.047719940543174744e-01,1.155193522572517395e-01,7.022070884704589844e-02,-2.256312221288681030e-02,-2.613895758986473083e-02,-1.112153008580207825e-01,-9.142691642045974731e-02,1.583136059343814850e-02,1.379657536745071411e-01,-5.315089970827102661e-02,-4.775929450988769531e-02,2.942042239010334015e-02,1.948994547128677368e-01,8.585763722658157349e-02,-1.196698248386383057e-01,-1.314553320407867432e-01,1.022129226475954056e-02,1.709100008010864258e-01,5.625309422612190247e-02,-8.017869293689727783e-02,-3.419976308941841125e-02,8.758565038442611694e-02,6.625086814165115356e-02,1.379413902759552002e-01,-1.375170052051544189e-01,5.449687596410512924e-03,1.035339534282684326e-01,4.985293373465538025e-02,2.312916144728660583e-02,2.464387379586696625e-02,-7.083511352539062500e-02,8.119831234216690063e-02,1.009180173277854919e-01,1.300788223743438721e-01,-8.881350047886371613e-03,-1.415204256772994995e-01,7.600121945142745972e-02,1.250407546758651733e-01,7.684075087308883667e-02,-3.503113240003585815e-02,-8.608320355415344238e-02,6.048326194286346436e-02,1.144660860300064087e-01,1.691351234912872314e-01,-1.742745637893676758e-01,-8.907522261142730713e-02,1.460873335599899292e-01,7.714059203863143921e-02,4.384823516011238098e-02,-5.398242548108100891e-02,2.934208884835243225e-02,5.380214005708694458e-02,4.123114794492721558e-02,9.154540300369262695e-02,-3.904314339160919189e-02,-4.434933140873908997e-02,4.875625949352979660e-03,7.167174667119979858e-02,-3.700802475214004517e-02,-4.534978792071342468e-02,3.559880331158638000e-02,8.512753061950206757e-03,1.053559780120849609e-01,2.987600490450859070e-02,-4.438766278326511383e-03,-5.330495070666074753e-03,9.338593482971191406e-02,6.514582200907170773e-04,-5.039133504033088684e-02,7.491259276866912842e-02,1.205791011452674866e-01,-9.133366867899894714e-03,-7.614617794752120972e-02,-1.184540335088968277e-03,1.386741846799850464e-01,6.481400877237319946e-02,-1.172514706850051880e-01,-9.636633843183517456e-02,-1.261065807193517685e-02,7.114221155643463135e-02,-4.075577855110168457e-02,-1.009069681167602539e-01,1.354386843740940094e-02,-3.976940363645553589e-02,-4.072225838899612427e-02,-1.307401806116104126e-01,-1.139312237501144409e-02,3.037660382688045502e-02,2.461665077134966850e-03,-9.042145311832427979e-02,-3.648520633578300476e-02,-4.888123366981744766e-03,-3.905830159783363342e-02,1.581583055667579174e-03,-1.013325154781341553e-01,5.235354229807853699e-02,1.457626558840274811e-02,3.212622180581092834e-02,-6.786286830902099609e-02,1.018476486206054688e-01,-3.309189155697822571e-02,5.305227264761924744e-02,5.710483714938163757e-02,-6.994874030351638794e-02,-3.851029649376869202e-02,-1.100598052144050598e-01,-1.563542634248733521e-01,-4.934399574995040894e-02,-5.636364221572875977e-02,6.502327509224414825e-03,-3.368551656603813171e-02,-1.543398797512054443e-01,-5.682549905031919479e-03,7.581036537885665894e-02,-8.296868205070495605e-02,-3.067369163036346436e-01,-8.196911960840225220e-02,4.963574931025505066e-02,1.635896265506744385e-01,-2.661653459072113037e-01,-1.932120323181152344e-01,-7.006616890430450439e-02,2.141992375254631042e-02,1.269416809082031250e-01,-2.193600386381149292e-01,3.461812064051628113e-02,3.151542320847511292e-02,5.916442722082138062e-03,2.161902748048305511e-02,-1.101399734616279602e-01,-6.902914494276046753e-02,-1.605607382953166962e-02,4.114638268947601318e-02,3.888050466775894165e-02,-1.586361080408096313e-01,-7.776881009340286255e-02,3.465324640274047852e-02,1.173067372292280197e-02,8.755105733871459961e-02,-1.566735357046127319e-01,2.936740964651107788e-02,9.894908405840396881e-03,1.307243406772613525e-01,4.102182760834693909e-02,3.232397139072418213e-03,2.834474667906761169e-02,7.800161093473434448e-02,1.099306568503379822e-01,5.095249507576227188e-03,8.328624814748764038e-02,8.096037060022354126e-02,1.344870626926422119e-01,-1.519842073321342468e-02,-5.883889645338058472e-02,-4.541762173175811768e-02,-7.997833937406539917e-02,-2.317478694021701813e-02,2.329284846782684326e-01,8.434391021728515625e-02,-1.516836732625961304e-01,-1.722396612167358398e-01,1.189107522368431091e-01,2.098397463560104370e-01,2.401288449764251709e-01,-1.996784806251525879e-01,-4.664146527647972107e-02,1.136686056852340698e-01,1.834849417209625244e-01,7.965992391109466553e-02,-1.111917644739151001e-01,1.361022591590881348e-01,1.237936243414878845e-01,2.042362093925476074e-01,-2.903867140412330627e-02,3.541243821382522583e-02,1.498114615678787231e-01,1.394331753253936768e-01,-3.679929301142692566e-02,-1.510432660579681396e-01,-3.301679156720638275e-03,-1.759064644575119019e-01,7.238874584436416626e-02,1.859181821346282959e-01,1.175133138895034790e-01,-1.250982433557510376e-01,-8.097256720066070557e-02,1.802659183740615845e-01,2.011626809835433960e-01,2.135368883609771729e-01,-1.899458169937133789e-01,-4.578640311956405640e-02,1.514964550733566284e-01,2.035516500473022461e-01,1.374334841966629028e-01,-2.295046113431453705e-02,1.871558278799057007e-01,1.374058872461318970e-01,2.107668109238147736e-02,-1.330938935279846191e-01,1.995798386633396149e-02,1.396747678518295288e-01,-8.858419023454189301e-04,-3.487455099821090698e-02,-4.213725775480270386e-02,-1.578035950660705566e-01,4.577748104929924011e-02,2.079534158110618591e-02,1.638036780059337616e-02,1.157323867082595825e-01,-1.020261868834495544e-01,1.145585924386978149e-01,4.852410778403282166e-02,-2.743361517786979675e-02,-1.138559952378273010e-01,1.395601127296686172e-02,1.116776242852210999e-01,3.265605121850967407e-02,-1.297421902418136597e-01,-1.075133308768272400e-01,1.230818629264831543e-01,7.395946234464645386e-02,-6.808882206678390503e-02,-1.130497977137565613e-01,-6.979203224182128906e-02,1.034950464963912964e-01,-8.085662871599197388e-02,-1.114723458886146545e-01,-4.436026886105537415e-02,-1.028974577784538269e-01,1.055839005857706070e-02,-1.442771703004837036e-01,-8.166541159152984619e-02,2.160507999360561371e-02,6.668786704540252686e-02,-4.317728162277489901e-04,-5.017100274562835693e-02,5.901952739804983139e-03,5.610603094100952148e-02,1.106146946549415588e-01,-7.334839552640914917e-02,-1.460056304931640625e-01,-1.371935568749904633e-02,-8.296671323478221893e-03,1.421958580613136292e-02,-9.425098448991775513e-02,2.998511865735054016e-02,1.118932291865348816e-01,5.708690732717514038e-02,-6.985322386026382446e-02,8.899500221014022827e-02,8.467131108045578003e-02,-1.003348035737872124e-03,-4.061341658234596252e-02,-4.347366839647293091e-02,-3.313238918781280518e-02,-6.941340118646621704e-02,-4.275010153651237488e-02,-4.212317243218421936e-02,5.594982951879501343e-02,-1.239110603928565979e-01,-1.716626137495040894e-01,-1.718636043369770050e-02,-9.012994356453418732e-03,1.824293881654739380e-01,-1.059919893741607666e-01,-5.173560231924057007e-02,-7.826036214828491211e-02,6.218190863728523254e-02,1.160588189959526062e-01,-1.805670708417892456e-01,-1.084075123071670532e-01,-2.057544887065887451e-02,-6.571315228939056396e-02,-3.384754061698913574e-02,-8.260028064250946045e-02,-1.308873742818832397e-01,-1.135412231087684631e-02,5.812552571296691895e-02,-2.376583032310009003e-02,-2.781353518366813660e-02,-7.882684469223022461e-03,1.444498263299465179e-02,-1.676324941217899323e-02,8.319310843944549561e-02,8.389887958765029907e-02,9.627833962440490723e-02,6.977852433919906616e-02,-3.462985903024673462e-02,-3.540119528770446777e-02,-3.175178915262222290e-02,2.979768253862857819e-02,1.005653738975524902e-01,9.958340227603912354e-02,1.220981329679489136e-01,4.473620280623435974e-02,-7.327497750520706177e-02,-5.573240295052528381e-02,-3.239706158638000488e-02,6.510619074106216431e-02,3.046372532844543457e-02,-4.736369848251342773e-02,-3.536042571067810059e-02,-7.744520157575607300e-02,-7.491898536682128906e-02,-1.200977265834808350e-01,4.966897424310445786e-03,-5.757350847125053406e-02,6.556680891662836075e-03,3.107264451682567596e-02,-1.334864348173141479e-01,-1.111624091863632202e-01,4.332244768738746643e-02,1.305241137742996216e-01,1.541833300143480301e-02,-1.004128307104110718e-01,-6.709080189466476440e-02,7.883872091770172119e-02,1.112290620803833008e-01,6.109727546572685242e-02,-1.931898146867752075e-01,1.288952399045228958e-02,6.424582749605178833e-02,-9.107825905084609985e-02,-4.412933718413114548e-03,2.568365260958671570e-02,-7.451383862644433975e-03,2.596243843436241150e-02,-1.187651753425598145e-01,-2.775240922346711159e-03,-4.015777632594108582e-02,-7.749102264642715454e-02,5.593154579401016235e-02,-2.742940373718738556e-02,-1.812491682358086109e-04,-1.030649319291114807e-01,-2.115117153152823448e-03,-3.545774519443511963e-02,-1.133976038545370102e-03,4.014162719249725342e-02,-6.887219101190567017e-02,6.181947886943817139e-03,8.475404977798461914e-02,-6.102586165070533752e-02,4.700644314289093018e-02,-1.050431877374649048e-01,-2.241389453411102295e-02,-5.703785270452499390e-02,3.697787469718605280e-04,-7.011063396930694580e-02,6.011200696229934692e-02,6.552859395742416382e-02,-3.644916787743568420e-02,-3.549760952591896057e-02,-1.084690392017364502e-01,5.124317854642868042e-02,2.494766749441623688e-02,3.582538291811943054e-02,2.509002573788166046e-02,-2.016265317797660828e-02,-5.469162389636039734e-02,1.187313441187143326e-02,6.416209042072296143e-02,8.001922816038131714e-02,6.942168623208999634e-02,-1.086134910583496094e-01,-5.995508655905723572e-02,-8.546731621026992798e-02,1.049804687500000000e-02,2.569739334285259247e-02,-2.618474699556827545e-02,-3.011896274983882904e-02,-9.850411862134933472e-02,-1.563187688589096069e-01,-1.312330067157745361e-01,2.878907695412635803e-02,-1.019451320171356201e-01,-1.309946626424789429e-01,-9.139714390039443970e-02,-8.058743923902511597e-02,6.103343516588211060e-02,1.057155430316925049e-01,-3.859264403581619263e-02,2.895200997591018677e-02,-5.812579393386840820e-02,5.289768800139427185e-02,6.052684411406517029e-02,4.262198135256767273e-02,7.015478610992431641e-02,4.501659423112869263e-02,-9.140885621309280396e-02,7.090219762176275253e-03,6.482208520174026489e-02,8.328462392091751099e-02,9.270782023668289185e-02,-5.668329820036888123e-02,-8.884426951408386230e-02,3.171269968152046204e-02,9.668826125562191010e-03,7.105643302202224731e-02,-7.328055799007415771e-02,-1.952418498694896698e-02,-8.031357079744338989e-03,-9.850427508354187012e-02,-1.097922995686531067e-01,