3.916249051690101624e-02,5.537084490060806274e-02,3.364094719290733337e-02,-5.244291573762893677e-02,-4.639050364494323730e-02,3.978555032517760992e-04,-2.765780687332153320e-02,-5.981764406897127628e-04,3.093856945633888245e-02,3.223835304379463196e-02,-2.483857097104191780e-03,1.362204644829034805e-02,-5.433203186839818954e-03,5.346367880702018738e-02,-3.742776811122894287e-02,-1.326272636651992798e-02,1.847465150058269501e-02,3.315853327512741089e-02,-4.722197726368904114e-02,2.926592715084552765e-02,-9.463894180953502655e-03,-3.108076564967632294e-02,-4.128143563866615295e-02,4.984702914953231812e-02,1.940465904772281647e-02,-4.899356514215469360e-02,-7.357798982411623001e-03,-1.093336381018161774e-02,-7.066717953421175480e-04,4.991671442985534668e-02,-3.763420879840850830e-02,-1.860846020281314850e-02,-1.267333514988422394e-02,1.124884653836488724e-02,4.000061750411987305e-02,-1.604349166154861450e-02,2.151848049834370613e-03,-3.724493458867073059e-02,1.153620332479476929e-02,-3.710698336362838745e-03,-3.175951540470123291e-02,-1.002837624400854111e-02,2.426934055984020233e-02,2.499362453818321228e-02,-3.537311404943466187e-02,4.262544214725494385e-03,2.793351933360099792e-02,-5.786245316267013550e-02,9.220432490110397339e-03,-1.030911132693290710e-02,-4.670944996178150177e-03,3.459626063704490662e-02,-2.559039043262600899e-03,-2.823473885655403137e-03,-4.248956218361854553e-02,4.050148651003837585e-02,-5.290165916085243225e-02,-4.249032586812973022e-02,3.595157340168952942e-02,3.172244876623153687e-02,-5.808070302009582520e-02,-2.531917579472064972e-02,2.032291702926158905e-02,-2.482021972537040710e-02,-4.252451285719871521e-02,-4.927711188793182373e-02,8.579582907259464264e-03,2.872204221785068512e-02,-2.625234611332416534e-02,1.820906251668930054e-02,-9.592156857252120972e-03,-3.709926456212997437e-02,1.963789388537406921e-02,-5.961319431662559509e-02,3.315513208508491516e-02,-2.191916108131408691e-02,-1.200305204838514328e-02,-2.234754152595996857e-02,-6.871694233268499374e-03,1.878419145941734314e-02,-1.873768493533134460e-02,-1.630706526339054108e-02,1.175478938966989517e-02,-5.631449446082115173e-02,-1.104652974754571915e-02,-2.622619271278381348e-02,2.712067961692810059e-02,1.306792814284563065e-02,5.254495423287153244e-03,5.156530439853668213e-02,-1.304360758513212204e-02,4.515449982136487961e-03,-4.476183652877807617e-02,-2.806165069341659546e-02,9.075485169887542725e-03,1.408995222300291061e-02,-1.578240655362606049e-02,3.611190617084503174e-02,-3.634223481640219688e-03,2.407954446971416473e-02,2.393808588385581970e-02,-1.509386580437421799e-02,2.018097601830959320e-02,-4.597772657871246338e-02,-5.965056363493204117e-03,-2.287352457642555237e-02,4.339361563324928284e-03,-2.039682865142822266e-02,-2.565140649676322937e-02,-1.986201666295528412e-02,-8.670512586832046509e-03,-2.314502745866775513e-02,-1.482604071497917175e-03,4.124242439866065979e-02,7.935346104204654694e-03,3.000254370272159576e-02,1.856720075011253357e-02,3.565093129873275757e-02,3.546304255723953247e-02,-2.853285148739814758e-02,3.656221553683280945e-02,-5.387282371520996094e-02,-1.651000976562500000e-02,-2.094685845077037811e-02,-1.357583329081535339e-03,-3.207898465916514397e-03,-5.221713334321975708e-03,1.379677373915910721e-02,1.586500555276870728e-02,-6.132278218865394592e-02,4.586758837103843689e-02,5.553044751286506653e-02,1.157486625015735626e-02,-1.732271723449230194e-02,1.191439852118492126e-02,-1.521023083478212357e-02,2.304576896131038666e-02,-2.473725937306880951e-03,1.890016719698905945e-02,-7.065703626722097397e-03,-9.549365378916263580e-03,-4.414360597729682922e-02,6.011906545609235764e-03,-5.905036255717277527e-02,-6.078214198350906372e-02,3.690765798091888428e-02,1.578865805640816689e-03,-4.271333292126655579e-02,-5.810473859310150146e-02,-3.495616093277931213e-02,-1.715453714132308960e-02,2.629613503813743591e-02,2.039097622036933899e-02,-3.083766065537929535e-02,3.066368773579597473e-02,-3.775377944111824036e-02,5.585283041000366211e-03,9.876914322376251221e-03,1.372371893376111984e-02,-1.288973726332187653e-02,-5.572799220681190491e-02,-5.214739218354225159e-02,-8.020365610718727112e-03,-3.064340911805629730e-03,-1.632017455995082855e-02,4.802206531167030334e-02,3.066976368427276611e-02,-1.524996757507324219e-02,-1.562590524554252625e-02,2.112058177590370178e-02,2.677309885621070862e-02,-4.507286474108695984e-02,1.045326516032218933e-02,1.123599242419004440e-02,-8.528817445039749146e-03,9.997994638979434967e-03,2.334162779152393341e-02,-1.446262001991271973e-03,-2.081689797341823578e-02,3.569753468036651611e-02,9.354548528790473938e-03,-1.201640535145998001e-02,-2.374280244112014771e-02,3.670775517821311951e-02,-2.819847688078880310e-02,8.934352546930313110e-03,4.748523980379104614e-02,-3.150530101265758276e-04,3.390684258192777634e-03,-1.313793752342462540e-02,2.248708344995975494e-02,-2.250356785953044891e-02,1.614362746477127075e-02,1.921416260302066803e-02,2.510290220379829407e-02,1.522434968501329422e-02,-6.425490975379943848e-02,1.070811529643833637e-03,-1.738204434514045715e-02,1.320564188063144684e-02,-1.920465193688869476e-02,-5.741725862026214600e-02,-1.916056685149669647e-02,-6.477664411067962646e-02,-4.431533813476562500e-02,-5.243325978517532349e-02,3.530380129814147949e-02,-2.732516452670097351e-02,8.986044675111770630e-03,-3.400996699929237366e-02,4.107947275042533875e-02,-4.871985688805580139e-02,9.462164714932441711e-03,2.165499515831470490e-02,-5.469782277941703796e-02,-5.392823368310928345e-03,2.980397269129753113e-02,3.060220740735530853e-02,-5.225869268178939819e-02,2.097150683403015137e-02,2.584420144557952881e-02,1.667093858122825623e-02,-1.922899275086820126e-03,-3.493434283882379532e-03,-5.344595760107040405e-02,-2.681154012680053711e-02,1.993350312113761902e-02,2.094016596674919128e-02,-2.765098959207534790e-02,6.754957605153322220e-03,6.091073900461196899e-02,2.596043981611728668e-03,5.950566753745079041e-02,-4.712703637778759003e-03,1.156577747315168381e-02,-4.286820441484451294e-02,2.183324657380580902e-03,1.237161178141832352e-02,-5.989087745547294617e-02,-5.091164633631706238e-02,3.281901776790618896e-02,9.877730160951614380e-03,-5.090118199586868286e-02,-1.835389249026775360e-02,-3.754350543022155762e-02,4.844064265489578247e-02,3.703740984201431274e-02,1.966337673366069794e-02,-1.475819014012813568e-02,-8.632421377114951611e-04,4.303722828626632690e-02,-6.405483931303024292e-02,-2.942302450537681580e-02,-2.448514103889465332e-02,-4.220883548259735107e-02,-1.491579785943031311e-02,4.875207319855690002e-02,-2.304566837847232819e-02,2.063017897307872772e-02,3.299374878406524658e-02,-3.884354606270790100e-02,-5.143640562891960144e-02,-8.025759831070899963e-03,1.466070115566253662e-02,-4.791966080665588379e-02,-1.247410941869020462e-02,1.544003933668136597e-02,-6.341028213500976562e-02,1.496770232915878296e-02,9.340057149529457092e-03,2.484775520861148834e-02,-1.752223074436187744e-02,3.149233385920524597e-02,-2.833107486367225647e-02,-1.806791871786117554e-02,-5.103466659784317017e-02,-4.106085002422332764e-02,-2.626667264848947525e-03,-3.595777601003646851e-02,-3.241935372352600098e-02,8.270841091871261597e-03,-5.182898789644241333e-02,-1.687368378043174744e-02,-2.803294919431209564e-02,-2.783439494669437408e-02,-3.110895678400993347e-02,-4.814096912741661072e-02,1.827120967209339142e-02,1.967961527407169342e-02,2.665400132536888123e-02,-5.627027899026870728e-02,-1.818026974797248840e-02,3.304746001958847046e-02,-1.571780443191528320e-02,5.704908166080713272e-03,-3.263190761208534241e-02,1.278885267674922943e-02,-5.581281613558530807e-03,1.667088083922863007e-02,-5.487933009862899780e-02,-1.248033158481121063e-02,-2.397519769147038460e-03,-3.594572842121124268e-02,-5.814181640744209290e-02,1.426321733742952347e-02,3.178267180919647217e-02,-5.145391821861267090e-02,-4.925658460706472397e-03,-1.074815262109041214e-02,4.390072077512741089e-02,9.789639152586460114e-03,-4.148737993091344833e-03,-5.378585308790206909e-02,-4.696512967348098755e-02,-2.665830031037330627e-02,1.709220372140407562e-02,-4.790468141436576843e-02,-6.169412285089492798e-02,8.272761479020118713e-03,2.202213928103446960e-02,3.264848515391349792e-02,-5.844835937023162842e-02,-3.905406966805458069e-02,-2.335026673972606659e-02,-2.346620522439479828e-02,1.810804009437561035e-02,2.566779032349586487e-02,-3.055717796087265015e-02,6.665219087153673172e-03,-2.738533727824687958e-02,-5.786123219877481461e-03,-7.802788168191909790e-03,2.058028057217597961e-02,1.891079358756542206e-03,-4.239400476217269897e-02,1.163371186703443527e-02,-3.597680851817131042e-02,-8.864613249897956848e-03,-2.231138199567794800e-02,3.948514908552169800e-02,-1.272816769778728485e-02,-2.339091897010803223e-02,-2.940687537193298340e-02,-5.844445154070854187e-02,-4.427406936883926392e-02,2.634137682616710663e-02,1.059857290238142014e-02,-2.110633812844753265e-02,-3.141031414270401001e-02,-1.584727084264159203e-03,2.094793831929564476e-03,3.639012202620506287e-02,-1.580151356756687164e-02,-2.000803500413894653e-02,-8.577702683396637440e-04,-4.789619892835617065e-02,3.855586051940917969e-02,1.715457439422607422e-02,-1.644837902858853340e-04,-4.709446802735328674e-02,-3.029909357428550720e-02,-2.169464156031608582e-02,1.637885160744190216e-02,5.205857008695602417e-02,-5.783804590464569628e-05,-1.760831475257873535e-02,-6.879616528749465942e-03,-6.396237295120954514e-03,-3.283329308032989502e-02,-9.627672843635082245e-03,8.800661191344261169e-03,-2.819703333079814911e-02,-4.819202236831188202e-03,-5.396152287721633911e-02,-5.782333388924598694e-02,-2.631504833698272705e-02,-9.999612346291542053e-03,-2.486798539757728577e-02,-1.925485953688621521e-02,-3.632248938083648682e-02,3.587709367275238037e-02,-2.129894308745861053e-02,6.497898139059543610e-03,-2.555190026760101318e-02,-8.628753013908863068e-03,2.614083327353000641e-02,-1.707868650555610657e-02,-3.426666557788848877e-02,4.713463038206100464e-02,-2.500858530402183533e-02,-4.935076832771301270e-02,-2.439717762172222137e-02,-5.150905624032020569e-02,-4.694870486855506897e-02,-5.973460525274276733e-02,-5.649998784065246582e-02,7.065440062433481216e-03,-4.343685135245323181e-02,-3.983252122998237610e-02,1.541451551020145416e-02,-8.164358441717922688e-04,-4.646674543619155884e-02,-5.741351284086704254e-03,-4.501039907336235046e-02,2.018805779516696930e-02,3.659184649586677551e-02,7.168869674205780029e-02,-3.468062728643417358e-02,7.033631205558776855e-02,4.710802808403968811e-02,1.023022271692752838e-02,-5.360405892133712769e-02,2.313635125756263733e-02,4.769483581185340881e-03,3.402287256903946400e-04,-1.650773920118808746e-02,2.490353211760520935e-02,4.224264994263648987e-02,6.595727801322937012e-02,-2.711721323430538177e-02,6.277144700288772583e-02,1.293706446886062622e-01,3.608079254627227783e-02,-2.401674725115299225e-02,1.176806283183395863e-03,4.673857241868972778e-02,4.621158540248870850e-02,3.852469846606254578e-02,-5.281809717416763306e-04,2.057816833257675171e-02,-9.567772038280963898e-03,2.235123611171729863e-05,-8.770757121965289116e-04,1.838069036602973938e-02,5.668183043599128723e-02,6.570507586002349854e-02,5.532228946685791016e-02,-8.360543847084045410e-02,-7.501602917909622192e-02,-2.223593369126319885e-02,3.947731480002403259e-02,1.406089030206203461e-02,-1.014438550919294357e-02,-1.820599101483821869e-02,-4.658731445670127869e-02,-4.587983712553977966e-02,-2.657086029648780823e-02,9.085095673799514771e-02,2.249479480087757111e-02,-1.757360808551311493e-02,2.174914069473743439e-02,5.767534300684928894e-02,-1.562321931123733521e-02,-1.746614091098308563e-02,3.932162746787071228e-02,-1.015404704958200455e-03,8.239430934190750122e-02,-1.641478762030601501e-02,4.339937120676040649e-02,4.408675432205200195e-02,9.234966337680816650e-02,-5.178908258676528931e-02,1.097345631569623947e-02,-7.547461986541748047e-02,-2.270635217428207397e-03,1.665178872644901276e-02,-4.512959718704223633e-02,1.919717527925968170e-02,1.918566040694713593e-02,5.321613699197769165e-02,-2.873598784208297729e-02,3.205035999417304993e-02,4.536246135830879211e-02,-3.327386453747749329e-03,-1.500350423157215118e-02,-1.675550639629364014e-02,6.034303456544876099e-02,2.093846164643764496e-02,3.704511374235153198e-02,4.481794685125350952e-02,2.094873599708080292e-02,2.027048030868172646e-03,4.753392189741134644e-02,5.276375636458396912e-02,6.226718891412019730e-03,7.101217657327651978e-02,4.459039121866226196e-02,2.990641817450523376e-02,-2.043092250823974609e-02,-1.272191642783582211e-03,4.040680453181266785e-02,7.066783308982849121e-02,-2.759475633502006531e-02,-8.119484782218933105e-02,-1.899793744087219238e-02,6.610289216041564941e-02,9.801836311817169189e-02,5.190180614590644836e-02,2.457523345947265625e-02,5.920272320508956909e-03,-1.888157241046428680e-02,7.474927604198455811e-02,4.926482588052749634e-02,8.390537649393081665e-02,9.101282060146331787e-02,-1.940091699361801147e-02,7.384777069091796875e-02,2.889978140592575073e-02,1.484562363475561142e-02,6.744313240051269531e-02,-2.525112405419349670e-02,6.393267773091793060e-03,4.973277449607849121e-02,-7.905937731266021729e-02,1.889026165008544922e-02,8.523681759834289551e-02,7.065372914075851440e-02,5.300299078226089478e-02,3.819801844656467438e-03,3.614316880702972412e-02,1.042614430189132690e-01,6.254522502422332764e-02,2.223703823983669281e-02,-3.540980070829391479e-02,6.202598568052053452e-03,-9.498333185911178589e-02,1.647999882698059082e-02,9.416814148426055908e-02,4.286624863743782043e-02,8.549659699201583862e-02,1.109430473297834396e-02,-2.112879604101181030e-02,2.187084965407848358e-02,3.397999703884124756e-02,1.529517471790313721e-01,1.748505048453807831e-02,2.656617388129234314e-02,5.905350297689437866e-02,-2.778404392302036285e-02,-5.691065639257431030e-02,4.874770715832710266e-02,7.161981612443923950e-02,5.659032985568046570e-02,-7.177609950304031372e-02,-4.810912534594535828e-02,2.055184915661811829e-03,4.466524347662925720e-02,7.021527737379074097e-02,-4.757368192076683044e-02,-1.514799147844314575e-01,4.111168161034584045e-02,2.595354989171028137e-02,-6.500475108623504639e-03,-4.445105418562889099e-02,-5.834572017192840576e-03,-3.017058596014976501e-02,-4.381301626563072205e-02,2.877797186374664307e-02,5.396075546741485596e-02,1.020468119531869888e-02,4.160351306200027466e-02,-3.993631899356842041e-02,3.012422099709510803e-02,-3.015238977968692780e-02,2.786572277545928955e-02,-2.833873592317104340e-02,-4.591229557991027832e-02,2.030623611062765121e-03,1.438317075371742249e-02,-4.789952561259269714e-02,4.367212764918804169e-03,7.841101847589015961e-03,1.804720237851142883e-02,-4.310004785656929016e-02,1.813422888517379761e-02,1.179295964539051056e-02,-1.159106418490409851e-01,-8.879702538251876831e-02,5.434525664895772934e-03,-1.956795528531074524e-02,-1.785984844900667667e-03,6.019066646695137024e-02,-1.649968139827251434e-02,2.821721322834491730e-02,3.243857529014348984e-03,-2.512517385184764862e-03,7.693625241518020630e-02,3.560679033398628235e-02,-5.089346319437026978e-02,6.766632199287414551e-02,-6.366145797073841095e-03,2.864412218332290649e-02,-2.709992974996566772e-02,-4.347923025488853455e-02,5.786680802702903748e-02,-8.052653819322586060e-02,1.426112186163663864e-02,6.437667179852724075e-03,-4.961546510457992554e-02,6.343133747577667236e-02,5.022430047392845154e-02,1.456199027597904205e-02,3.421759977936744690e-02,8.295264095067977905e-02,2.477806247770786285e-02,-9.109683334827423096e-02,-3.704755753278732300e-02,-2.789414674043655396e-02,1.317670382559299469e-02,3.798887506127357483e-02,-9.853074327111244202e-03,2.936177328228950500e-02,6.754713505506515503e-02,4.431791603565216064e-02,1.061889529228210449e-01,3.900476917624473572e-02,1.060943454504013062e-01,9.922320023179054260e-03,2.851345390081405640e-02,7.868782430887222290e-02,1.047065258026123047e-01,5.302193388342857361e-02,2.607374079525470734e-02,-5.506395548582077026e-02,-8.292002975940704346e-02,3.324159188196063042e-03,-8.524866402149200439e-02,2.522078901529312134e-02,1.340310089290142059e-02,6.646890938282012939e-02,7.698968984186649323e-03,-2.155165188014507294e-03,-1.297784317284822464e-02,-3.138554468750953674e-02,1.101319938898086548e-01,-2.963580889627337456e-03,1.274136267602443695e-02,6.272285431623458862e-02,6.900693476200103760e-02,6.106216087937355042e-02,6.824147701263427734e-02,7.722397334873676300e-03,-1.731481775641441345e-02,-6.247314065694808960e-02,-5.442476272583007812e-02,3.353563696146011353e-02,5.696721374988555908e-02,1.423124969005584717e-02,7.528430223464965820e-02,-5.407227948307991028e-02,1.445352379232645035e-02,3.561299527063965797e-03,5.960175022482872009e-02,4.360350593924522400e-02,6.352168321609497070e-02,-9.982317686080932617e-02,4.508171230554580688e-02,1.076198276132345200e-02,4.808121919631958008e-02,6.688269227743148804e-02,2.241060882806777954e-02,4.902577400207519531e-02,1.718077994883060455e-02,-4.458959773182868958e-02,2.707540988922119141e-02,4.678840562701225281e-02,7.862628251314163208e-02,-7.295469194650650024e-02,-8.166538551449775696e-03,1.691694557666778564e-02,1.730109564960002899e-02,-5.473922193050384521e-02,-6.702037062495946884e-03,3.151471959426999092e-03,-3.592678904533386230e-02,5.417370051145553589e-02,-1.271300669759511948e-02,-2.666997024789452553e-03,-4.223363474011421204e-02,4.488522931933403015e-02,-3.060245886445045471e-02,-1.077123638242483139e-02,1.460012141615152359e-02,6.729047745466232300e-02,1.133182793855667114e-01,-4.562183469533920288e-02,-4.432211071252822876e-02,-8.109185099601745605e-02,1.163682248443365097e-02,8.248069882392883301e-02,1.513325516134500504e-02,2.289363183081150055e-02,7.023838162422180176e-02,7.179265469312667847e-02,-8.958864212036132812e-02,1.805717498064041138e-02,2.881773188710212708e-02,4.627987369894981384e-02,3.824794292449951172e-02,-5.264508724212646484e-02,2.939344011247158051e-02,1.857228577136993408e-02,4.375582933425903320e-02,7.802607864141464233e-02,9.681799262762069702e-02,-1.200140360742807388e-02,-4.085416346788406372e-02,6.238016486167907715e-02,-6.379146128892898560e-02,-7.701484858989715576e-02,-3.462460637092590332e-02,-3.095065243542194366e-02,-4.334156960248947144e-02,-2.218009158968925476e-02,1.269122399389743805e-02,5.842826329171657562e-03,-3.773378580808639526e-02,1.415319088846445084e-02,-8.012001216411590576e-02,4.582992941141128540e-02,-5.185997579246759415e-04,5.121476016938686371e-03,9.406024217605590820e-02,1.222428213804960251e-02,-1.834376901388168335e-02,3.695685788989067078e-02,1.750220544636249542e-03,-1.348456181585788727e-02,4.840971156954765320e-02,-4.925408586859703064e-02,5.878588929772377014e-02,2.320391684770584106e-02,-8.847772143781185150e-03,-2.887297049164772034e-02,-6.197279784828424454e-03,4.758202284574508667e-02,-1.539420615881681442e-02,-4.392730817198753357e-02,-5.019641667604446411e-02,-2.665451169013977051e-02,5.014998465776443481e-02,-7.199068553745746613e-03,-8.900490403175354004e-02,4.382818564772605896e-02,2.810574136674404144e-02,-1.401300448924303055e-02,-2.004227973520755768e-02,1.979262195527553558e-02,5.040022730827331543e-02,6.825087219476699829e-02,1.937011443078517914e-02,3.161037340760231018e-02,1.974684931337833405e-02,-4.250827059149742126e-02,3.705052286386489868e-02,6.771188974380493164e-02,4.682812839746475220e-02,4.897214099764823914e-02,-1.832293346524238586e-02,-9.837477467954158783e-03,5.509091913700103760e-02,1.447766274213790894e-02,1.471831183880567551e-02,-1.175711303949356079e-02,-5.492835491895675659e-02,-2.901997976005077362e-02,5.441693589091300964e-02,-6.744114309549331665e-02,2.571665123105049133e-02,4.303690418601036072e-02,-9.561309963464736938e-02,-6.975530833005905151e-02,-3.956482559442520142e-02,6.792330741882324219e-02,4.473017901182174683e-02,-7.573390007019042969e-02,-2.114423736929893494e-02,2.344239130616188049e-02,-5.184891447424888611e-02,-2.298227883875370026e-02,-6.034579873085021973e-02,5.227678269147872925e-02,9.357375651597976685e-02,6.830737739801406860e-02,-1.828591153025627136e-02,4.750603809952735901e-02,7.282479107379913330e-02,7.079569157212972641e-03,7.875401526689529419e-03,9.541616775095462799e-03,4.333138093352317810e-02,1.572536304593086243e-02,1.992636919021606445e-02,9.605307132005691528e-03,3.430440649390220642e-02,-1.211970951408147812e-02,-1.861808449029922485e-02,-1.245599891990423203e-02,-3.627218771725893021e-03,2.216584049165248871e-02,9.555344283580780029e-02,6.242123991250991821e-02,1.065365746617317200e-01,8.553510904312133789e-02,-1.371315401047468185e-02,9.016982465982437134e-02,1.223569661378860474e-01,6.257632374763488770e-02,4.578413069248199463e-02,-2.631428360473364592e-04,5.316066741943359375e-02,4.623949527740478516e-02,5.864616855978965759e-02,2.880733460187911987e-02,4.254803992807865143e-03,4.273056238889694214e-02,-2.482513524591922760e-02,-5.017229169607162476e-02,4.023398831486701965e-02,2.710731886327266693e-02,-6.933453679084777832e-02,-4.194534569978713989e-02,2.537069469690322876e-02,-1.092112250626087189e-02,4.738419502973556519e-02,-1.300741080194711685e-02,2.219589054584503174e-02,7.521918974816799164e-03,2.739448659121990204e-02,-3.337622061371803284e-02,-4.448006302118301392e-02,-3.682041540741920471e-02,2.124044112861156464e-03,5.071594566106796265e-02,-2.234553359448909760e-02,-1.589486189186573029e-02,-5.922687798738479614e-02,8.961681276559829712e-02,3.097793553024530411e-03,2.549256198108196259e-02,3.231221809983253479e-02,-5.168371833860874176e-03,1.885171234607696533e-02,5.901306867599487305e-02,-2.451219363138079643e-03,-1.021903194487094879e-02,4.237671196460723877e-02,-1.442708354443311691e-02,-2.795907901600003242e-03,-4.362216964364051819e-02,8.690246194601058960e-02,2.514216117560863495e-03,5.102498829364776611e-02,5.278861150145530701e-02,3.923116996884346008e-02,-3.400187566876411438e-02,-6.453953683376312256e-02,4.907482862472534180e-02,2.510024420917034149e-02,2.204341441392898560e-02,-1.494974270462989807e-02,4.193175584077835083e-02,7.380139082670211792e-02,4.054343327879905701e-02,-1.947997696697711945e-02,-2.771841920912265778e-02,-2.496139332652091980e-02,-2.052174881100654602e-02,3.891909122467041016e-02,2.122310362756252289e-02,2.203084714710712433e-02,3.658747300505638123e-02,-8.479546755552291870e-02,-5.459921061992645264e-02,-3.080836497247219086e-03,9.968115389347076416e-02,5.708742886781692505e-02,8.191946893930435181e-02,5.751422420144081116e-02,-1.263134740293025970e-02,1.363065987825393677e-01,9.271517395973205566e-02,-1.843240857124328613e-02,-2.334432490170001984e-02,2.026793360710144043e-02,6.836604326963424683e-02,2.827490121126174927e-02,-6.222246447578072548e-04,2.032173797488212585e-02,6.906209141016006470e-02,-5.394324287772178650e-02,-6.390239298343658447e-02,-3.949455544352531433e-02,3.308134526014328003e-02,6.535391509532928467e-02,-2.664154581725597382e-02,-3.659179806709289551e-02,-4.963068291544914246e-02,-3.227826580405235291e-02,6.698811054229736328e-02,1.244307756423950195e-01,7.362737506628036499e-02,1.184157002717256546e-02,1.264753635041415691e-03,3.471844643354415894e-02,1.350094825029373169e-01,1.966141350567340851e-02,2.889632806181907654e-02,-1.252754870802164078e-02,1.578812114894390106e-02,1.064612716436386108e-01,-4.491515923291444778e-03,3.945134580135345459e-02,5.585015565156936646e-02,1.441289018839597702e-02,2.781174518167972565e-02,-3.000925667583942413e-02,-2.381803095340728760e-02,-4.242450371384620667e-02,3.372733015567064285e-03,3.710668534040451050e-02,-1.975504681468009949e-02,-2.826883457601070404e-02,5.267740786075592041e-02,-5.252500995993614197e-03,1.386155784130096436e-01,1.025808602571487427e-01,2.532511390745639801e-02,2.353779785335063934e-02,-1.553171128034591675e-01,1.612168401479721069e-01,8.069037646055221558e-02,-2.528813295066356659e-02,-4.329497460275888443e-03,-6.168979778885841370e-02,5.514038726687431335e-02,-1.549353078007698059e-02,1.689087226986885071e-02,5.093725631013512611e-04,2.072147279977798462e-02,3.502514585852622986e-02,3.709009662270545959e-02,3.999080881476402283e-02,5.249528214335441589e-02,1.126373410224914551e-01,4.324023798108100891e-02,-4.826490953564643860e-02,-5.623869970440864563e-02,-4.955239593982696533e-02,6.840278208255767822e-02,-1.469184830784797668e-02,-2.117059193551540375e-02,4.932600632309913635e-02,8.494932204484939575e-03,-4.973776638507843018e-03,-3.501199185848236084e-03,1.826584339141845703e-02,6.030369549989700317e-03,2.293675765395164490e-02,1.695547625422477722e-02,2.942570298910140991e-02,6.548713892698287964e-03,2.112317457795143127e-02,3.519418090581893921e-02,-1.287147402763366699e-02,3.283903375267982483e-02,2.580379322171211243e-02,-3.589889034628868103e-02,1.733176782727241516e-02,3.504550829529762268e-02,-1.319916918873786926e-02,-2.549210377037525177e-02,-1.610565744340419769e-02,5.402654781937599182e-02,1.560814213007688522e-02,-7.372358441352844238e-02,4.554010927677154541e-02,7.201265543699264526e-02,-5.137506872415542603e-03,6.312958896160125732e-02,-8.355645835399627686e-02,2.979772537946701050e-02,5.779891833662986755e-02,7.163326442241668701e-02,-8.947480469942092896e-03,-7.658735662698745728e-02,-4.391236603260040283e-02,2.243194542825222015e-02,7.599272578954696655e-02,4.716148227453231812e-02,4.289153963327407837e-03,-4.317509382963180542e-02,3.232750296592712402e-02,3.938270360231399536e-02,1.115501020103693008e-02,6.799050420522689819e-02,7.139121741056442261e-02,9.585123509168624878e-02,-3.481806023046374321e-03,2.859341911971569061e-02,1.067411713302135468e-02,3.445732221007347107e-02,5.162572488188743591e-02,1.096586212515830994e-01,1.553431805223226547e-02,1.090336218476295471e-01,5.869863554835319519e-02,1.163161471486091614e-01,5.907665193080902100e-02,-2.892142906785011292e-02,6.134060025215148926e-02,4.473656043410301208e-02,-9.437251836061477661e-03,1.141660963185131550e-03,-1.395407468080520630e-01,-2.122998423874378204e-02,3.183229640126228333e-02,3.516014292836189270e-02,3.756704181432723999e-02,5.208581686019897461e-02,-1.731951534748077393e-02,-6.471046805381774902e-02,-3.841833025217056274e-02,8.774966001510620117e-03,4.667816311120986938e-02,8.827430754899978638e-02,1.621099710464477539e-01,3.253246098756790161e-02,2.645356766879558563e-02,-1.265674084424972534e-01,9.253631532192230225e-02,2.429731190204620361e-02,1.602802984416484833e-02,3.538628667593002319e-02,-4.726580809801816940e-03,1.462423205375671387e-01,4.555691778659820557e-02,-2.088982611894607544e-02,-3.754087537527084351e-02,1.270571537315845490e-02,-6.527274847030639648e-03,9.646207094192504883e-02,3.875150904059410095e-02,1.948074437677860260e-02,5.843782424926757812e-02,3.718758374452590942e-02,5.254712328314781189e-02,8.340314961969852448e-03,-1.091901808977127075e-01,-9.540822356939315796e-02,7.051768247038125992e-03,2.320779860019683838e-02,2.141355164349079132e-02,-4.708037897944450378e-02,-1.714516617357730865e-02,1.326090693473815918e-01,3.783007338643074036e-02,3.563028201460838318e-02,-3.239161893725395203e-02,4.914570599794387817e-02,7.069151848554611206e-02,-5.163064599037170410e-02,3.269543871283531189e-02,6.828651763498783112e-03,-7.081612944602966309e-03,1.518637873232364655e-02,1.019571162760257721e-02,2.946040779352188110e-02,4.038852453231811523e-02,-7.064583897590637207e-02,6.102594733238220215e-02,-9.513603523373603821e-03,-3.721854463219642639e-02,-5.342010781168937683e-02,-2.054885029792785645e-02,6.165407970547676086e-02,-4.106026887893676758e-02,3.425531089305877686e-02,5.390647798776626587e-02,5.829132627695798874e-03,-4.832304269075393677e-02,1.117104664444923401e-02,6.602927297353744507e-02,5.652904137969017029e-02,-1.341736912727355957e-01,6.899952888488769531e-02,1.087559908628463745e-01,1.002169176936149597e-01,1.414666324853897095e-02,-9.487890452146530151e-02,-6.423236918635666370e-04,2.260692045092582703e-02,-6.255092471837997437e-02,-4.082372784614562988e-02,5.590645223855972290e-02,8.891884237527847290e-03,1.156368386000394821e-02,4.589189216494560242e-02,3.462236002087593079e-02,1.287062913179397583e-01,7.259260118007659912e-02,7.930401712656021118e-03,-9.934144327417016029e-05,-3.751000389456748962e-03,1.715266518294811249e-02,3.564774990081787109e-02,-4.402739554643630981e-02,2.016336889937520027e-03,-4.898856207728385925e-02,9.753977879881858826e-03,-1.471698656678199768e-02,1.818341389298439026e-02,1.932841725647449493e-02,7.278919219970703125e-02,-1.694729179143905640e-02,4.992765188217163086e-02,1.337304431945085526e-02,-5.625480785965919495e-02,-3.290842473506927490e-02,4.437458887696266174e-02,1.197002455592155457e-02,-4.186716675758361816e-02,-5.955743044614791870e-02,-1.255234051495790482e-02,2.812043821904808283e-04,4.962779954075813293e-02,2.763257920742034912e-02,1.756724528968334198e-02,-3.159226849675178528e-02,2.951453439891338348e-03,-3.002638928592205048e-02,1.671664789319038391e-02,2.366694249212741852e-02,6.463331729173660278e-02,1.143928989768028259e-02,-5.518513172864913940e-02,-3.848160803318023682e-02,6.229305639863014221e-03,2.788367122411727905e-02,1.609224453568458557e-02,1.499315816909074783e-02,4.101007431745529175e-02,6.966149061918258667e-02,-5.206793546676635742e-03,-4.209188744425773621e-02,6.566598312929272652e-04,-3.639429807662963867e-02,2.618376864120364189e-03,-2.569383196532726288e-02,-1.900758594274520874e-02,-4.259827360510826111e-02,2.321485988795757294e-02,-8.484394848346710205e-02,-8.625677973031997681e-02,-2.125632949173450470e-02,-1.250051427632570267e-02,-7.509865798056125641e-03,-1.001213490962982178e-01,8.309167809784412384e-03,4.831925407052040100e-02,-6.570511311292648315e-02,-3.444564715027809143e-02,-9.580434300005435944e-03,5.808010697364807129e-02,3.321035206317901611e-02,3.816156834363937378e-02,2.119188755750656128e-02,6.327866110950708389e-03,-5.772310122847557068e-02,-7.107730954885482788e-02,-1.740503497421741486e-02,6.447371840476989746e-02,-1.311675994656980038e-03,-6.489162147045135498e-02,-1.658827252686023712e-02,4.553275182843208313e-02,7.862232625484466553e-02,-1.319178380072116852e-02,-6.974250823259353638e-02,4.626852273941040039e-02,3.048791550099849701e-02,7.139864563941955566e-02,-2.027180604636669159e-02,2.239636518061161041e-02,4.137634113430976868e-02,5.864887684583663940e-02,1.305612549185752869e-02,2.003558538854122162e-02,8.173923939466476440e-03,-1.005284488201141357e-02,-1.859113201498985291e-02,5.215595662593841553e-02,7.525303214788436890e-02,-1.651518791913986206e-02,2.030131407082080841e-02,-3.137001022696495056e-02,-1.449614064767956734e-03,-1.531121786683797836e-03,-1.658664271235466003e-02,2.737179026007652283e-02,8.611557073891162872e-03,-2.303861547261476517e-03,3.267645463347434998e-02,1.693364791572093964e-02,4.165660962462425232e-02,-9.958014823496341705e-03,2.813188545405864716e-02,8.439844846725463867e-02,-3.106939792633056641e-02,-3.282131219748407602e-04,-1.929824426770210266e-02,9.954928420484066010e-03,3.587097674608230591e-02,-4.817470535635948181e-02,-3.052341006696224213e-02,-8.585063624195754528e-04,-4.657837375998497009e-02,-1.739982888102531433e-02,5.367181822657585144e-02,9.385214187204837799e-03,-9.019316732883453369e-02,-7.060941308736801147e-02,-2.043209038674831390e-02,1.988441310822963715e-02,1.046962663531303406e-02,4.272163286805152893e-02,2.412066981196403503e-02,6.412596255540847778e-02,-3.631771355867385864e-02,-1.304732263088226318e-02,-3.463136777281761169e-02,8.971972391009330750e-03,-1.690229028463363647e-02,-3.631084412336349487e-02,-3.839710727334022522e-02,1.001225828076712787e-04,-3.651604801416397095e-02,1.793634705245494843e-02,4.166413843631744385e-02,6.068809889256954193e-03,-4.213844239711761475e-02,1.800790242850780487e-02,4.049086570739746094e-02,3.552637621760368347e-02,7.679371535778045654e-02,-7.836704025976359844e-04,5.702550709247589111e-02,6.658009369857609272e-04,1.055723149329423904e-02,7.893034815788269043e-02,-4.389042779803276062e-02,4.075186699628829956e-02,-1.427606213837862015e-02,-1.958587206900119781e-02,-1.061148494482040405e-01,-9.377583116292953491e-02,6.196876056492328644e-03,8.510122075676918030e-03,-1.748153823427855968e-03,-5.856027826666831970e-02,-4.624560102820396423e-02,2.573045343160629272e-02,1.059549162164330482e-03,1.420138217508792877e-02,-2.724919281899929047e-02,-1.989673823118209839e-02,6.638438999652862549e-02,-4.920018091797828674e-02,4.961541295051574707e-02,2.015617117285728455e-02,5.026700720191001892e-02,1.454563229344785213e-03,-8.740254677832126617e-03,6.540467590093612671e-02,6.274925917387008667e-02,3.871534392237663269e-02,-2.490940503776073456e-03,5.283935461193323135e-03,-5.609325319528579712e-02,-7.159887254238128662e-02,-6.730153411626815796e-02,-7.845823466777801514e-02,-7.701145112514495850e-02,2.880694158375263214e-02,-5.925752222537994385e-02,6.558812223374843597e-03,-1.681795902550220490e-02,-9.377243928611278534e-03,6.800442934036254883e-02,2.759011834859848022e-02,-1.032450515776872635e-02,-2.192633785307407379e-02,6.863729655742645264e-02,5.880119279026985168e-02,6.713894754648208618e-02,4.426695033907890320e-02,-2.797846496105194092e-02,4.776349663734436035e-02,9.774092584848403931e-02,7.467319816350936890e-02,8.037653565406799316e-02,-4.373523592948913574e-02,-6.283345818519592285e-02,3.444589674472808838e-02,-9.006992727518081665e-02,-8.107256144285202026e-03,3.031062078662216663e-04,-6.890057772397994995e-02,1.833350397646427155e-02,-6.612312048673629761e-02,-5.011120438575744629e-02,-3.513791784644126892e-02,-2.631349302828311920e-02,2.781765908002853394e-02,9.500143118202686310e-03,-3.289182111620903015e-02,-3.502769395709037781e-02,7.435029745101928711e-02,7.712961733341217041e-02,1.623875834047794342e-02,-7.394089363515377045e-03,2.161576971411705017e-02,-6.392695009708404541e-03,2.497407421469688416e-02,2.225236967206001282e-02,5.518500879406929016e-02,9.823607653379440308e-02,9.547945857048034668e-02,5.828966945409774780e-02,2.205225266516208649e-02,1.131523624062538147e-01,7.524560391902923584e-02,1.264476403594017029e-02,-3.237188979983329773e-02,-1.028845235705375671e-01,-2.751960977911949158e-02,6.678552925586700439e-02,-3.381330461706966162e-04,-5.695998552255332470e-04,3.637426719069480896e-02,-1.259203418157994747e-03,3.657279536128044128e-02,-4.693315923213958740e-02,7.351308315992355347e-02,1.148082762956619263e-01,8.722407370805740356e-02,8.422112464904785156e-02,5.326364934444427490e-02,9.885954856872558594e-02,6.180058419704437256e-02,-1.859039068222045898e-03,-4.536745697259902954e-02,-3.247367218136787415e-02,-7.636070251464843750e-03,3.019383177161216736e-02,5.026990547776222229e-04,-2.925464697182178497e-02,-5.061468109488487244e-02,6.579441484063863754e-03,9.141750633716583252e-03,4.456653073430061340e-02,-3.105626441538333893e-02,5.978418979793787003e-03,-6.920198444277048111e-03,-1.697066985070705414e-02,2.414448931813240051e-02,6.848014146089553833e-02,6.055239588022232056e-02,-4.432983696460723877e-02,1.526634767651557922e-02,3.717621730174869299e-04,-3.943224996328353882e-02,-1.732910517603158951e-03,2.456014975905418396e-02,7.684918586164712906e-03,-3.265830874443054199e-02,2.314755320549011230e-02,5.916546657681465149e-02,4.750041663646697998e-02,3.871149197220802307e-02,-1.744098961353302002e-02,-3.809585794806480408e-02,3.927278891205787659e-02,-4.493264481425285339e-02,1.059157890267670155e-03,-4.723713919520378113e-02,-3.877384122461080551e-03,-3.832204639911651611e-02,-5.884516611695289612e-02,-6.216742470860481262e-02,-9.331116080284118652e-02,-7.342486828565597534e-02,4.438902437686920166e-02,-7.271642237901687622e-02,-1.613944023847579956e-02,2.676356211304664612e-02,3.747729957103729248e-02,5.030422657728195190e-02,-4.584366455674171448e-03,6.934601813554763794e-02,-1.867697574198246002e-02,2.470510662533342838e-04,8.497331291437149048e-03,-6.597570329904556274e-02,-9.819821268320083618e-02,8.141741855069994926e-04,-6.108745187520980835e-02,7.049488276243209839e-02,-2.560002170503139496e-02,-8.787222951650619507e-02,2.768386900424957275e-02,-2.443760447204113007e-02,1.889612339437007904e-02,-3.882424207404255867e-03,6.404300779104232788e-02,-1.000730022788047791e-01,-8.028361201286315918e-02,3.768208622932434082e-02,-4.921104013919830322e-02,2.033260092139244080e-02,-2.420462854206562042e-02,2.303711371496319771e-03,8.037651330232620239e-02,6.383246928453445435e-02,8.596448600292205811e-02,6.561800092458724976e-02,1.127981767058372498e-01,9.178044646978378296e-02,5.420835688710212708e-02,3.783875377848744392e-03,2.440681867301464081e-02,1.081746816635131836e-01,-3.624153882265090942e-02,-1.982477307319641113e-02,-8.590292930603027344e-02,2.681121975183486938e-02,4.600265249609947205e-02,-2.860231325030326843e-02,-1.331458706408739090e-02,-5.106123164296150208e-02,-1.169591909274458885e-03,-4.297956079244613647e-02,5.780646577477455139e-02,4.645598679780960083e-02,1.713744737207889557e-02,-3.166554495692253113e-02,3.805137053132057190e-02,9.609587490558624268e-02,1.448999717831611633e-02,1.156497970223426819e-01,8.230432868003845215e-02,-1.890737935900688171e-02,-1.863089017570018768e-02,4.520339146256446838e-02,-5.377371981739997864e-02,4.054926335811614990e-02,-5.998766049742698669e-03,-5.715625360608100891e-02,2.378886379301548004e-02,-1.029839739203453064e-01,-7.587508857250213623e-02,-1.074253208935260773e-02,-2.633151039481163025e-02,-1.460346486419439316e-02,-7.642582803964614868e-02,-1.224773842841386795e-02,-5.448936298489570618e-02,2.299000695347785950e-02,3.970649465918540955e-02,2.285849675536155701e-02,7.244868576526641846e-02,9.351087361574172974e-02,5.208273231983184814e-02,5.599389970302581787e-02,4.028422012925148010e-02,-2.546749822795391083e-02,-3.761004656553268433e-02,-4.466973617672920227e-02,4.594916477799415588e-02,-1.208776906132698059e-01,-3.386546671390533447e-02,8.357272297143936157e-02,5.920431017875671387e-02,-1.269028801470994949e-02,4.240589216351509094e-02,7.247601635754108429e-03,9.930502623319625854e-02,4.608254507184028625e-02,-3.807420283555984497e-02,-7.224417291581630707e-03,-2.428285032510757446e-02,1.738980971276760101e-02,-1.333316788077354431e-03,9.553118608891963959e-03,9.149681031703948975e-02,-7.532848417758941650e-02,-4.229871928691864014e-02,-3.471576422452926636e-02,-2.003645338118076324e-02,7.387962192296981812e-02,-3.564912825822830200e-02,-6.429296731948852539e-02,-1.618150062859058380e-02,3.951695282012224197e-03,-9.273497760295867920e-02,-6.595733016729354858e-02,-4.291041940450668335e-02,-7.002952694892883301e-02,2.580829150974750519e-02,1.889570266939699650e-04,2.511072903871536255e-03,3.076183982193470001e-02,-4.707706347107887268e-02,-1.161163393408060074e-02,3.757508937269449234e-03,2.174215577542781830e-02,4.247144609689712524e-02,2.281703241169452667e-02,3.034606017172336578e-02,2.094419300556182861e-02,2.322624623775482178e-02,-1.036917231976985931e-02,-3.307390958070755005e-02,2.414861507713794708e-02,-1.410372462123632431e-02,6.902001332491636276e-03,-2.398157957941293716e-03,-2.061151340603828430e-02,1.379861216992139816e-02,-6.908817589282989502e-02,-8.884949982166290283e-02,-7.816813141107559204e-02,1.177062559872865677e-02,2.708956040441989899e-02,-2.267466671764850616e-02,-7.483938336372375488e-02,-4.117096960544586182e-02,8.131477050483226776e-03,2.689652703702449799e-02,-1.073987502604722977e-02,1.403586473315954208e-02,1.748563908040523529e-02,2.732719667255878448e-02,-2.293660864233970642e-02,1.439091283828020096e-02,-9.973033331334590912e-03,3.487809747457504272e-02,-9.054862894117832184e-03,-5.668484047055244446e-02,1.774829812347888947e-02,-2.122075110673904419e-02,-1.126318890601396561e-02,3.053420782089233398e-02,1.622208580374717712e-02,-7.538577169179916382e-02,-1.215216442942619324e-01,-7.530659437179565430e-02,-1.975021697580814362e-02,-1.808436028659343719e-02,-2.334290184080600739e-03,-3.543142229318618774e-02,3.462890628725290298e-03,3.760749846696853638e-02,5.910513177514076233e-02,1.955806650221347809e-02,5.013875663280487061e-03,1.618363149464130402e-02,5.786338448524475098e-02,4.420404136180877686e-02,5.714019387960433960e-02,2.687808126211166382e-02,7.943364977836608887e-02,-3.470468521118164062e-02,-9.349562227725982666e-02,-5.890439450740814209e-02,9.938674420118331909e-02,1.005173176527023315e-01,4.061239212751388550e-02,6.024305894970893860e-02,1.010167598724365234e-01,3.605338931083679199e-02,3.027171827852725983e-02,-1.874956884421408176e-03,-1.827424764633178711e-02,-1.434400584548711777e-02,8.682835847139358521e-03,-3.721789643168449402e-02,-2.108843065798282623e-03,4.819829761981964111e-02,-6.280592083930969238e-02,-7.997646182775497437e-02,4.759227856993675232e-02,8.572491933591663837e-04,1.058336161077022552e-02,6.283110380172729492e-02,-3.942057490348815918e-03,2.001556567847728729e-02,8.774050325155258179e-02,-6.923882756382226944e-03,3.511351719498634338e-02,-3.196962550282478333e-02,2.230653539299964905e-02,3.079753741621971130e-02,-1.012949086725711823e-02,2.570297010242938995e-02,-9.242557920515537262e-03,2.414704859256744385e-02,-3.766864910721778870e-02,1.208234112709760666e-02,3.570442646741867065e-02,1.006121281534433365e-02,3.728925436735153198e-02,2.215337194502353668e-02,3.265812993049621582e-02,2.183421514928340912e-02,-2.971299365162849426e-02,3.465377911925315857e-02,-4.843097925186157227e-02,7.857657968997955322e-03,5.452097393572330475e-04,-1.579791307449340820e-03,-9.412367828190326691e-03,7.202733773738145828e-03,-7.101519964635372162e-03,-4.285191744565963745e-02,3.025078400969505310e-02,1.854921504855155945e-02,2.781300432980060577e-02,-3.303350508213043213e-02,-3.589769080281257629e-02,-1.782109215855598450e-02,-7.909148931503295898e-03,-1.087014004588127136e-02,-2.315024845302104950e-02,2.050392329692840576e-03,4.418984428048133850e-02,1.083278656005859375e-02,3.476564213633537292e-02,-3.630118444561958313e-02,1.605874672532081604e-02,-1.956224441528320312e-03,2.589602582156658173e-02,4.173248540610074997e-03,-8.905902504920959473e-04,3.896734490990638733e-02,-1.432427763938903809e-02,6.930328905582427979e-03,-1.351658254861831665e-02,4.523045197129249573e-02,1.809020712971687317e-02,-3.638061508536338806e-02,-1.769349910318851471e-02,-4.425988718867301941e-02,-2.167783863842487335e-02,2.002211101353168488e-02,-4.594840481877326965e-02,4.540702700614929199e-02,9.974502027034759521e-03,8.851503022015094757e-03,-9.381643496453762054e-03,7.092528510838747025e-03,1.486063376069068909e-02,5.791590665467083454e-04,2.967850677669048309e-02,-5.958837643265724182e-02,5.767881404608488083e-03,-5.711217597126960754e-02,9.391944855451583862e-03,-6.114109605550765991e-02,-3.205823153257369995e-02,-1.244373060762882233e-02,4.232850857079029083e-03,1.935477927327156067e-02,1.140818744897842407e-02,-3.325419872999191284e-02,3.319681435823440552e-02,-6.540764123201370239e-03,-2.483480051159858704e-02,-3.589195758104324341e-02,-2.967952564358711243e-02,-3.455059230327606201e-02,-5.439023301005363464e-02,-6.013700738549232483e-02,-2.131354622542858124e-02,-4.056297242641448975e-02,-1.299467310309410095e-02,3.398402407765388489e-02,1.390865817666053772e-02,5.106624215841293335e-03,2.876275591552257538e-02,3.374386951327323914e-02,-4.253991320729255676e-02,-6.831926293671131134e-03,-1.165285240858793259e-02,-5.722119286656379700e-02,3.765508532524108887e-02,-4.222925752401351929e-02,-6.111544370651245117e-02,9.364764206111431122e-03,3.375789150595664978e-02,4.897712543606758118e-02,-8.070778101682662964e-03,3.368787933140993118e-03,-5.528070963919162750e-03,2.690391615033149719e-02,-7.585167884826660156e-03,-5.530676245689392090e-02,5.445694550871849060e-04,-5.177678167819976807e-02,3.323756158351898193e-02,-1.708379760384559631e-02,5.416774656623601913e-03,-2.019175887107849121e-02,1.679269783198833466e-02,2.287522144615650177e-02,-1.984725706279277802e-02,4.958835896104574203e-03,4.696968477219343185e-03,2.243957482278347015e-02,2.378235757350921631e-02,-3.339539840817451477e-02,-4.155987128615379333e-02,3.030401840806007385e-02,-3.124475106596946716e-02,-4.763132333755493164e-02,1.268790289759635925e-02,3.570888563990592957e-02,-7.356620393693447113e-03,5.535614211112260818e-03,-5.421850830316543579e-02,-4.096404835581779480e-02,2.293119207024574280e-02,-1.321628876030445099e-02,3.680913895368576050e-02,3.178973123431205750e-02,-5.213194340467453003e-02,-2.189080044627189636e-02,-6.001397222280502319e-02,-4.362035077065229416e-03,5.785174295306205750e-02,-4.728614166378974915e-02,-2.817334420979022980e-02,-2.689527347683906555e-02,2.617574296891689301e-02,-6.433408707380294800e-04,-4.692841321229934692e-02,-3.569502755999565125e-02,-1.663076691329479218e-02,-1.088069053366780281e-03,1.987664727494120598e-03,1.482837274670600891e-02,-5.958665162324905396e-03,3.325690701603889465e-02,5.941409617662429810e-03,3.920868411660194397e-02,-4.816260561347007751e-02,-1.814980059862136841e-03,1.535969600081443787e-02,3.198359534144401550e-02,-4.726468399167060852e-02,-3.941154479980468750e-02,-3.889284655451774597e-02,2.271879091858863831e-02,-3.005274012684822083e-02,-3.054541908204555511e-02,-4.276523739099502563e-02,-3.221868723630905151e-02,-3.475733101367950439e-03,-3.344623744487762451e-02,4.759125038981437683e-02,-4.347592592239379883e-02,-2.087312564253807068e-02,-5.189903825521469116e-02,4.040427971631288528e-03,3.902343288064002991e-02,-3.023188002407550812e-02,-7.226291112601757050e-03,2.052501216530799866e-02,8.584652096033096313e-03,-5.691273137927055359e-02,-5.670198053121566772e-02,-2.687714621424674988e-02,-1.997442729771137238e-02,1.521042175590991974e-02,-5.811743438243865967e-02,-1.177985104732215405e-03,-5.013303458690643311e-02,-6.079014018177986145e-02,-4.324453417211771011e-03,-5.030846968293190002e-02,6.641864893026649952e-04,2.199228480458259583e-02,-2.690824307501316071e-02,-4.964576289057731628e-02,2.079384028911590576e-02,2.695135027170181274e-02,2.453093416988849640e-02,2.384781278669834137e-02,-3.805630654096603394e-02,-5.936190113425254822e-02,-3.707097098231315613e-02,8.383539505302906036e-03,-2.914993092417716980e-02,1.252006925642490387e-02,1.928731240332126617e-02,-9.255008626496419311e-05,2.568065561354160309e-02,-5.409475043416023254e-02,-5.585508421063423157e-02,3.583714133128523827e-03,-3.754810243844985962e-02,-5.657052248716354370e-02,1.410513278096914291e-02,-5.052739009261131287e-02,-5.759757384657859802e-02,-2.018967829644680023e-02,-2.988674864172935486e-02,-4.733807593584060669e-02,2.650446444749832153e-02,-3.827526420354843140e-02,1.634863018989562988e-02,1.156440097838640213e-02,-1.028981804847717285e-02,-7.742728106677532196e-03,-2.553409151732921600e-02,2.472299709916114807e-02,3.375153988599777222e-03,-3.417519479990005493e-02,-2.041214518249034882e-02,2.664444223046302795e-02,-8.918810635805130005e-03,1.840840466320514679e-02,5.529907718300819397e-02,4.398382827639579773e-02,-1.960963010787963867e-02,3.457210958003997803e-03,-3.371882066130638123e-02,-2.062334865331649780e-02,1.274004206061363220e-02,-3.052571229636669159e-02,-4.267767071723937988e-02,2.468538470566272736e-02,2.378533780574798584e-02,-3.800553828477859497e-02,5.413405597209930420e-03,-2.277619205415248871e-02,-5.130821838974952698e-02,-5.529097840189933777e-02,2.912977151572704315e-02,-3.951226547360420227e-02,1.224114559590816498e-03,-2.464026398956775665e-02,2.599564380943775177e-03,-2.982456609606742859e-02,1.371193397790193558e-02,-1.966117322444915771e-02,3.199876844882965088e-02,-1.088551525026559830e-02,-5.362628400325775146e-02,-3.060287609696388245e-02,-5.216252058744430542e-02,-2.480222284793853760e-02,1.452789548784494400e-02,-2.097813412547111511e-02,-4.960165545344352722e-02,1.903686858713626862e-02,-4.714806750416755676e-02,3.572981432080268860e-02,-3.177782893180847168e-02,-1.762785576283931732e-02,-5.747979041188955307e-03,2.955896407365798950e-02,-3.622464090585708618e-02,-2.328836126253008842e-04,-4.621787369251251221e-02,-1.793656870722770691e-02,1.289520319551229477e-02,2.885151654481887817e-03,-3.631556406617164612e-02,5.841682851314544678e-02,4.961938410997390747e-02,4.340497031807899475e-02,2.910816483199596405e-02,-5.622838065028190613e-02,-1.516596972942352295e-02,2.203495800495147705e-02,2.107825502753257751e-02,-5.870822072029113770e-02,-4.441924393177032471e-02,2.733197063207626343e-02,-8.903793990612030029e-03,-3.012097999453544617e-02,-4.876478388905525208e-02,3.772925212979316711e-02,-3.320574760437011719e-02,7.304235827177762985e-03,3.493988513946533203e-02,2.912097238004207611e-02,2.762014605104923248e-02,2.081098966300487518e-02,-1.380146422889083624e-04,-5.612244457006454468e-02,3.545313701033592224e-02,1.762601919472217560e-02,-5.093031562864780426e-03,-4.119572788476943970e-02,2.551386132836341858e-02,-6.311317556537687778e-04,-3.806063160300254822e-02,-6.956090801395475864e-04,-7.492062635719776154e-03,2.954551950097084045e-02,1.496139680966734886e-03,1.554120332002639771e-02,-8.592674275860190392e-04,-2.339009195566177368e-02,-5.321217328310012817e-02,3.584146033972501755e-03,1.814989186823368073e-02,-1.194351166486740112e-02,-5.799416452646255493e-02,1.409840025007724762e-02,1.120940130203962326e-02,-3.418215364217758179e-02,-4.474011436104774475e-02,-3.586554899811744690e-02,-2.352331951260566711e-02,-3.455406427383422852e-02,-1.113445870578289032e-02,-5.580770224332809448e-02,-1.089441869407892227e-02,-5.589696229435503483e-04,-2.586766786407679319e-04,-1.754293218255043030e-02,1.352215185761451721e-02,-3.934328258037567139e-02,-5.825660005211830139e-02,-2.971731312572956085e-02,-2.976506389677524567e-02,-5.088045727461576462e-03,3.656338155269622803e-02,-2.919327840209007263e-02,-1.867353171110153198e-02,-4.691506922245025635e-02,4.266400821506977081e-03,6.238712929189205170e-03,3.097940981388092041e-02,1.059646531939506531e-02,-1.171222049742937088e-02,-4.872351884841918945e-02,4.227183014154434204e-02,-1.110153738409280777e-02,-3.814903029706329107e-04,-2.647589519619941711e-02,-1.964515075087547302e-02,1.804373972117900848e-02,-2.225716161774471402e-05,-1.285477727651596069e-02,2.209832891821861267e-03,-1.397761516273021698e-02,2.538562193512916565e-02,-5.539163947105407715e-02,-4.743336886167526245e-02,-8.938231505453586578e-03,9.942317381501197815e-03,8.052813820540904999e-03,2.533020265400409698e-02,-3.341328725218772888e-02,-5.143902823328971863e-02,2.600597403943538666e-02,2.641683444380760193e-02,1.072931569069623947e-02,1.341387536376714706e-02,-3.175394237041473389e-02,2.381817623972892761e-02,3.210617229342460632e-03,1.777672581374645233e-02,-5.275142565369606018e-02,1.963392831385135651e-02,-4.781731404364109039e-03,-2.599055320024490356e-02,-1.495495811104774475e-02,1.053961738944053650e-02,-3.426373004913330078e-02,-6.155949551612138748e-03,1.872707903385162354e-02,1.617978885769844055e-02,3.431881964206695557e-02,-1.007050089538097382e-02,3.104128874838352203e-02,5.315526854246854782e-03,-5.151430889964103699e-02,2.165357582271099091e-02,1.753694191575050354e-02,-5.324735119938850403e-02,-3.263897448778152466e-02,-3.829265944659709930e-03,-5.080949142575263977e-02,2.626556716859340668e-02,-3.095152787864208221e-02,-1.176926866173744202e-02,-8.080562204122543335e-02,-9.224832803010940552e-02,-2.001279033720493317e-02,3.242051228880882263e-02,1.263013575226068497e-02,-6.781355291604995728e-02,-5.094832181930541992e-02,-3.392523527145385742e-02,3.932105004787445068e-02,2.043240144848823547e-02,4.204094037413597107e-02,-5.951650813221931458e-02,-1.564256660640239716e-02,3.637281432747840881e-02,1.392873190343379974e-02,8.532138913869857788e-02,2.183627150952816010e-02,-3.871196508407592773e-02,-3.740366175770759583e-02,5.112517997622489929e-02,3.281581914052367210e-03,1.360275968909263611e-02,-3.333200141787528992e-02,2.438727393746376038e-02,2.161347656510770321e-04,-5.012039560824632645e-03,-4.709646478295326233e-02,5.727154016494750977e-02,-1.054598949849605560e-02,7.589489221572875977e-02,1.066225487738847733e-02,-5.536020919680595398e-02,-5.910908430814743042e-02,1.599498093128204346e-02,1.464144513010978699e-02,2.135252580046653748e-02,-6.443876028060913086e-02,8.934442885220050812e-03,2.609472535550594330e-02,5.993856862187385559e-02,-1.562325097620487213e-02,-1.708312146365642548e-02,-3.168749855831265450e-03,1.286192610859870911e-02,2.687774784862995148e-02,2.747974917292594910e-02,2.775449864566326141e-02,5.138888210058212280e-02,3.118281997740268707e-02,-1.927301101386547089e-02,-1.919742114841938019e-02,3.660408779978752136e-02,4.569660406559705734e-03,2.646887488663196564e-02,4.094522446393966675e-02,1.088541466742753983e-02,-6.362985074520111084e-02,-6.183188408613204956e-02,2.298194542527198792e-02,6.892674416303634644e-02,5.262396857142448425e-02,1.887153647840023041e-02,3.509211540222167969e-02,1.580416597425937653e-02,8.561499416828155518e-02,-3.225399553775787354e-02,2.038700878620147705e-02,-4.319822043180465698e-02,-6.283889524638652802e-03,-4.830333963036537170e-02,7.211037725210189819e-02,1.020081266760826111e-01,4.761635512113571167e-02,-5.075715854763984680e-02,-5.285043269395828247e-02,-1.992011442780494690e-02,3.586381673812866211e-02,-3.078105859458446503e-02,6.604085117578506470e-02,1.325006503611803055e-02,2.589649148285388947e-02,3.388887271285057068e-02,2.744580432772636414e-02,2.371793054044246674e-02,4.902572184801101685e-02,9.493562392890453339e-03,1.450494397431612015e-02,-5.919412523508071899e-02,-1.153187919408082962e-02,-7.362694013863801956e-03,6.542769074440002441e-02,-2.741928957402706146e-02,-4.883350059390068054e-02,-4.123391211032867432e-02,-4.011024162173271179e-02,7.873228192329406738e-02,3.418404981493949890e-02,4.526881873607635498e-02,-1.849179156124591827e-02,-9.117490053176879883e-02,-7.647584378719329834e-02,-2.909265272319316864e-02,1.244529383257031441e-03,-7.659108377993106842e-03,-5.846381187438964844e-02,-1.657171919941902161e-02,3.793957829475402832e-02,-3.609064966440200806e-02,4.213460162281990051e-02,-1.505404617637395859e-02,-6.016921252012252808e-03,-2.745722793042659760e-02,-3.629039600491523743e-02,4.343698546290397644e-02,1.698870398104190826e-02,-1.104066800326108932e-02,1.498129498213529587e-02,-5.161543563008308411e-02,2.220215462148189545e-02,-6.850384920835494995e-02,3.688907250761985779e-02,8.783250115811824799e-03,-3.530694171786308289e-02,3.113055601716041565e-02,-2.252635918557643890e-02,-5.404200777411460876e-02,-4.111098498106002808e-02,-1.662416942417621613e-02,4.873929917812347412e-02,-8.896578103303909302e-02,1.393995806574821472e-02,4.947499558329582214e-02,-3.023122623562812805e-02,6.323696672916412354e-02,6.053425371646881104e-03,-1.004832759499549866e-01,-4.640797525644302368e-02,-8.401239290833473206e-03,-2.881744690239429474e-02,-5.670431628823280334e-02,-7.278481125831604004e-02,-4.276166111230850220e-02,-1.561741437762975693e-02,-2.665973640978336334e-02,-5.840662494301795959e-02,8.189273066818714142e-03,7.178161758929491043e-03,3.260012716054916382e-02,-6.462819874286651611e-02,3.924747183918952942e-02,2.052935957908630371e-02,-2.824404835700988770e-02,-5.858499556779861450e-03,6.698817014694213867e-05,-8.915077894926071167e-03,3.960204124450683594e-02,6.423900276422500610e-02,1.048428937792778015e-02,-1.011769170872867107e-03,-4.559291899204254150e-02,6.578665226697921753e-03,-3.398881852626800537e-02,2.888380922377109528e-02,3.019359335303306580e-02,3.419077768921852112e-02,-3.614965826272964478e-02,-5.478378757834434509e-02,2.080179378390312195e-02,-3.287088125944137573e-03,6.017813086509704590e-02,-3.247904404997825623e-02,5.973375961184501648e-02,6.320352666079998016e-03,-3.799030557274818420e-02,1.241001561284065247e-01,4.465867578983306885e-02,-4.208379611372947693e-02,-4.793540760874748230e-02,4.959975555539131165e-02,9.121869504451751709e-02,5.206012353301048279e-02,-1.051790919154882431e-02,-4.640714824199676514e-02,6.788653135299682617e-02,1.223160699009895325e-01,7.528632134199142456e-02,1.730449125170707703e-02,-6.380612403154373169e-02,2.162029594182968140e-02,9.508094936609268188e-02,2.267207577824592590e-02,-3.427813202142715454e-02,-5.235553532838821411e-02,1.280872058123350143e-02,1.759879291057586670e-02,-2.186138182878494263e-02,1.470096316188573837e-02,4.541995003819465637e-02,5.632470548152923584e-02,-1.639101468026638031e-02,-4.948804154992103577e-02,-8.733076602220535278e-02,-5.982543900609016418e-02,2.823849208652973175e-02,-2.100079692900180817e-02,-1.817262917757034302e-02,-8.231890201568603516e-02,1.649831235408782959e-02,7.106867432594299316e-02,-2.480607107281684875e-02,8.881826885044574738e-03,-1.391101535409688950e-02,-4.422562196850776672e-02,8.214278146624565125e-03,1.077035069465637207e-02,4.399907216429710388e-02,-5.613005906343460083e-02,-2.875067293643951416e-02,-1.199263427406549454e-02,-2.020319923758506775e-02,3.184355422854423523e-02,-2.719138748943805695e-02,4.001607187092304230e-03,6.765841972082853317e-03,-8.546008914709091187e-02,-1.228736564517021179e-01,-1.782116852700710297e-02,-2.974539436399936676e-02,1.233587563037872314e-01,-1.976936683058738708e-02,-4.738885536789894104e-02,5.285650026053190231e-03,-3.167756646871566772e-02,3.667807951569557190e-02,-8.014128357172012329e-02,-4.163790121674537659e-02,-6.448709964752197266e-02,-8.034008741378784180e-02,1.290070125833153725e-03,1.885621063411235809e-02,4.283603746443986893e-03,-2.141683734953403473e-02,2.959714829921722412e-02,4.815733805298805237e-02,1.274032611399888992e-02,-3.862776793539524078e-03,-1.566958986222743988e-02,2.670415490865707397e-02,6.537954509258270264e-02,-8.004604279994964600e-02,-9.833813644945621490e-03,3.188743814826011658e-02,-3.657041117548942566e-02,2.197319082915782928e-02,-8.324163407087326050e-02,2.665987983345985413e-02,-1.351136993616819382e-02,1.830739341676235199e-02,1.974073238670825958e-02,9.342120960354804993e-03,8.014681190252304077e-02,-1.470440998673439026e-02,-8.096829801797866821e-02,4.304436966776847839e-02,-9.640988893806934357e-03,-7.423221599310636520e-03,6.515175104141235352e-03,3.053120896220207214e-02,6.059204787015914917e-02,3.406044840812683105e-02,1.573473401367664337e-02,5.438397452235221863e-02,6.309489160776138306e-02,2.850543335080146790e-02,-5.353350192308425903e-03,2.669789269566535950e-02,-3.348973765969276428e-02,-7.048239558935165405e-02,1.085055395960807800e-01,5.662602372467517853e-03,-6.121393665671348572e-02,-3.235397115349769592e-02,3.234399482607841492e-02,1.076348721981048584e-01,9.009106084704399109e-03,-4.337797313928604126e-02,-7.804965227842330933e-02,6.884335726499557495e-02,9.116781502962112427e-02,-2.281996048986911774e-02,-6.125129386782646179e-02,-3.587802406400442123e-03,1.840518601238727570e-02,2.329817786812782288e-02,6.085929274559020996e-02,1.777818053960800171e-02,-4.914519563317298889e-02,3.230639919638633728e-02,-9.392443113029003143e-03,-3.547191992402076721e-02,-7.589106447994709015e-03,2.249496802687644958e-02,-2.986130677163600922e-02,4.927845671772956848e-02,3.273107856512069702e-02,4.491194337606430054e-02,2.114664390683174133e-02,2.492736838757991791e-02,-3.625988587737083435e-02,9.415887296199798584e-03,4.424889013171195984e-02,2.063874714076519012e-02,-6.089429184794425964e-02,2.146766334772109985e-02,-4.397941753268241882e-02,1.449041906744241714e-02,7.961153239011764526e-02,2.703349664807319641e-02,-6.140935583971440792e-04,-1.977726444602012634e-02,5.264899134635925293e-02,2.550990320742130280e-02,-1.116395089775323868e-02,-2.651440724730491638e-02,4.473591223359107971e-03,4.517264664173126221e-02,5.033286660909652710e-02,5.217233300209045410e-02,5.513729411177337170e-04,2.634197659790515900e-02,3.979257773607969284e-03,3.245827183127403259e-02,7.583153899759054184e-03,-4.788431804627180099e-03,7.447186112403869629e-02,7.923505455255508423e-02,-2.139321900904178619e-02,-6.315036118030548096e-02,6.395929306745529175e-02,9.113388136029243469e-03,4.323616996407508850e-02,3.001995384693145752e-02,5.746896564960479736e-02,6.506638973951339722e-02,7.553544826805591583e-03,3.379146382212638855e-02,-2.353360876441001892e-02,4.550920054316520691e-02,3.840682655572891235e-02,2.361886948347091675e-02,9.112707525491714478e-02,7.134718447923660278e-02,1.496625016443431377e-03,2.932763472199440002e-02,1.214273571968078613e-01,1.554691605269908905e-02,8.777412585914134979e-03,-7.396535575389862061e-02,-2.833050489425659180e-02,9.629136323928833008e-02,3.304897248744964600e-02,2.057052217423915863e-02,-1.019322276115417480e-01,2.740139700472354889e-02,6.818142533302307129e-02,5.141109228134155273e-02,-1.996691338717937469e-02,-1.854990050196647644e-02,3.604544326663017273e-02,1.472644042223691940e-02,-5.679340288043022156e-02,1.223246846348047256e-02,-7.603024714626371861e-04,-6.296757142990827560e-03,-8.672076463699340820e-02,-4.158215969800949097e-02,-5.832631606608629227e-03,2.604472637176513672e-02,-1.015965826809406281e-02,-8.657549321651458740e-02,5.665050446987152100e-02,-1.828850246965885162e-02,-5.034889280796051025e-02,-3.845731168985366821e-02,2.104824967682361603e-02,5.947876721620559692e-02,-1.555169373750686646e-02,-4.445285350084304810e-02,5.380791053175926208e-02,-9.239834733307361603e-03,-5.680045858025550842e-02,-1.814812049269676208e-02,-3.705689311027526855e-02,1.927914470434188843e-02,6.336660683155059814e-02,-4.814621526747941971e-03,-3.397655114531517029e-02,9.140807203948497772e-03,4.416172858327627182e-03,-1.906241662800312042e-02,-4.506013914942741394e-02,-3.782634064555168152e-02,-7.442308217287063599e-02,-4.228350240737199783e-03,2.087168395519256592e-02,-5.855265259742736816e-02,-1.277855038642883301e-02,-1.741262152791023254e-03,3.847469389438629150e-02,8.560390211641788483e-03,6.328823044896125793e-03,-8.042986504733562469e-03,1.150492392480373383e-02,-2.286708680912852287e-03,4.931213799864053726e-03,3.947337158024311066e-03,5.906438827514648438e-02,5.870334804058074951e-02,-6.203489378094673157e-03,-2.997434139251708984e-02,6.581054627895355225e-02,3.013120498508214951e-03,2.979808300733566284e-02,9.955341927707195282e-03,5.920171365141868591e-02,7.273965748026967049e-04,-2.140465192496776581e-02,-2.177984267473220825e-02,-9.577730670571327209e-04,6.317888200283050537e-02,6.964454799890518188e-02,-2.178992703557014465e-02,1.889165677130222321e-02,1.312568504363298416e-02,-3.032269515097141266e-02,3.419944271445274353e-02,-3.847119212150573730e-02,8.109734207391738892e-02,1.545986905694007874e-02,1.663319207727909088e-02,4.482386633753776550e-02,1.398485712707042694e-02,1.606588996946811676e-02,-2.907254733145236969e-02,1.175355911254882812e-02,1.490188855677843094e-02,2.971464954316616058e-02,-1.763264462351799011e-02,-3.170250728726387024e-02,2.849362790584564209e-02,6.398482248187065125e-03,-4.726755619049072266e-02,-4.714870825409889221e-02,7.381576299667358398e-02,4.590630158782005310e-02,3.351856023073196411e-02,-1.867716573178768158e-02,-5.484036356210708618e-02,-6.360093504190444946e-02,1.712620444595813751e-02,7.996809668838977814e-03,9.056380391120910645e-02,3.170140832662582397e-02,-2.380448393523693085e-02,2.256575040519237518e-02,-4.898590594530105591e-02,1.641273498535156250e-02,3.258793801069259644e-02,-1.041080802679061890e-02,-5.956424865871667862e-03,2.747288718819618225e-02,5.624160543084144592e-02,3.641296178102493286e-02,9.643191099166870117e-02,-1.545866392552852631e-02,-3.571939468383789062e-02,-2.754709310829639435e-02,-1.093771215528249741e-02,9.695994853973388672e-02,-3.706032782793045044e-02,2.126242779195308685e-02,-2.807824313640594482e-02,1.255445089191198349e-02,3.911980241537094116e-02,5.062692239880561829e-02,7.060133665800094604e-02,3.735919669270515442e-02,2.923369035124778748e-02,-1.330587919801473618e-02,7.534504681825637817e-02,5.237109959125518799e-02,7.123174518346786499e-02,6.224258244037628174e-02,2.054552361369132996e-02,-6.710185203701257706e-03,3.305975347757339478e-02,5.904367193579673767e-03,-9.379822760820388794e-03,-4.780162125825881958e-03,-9.228221327066421509e-02,-8.132390677928924561e-03,-3.482118248939514160e-02,-6.573016196489334106e-02,6.250477582216262817e-02,1.852940022945404053e-02,-3.552739741280674934e-03,5.850249528884887695e-02,2.438520826399326324e-02,3.489391133189201355e-02,5.883636698126792908e-02,2.896937914192676544e-02,4.723145440220832825e-02,2.163404366001486778e-03,-5.450561270117759705e-02,5.845417082309722900e-02,6.463712453842163086e-02,3.531399369239807129e-02,2.014218829572200775e-02,-9.762249886989593506e-03,2.911449782550334930e-02,7.122053205966949463e-02,6.184897944331169128e-02,6.388063193298876286e-04,4.568269103765487671e-02,-1.574445217847824097e-01,-1.129084378480911255e-01,-3.288587555289268494e-02,3.488374501466751099e-02,1.559426039457321167e-01,-2.495287545025348663e-02,-5.293320491909980774e-02,-2.535990066826343536e-02,-2.119562961161136627e-02,1.326486766338348389e-01,4.007104039192199707e-02,1.860875822603702545e-02,5.610382184386253357e-02,2.183261699974536896e-02,3.303390368819236755e-02,2.942160144448280334e-02,7.469835132360458374e-02,6.938546895980834961e-02,5.169515963643789291e-03,-3.768369928002357483e-02,9.543757885694503784e-02,-1.620472408831119537e-02,-4.645931348204612732e-02,-5.951325595378875732e-02,-4.886226356029510498e-02,1.578921452164649963e-02,-2.194147743284702301e-02,2.401128783822059631e-02,1.794170588254928589e-03,-1.988632045686244965e-02,4.387105628848075867e-02,4.744629189372062683e-02,1.101482659578323364e-02,-4.335355013608932495e-03,1.402422785758972168e-04,-1.677222549915313721e-03,1.288843527436256409e-02,-1.573374867439270020e-02,4.424652084708213806e-02,1.177040860056877136e-02,2.637122943997383118e-02,1.558068674057722092e-02,-4.547945037484169006e-02,1.837963238358497620e-02,-4.562756419181823730e-02,4.098539426922798157e-02,5.980049073696136475e-02,-2.909292653203010559e-02,-4.240928217768669128e-02,-3.726215288043022156e-02,1.199960708618164062e-01,1.044566482305526733e-01,2.366270869970321655e-03,6.014242302626371384e-03,3.390940278768539429e-02,-2.985926531255245209e-02,5.261164158582687378e-02,-6.790509074926376343e-02,-1.907433033920824528e-03,-3.076821193099021912e-02,-5.399456620216369629e-02,-1.388590596616268158e-02,-6.489600241184234619e-02,1.310031954199075699e-02,-5.266608297824859619e-02,-2.841041050851345062e-02,-7.211883366107940674e-02,7.030905038118362427e-02,4.513027146458625793e-03,-3.335004299879074097e-02,3.059226833283901215e-02,-1.889088749885559082e-02,-1.282446831464767456e-02,2.943771518766880035e-02,2.409514039754867554e-02,2.100462652742862701e-02,-5.788221210241317749e-02,-5.795787274837493896e-02,-9.619808942079544067e-02,-1.625508256256580353e-02,-5.416866391897201538e-02,-2.540116943418979645e-02,-4.248142242431640625e-02,-2.429920434951782227e-02,-4.681674763560295105e-02,2.215179149061441422e-03,4.143243655562400818e-02,1.395896971225738525e-01,7.991822808980941772e-02,-1.861401274800300598e-02,7.850965112447738647e-02,1.011964306235313416e-01,3.262724354863166809e-02,1.013962998986244202e-01,7.944437861442565918e-02,1.485642418265342712e-02,7.343856990337371826e-02,-3.828924894332885742e-02,3.346485272049903870e-02,-3.461224213242530823e-02,-1.434601098299026489e-01,-1.061387583613395691e-01,-1.008979976177215576e-01,6.265988200902938843e-02,1.298508495092391968e-01,-6.791793555021286011e-02,-1.621752418577671051e-02,-7.857414335012435913e-02,-7.308518886566162109e-02,5.583957582712173462e-02,2.144786529242992401e-02,2.917121909558773041e-02,-3.410957008600234985e-02,1.537351682782173157e-02,4.874277114868164062e-02,1.919341087341308594e-02,4.909431189298629761e-02,3.541955351829528809e-02,4.563453793525695801e-02,-6.188590195961296558e-04,1.754162483848631382e-03,5.055650696158409119e-02,-4.285915289074182510e-03,2.189767546951770782e-02,-5.028414726257324219e-02,-9.192436933517456055e-02,-5.570762604475021362e-02,1.859872601926326752e-02,-3.412159904837608337e-02,7.982610166072845459e-02,-2.519238740205764771e-02,-3.534583002328872681e-02,-2.380822226405143738e-02,1.717382483184337616e-02,1.404120959341526031e-02,5.743370205163955688e-02,8.302324451506137848e-03,-1.231479551643133163e-02,3.437288105487823486e-02,5.147208645939826965e-02,3.080929070711135864e-02,4.964717477560043335e-02,-3.208903595805168152e-03,6.748776882886886597e-03,-5.900393798947334290e-02,-1.451503671705722809e-02,-1.667315512895584106e-02,-9.167011594399809837e-04,2.703540213406085968e-02,2.195187658071517944e-02,-7.660085801035165787e-03,1.112795341759920120e-02,2.116654813289642334e-02,-8.702950924634933472e-02,-3.297891095280647278e-02,-2.204278111457824707e-02,-8.907247334718704224e-02,-1.798387616872787476e-02,2.889916487038135529e-02,1.027218773961067200e-01,-3.729293495416641235e-02,-2.330238930881023407e-02,-3.080586902797222137e-02,-7.734409999102354050e-03,4.490985348820686340e-02,6.545567512512207031e-02,8.029473572969436646e-02,6.118000671267509460e-02,-5.888618901371955872e-02,2.662283834069967270e-03,3.648385778069496155e-02,1.097365841269493103e-02,1.262124069035053253e-02,6.635420769453048706e-02,-4.020925611257553101e-02,1.335998345166444778e-02,-4.653581231832504272e-02,-2.412059158086776733e-02,-3.997364267706871033e-02,-3.124632127583026886e-02,2.516622096300125122e-02,2.943329326808452606e-02,4.181902110576629639e-02,1.420099288225173950e-02,6.517993169836699963e-04,7.627581804990768433e-02,7.840945571660995483e-02,8.278871327638626099e-02,8.342038840055465698e-02,-5.186343565583229065e-02,4.055773897562175989e-04,-5.886897817254066467e-02,-4.707715287804603577e-02,2.202760055661201477e-02,1.684106141328811646e-02,-5.394924432039260864e-02,-5.730323866009712219e-02,-3.305396437644958496e-02,6.270359270274639130e-03,3.352028504014015198e-02,5.317856092005968094e-03,6.676315516233444214e-02,2.576543763279914856e-02,-3.001708164811134338e-02,5.421830713748931885e-02,-6.066542584449052811e-03,7.757515460252761841e-02,3.925622999668121338e-02,-3.628960251808166504e-02,-4.920356720685958862e-02,-3.385129151865839958e-03,-3.121270798146724701e-03,-3.361175581812858582e-02,-5.315889790654182434e-02,-5.151848495006561279e-02,-4.672735556960105896e-02,-4.166722297668457031e-02,-3.791854158043861389e-02,1.374727953225374222e-02,-6.285966187715530396e-02,1.506563276052474976e-02,5.342538934201002121e-03,-2.280408749356865883e-03,3.364458680152893066e-02,2.016136609017848969e-02,5.161306634545326233e-02,-3.316566115245223045e-03,1.574996486306190491e-02,-3.112811222672462463e-02,6.034323945641517639e-02,-2.622773172333836555e-03,4.201339185237884521e-02,-2.083732560276985168e-02,1.282682176679372787e-02,-1.241397671401500702e-02,2.432899922132492065e-02,-6.952321622520685196e-03,-7.550988811999559402e-03,-4.871754720807075500e-02,8.598656393587589264e-03,-6.014339625835418701e-02,8.497285656630992889e-03,4.316614195704460144e-02,1.559966988861560822e-02,-1.281086504459381104e-01,1.546399854123592377e-02,3.888119757175445557e-02,1.648919284343719482e-02,-3.413894912227988243e-03,7.041975390166044235e-03,-1.320168077945709229e-01,-6.063733249902725220e-02,-2.852153033018112183e-03,7.052721083164215088e-02,9.381571412086486816e-02,1.584010012447834015e-02,-6.796967238187789917e-02,-7.417448610067367554e-02,-3.495858982205390930e-02,-2.874871529638767242e-02,2.983834221959114075e-02,7.188816368579864502e-02,5.268101766705513000e-02,4.378387331962585449e-02,-4.114709794521331787e-02,5.529661476612091064e-02,-2.235909551382064819e-02,-8.820517919957637787e-03,-1.434565987437963486e-03,3.235089778900146484e-02,5.058963224291801453e-02,-1.309620682150125504e-02,-1.677629724144935608e-02,-2.811353281140327454e-02,-1.180003280751407146e-03,-3.242471814155578613e-02,-3.039632691070437431e-03,-8.604581654071807861e-02,-5.043238401412963867e-02,3.125941380858421326e-02,3.867281600832939148e-02,-5.082543194293975830e-02,-8.208162337541580200e-02,-6.976632773876190186e-02,3.665445744991302490e-02,-7.254376541823148727e-03,4.474924504756927490e-02,-4.766032099723815918e-02,1.731677167117595673e-02,6.292276084423065186e-02,-6.863377243280410767e-02,1.993944495916366577e-02,2.369429543614387512e-02,4.516810923814773560e-02,4.657097160816192627e-02,-9.462000802159309387e-03,-6.110804621130228043e-03,-7.487414777278900146e-02,1.438480149954557419e-02,-1.090060640126466751e-02,-4.968370124697685242e-02,2.139399573206901550e-02,-2.158792503178119659e-02,-6.781656295061111450e-02,-2.441052161157131195e-02,-5.213253572583198547e-02,1.189814973622560501e-02,-5.757859908044338226e-04,-2.232971310149878263e-04,7.350491732358932495e-02,-5.636613350361585617e-03,5.253148451447486877e-02,-6.093371659517288208e-02,3.439760953187942505e-02,3.669534623622894287e-02,-3.681344911456108093e-02,4.986770823597908020e-02,5.881026759743690491e-02,4.323313012719154358e-02,2.972306311130523682e-02,-1.732304319739341736e-02,-3.985093906521797180e-03,-2.511858008801937103e-02,-4.601249471306800842e-02,-1.048696506768465042e-02,-4.059205949306488037e-02,9.049704298377037048e-03,-4.843507334589958191e-02,-6.488279998302459717e-02,-9.054924547672271729e-02,-2.152159996330738068e-02,6.753689795732498169e-02,-6.048260256648063660e-02,-2.595774270594120026e-02,3.826759010553359985e-02,7.830144464969635010e-02,3.367608413100242615e-02,-2.224551426479592919e-04,5.662614107131958008e-02,4.932286217808723450e-03,5.903696268796920776e-02,7.435859739780426025e-02,7.888623327016830444e-02,5.258185043931007385e-02,1.320245582610368729e-02,-2.097403630614280701e-02,-1.451117172837257385e-02,4.236198216676712036e-02,2.394985780119895935e-02,-2.739435061812400818e-02,-9.925433248281478882e-02,-4.174556955695152283e-02,-6.186872720718383789e-02,-1.135785058140754700e-01,-3.621960431337356567e-02,8.493445813655853271e-03,1.237696874886751175e-02,-1.411369442939758301e-02,2.467668987810611725e-02,-1.921498402953147888e-02,-7.234784308820962906e-03,4.262203350663185120e-02,3.759105131030082703e-02,8.923316001892089844e-02,-7.945162360556423664e-04,9.739654487930238247e-04,2.638920582830905914e-02,6.532093882560729980e-02,7.185328006744384766e-02,5.272831395268440247e-02,-2.137728594243526459e-02,-3.374293074011802673e-02,6.900812685489654541e-02,3.856257721781730652e-02,4.502594470977783203e-02,-7.367401570081710815e-02,-9.382649511098861694e-02,-8.303469419479370117e-02,-4.441031813621520996e-02,-6.745659280568361282e-03,-2.151276543736457825e-02,3.741983696818351746e-02,3.912849351763725281e-03,1.518821809440851212e-02,-2.412006072700023651e-02,6.296977400779724121e-03,-4.039845988154411316e-02,1.022547110915184021e-02,2.114923857152462006e-02,2.872744761407375336e-02,-3.531004860997200012e-02,-1.474232133477926254e-02,2.393880672752857208e-02,9.739884408190846443e-04,7.052347064018249512e-02,-7.057356089353561401e-02,3.271831199526786804e-02,-1.515383273363113403e-02,1.849350705742835999e-02,1.607334986329078674e-02,-5.858441069722175598e-02,-9.496515989303588867e-02,-6.330405175685882568e-02,-3.489610180258750916e-02,5.766697973012924194e-02,-9.600240737199783325e-02,-6.583105772733688354e-02,-3.328480944037437439e-02,-5.435326695442199707e-02,-1.824122481048107147e-02,3.609536215662956238e-02,4.214712604880332947e-02,8.802602440118789673e-02,7.277974486351013184e-02,5.828345566987991333e-02,4.472338594496250153e-03,-4.655772447586059570e-02,-4.443471785634756088e-03,7.156838476657867432e-02,8.030129224061965942e-02,-4.549683217192068696e-05,2.969626337289810181e-02,2.145316638052463531e-02,5.838556215167045593e-03,-4.123875498771667480e-02,3.556967154145240784e-02,-3.067147731781005859e-02,-1.712878420948982239e-02,-4.678100347518920898e-03,4.480908438563346863e-02,-2.912429533898830414e-02,-4.870226979255676270e-02,3.617754951119422913e-02,-7.344868034124374390e-03,-3.705076500773429871e-02,-3.289788030087947845e-03,2.452596649527549744e-02,-4.341313615441322327e-02,-4.570809006690979004e-02,1.784219220280647278e-02,4.778066650032997131e-02,-3.836945816874504089e-02,2.417324110865592957e-02,4.442655667662620544e-02,-4.210721328854560852e-02,3.692933917045593262e-02,-1.880227588117122650e-02,-3.989985678344964981e-03,-6.033442169427871704e-02,-2.158074453473091125e-02,1.652306914329528809e-01,9.675889462232589722e-02,8.083264529705047607e-02,7.937152869999408722e-03,1.642643124796450138e-03,-1.885808259248733521e-02,2.376304939389228821e-02,-4.692364111542701721e-02,-1.090243458747863770e-01,-2.787057496607303619e-02,5.085807293653488159e-02,6.361310806823894382e-05,-4.532923549413681030e-02,-9.969186037778854370e-02,2.249061875045299530e-02,4.469045996665954590e-02,3.356305137276649475e-02,3.653311170637607574e-03,-2.895146422088146210e-02,5.457840859889984131e-02,4.441111162304878235e-02,5.687753669917583466e-03,-1.449447218328714371e-02,3.898609057068824768e-02,5.903562158346176147e-02,6.696875207126140594e-03,-1.137156113982200623e-01,-1.430853605270385742e-01,-1.808551698923110962e-01,-8.842763304710388184e-02,7.237955462187528610e-03,1.302384864538908005e-02,-4.358436167240142822e-02,-1.147087365388870239e-01,-3.543796390295028687e-02,-1.153100281953811646e-02,4.299110919237136841e-02,-2.629747905302792788e-04,9.680257737636566162e-02,1.569779962301254272e-01,-5.335378274321556091e-02,2.162470482289791107e-02,-1.695670746266841888e-02,1.564808934926986694e-02,1.079464424401521683e-02,-7.146596908569335938e-02,4.618232697248458862e-02,4.942936450242996216e-02,2.780441567301750183e-02,2.946328558027744293e-02,2.395257912576198578e-02,-7.199113816022872925e-02,-9.907314926385879517e-02,-5.444921553134918213e-02,5.336032435297966003e-02,-7.283082604408264160e-02,-5.360423773527145386e-02,-2.834903774783015251e-03,6.209594197571277618e-03,-1.369731873273849487e-02,-2.160650677978992462e-02,4.333699867129325867e-02,3.142150817438960075e-03,3.744345158338546753e-02,1.294129434973001480e-02,4.413374140858650208e-02,-4.052586108446121216e-02,-3.501628711819648743e-02,-2.587117440998554230e-02,6.361695379018783569e-02,3.775828331708908081e-02,-6.076895073056221008e-02,5.094706267118453979e-02,3.226045146584510803e-02,7.236695289611816406e-02,-6.474251858890056610e-03,-5.577475577592849731e-02,-6.332681328058242798e-02,1.482895761728286743e-02,-5.602430552244186401e-02,-8.710499107837677002e-02,1.266727782785892487e-02,-1.491786539554595947e-02,-9.117930196225643158e-03,-3.154105693101882935e-02,-1.228101551532745361e-02,-2.273908257484436035e-02,2.515476429834961891e-03,-1.524870749562978745e-02,1.503263250924646854e-03,-6.126823276281356812e-02,-1.890898495912551880e-02,7.992067374289035797e-03,3.059817478060722351e-02,2.116556838154792786e-02,-2.241109125316143036e-02,-3.695850027725100517e-04,7.470151036977767944e-02,8.291403204202651978e-02,-6.081174127757549286e-03,5.198416300117969513e-03,-2.497946098446846008e-02,4.720263928174972534e-02,-6.283713132143020630e-02,-1.138659659773111343e-02,9.414763189852237701e-03,4.194101691246032715e-02,4.291534060030244291e-05,-4.960069898515939713e-03,1.612083017826080322e-01,5.729725584387779236e-02,-3.484899550676345825e-02,-1.181979943066835403e-02,4.908426105976104736e-02,6.243224442005157471e-02,1.409484073519706726e-02,-2.046274580061435699e-02,4.932316392660140991e-02,-2.101956494152545929e-02,4.567185789346694946e-02,5.250029265880584717e-02,-5.697276443243026733e-02,-5.563894752413034439e-03,-4.092777147889137268e-02,-1.709399931132793427e-02,-5.108435824513435364e-02,-6.656134873628616333e-02,-4.864344373345375061e-02,-6.271573901176452637e-02,-4.454604163765907288e-02,5.203401297330856323e-02,3.814232349395751953e-02,8.512391895055770874e-02,1.232004072517156601e-02,1.840240694582462311e-02,1.317262556403875351e-02,7.008954137563705444e-02,5.309823155403137207e-02,-5.916603840887546539e-04,3.438483923673629761e-02,-2.881114557385444641e-02,3.544478118419647217e-02,-6.186081562191247940e-03,1.647332683205604553e-02,2.578797377645969391e-02,-8.561265468597412109e-02,3.234332799911499023e-02,5.189965292811393738e-02,-1.142997387796640396e-02,-3.758294135332107544e-02,2.848092094063758850e-02,2.711548656225204468e-02,-1.211422868072986603e-02,1.853390038013458252e-02,1.864091120660305023e-02,4.207275062799453735e-02,5.835621431469917297e-02,6.166217848658561707e-02,-1.630222238600254059e-02,-3.928623348474502563e-02,6.552320718765258789e-02,7.334863394498825073e-02,5.206104740500450134e-02,-1.615507341921329498e-02,7.479243725538253784e-02,2.922967821359634399e-02,-1.478789933025836945e-02,1.673879846930503845e-02,6.603760272264480591e-02,1.319089531898498535e-02,2.850920520722866058e-02,-1.919201947748661041e-02,7.272356655448675156e-03,3.403480350971221924e-02,6.019094958901405334e-03,5.938617140054702759e-02,1.863593608140945435e-02,7.281985878944396973e-02,6.960612535476684570e-02,1.743758656084537506e-02,-1.995103433728218079e-02,-1.584691181778907776e-02,1.101756170392036438e-01,6.704875081777572632e-02,-3.482081741094589233e-02,-3.989962488412857056e-02,3.928861767053604126e-02,8.291747421026229858e-03,-8.284093439579010010e-02,-1.286366954445838928e-02,2.701571770012378693e-02,-3.355523943901062012e-02,4.360334202647209167e-02,-9.416152723133563995e-03,9.596548229455947876e-02,2.778055332601070404e-02,2.312438795343041420e-03,1.203177310526371002e-02,-1.858744397759437561e-02,-6.540784239768981934e-02,1.448959577828645706e-02,-4.924586415290832520e-02,3.238441050052642822e-02,2.493262849748134613e-02,1.048787380568683147e-03,-7.257580012083053589e-02,-4.810598492622375488e-02,3.056184761226177216e-02,-4.137044399976730347e-02,-8.073589205741882324e-02,-2.262228727340698242e-02,-5.167173594236373901e-02,3.045633621513843536e-02,-8.534622611477971077e-04,3.201136132702231407e-03,-3.661053255200386047e-02,3.707844018936157227e-02,-4.530069604516029358e-02,6.768575310707092285e-02,2.247095108032226562e-02,1.365037867799401283e-03,2.035673521459102631e-02,9.188704192638397217e-02,6.077683344483375549e-02,2.712130080908536911e-03,2.612671814858913422e-02,-7.724343240261077881e-02,-2.666866406798362732e-02,5.613079667091369629e-02,-2.620618790388107300e-02,-8.306280523538589478e-02,9.528770111501216888e-03,5.389119032770395279e-03,-2.602701634168624878e-02,3.321928530931472778e-02,3.005969524383544922e-02,-3.669404983520507812e-02,3.399942070245742798e-02,-1.145049482583999634e-01,5.144970118999481201e-02,-3.329734504222869873e-02,-1.268600951880216599e-02,-8.008988574147224426e-03,1.587129198014736176e-02,4.408339411020278931e-02,2.359503135085105896e-02,4.932362586259841919e-02,7.637487351894378662e-02,3.483931347727775574e-02,-6.470252573490142822e-02,-1.841657608747482300e-02,-2.921104431152343750e-02,-9.993749670684337616e-03,2.710794657468795776e-02,-2.225243020802736282e-03,5.804756656289100647e-03,7.426112424582242966e-03,-1.083051972091197968e-02,8.146641775965690613e-03,-3.678611293435096741e-02,-2.897857688367366791e-02,-1.055284682661294937e-02,-9.892791509628295898e-03,8.480117470026016235e-02,2.468676771968603134e-03,5.825632251799106598e-03,9.990678727626800537e-02,1.939205266535282135e-02,-2.679458446800708771e-02,-1.581346243619918823e-02,6.178565695881843567e-02,-2.378954179584980011e-02,-2.476089820265769958e-02,-2.565703541040420532e-02,5.365595221519470215e-02,8.146207034587860107e-02,-2.175220055505633354e-03,4.890708625316619873e-02,-2.835944294929504395e-02,-1.174569828435778618e-03,6.050654221326112747e-03,-1.432153675705194473e-02,-2.069570356979966164e-03,5.855172872543334961e-02,5.271217599511146545e-02,-1.946047879755496979e-03,5.389313213527202606e-03,1.005334965884685516e-02,1.886720210313796997e-02,-2.909690700471401215e-02,7.646632194519042969e-02,4.228668287396430969e-02,-1.853999681770801544e-02,2.852099761366844177e-02,-5.528061464428901672e-02,6.692367792129516602e-02,4.338811710476875305e-02,2.305538766086101532e-02,2.761713974177837372e-02,-2.382373809814453125e-02,-3.177425265312194824e-02,-7.769150659441947937e-03,4.730338975787162781e-02,5.191730707883834839e-02,2.017236500978469849e-02,1.821825094521045685e-02,4.279657825827598572e-02,3.872264549136161804e-02,1.679964363574981689e-02,8.352223038673400879e-02,1.652996428310871124e-02,2.139774337410926819e-02,5.305006168782711029e-03,3.713352605700492859e-02,7.726680021733045578e-03,-5.613935738801956177e-02,-6.016602739691734314e-02,3.302795439958572388e-02,4.942744504660367966e-03,-3.710403665900230408e-02,2.113039605319499969e-02,1.078523322939872742e-01,1.316711753606796265e-01,2.627571672201156616e-02,3.624188154935836792e-02,2.275704592466354370e-02,3.607615083456039429e-02,3.376724943518638611e-02,-1.376636605709791183e-02,2.684112638235092163e-02,6.769667379558086395e-03,-2.732514962553977966e-02,-2.115166187286376953e-02,3.261902928352355957e-02,4.678719118237495422e-02,-4.476030170917510986e-02,6.182615458965301514e-02,8.113085478544235229e-02,7.667431980371475220e-02,-3.752608969807624817e-02,-1.070890650153160095e-01,4.123735800385475159e-02,3.016177564859390259e-02,3.880420699715614319e-02,3.538011386990547180e-02,-3.863103687763214111e-03,6.994020193815231323e-02,1.298186928033828735e-01,8.948805928230285645e-02,7.270082086324691772e-02,-2.001183852553367615e-02,-1.550068426877260208e-02,-5.907788500189781189e-02,-7.945581525564193726e-02,-7.326811552047729492e-02,1.989389210939407349e-02,-8.605006150901317596e-03,-1.325688660144805908e-01,-7.829099148511886597e-02,-1.592970043420791626e-01,-4.713871702551841736e-02,-1.182917729020118713e-01,-9.856949001550674438e-02,-5.829808767884969711e-03,1.613911800086498260e-02,-1.430217474699020386e-01,-1.277785897254943848e-01,-9.375635534524917603e-02,-4.213725402951240540e-02,-9.633564203977584839e-02,-2.271638624370098114e-02,-5.782276391983032227e-02,-7.230777293443679810e-02,4.755995795130729675e-02,3.844637796282768250e-02,1.873308792710304260e-02,8.382496424019336700e-03,4.182465374469757080e-03,7.276646792888641357e-03,1.544824615120887756e-02,-1.577901840209960938e-02,1.900646649301052094e-02,-1.672035828232765198e-02,-8.920791558921337128e-03,-2.545249648392200470e-02,-3.957603499293327332e-02,2.842781506478786469e-02,-5.390738323330879211e-02,3.222191706299781799e-02,2.265232056379318237e-02,-4.214633256196975708e-03,3.105668723583221436e-02,2.599622495472431183e-02,-2.840607613325119019e-02,2.868226543068885803e-02,2.563549578189849854e-02,-4.751245956867933273e-03,6.122195161879062653e-03,5.387332756072282791e-03,-6.069017946720123291e-02,2.529024612158536911e-03,-4.613292217254638672e-02,3.724876418709754944e-02,3.680253028869628906e-02,1.078674569725990295e-01,-2.735105529427528381e-02,4.867117479443550110e-02,5.987103655934333801e-02,3.978104505222290754e-04,3.907465934753417969e-02,-4.843373596668243408e-02,1.457315776497125626e-02,-2.405740320682525635e-02,-3.613185137510299683e-02,4.917773976922035217e-02,1.967022940516471863e-02,-4.808209836483001709e-03,-1.134665682911872864e-02,1.016135513782501221e-02,4.088184610009193420e-02,8.894397318363189697e-02,8.255691081285476685e-02,5.077090859413146973e-02,-8.435427211225032806e-03,-2.332244254648685455e-02,9.511159732937812805e-03,-1.105336006730794907e-02,4.072317108511924744e-02,5.840470083057880402e-03,4.292949661612510681e-02,1.951353065669536591e-02,2.212901227176189423e-02,3.175970539450645447e-02,2.042178966803476214e-04,4.891936108469963074e-02,1.431058812886476517e-02,7.998370379209518433e-02,-3.555486723780632019e-02,-1.123655661940574646e-01,-2.840170823037624359e-02,-3.257894143462181091e-02,-8.713967353105545044e-02,-3.536048531532287598e-02,3.531952202320098877e-02,2.928339410573244095e-03,-1.151431053876876831e-01,6.074629724025726318e-02,6.471436470746994019e-02,-3.141950815916061401e-02,4.175925254821777344e-02,-6.964315474033355713e-02,3.591438382863998413e-02,-1.639767782762646675e-03,-8.234155923128128052e-02,-8.693125098943710327e-02,-2.771139144897460938e-02,-7.067992538213729858e-02,-6.154259294271469116e-02,-4.297190904617309570e-02,-1.402270495891571045e-01,-5.880060791969299316e-02,-1.189444512128829956e-01,-8.092336356639862061e-02,-2.896357141435146332e-02,7.873506098985671997e-02,-5.333275720477104187e-02,-3.245218098163604736e-02,-3.880890086293220520e-02,-4.731419309973716736e-02,9.961346536874771118e-02,-4.058561474084854126e-02,-5.292196944355964661e-02,-1.267264038324356079e-01,-6.136524304747581482e-02,7.394672930240631104e-02,-3.926668316125869751e-02,2.781932242214679718e-02,4.482179507613182068e-02,-1.281507220119237900e-02,-3.743295744061470032e-02,4.357610642910003662e-02,-4.376467689871788025e-02,3.880529850721359253e-02,2.811522223055362701e-02,4.827906936407089233e-02,-3.087247163057327271e-02,-4.523489996790885925e-02,-1.520822290331125259e-02,6.742870807647705078e-02,7.250301539897918701e-02,-1.178823485970497131e-01,-3.110350808128714561e-03,-8.220202289521694183e-03,-5.423082783818244934e-02,-2.110269106924533844e-02,8.905550464987754822e-03,1.164360716938972473e-02,1.385599747300148010e-02,5.219200253486633301e-02,5.652040243148803711e-02,2.690076082944869995e-02,1.884729415178298950e-02,-2.373299002647399902e-02,-4.922781139612197876e-02,-9.507804363965988159e-02,3.578589484095573425e-02,3.137694206088781357e-03,6.464909762144088745e-02,7.258760929107666016e-02,-7.482377439737319946e-02,2.164131775498390198e-02,6.245572119951248169e-02,4.304447770118713379e-02,-7.770590484142303467e-03,-5.943141505122184753e-02,1.342017054557800293e-01,-2.718074433505535126e-02,-5.580808594822883606e-02,-7.808169722557067871e-02,9.724690020084381104e-02,5.031517148017883301e-02,-1.185005009174346924e-01,-4.904474690556526184e-02,-1.071309391409158707e-02,-3.494544327259063721e-02,-3.654572367668151855e-02,6.280154921114444733e-03,1.449559070169925690e-02,-3.372429311275482178e-02,-1.455873157829046249e-02,2.412929758429527283e-02,1.156056113541126251e-02,2.361255697906017303e-02,2.375620650127530098e-03,7.432946562767028809e-02,-3.020357107743620872e-03,3.386011719703674316e-02,7.764735072851181030e-02,7.059535384178161621e-02,8.947122842073440552e-03,-4.194639995694160461e-02,-2.126638218760490417e-02,5.884701758623123169e-02,-1.399031095206737518e-02,-3.800394758582115173e-02,-2.660834230482578278e-02,4.930626973509788513e-02,1.025070250034332275e-01,8.348748832941055298e-02,1.664335839450359344e-02,6.261504441499710083e-02,5.659899488091468811e-02,-1.656091026961803436e-02,-1.923531107604503632e-02,-3.714406490325927734e-02,2.580617787316441536e-03,-5.508185550570487976e-02,2.548149414360523224e-02,2.321492880582809448e-02,6.265273690223693848e-02,-1.281158719211816788e-02,-3.722909092903137207e-02,4.168089106678962708e-02,8.334440179169178009e-03,5.923971906304359436e-02,5.675554648041725159e-02,9.859167039394378662e-02,-3.634203225374221802e-02,-9.023538231849670410e-02,-5.624262616038322449e-02,7.699250429868698120e-02,4.842785000801086426e-02,-3.970873728394508362e-02,-5.497363209724426270e-02,3.457457944750785828e-02,5.242470651865005493e-02,5.025305598974227905e-02,4.294819384813308716e-02,5.781033542007207870e-04,-1.819752901792526245e-02,-2.500621369108557701e-03,1.089680101722478867e-02,-9.096275269985198975e-02,-1.432202942669391632e-02,9.678455442190170288e-02,-7.008215039968490601e-02,-4.629278928041458130e-02,3.159793466329574585e-02,7.261902838945388794e-02,5.697133019566535950e-02,-1.882221363484859467e-02,5.777841806411743164e-02,-1.022519636899232864e-02,-8.876333385705947876e-02,-6.056011654436588287e-03,1.536760181188583374e-01,6.183169409632682800e-02,-8.380644768476486206e-02,-1.746049709618091583e-02,4.831555858254432678e-02,3.508622944355010986e-02,8.040175773203372955e-03,4.525148868560791016e-02,5.067022051662206650e-03,-2.965302392840385437e-02,4.712177067995071411e-02,-3.986853733658790588e-02,-1.382423005998134613e-02,-2.884336933493614197e-02,1.884878613054752350e-02,-3.619673848152160645e-02,-6.105718016624450684e-02,5.681725591421127319e-02,-4.117625206708908081e-02,-1.259981282055377960e-02,-1.470080316066741943e-01,-2.451438084244728088e-02,-6.979576777666807175e-03,-5.184195935726165771e-03,-3.427347168326377869e-02,2.121792361140251160e-02,1.818327978253364563e-02,1.328340382315218449e-03,-9.909133426845073700e-03,-5.529450625181198120e-02,-4.841411020606756210e-03,2.518324181437492371e-02,-6.265490781515836716e-03,8.201230317354202271e-03,-1.016876548528671265e-01,4.150809347629547119e-02,-1.440367009490728378e-02,5.618232488632202148e-02,3.553673997521400452e-02,2.259797602891921997e-02,-1.657364703714847565e-02,-8.401259779930114746e-03,-5.617083981633186340e-02,-3.697790578007698059e-02,-5.823472887277603149e-02,1.049220189452171326e-02,5.379144847393035889e-02,1.207126304507255554e-03,-3.616784466430544853e-03,2.323152683675289154e-02,2.734783850610256195e-02,-7.863423973321914673e-02,-6.195945665240287781e-02,-7.784380018711090088e-02,-1.707566343247890472e-02,9.548228234052658081e-03,3.868496278300881386e-03,-5.405726283788681030e-02,2.480806596577167511e-02,4.500056803226470947e-02,1.595891895703971386e-03,5.003217607736587524e-03,-1.407938543707132339e-02,-1.413897704333066940e-02,-3.399658948183059692e-02,5.226897075772285461e-02,-1.226763147860765457e-02,1.171429920941591263e-02,5.252458527684211731e-02,3.378491476178169250e-02,5.584252998232841492e-02,-8.255054056644439697e-02,-2.312935888767242432e-03,3.709629923105239868e-02,4.601275548338890076e-02,7.670704275369644165e-02,-3.942556679248809814e-03,2.859473414719104767e-02,5.345446243882179260e-02,5.145134869962930679e-03,-4.155840724706649780e-02,-2.012988179922103882e-02,-2.601088210940361023e-02,-2.096442878246307373e-02,5.252521112561225891e-02,4.903778061270713806e-02,-5.394290760159492493e-02,2.760307304561138153e-02,-5.591887980699539185e-02,-1.036863494664430618e-02,1.856088824570178986e-02,-3.399700671434402466e-02,-4.479375854134559631e-02,1.491380948573350906e-02,-3.953799605369567871e-02,-2.388972602784633636e-02,1.976405270397663116e-02,-5.487851332873106003e-03,-1.881640404462814331e-02,3.884994611144065857e-02,3.825066238641738892e-02,-2.269044332206249237e-02,-5.216243490576744080e-02,2.195161022245883942e-02,1.750383712351322174e-02,-3.698822483420372009e-02,-5.227718874812126160e-02,2.363788522779941559e-02,-3.170144930481910706e-02,-1.719665899872779846e-02,7.592536509037017822e-02,-3.299431502819061279e-02,-4.587300121784210205e-02,1.272056950256228447e-03,-6.294147577136754990e-03,9.614120237529277802e-03,3.644615411758422852e-02,-5.245075747370719910e-02,-3.675929084420204163e-02,-3.467265889048576355e-02,-3.672538325190544128e-02,-6.887795752845704556e-04,-5.848772823810577393e-02,-2.063502930104732513e-02,2.452587895095348358e-02,4.896471649408340454e-02,-3.844228759407997131e-02,-4.701229184865951538e-02,3.758278442546725273e-03,5.785861611366271973e-02,-7.166869938373565674e-02,-4.792239889502525330e-02,-3.006799146533012390e-02,-3.160741925239562988e-02,5.953947454690933228e-02,9.033678472042083740e-02,9.237933903932571411e-02,-6.438266485929489136e-02,-4.274984076619148254e-02,-5.686134845018386841e-02,4.844264686107635498e-02,4.210821911692619324e-02,-4.348429385572671890e-03,-8.421547710895538330e-03,1.573440618813037872e-02,3.838973119854927063e-02,-1.076332759112119675e-02,-7.115833461284637451e-02,-4.187811911106109619e-02,3.877477347850799561e-02,7.692576944828033447e-02,2.444236353039741516e-02,-2.178551629185676575e-02,-2.693587541580200195e-02,9.705726057291030884e-03,7.535322010517120361e-02,4.368579760193824768e-02,3.138640522956848145e-02,4.359740391373634338e-02,-1.582479663193225861e-02,5.956579744815826416e-02,-2.809755131602287292e-02,4.668131005018949509e-03,4.040706530213356018e-02,-9.977554529905319214e-02,5.329840630292892456e-02,6.318141520023345947e-02,1.539839431643486023e-02,8.510708808898925781e-03,1.749914139509201050e-02,-9.448193758726119995e-02,-7.256172597408294678e-02,-6.279599666595458984e-02,1.870333775877952576e-02,7.681587338447570801e-02,5.207146704196929932e-02,1.100880745798349380e-02,-1.453326269984245300e-02,6.121325492858886719e-02,1.046151742339134216e-01,1.960444822907447815e-02,3.334427252411842346e-02,-1.649278402328491211e-02,-3.605052828788757324e-02,-2.304202876985073090e-02,4.716375097632408142e-02,-7.463772199116647243e-04,-1.759607344865798950e-02,-1.825787499547004700e-02,3.620084002614021301e-02,1.426089182496070862e-02,-3.148125112056732178e-02,3.416307270526885986e-03,-9.788555093109607697e-03,4.292492195963859558e-02,-4.893026500940322876e-02,2.595916390419006348e-02,3.469670191407203674e-02,6.794702261686325073e-03,2.976164594292640686e-02,4.740247502923011780e-02,-6.507277721539139748e-04,1.535460632294416428e-02,6.144120357930660248e-03,3.524664416909217834e-02,-2.367963455617427826e-02,3.212436288595199585e-02,1.596923545002937317e-02,6.831013411283493042e-02,8.790915459394454956e-02,-3.978103771805763245e-02,-2.569150179624557495e-02,-4.836488515138626099e-02,-1.473184302449226379e-02,7.296931743621826172e-02,-3.807592764496803284e-02,-6.637012958526611328e-02,-5.750423669815063477e-02,-1.997870020568370819e-02,-2.543517760932445526e-02,9.300123155117034912e-02,1.692469976842403412e-02,-5.770025402307510376e-02,-3.059246344491839409e-03,-2.091572061181068420e-02,1.086289063096046448e-01,2.641015499830245972e-02,2.437973208725452423e-02,-9.105131775140762329e-02,7.323486357927322388e-02,-2.210331335663795471e-02,-2.785734832286834717e-02,-1.830725814215838909e-03,6.055198609828948975e-02,4.861281439661979675e-02,-2.220825105905532837e-02,-4.222415760159492493e-02,3.429610282182693481e-03,2.587031573057174683e-02,-1.785054616630077362e-02,1.062432955950498581e-02,-6.128604873083531857e-04,9.505500085651874542e-03,-5.789493024349212646e-02,-1.099792718887329102e-01,2.343865483999252319e-02,-3.090553916990756989e-02,-8.868793398141860962e-02,-4.611933231353759766e-02,4.536866210401058197e-03,7.677138596773147583e-02,7.720899581909179688e-02,5.300431046634912491e-03,1.502776402048766613e-03,8.129063993692398071e-02,9.402796626091003418e-02,8.307008445262908936e-02,2.345647290349006653e-02,6.891194730997085571e-02,-1.015812456607818604e-01,3.872056724503636360e-03,-6.475630216300487518e-04,6.736665219068527222e-02,1.599354110658168793e-02,1.818094961345195770e-02,2.963929623365402222e-02,6.988913565874099731e-02,7.881425321102142334e-02,4.244535416364669800e-02,-7.977356016635894775e-02,-7.617614418268203735e-02,1.110220886766910553e-02,-5.496410303749144077e-04,8.313660323619842529e-02,-4.367819987237453461e-03,8.386809378862380981e-03,-1.356873009353876114e-02,4.729104414582252502e-02,2.038578130304813385e-02,-3.576318174600601196e-02,1.462980825453996658e-02,-3.695065097417682409e-04,1.302590779960155487e-02,-6.912099197506904602e-03,2.034722454845905304e-02,-2.101904783557984047e-06,4.244979098439216614e-02,-3.355863690376281738e-02,-5.297686904668807983e-02,-7.573203742504119873e-02,6.750704348087310791e-02,3.616406349465250969e-03,-2.499304153025150299e-02,-3.910919651389122009e-02,-1.699472963809967041e-02,2.629982121288776398e-02,-5.785147845745086670e-02,4.253971204161643982e-02,-6.553210318088531494e-02,7.204235345125198364e-02,-2.037013322114944458e-02,5.226318910717964172e-02,-6.494864821434020996e-02,-4.743196442723274231e-02,6.938458979129791260e-02,2.108618989586830139e-02,-1.681588240899145603e-03,1.440436486154794693e-02,2.631597686558961868e-03,-2.460614033043384552e-02,8.780276030302047729e-02,5.382972955703735352e-02,-7.228770758956670761e-03,-4.782083258032798767e-02,-9.501469135284423828e-02,4.220549017190933228e-02,2.399693801999092102e-02,9.519689530134201050e-02,3.973956033587455750e-02,-8.244405686855316162e-02,2.304667839780449867e-03,1.036275029182434082e-01,1.059777587652206421e-01,1.510683726519346237e-02,1.046568970195949078e-03,7.660148292779922485e-02,-1.250195316970348358e-03,9.143911302089691162e-03,-3.794116899371147156e-02,3.683100640773773193e-02,-3.570258989930152893e-02,-8.584667742252349854e-02,-4.159242846071720123e-03,-4.670292884111404419e-02,4.861489310860633850e-02,7.977169938385486603e-03,-2.997500821948051453e-02,-8.456984534859657288e-03,7.376649882644414902e-03,4.680563881993293762e-02,-1.546520553529262543e-02,-1.827889122068881989e-02,-4.036267846822738647e-02,8.469260297715663910e-03,3.242928534746170044e-02,-1.430963282473385334e-03,-1.653323322534561157e-02,-6.415796279907226562e-02,-5.479266867041587830e-03,-1.973195932805538177e-02,6.784326583147048950e-02,3.233805671334266663e-02,1.959734223783016205e-02,-5.311308428645133972e-02,-1.527187041938304901e-02,2.022018283605575562e-02,