9.446218609809875488e-02,-3.146580606698989868e-02,5.066609010100364685e-02,-3.065414167940616608e-02,2.771246246993541718e-02,2.620263723656535149e-03,1.643303222954273224e-02,-9.446825832128524780e-02,-1.011243164539337158e-01,-4.132512584328651428e-02,-2.672351896762847900e-02,6.889776885509490967e-02,3.990090638399124146e-02,-3.050799295306205750e-02,-3.666607663035392761e-02,2.336942357942461967e-03,-7.752293348312377930e-02,-4.473387077450752258e-02,-7.346447557210922241e-02,2.545244060456752777e-02,-1.177079509943723679e-02,-2.789265289902687073e-02,8.081953227519989014e-02,-2.951858937740325928e-02,1.001695916056632996e-01,1.293338388204574585e-01,-9.034789353609085083e-02,-2.655873633921146393e-02,-5.740062519907951355e-02,-1.320345420390367508e-02,1.030634194612503052e-01,-4.883101209998130798e-02,-1.105719991028308868e-02,-2.143808268010616302e-02,-1.258048228919506073e-02,5.640536546707153320e-02,-7.214260846376419067e-02,-4.232421889901161194e-02,-3.179865330457687378e-02,-5.347811151295900345e-03,-5.995488539338111877e-02,-1.329628750681877136e-02,5.639379099011421204e-02,-8.493585139513015747e-02,3.315993770956993103e-02,7.649217545986175537e-02,5.959896743297576904e-02,1.487985532730817795e-02,-2.049308270215988159e-02,-2.986056543886661530e-02,4.641562700271606445e-03,1.798907481133937836e-02,1.051941066980361938e-01,-2.980117127299308777e-02,8.670932054519653320e-02,-1.703600399196147919e-02,-6.495332717895507812e-02,-4.395996034145355225e-02,4.520333185791969299e-02,3.389776125550270081e-02,-5.813900381326675415e-02,8.035133033990859985e-02,1.493806485086679459e-02,-2.996263653039932251e-02,2.716986089944839478e-02,9.048569947481155396e-02,1.134124547243118286e-01,5.153103545308113098e-02,2.776610478758811951e-02,-2.934342250227928162e-02,4.529240727424621582e-02,-6.651166081428527832e-02,2.462044591084122658e-03,-9.649879485368728638e-02,-1.291058808565139771e-01,3.031196445226669312e-02,1.269050091505050659e-01,1.078995615243911743e-01,3.890486806631088257e-02,-6.559014320373535156e-03,6.948391441255807877e-03,-3.694314509630203247e-02,5.890506878495216370e-02,8.858774602413177490e-02,7.033689320087432861e-02,-1.283109188079833984e-02,2.714943327009677887e-02,1.001193150877952576e-01,1.705108024179935455e-02,1.048215199261903763e-02,-7.713034749031066895e-02,3.641553595662117004e-02,1.099195238202810287e-02,-2.392370486631989479e-03,1.620665751397609711e-02,2.404162427410483360e-03,-7.809621840715408325e-02,-9.909152984619140625e-02,4.871059209108352661e-02,-4.761473834514617920e-02,-1.484296619892120361e-01,-3.981437534093856812e-02,-7.098639383912086487e-03,-4.515341669321060181e-02,-4.545849561691284180e-02,1.092612743377685547e-01,3.951661661267280579e-02,1.020670961588621140e-02,2.876354008913040161e-02,7.351774722337722778e-03,-2.400544937700033188e-03,-2.263564616441726685e-02,6.528817117214202881e-02,-4.826633259654045105e-02,1.332026273012161255e-01,1.740295253694057465e-02,-7.316353172063827515e-02,9.037593379616737366e-03,-1.494961045682430267e-02,3.588940575718879700e-02,-4.727214574813842773e-03,6.386899948120117188e-02,-7.858104258775711060e-02,8.838585577905178070e-03,2.343735843896865845e-02,4.996697977185249329e-02,-7.501275092363357544e-02,-8.839213848114013672e-02,3.206915454939007759e-03,-9.862986393272876740e-03,-3.790334984660148621e-02,-7.319618016481399536e-02,-5.132533237338066101e-02,-7.037936896085739136e-02,7.487058639526367188e-02,8.588168770074844360e-02,5.128520354628562927e-02,-5.281539633870124817e-02,-6.129909306764602661e-02,2.352435328066349030e-02,-1.611724868416786194e-02,-8.977798372507095337e-02,6.679438799619674683e-02,-3.062348812818527222e-02,2.045604214072227478e-02,5.583318695425987244e-02,5.779448151588439941e-02,-5.142861604690551758e-02,-8.246199786663055420e-02,-6.330077350139617920e-02,3.030542284250259399e-02,-6.800077855587005615e-03,-7.185065001249313354e-02,4.705764877144247293e-05,2.142023295164108276e-02,-1.014584749937057495e-01,2.551845088601112366e-02,-4.259318113327026367e-02,5.458559840917587280e-02,7.243726402521133423e-02,-7.838948816061019897e-02,4.229206219315528870e-02,8.356323093175888062e-02,-5.535986647009849548e-02,-3.439700230956077576e-02,-5.446157231926918030e-02,-4.141618311405181885e-02,-9.075435250997543335e-02,-2.981939911842346191e-02,2.896021306514739990e-02,3.986237198114395142e-02,-7.918509095907211304e-02,4.252078942954540253e-03,6.667315959930419922e-02,-7.496099919080734253e-02,-2.083163522183895111e-02,-9.332587942481040955e-03,-2.800945937633514404e-02,6.676081568002700806e-02,1.704745367169380188e-02,8.858407288789749146e-02,-9.774580597877502441e-02,2.049621567130088806e-02,-6.354913115501403809e-02,-7.325232028961181641e-02,-3.981699049472808838e-02,-8.452655375003814697e-02,1.831107400357723236e-02,-6.111099570989608765e-02,9.072868153452873230e-03,-8.404463529586791992e-03,-6.997719407081604004e-02,-4.832681268453598022e-02,8.798660337924957275e-02,-4.550549015402793884e-02,-2.390190586447715759e-02,1.221591606736183167e-02,4.429537802934646606e-03,1.218434423208236694e-02,-8.491729944944381714e-02,-8.982012420892715454e-02,-7.288578152656555176e-02,-7.487206161022186279e-02,2.410475537180900574e-02,5.499782040715217590e-03,-7.072942703962326050e-02,-3.816352784633636475e-02,-7.793193310499191284e-02,6.054203212261199951e-02,-6.818903982639312744e-02,-1.879153400659561157e-02,-9.040906280279159546e-02,-7.947919517755508423e-02,-3.207276016473770142e-02,-9.622024744749069214e-02,-3.256252035498619080e-02,5.453820526599884033e-02,-9.106428921222686768e-02,-6.627735495567321777e-02,2.551428601145744324e-02,-7.615107297897338867e-02,3.737443685531616211e-02,-4.706008825451135635e-03,6.211803853511810303e-02,7.366839796304702759e-02,4.638328775763511658e-02,2.721112687140703201e-03,-6.747114658355712891e-02,1.388838607817888260e-02,7.249754667282104492e-02,-2.425214089453220367e-02,1.955416426062583923e-02,-7.126242853701114655e-04,-4.085867258254438639e-04,6.573978811502456665e-02,-1.647111587226390839e-02,-8.356430381536483765e-02,-7.979351282119750977e-02,-9.079315513372421265e-02,6.182277202606201172e-02,-7.157026976346969604e-02,4.981409385800361633e-02,2.423462271690368652e-02,5.254259705543518066e-02,2.549499273300170898e-03,8.761894702911376953e-02,-2.714206278324127197e-02,4.550103098154067993e-02,-7.345037907361984253e-02,-3.115680813789367676e-02,-5.466937273740768433e-02,2.433620393276214600e-03,-9.178183972835540771e-02,5.337360501289367676e-02,-3.132035210728645325e-02,-4.895222187042236328e-02,-7.199340313673019409e-02,-1.032158657908439636e-01,5.727490782737731934e-02,2.359996922314167023e-02,5.707616731524467468e-02,6.066492199897766113e-02,8.462936617434024811e-03,-3.420709818601608276e-02,-3.271975368261337280e-02,5.936206877231597900e-02,-6.832076609134674072e-02,2.435130625963211060e-02,-1.084571108222007751e-01,-5.956627428531646729e-02,-5.791419371962547302e-02,-2.675992250442504883e-02,-5.886573716998100281e-02,6.298607587814331055e-02,8.088037371635437012e-02,-4.492853581905364990e-02,-4.971107468008995056e-02,6.675601750612258911e-02,5.571204703301191330e-03,3.979503363370895386e-02,3.653246909379959106e-02,-5.166792497038841248e-02,-7.971701025962829590e-02,2.477443218231201172e-02,-2.460394799709320068e-02,-6.027730926871299744e-02,-9.135223180055618286e-02,-7.841843366622924805e-02,-3.139935061335563660e-02,-2.138077467679977417e-02,-4.489862546324729919e-02,-6.693874299526214600e-02,-6.802556663751602173e-02,7.362177968025207520e-02,-7.585347443819046021e-02,-9.896514005959033966e-03,3.020216524600982666e-02,1.543765515089035034e-02,1.504158042371273041e-02,-6.117945536971092224e-02,-9.516312740743160248e-03,5.357655696570873260e-03,6.941770017147064209e-02,-1.718382909893989563e-02,3.164586424827575684e-02,2.699203789234161377e-02,6.074600294232368469e-02,-2.658305503427982330e-02,-1.064076274633407593e-02,-7.476931810379028320e-02,3.662323951721191406e-02,-1.063910871744155884e-01,5.535778030753135681e-02,5.921189486980438232e-02,-1.129445852711796761e-03,4.899486526846885681e-02,1.668734475970268250e-02,-1.732406020164489746e-02,-7.921164482831954956e-02,2.397774159908294678e-02,-8.677335083484649658e-02,1.456545293331146240e-02,-3.275245428085327148e-02,-5.459715425968170166e-02,1.921725051943212748e-04,-4.721672087907791138e-02,-8.848070353269577026e-02,3.271972015500068665e-02,7.809488475322723389e-02,-9.108298271894454956e-02,6.204979866743087769e-02,3.529158607125282288e-02,4.517842456698417664e-02,5.737311765551567078e-02,2.110612392425537109e-02,-4.121780768036842346e-02,3.982424736022949219e-02,2.511165477335453033e-02,-7.102612406015396118e-02,-9.650027006864547729e-02,-9.470263123512268066e-02,-8.090922236442565918e-02,9.640474803745746613e-03,-1.145496964454650879e-03,-5.938353762030601501e-02,7.119884341955184937e-02,-6.256512552499771118e-02,4.253141582012176514e-03,2.340819220989942551e-03,-2.213949523866176605e-02,-1.215814612805843353e-02,3.354591550305485725e-03,-4.782488197088241577e-02,1.178869884461164474e-02,5.200995132327079773e-02,-6.087751314043998718e-02,-2.821624092757701874e-02,2.187613630667328835e-03,-4.023917391896247864e-02,-3.756375610828399658e-02,-4.819158464670181274e-02,-2.247024141252040863e-02,4.641672968864440918e-02,8.501258678734302521e-03,6.429111957550048828e-02,5.356578901410102844e-02,-6.461977213621139526e-02,-1.067920122295618057e-02,-9.076757356524467468e-03,-2.613700181245803833e-02,6.242742016911506653e-02,6.410986185073852539e-02,-2.149625867605209351e-02,-2.192789316177368164e-02,6.909856945276260376e-02,4.811958223581314087e-02,-5.231855902820825577e-03,5.443914979696273804e-02,2.655757963657379150e-02,-6.140639632940292358e-02,-1.805565319955348969e-02,-2.475761622190475464e-02,-3.188794478774070740e-02,3.451786935329437256e-02,-7.755549997091293335e-02,-8.810807764530181885e-02,-7.886907458305358887e-02,6.877246499061584473e-02,-9.177803248167037964e-02,6.407493259757757187e-03,1.304380875080823898e-02,-1.813362538814544678e-02,5.102289374917745590e-03,7.971356064081192017e-02,-1.902867108583450317e-02,3.113250061869621277e-02,-9.837948530912399292e-02,-6.968591362237930298e-02,-8.883262984454631805e-03,-8.934772759675979614e-02,-5.225163698196411133e-02,-6.341107189655303955e-02,6.772328913211822510e-02,-7.179429382085800171e-02,-3.031889349222183228e-02,-6.174309924244880676e-02,1.882725581526756287e-02,2.633993141353130341e-02,-7.908280938863754272e-02,6.544592976570129395e-02,-9.863764792680740356e-02,-7.399757206439971924e-02,1.009548828005790710e-01,-7.169054448604583740e-02,3.956896066665649414e-02,6.340390443801879883e-02,4.485877603292465210e-02,1.231868565082550049e-02,-2.452963404357433319e-02,7.616296410560607910e-02,4.331438615918159485e-02,-5.267123505473136902e-02,-8.622413128614425659e-02,-7.258992642164230347e-02,2.442107349634170532e-02,-7.254301011562347412e-02,-9.904714673757553101e-02,-6.526609510183334351e-02,9.704440832138061523e-03,3.732949867844581604e-02,-4.720515012741088867e-02,-8.051051944494247437e-02,-2.728111296892166138e-02,-7.541765272617340088e-02,-7.943931967020034790e-02,7.183937728404998779e-02,9.960614144802093506e-02,-4.083391278982162476e-02,-7.096067070960998535e-02,-1.677112653851509094e-02,-3.043794631958007812e-02,8.544667065143585205e-02,-6.876058876514434814e-02,5.692990124225616455e-02,6.994827836751937866e-02,-4.902373999357223511e-02,-3.392027318477630615e-02,9.681209921836853027e-02,-1.604795455932617188e-03,5.870363116264343262e-02,1.149829477071762085e-03,5.494932457804679871e-02,6.061755865812301636e-02,4.104594886302947998e-02,-8.880993700586259365e-04,-3.778909519314765930e-02,9.043051302433013916e-02,-6.832611560821533203e-02,7.597173750400543213e-02,5.450585111975669861e-02,6.901861727237701416e-02,5.152334272861480713e-02,-8.688427507877349854e-02,-8.186855167150497437e-02,-7.917248457670211792e-02,4.373823758214712143e-03,1.035524159669876099e-02,7.894918322563171387e-02,1.825614599511027336e-04,-4.566682502627372742e-02,5.428786203265190125e-02,-2.009706571698188782e-03,6.644145399332046509e-02,-4.901498556137084961e-02,-7.260983693413436413e-04,-6.120387464761734009e-02,7.055664435029029846e-03,-7.506465911865234375e-02,-5.679615586996078491e-02,-3.043049201369285583e-02,6.108422577381134033e-02,2.472119173035025597e-03,7.408486306667327881e-02,4.802499711513519287e-02,5.286657810211181641e-02,-3.273387253284454346e-02,-8.798565715551376343e-02,-1.370665729045867920e-01,-3.100002743303775787e-02,3.633661568164825439e-02,8.817030489444732666e-02,-2.110099419951438904e-02,6.510006636381149292e-02,3.624252974987030029e-02,-1.025618165731430054e-01,1.140313073992729187e-01,-8.029080182313919067e-02,6.804198957979679108e-03,7.956526428461074829e-02,-8.209629356861114502e-02,5.179328098893165588e-02,-4.261954501271247864e-02,-1.103183180093765259e-01,5.908670276403427124e-02,-6.108733639121055603e-02,2.472934126853942871e-02,7.897388935089111328e-02,-6.672665476799011230e-02,6.325155496597290039e-02,1.001580581068992615e-01,6.437385827302932739e-02,4.148268699645996094e-02,4.603058099746704102e-02,-5.279201269149780273e-02,-9.032268077135086060e-02,9.235566109418869019e-02,-6.509847939014434814e-02,-2.406903915107250214e-02,-8.799158781766891479e-02,-1.102733332663774490e-02,-5.247584357857704163e-02,5.452160909771919250e-02,-5.608890205621719360e-02,-4.649746790528297424e-02,-2.550952695310115814e-02,-8.827921003103256226e-02,-8.779713511466979980e-02,-2.508358471095561981e-02,-5.755395442247390747e-02,-1.180502772331237793e-02,1.382040679454803467e-01,-1.899975724518299103e-02,2.947732433676719666e-02,5.919348075985908508e-02,-6.531027704477310181e-02,-1.067208498716354370e-01,1.445042667910456657e-03,-1.078099012374877930e-04,-3.263184800744056702e-02,6.068667024374008179e-02,-2.551916241645812988e-02,9.673780947923660278e-02,4.820184316486120224e-03,9.543630480766296387e-02,-9.000705555081367493e-03,2.819531597197055817e-02,3.104186803102493286e-02,-6.974733620882034302e-02,-1.698143035173416138e-02,-1.894684508442878723e-02,1.128002535551786423e-02,7.906980812549591064e-02,8.678987622261047363e-02,-5.021393299102783203e-04,-9.677415364421904087e-04,6.567352265119552612e-02,6.671915203332901001e-02,9.631009399890899658e-02,7.300006691366434097e-03,-5.484760180115699768e-02,5.819772183895111084e-02,-8.117747306823730469e-02,2.863031066954135895e-02,5.006017163395881653e-02,-3.267351910471916199e-02,-4.286720603704452515e-02,5.078838020563125610e-02,5.957201123237609863e-02,8.232231438159942627e-02,1.459117233753204346e-02,-4.740558192133903503e-02,6.983137875795364380e-02,-4.645719751715660095e-02,-1.610801182687282562e-02,7.194234430789947510e-02,8.697105944156646729e-02,-1.731318235397338867e-02,-3.358516469597816467e-02,-6.448154896497726440e-02,-7.327271252870559692e-02,-1.471343338489532471e-01,8.119628578424453735e-02,7.342804223299026489e-02,9.920845739543437958e-03,-1.357685402035713196e-02,1.239419505000114441e-01,-5.551379173994064331e-03,-4.576329514384269714e-02,4.820151627063751221e-02,-5.362088978290557861e-02,2.466653101146221161e-02,-4.200450330972671509e-02,4.271490871906280518e-02,-5.237186327576637268e-02,-1.103279888629913330e-01,5.902612209320068359e-02,8.865084499120712280e-02,1.835866016335785389e-03,-1.036728825420141220e-02,8.884168229997158051e-03,7.361990213394165039e-02,1.310632079839706421e-01,1.102850511670112610e-01,-9.871771931648254395e-02,7.292811572551727295e-02,-9.534313529729843140e-02,7.386647909879684448e-02,-8.262623846530914307e-02,-8.440367877483367920e-02,-8.288308233022689819e-02,-7.945913076400756836e-02,7.745123654603958130e-02,-7.626790553331375122e-02,-3.630254790186882019e-02,-8.558926731348037720e-02,1.266404539346694946e-01,8.828324824571609497e-02,1.254582218825817108e-02,5.935523658990859985e-02,-8.261189609766006470e-02,-3.201721608638763428e-02,-2.999640256166458130e-02,-3.008569404482841492e-02,-6.516938656568527222e-02,-2.976289205253124237e-02,2.040551602840423584e-02,5.945537984371185303e-02,-5.303865298628807068e-02,1.452535688877105713e-01,1.146799623966217041e-01,-1.480461955070495605e-01,3.582429140806198120e-02,7.304029166698455811e-02,4.125737398862838745e-02,-7.456610351800918579e-02,-1.161006093025207520e-02,3.531088680028915405e-02,-6.512177735567092896e-02,5.010169744491577148e-02,-6.530251353979110718e-02,3.559622541069984436e-02,-7.172820717096328735e-02,-8.063252270221710205e-02,-5.220314115285873413e-02,3.616072237491607666e-02,7.717432826757431030e-02,-6.792604178190231323e-02,4.169545695185661316e-02,-4.882891476154327393e-02,-1.029077023267745972e-01,-5.214906111359596252e-02,7.790246605873107910e-02,-7.030434906482696533e-02,-6.455832719802856445e-02,2.964937500655651093e-02,-9.753421694040298462e-02,4.759380593895912170e-03,3.357345238327980042e-02,-7.412403821945190430e-02,1.221475154161453247e-01,9.297280013561248779e-02,-8.036259561777114868e-02,1.162064224481582642e-01,8.163411170244216919e-02,-8.068121224641799927e-02,-1.858006045222282410e-02,-8.906979858875274658e-02,-8.349634706974029541e-02,3.978049382567405701e-02,3.813659027218818665e-02,-6.088802590966224670e-02,4.244548082351684570e-02,1.110241040587425232e-01,-1.263615489006042480e-02,3.799256682395935059e-02,1.085237488150596619e-01,-1.038408651947975159e-01,-5.824987590312957764e-02,-4.616179689764976501e-02,4.245411232113838196e-02,1.017662659287452698e-01,-7.416023313999176025e-02,9.085226058959960938e-02,-7.885821908712387085e-02,-4.222249239683151245e-02,-4.988706484436988831e-02,-1.419536173343658447e-01,-7.295410335063934326e-02,7.200667262077331543e-02,-3.612953051924705505e-02,-9.597646445035934448e-02,8.689914643764495850e-02,1.361542381346225739e-02,3.343792632222175598e-02,4.365071654319763184e-03,-8.353147655725479126e-02,2.113482728600502014e-02,4.447832703590393066e-02,4.806828498840332031e-02,8.174934238195419312e-02,1.423773020505905151e-01,6.852850317955017090e-02,-1.869310997426509857e-02,-5.505288019776344299e-03,5.352667719125747681e-02,1.883572433143854141e-03,4.812268912792205811e-02,1.240365300327539444e-02,5.976923182606697083e-02,1.084768399596214294e-01,1.002827286720275879e-01,6.471613794565200806e-02,-7.040393352508544922e-02,-4.257131367921829224e-02,4.988697543740272522e-02,-3.956849128007888794e-02,3.933225199580192566e-02,5.753518268465995789e-02,1.167535781860351562e-03,2.759539894759654999e-02,-7.196810096502304077e-02,1.224929764866828918e-01,-5.929320305585861206e-02,1.162953022867441177e-02,2.170821680920198560e-04,-3.241036087274551392e-02,5.193954706192016602e-02,1.395480483770370483e-01,-1.312393397092819214e-01,-5.398701876401901245e-02,-4.274087026715278625e-02,4.322428628802299500e-02,-6.600754708051681519e-02,-2.150133065879344940e-02,-1.112369745969772339e-01,8.072203397750854492e-02,-6.032266840338706970e-02,-5.233871936798095703e-02,4.422968253493309021e-02,1.169620156288146973e-01,5.993060022592544556e-02,-6.844679266214370728e-02,1.346051990985870361e-01,4.993323609232902527e-02,-1.104047596454620361e-01,3.989521041512489319e-02,6.827902793884277344e-02,-3.346941992640495300e-02,1.990567147731781006e-02,4.391330759972333908e-03,8.552845683880150318e-04,2.561535872519016266e-02,2.257664687931537628e-02,4.774043709039688110e-02,4.543007165193557739e-02,-7.711329497396945953e-03,4.659388586878776550e-02,-4.091117531061172485e-02,1.097174510359764099e-01,3.224084526300430298e-02,1.074447389692068100e-02,-3.449465334415435791e-02,5.580545961856842041e-02,-7.053913176059722900e-02,-1.368028111755847931e-02,-1.164447609335184097e-02,-1.774504664354026318e-03,9.782747179269790649e-02,8.365391939878463745e-02,-4.109618067741394043e-02,-1.970915496349334717e-02,1.156875863671302795e-01,5.388846620917320251e-02,7.416454702615737915e-02,-2.925379388034343719e-02,7.454895880073308945e-03,1.277632266283035278e-02,3.211235627532005310e-02,6.902991235256195068e-02,4.263542592525482178e-02,1.283108144998550415e-01,-7.572555332444608212e-04,8.748686313629150391e-02,7.250720262527465820e-02,-8.801636286079883575e-03,1.285723596811294556e-01,-6.465285271406173706e-02,-4.041853919625282288e-02,9.039704687893390656e-03,4.458785522729158401e-03,2.251294814050197601e-02,5.874037370085716248e-02,-2.581617422401905060e-02,6.914060562849044800e-02,7.985715568065643311e-02,2.495229803025722504e-02,-9.571944363415241241e-03,1.328775286674499512e-01,9.437499195337295532e-02,4.588934034109115601e-02,3.278628736734390259e-02,7.753130048513412476e-02,3.264619410037994385e-02,1.039687395095825195e-01,6.070597097277641296e-02,9.400083124637603760e-02,1.056846901774406433e-01,3.865173831582069397e-02,3.569699451327323914e-02,-3.955359011888504028e-02,4.946790263056755066e-02,3.753999248147010803e-03,1.046432554721832275e-01,-4.065640643239021301e-02,2.502329647541046143e-02,-1.108435448259115219e-02,-2.578138560056686401e-02,3.748799860477447510e-02,-3.771720826625823975e-02,3.055908600799739361e-04,-4.062911123037338257e-02,3.115323558449745178e-02,5.119052901864051819e-02,5.773635115474462509e-03,1.458581816405057907e-02,4.536333307623863220e-02,2.029574662446975708e-02,9.526488929986953735e-02,4.397988691926002502e-02,-1.048746854066848755e-01,1.538159698247909546e-02,-9.545020759105682373e-02,-4.210098832845687866e-02,-1.052503846585750580e-02,-5.316321179270744324e-02,-3.277169167995452881e-02,5.725186783820390701e-03,4.183415323495864868e-02,1.288763135671615601e-01,1.295561939477920532e-01,3.432016819715499878e-02,-3.015546500682830811e-02,-4.288422316312789917e-02,1.099393665790557861e-01,-1.330803963355720043e-03,-2.258970774710178375e-02,-1.578700169920921326e-02,3.060574643313884735e-02,8.557336032390594482e-02,6.717379391193389893e-02,4.962375015020370483e-02,3.931177780032157898e-03,-4.960951209068298340e-02,-6.810908764600753784e-02,-1.120311468839645386e-01,1.072499752044677734e-01,-1.182166188955307007e-01,-1.085381358861923218e-01,-7.884674519300460815e-02,-7.651375979185104370e-02,1.161546707153320312e-01,-7.768364250659942627e-02,1.201162561774253845e-01,6.433065980672836304e-02,-7.008821517229080200e-02,1.404617074877023697e-02,8.903625607490539551e-02,7.164192944765090942e-02,-7.518974691629409790e-02,6.762596964836120605e-02,-1.518925931304693222e-02,5.531232431530952454e-02,-4.113527480512857437e-03,1.111833602190017700e-01,6.346138566732406616e-02,6.499956548213958740e-02,5.501125752925872803e-02,7.996889203786849976e-02,1.203681528568267822e-01,4.647253081202507019e-02,-8.677930384874343872e-02,1.314777433872222900e-01,4.478437453508377075e-02,-2.105374820530414581e-02,1.062468886375427246e-01,1.192914228886365891e-02,1.007500737905502319e-01,5.088407173752784729e-02,-3.906447440385818481e-02,-5.241656303405761719e-02,-1.851662248373031616e-02,1.145458817481994629e-01,-6.106165051460266113e-02,-9.652855247259140015e-02,-1.069807633757591248e-02,-6.404282152652740479e-02,-9.316268563270568848e-02,2.245710603892803192e-02,-2.510872855782508850e-02,-2.066006138920783997e-02,6.997349113225936890e-02,4.936465993523597717e-02,-5.129466205835342407e-02,-5.890719592571258545e-02,4.562792181968688965e-02,-6.025270000100135803e-02,-8.951114118099212646e-02,9.023811668157577515e-02,-4.177318885922431946e-02,-7.304913550615310669e-02,-7.099951803684234619e-02,3.222170844674110413e-02,-1.759200240485370159e-03,9.169054776430130005e-02,8.532103896141052246e-02,7.130424678325653076e-02,1.219907552003860474e-01,-5.535813421010971069e-02,1.407142262905836105e-02,-6.063749268651008606e-02,-4.694937914609909058e-02,3.039489872753620148e-02,-2.350675314664840698e-02,-2.743758447468280792e-02,8.876450359821319580e-03,2.724456042051315308e-02,-1.706521399319171906e-02,-3.712667897343635559e-02,6.459358334541320801e-02,-3.423650283366441727e-03,-1.067517325282096863e-01,7.350603491067886353e-02,-2.430506981909275055e-02,-1.657273969613015652e-03,-8.914823085069656372e-02,4.656948894262313843e-02,-4.764739423990249634e-02,1.022570282220840454e-01,4.862906783819198608e-02,-2.737499959766864777e-02,-6.463082134723663330e-02,6.889148801565170288e-02,1.201640516519546509e-01,7.521563768386840820e-02,-6.296256929636001587e-02,8.719572424888610840e-02,7.877849042415618896e-02,-8.903138339519500732e-02,1.853594742715358734e-02,1.127564013004302979e-01,3.765125945210456848e-02,-8.577564358711242676e-02,-8.338675647974014282e-02,-6.245487555861473083e-02,-3.214132040739059448e-02,4.573576617985963821e-03,-6.127621233463287354e-02,-8.003722876310348511e-02,8.050978183746337891e-02,-9.384065866470336914e-02,6.102789193391799927e-02,-2.330201119184494019e-02,-3.256745263934135437e-02,-9.157755970954895020e-02,1.137908780947327614e-03,-8.734837174415588379e-02,-6.747074425220489502e-02,-1.043567284941673279e-01,6.842727214097976685e-02,2.237467467784881592e-02,-1.712491177022457123e-02,-2.438369579613208771e-02,1.873507350683212280e-02,-7.595879025757312775e-03,6.188251543790102005e-03,1.068012714385986328e-01,7.661760598421096802e-02,-8.361939340829849243e-02,-3.650754690170288086e-03,4.930919781327247620e-02,9.430512040853500366e-02,-8.940917998552322388e-02,-6.306983530521392822e-02,-4.819494485855102539e-02,5.197432264685630798e-02,-7.771994173526763916e-02,2.872631512582302094e-02,-7.504034787416458130e-02,-2.395905368030071259e-02,1.307788863778114319e-02,3.414088860154151917e-02,8.483895659446716309e-02,4.147380962967872620e-02,6.852996349334716797e-02,1.457451749593019485e-02,-1.157348453998565674e-01,7.530076056718826294e-02,9.359355270862579346e-02,2.449491433799266815e-02,7.586658000946044922e-02,-9.307120740413665771e-02,-2.163097076117992401e-02,-1.003977581858634949e-01,-9.004020690917968750e-02,-1.806731522083282471e-02,3.802504017949104309e-02,-1.324892938137054443e-01,-6.902860850095748901e-02,1.548559125512838364e-02,-7.148243486881256104e-02,6.290459632873535156e-02,-6.931468099355697632e-02,8.685679174959659576e-03,7.046060264110565186e-02,5.288363248109817505e-02,-3.252107650041580200e-02,6.757298251613974571e-04,8.355938643217086792e-02,3.653351590037345886e-02,6.620839983224868774e-02,9.920441359281539917e-02,1.196167543530464172e-01,-2.990440651774406433e-02,-6.580062210559844971e-02,-3.563099354505538940e-02,-3.974003344774246216e-02,1.032698974013328552e-01,-1.062037795782089233e-01,6.979551911354064941e-02,6.603744626045227051e-02,-9.747199714183807373e-03,1.363950073719024658e-01,9.211166203022003174e-02,-2.856950461864471436e-02,1.363528668880462646e-01,-3.508567065000534058e-02,-9.941361844539642334e-02,-9.885840862989425659e-02,-1.032671611756086349e-02,-2.816997468471527100e-02,-1.000042259693145752e-01,8.728282898664474487e-02,-8.719112724065780640e-03,-1.183048263192176819e-01,-5.926281586289405823e-02,4.543079063296318054e-02,-2.208883687853813171e-02,-5.890638008713722229e-02,2.043434506049379706e-04,-7.361810654401779175e-02,-1.543884724378585815e-01,7.767923921346664429e-02,4.484349489212036133e-02,1.030091121792793274e-01,-9.675554931163787842e-02,6.937821954488754272e-02,-7.582467794418334961e-02,3.697302937507629395e-02,-7.807094603776931763e-02,-5.992207676172256470e-02,4.875954240560531616e-02,-3.969211876392364502e-02,8.038927614688873291e-02,1.857691109180450439e-01,3.417372703552246094e-02,7.402261346578598022e-02,2.317631244659423828e-02,-4.436787962913513184e-02,-3.347734734416007996e-02,8.703417330980300903e-02,-4.730598255991935730e-02,-1.404486224055290222e-02,-4.282211139798164368e-02,1.490634400397539139e-02,-2.542561292648315430e-02,-1.041323542594909668e-01,-6.965073943138122559e-02,8.525065332651138306e-02,-1.412475556135177612e-01,6.309888511896133423e-02,1.140207052230834961e-02,-5.350857228040695190e-02,-6.460480391979217529e-02,7.360376417636871338e-02,3.235512226819992065e-02,4.753371700644493103e-02,-1.335152089595794678e-01,-1.096102967858314514e-01,8.682304061949253082e-03,1.226012930274009705e-01,9.613515436649322510e-02,-8.594287931919097900e-02,2.394415065646171570e-02,2.005087584257125854e-02,-4.671071469783782959e-02,1.966508664190769196e-02,5.195211619138717651e-02,3.757346048951148987e-02,-6.565817445516586304e-02,-6.982591003179550171e-02,5.895265191793441772e-02,-4.699900746345520020e-02,-1.766073331236839294e-02,4.389627277851104736e-02,-3.415592014789581299e-02,7.850593328475952148e-02,7.551332563161849976e-02,7.076220214366912842e-02,2.728494815528392792e-02,9.137441217899322510e-02,1.646935474127531052e-03,5.474032089114189148e-02,-5.577741563320159912e-02,5.251639336347579956e-02,-6.379753351211547852e-03,-5.232023820281028748e-02,-7.413178682327270508e-02,2.512207813560962677e-02,4.161337763071060181e-02,-6.121717765927314758e-02,5.309301242232322693e-02,7.691297680139541626e-02,4.314189776778221130e-02,6.745766103267669678e-02,-8.572994917631149292e-02,-1.208112463355064392e-01,-4.712397977709770203e-02,5.622448772192001343e-02,-6.469201296567916870e-02,5.122910439968109131e-02,9.494387544691562653e-03,-3.384590893983840942e-02,3.584110364317893982e-02,4.481393098831176758e-02,4.515717923641204834e-02,-1.487119495868682861e-01,-6.941337883472442627e-02,8.011713624000549316e-03,2.122641913592815399e-02,-3.164684772491455078e-02,5.159314256161451340e-03,5.529025197029113770e-02,6.965377181768417358e-02,-2.547204680740833282e-02,-6.576872617006301880e-02,1.276274174451828003e-01,-4.265156015753746033e-02,2.377953939139842987e-02,4.945980012416839600e-02,-1.482515223324298859e-02,4.744652193039655685e-03,-4.143330268561840057e-03,9.824408218264579773e-03,-3.760600090026855469e-02,8.958312869071960449e-02,5.719375982880592346e-02,6.194065511226654053e-02,-6.608150899410247803e-02,8.154124021530151367e-02,2.590499073266983032e-02,-6.607865542173385620e-02,7.457326352596282959e-02,5.810308456420898438e-02,1.101517900824546814e-01,-9.866315871477127075e-02,2.163031697273254395e-02,5.620748922228813171e-02,1.997758075594902039e-02,5.147859454154968262e-03,-3.220756724476814270e-02,-4.569329693913459778e-02,6.071442738175392151e-02,-8.383855223655700684e-02,-1.246842294931411743e-01,-2.320159599184989929e-02,2.595267817378044128e-02,-8.129768073558807373e-02,-8.003817871212959290e-03,-2.018734812736511230e-02,8.519626408815383911e-02,3.297143615782260895e-03,-3.212455660104751587e-02,4.492877796292304993e-02,1.699689775705337524e-02,1.859362982213497162e-02,1.314999461174011230e-01,-7.748324424028396606e-02,-5.949504300951957703e-02,3.138727322220802307e-02,-3.034698218107223511e-02,-4.811048135161399841e-02,-5.556958541274070740e-02,-6.940121948719024658e-02,4.602771997451782227e-02,-2.159910742193460464e-03,6.853862851858139038e-02,1.920104399323463440e-02,3.496677801012992859e-02,-3.202343359589576721e-02,-4.028069972991943359e-02,-8.516319096088409424e-03,-9.153919667005538940e-02,3.468797728419303894e-02,-8.216770738363265991e-02,4.257528483867645264e-02,6.854332238435745239e-02,-3.363100439310073853e-02,-5.916953086853027344e-02,-5.803762376308441162e-02,7.154701650142669678e-02,8.018251508474349976e-02,-8.178658783435821533e-03,5.212845280766487122e-03,-6.525938957929611206e-02,-8.630527555942535400e-02,-1.914517581462860107e-02,3.834681957960128784e-02,-6.766271591186523438e-02,-3.064221888780593872e-02,-4.788961261510848999e-02,-5.654093250632286072e-02,-2.519850432872772217e-02,-5.991854239255189896e-03,-8.585371822118759155e-02,2.641446515917778015e-02,2.711223065853118896e-02,1.719180308282375336e-02,-3.830857947468757629e-02,-1.014610305428504944e-01,5.927503481507301331e-02,-3.642658144235610962e-02,7.387529313564300537e-02,-1.836182549595832825e-02,4.475697502493858337e-02,3.426523506641387939e-02,6.219870597124099731e-02,7.081650197505950928e-02,-6.731652468442916870e-02,-9.091784805059432983e-02,-3.296153619885444641e-02,2.172577381134033203e-02,-1.410973444581031799e-02,-8.592063933610916138e-02,7.091216742992401123e-03,2.392403595149517059e-02,-9.479153901338577271e-02,-3.794519975781440735e-02,-4.846941307187080383e-02,3.267755359411239624e-02,1.044139266014099121e-02,-3.990932926535606384e-02,-8.650783449411392212e-02,6.695070862770080566e-02,-3.605917096138000488e-02,-3.844717890024185181e-02,-6.383243948221206665e-02,7.835803925991058350e-02,-2.798701822757720947e-02,7.617390900850296021e-02,6.530261132866144180e-03,1.543630100786685944e-02,-9.900806844234466553e-02,-8.913706056773662567e-03,-1.874607615172863007e-02,2.868840098381042480e-02,7.267218083143234253e-02,-9.874796122312545776e-02,-8.185406774282455444e-02,9.100969135761260986e-02,-5.613923817873001099e-02,-4.442666843533515930e-02,1.447580638341605663e-03,-8.009864389896392822e-02,-3.304824233055114746e-03,-4.204828664660453796e-02,2.577133849263191223e-02,4.907143861055374146e-02,-5.595988780260086060e-02,-9.016156196594238281e-03,-8.416254818439483643e-02,-2.591319382190704346e-02,1.858505606651306152e-02,3.660923242568969727e-02,7.414256781339645386e-02,-9.055311232805252075e-02,-3.843586891889572144e-02,2.319641783833503723e-02,-6.119208782911300659e-02,-3.286921977996826172e-02,-6.366510689258575439e-02,7.743791490793228149e-02,-7.273960858583450317e-02,-5.031006038188934326e-02,1.992076635360717773e-02,3.445380716584622860e-04,-9.886681288480758667e-02,7.258898019790649414e-02,-5.230057612061500549e-02,2.756414562463760376e-02,4.985915869474411011e-02,5.364809930324554443e-02,-8.181102573871612549e-02,-4.515983536839485168e-02,5.612114071846008301e-02,-4.731692373752593994e-02,-9.689321368932723999e-02,4.564568027853965759e-02,8.020773530006408691e-02,1.411256939172744751e-02,7.540801167488098145e-02,4.230569582432508469e-03,3.363694995641708374e-02,-2.889715507626533508e-02,3.509336709976196289e-02,-3.749089688062667847e-02,1.705065928399562836e-02,-3.686774149537086487e-02,2.278375998139381409e-02,-1.211464032530784607e-02,4.211868345737457275e-02,-1.653611660003662109e-02,-7.803161442279815674e-02,-8.533220738172531128e-02,4.028231278061866760e-02,2.192714065313339233e-02,-9.109165519475936890e-02,3.645403310656547546e-02,5.121195688843727112e-02,-6.699790712445974350e-03,-5.691762641072273254e-02,-1.073958873748779297e-01,-7.605202496051788330e-03,-3.395335376262664795e-02,-7.878491282463073730e-02,-1.614314503967761993e-02,-5.005546659231185913e-02,-8.575837314128875732e-02,2.241159044206142426e-02,8.168175816535949707e-03,-1.211389340460300446e-02,-8.885615319013595581e-02,3.118932247161865234e-02,-1.760422065854072571e-02,-1.945903152227401733e-02,-5.128921195864677429e-02,-8.577502518892288208e-02,4.185945913195610046e-02,-8.785413950681686401e-02,1.016699336469173431e-02,-9.167811274528503418e-02,-8.362611383199691772e-02,-1.388907432556152344e-02,-3.912536054849624634e-02,-7.006915658712387085e-02,8.323286473751068115e-02,7.447249442338943481e-02,-5.779851600527763367e-02,-1.169706434011459351e-01,3.491028770804405212e-02,-1.054745391011238098e-01,-7.067093998193740845e-02,4.105610400438308716e-02,-1.083639711141586304e-01,-8.847191184759140015e-02,7.660196628421545029e-03,-5.744146928191184998e-02,-8.679012954235076904e-02,2.112254686653614044e-02,7.651880383491516113e-02,-5.988202616572380066e-02,1.509980577975511551e-02,-1.005696877837181091e-01,4.832725040614604950e-03,2.079538255929946899e-02,-5.598897114396095276e-02,-4.905920103192329407e-02,-1.304972544312477112e-02,-5.019799247384071350e-02,-1.715661957859992981e-02,-9.226493537425994873e-02,5.030348151922225952e-02,-4.330935329198837280e-02,5.464157089591026306e-02,-3.094196878373622894e-02,-4.415859654545783997e-02,-6.328894942998886108e-02,6.116648763418197632e-02,2.344311447814106941e-03,7.945081591606140137e-02,-1.044864207506179810e-01,-2.660376019775867462e-02,-2.080286480486392975e-02,2.800836414098739624e-02,2.475465089082717896e-02,2.481907978653907776e-02,-1.009332165122032166e-01,-6.549814343452453613e-02,-3.246991708874702454e-02,-4.609382152557373047e-02,-1.667232625186443329e-02,2.646689489483833313e-02,1.738416403532028198e-02,8.832609653472900391e-02,4.289041738957166672e-03,6.143872812390327454e-02,-7.525497674942016602e-02,-1.872524432837963104e-02,3.613236546516418457e-02,5.614119768142700195e-02,-4.949602112174034119e-02,1.492071058601140976e-02,-5.266495048999786377e-02,-1.574309356510639191e-02,-5.483110994100570679e-02,-1.640969328582286835e-02,-1.994779740925878286e-04,4.260118305683135986e-02,-2.813498675823211670e-02,7.598210871219635010e-02,4.798071831464767456e-02,2.821492776274681091e-02,-9.771031141281127930e-02,-8.384791761636734009e-02,-3.028964437544345856e-02,-4.495119675993919373e-02,-4.610140249133110046e-02,2.958098240196704865e-02,7.913839817047119141e-02,-8.871048688888549805e-02,5.084543302655220032e-02,-6.096676737070083618e-02,-1.632613944821059704e-03,-1.245129480957984924e-02,-7.109332084655761719e-02,-7.547778636217117310e-02,1.640773005783557892e-02,-3.896685317158699036e-02,-7.260222733020782471e-02,1.501800143159925938e-03,-7.442160695791244507e-02,-8.625495433807373047e-02,2.020996995270252228e-02,8.103096857666969299e-03,-3.968551382422447205e-02,-1.140863448381423950e-02,-9.438999742269515991e-02,3.816540539264678955e-02,-5.569518357515335083e-02,-1.229052841663360596e-01,7.661703974008560181e-03,1.114946454763412476e-01,3.112884610891342163e-02,7.094375789165496826e-02,3.612583875656127930e-02,-6.170309614390134811e-03,1.240217983722686768e-01,-7.674636691808700562e-02,6.389942020177841187e-02,3.534147143363952637e-02,-4.937371984124183655e-02,1.159227266907691956e-02,-7.580302655696868896e-03,8.391360938549041748e-02,1.032225266098976135e-01,-5.403437092900276184e-02,4.719275236129760742e-02,1.048755645751953125e-01,-3.760434687137603760e-03,-1.045017410069704056e-02,-8.022202551364898682e-02,5.357113853096961975e-02,4.850772768259048462e-02,-2.765399031341075897e-02,1.506930887699127197e-01,-3.888688981533050537e-03,-1.965265907347202301e-02,1.413563382811844349e-03,8.407692611217498779e-02,4.832436330616474152e-03,-3.815316408872604370e-02,8.012016117572784424e-02,2.869830653071403503e-02,-5.595673993229866028e-02,-3.902454674243927002e-02,1.472915336489677429e-02,-6.285636126995086670e-02,-8.407706394791603088e-03,2.812930755317211151e-02,-8.606111258268356323e-02,5.305671691894531250e-02,1.074604839086532593e-01,2.042945101857185364e-02,-6.044104322791099548e-02,-3.235632926225662231e-02,-3.835769370198249817e-02,4.361033812165260315e-02,-2.920661121606826782e-02,3.030470758676528931e-02,4.260522127151489258e-02,6.323516368865966797e-02,4.463112354278564453e-02,-5.360696837306022644e-02,5.175586789846420288e-02,1.162936836481094360e-01,-7.564525306224822998e-02,-5.528696626424789429e-02,-6.097423285245895386e-02,-9.682269394397735596e-02,-1.511215418577194214e-02,1.391344666481018066e-01,1.407136768102645874e-02,1.393191069364547729e-01,-9.730871766805648804e-03,5.398696660995483398e-02,3.112320043146610260e-02,-4.689629003405570984e-02,7.195092737674713135e-02,1.028220653533935547e-01,7.381871342658996582e-03,3.344811731949448586e-03,1.969762705266475677e-02,-2.739063650369644165e-02,3.635464934632182121e-03,3.697450086474418640e-02,5.696640163660049438e-02,7.775880396366119385e-02,4.085193946957588196e-02,7.282650470733642578e-02,-3.055470436811447144e-02,-1.074567437171936035e-02,1.468512695282697678e-02,4.004109650850296021e-02,-5.175397731363773346e-03,6.320721656084060669e-02,-1.041306406259536743e-01,-6.297631561756134033e-02,-7.685364782810211182e-02,1.119806542992591858e-01,6.169189512729644775e-02,-7.140854001045227051e-02,2.728785015642642975e-02,-5.464129499159753323e-04,7.593725621700286865e-02,6.594274193048477173e-02,7.366950064897537231e-02,9.620791673660278320e-02,4.026082158088684082e-02,9.628929197788238525e-03,-7.812754064798355103e-02,5.182940512895584106e-02,-1.179542765021324158e-02,-3.102441504597663879e-02,-6.677257479168474674e-04,6.018672510981559753e-02,1.030206382274627686e-01,-3.213790431618690491e-02,-2.680871263146400452e-02,4.986907914280891418e-02,-5.886236205697059631e-03,-8.051319047808647156e-03,3.247058391571044922e-02,4.411026835441589355e-02,4.012949019670486450e-02,-9.438658505678176880e-02,2.178754657506942749e-02,-6.704206764698028564e-02,3.520354256033897400e-02,4.396601021289825439e-02,-7.950896024703979492e-02,4.718357324600219727e-02,6.672324240207672119e-02,-8.144468814134597778e-02,-4.778743907809257507e-02,-8.115752786397933960e-02,5.288415029644966125e-02,-6.294004619121551514e-02,4.852863028645515442e-02,4.619127511978149414e-02,-3.697916865348815918e-03,1.175920572131872177e-02,3.474837169051170349e-02,-7.155333459377288818e-02,-5.248307436704635620e-02,1.623271405696868896e-02,-8.030714094638824463e-02,-8.549265563488006592e-02,-8.655717968940734863e-02,2.700592577457427979e-02,2.158901840448379517e-02,9.630170650780200958e-03,-5.025788396596908569e-02,-5.647896602749824524e-02,-8.969885855913162231e-02,-4.349781945347785950e-02,-4.658043384552001953e-03,4.873067885637283325e-02,-2.257134020328521729e-02,5.895484611392021179e-02,5.058250948786735535e-02,-8.412150293588638306e-02,-6.199872493743896484e-02,-5.621992051601409912e-03,-7.876736670732498169e-02,3.894814848899841309e-02,3.686502948403358459e-02,7.514926791191101074e-02,1.479993015527725220e-02,6.722189486026763916e-02,2.763815224170684814e-03,-6.132049858570098877e-02,-3.255992755293846130e-02,4.759546369314193726e-02,2.403437346220016479e-02,-1.058550179004669189e-02,3.456087410449981689e-02,-7.998487353324890137e-02,-6.256484985351562500e-02,4.892921447753906250e-02,-6.947108358144760132e-02,2.450526691973209381e-02,4.854591190814971924e-02,-1.379633136093616486e-02,-7.015497237443923950e-02,-3.194019570946693420e-02,-4.906242713332176208e-02,-5.939673259854316711e-02,2.624296024441719055e-02,5.541149526834487915e-02,7.517838478088378906e-02,-4.505854845046997070e-02,-4.841651022434234619e-02,-3.796360641717910767e-02,4.581365361809730530e-02,-7.419417053461074829e-02,2.860302664339542389e-02,-5.489559099078178406e-02,-9.614468365907669067e-02,-3.568141534924507141e-02,-6.051611527800559998e-02,4.118091985583305359e-02,2.843126282095909119e-02,-5.836202204227447510e-02,1.130217313766479492e-02,1.259577553719282150e-02,-4.079028591513633728e-02,1.594685018062591553e-03,-3.456284478306770325e-02,-5.453264806419610977e-03,3.091596066951751709e-03,5.025206506252288818e-02,-6.200518831610679626e-02,-7.408296316862106323e-02,-3.345093876123428345e-02,-2.300732024013996124e-02,-7.186453789472579956e-02,-8.636545389890670776e-02,5.962157249450683594e-02,-7.758717983961105347e-02,-1.372766494750976562e-02,9.160463698208332062e-03,-6.120728701353073120e-02,4.371561482548713684e-02,7.672102749347686768e-02,-2.519361674785614014e-03,-7.751926034688949585e-02,-3.583816438913345337e-02,1.225820463150739670e-02,-6.344530731439590454e-02,6.820228695869445801e-02,-8.065928122960031033e-04,2.459192089736461639e-02,-6.019921228289604187e-02,2.949331514537334442e-02,5.021267756819725037e-02,7.760721445083618164e-02,-6.291555613279342651e-02,1.453640684485435486e-02,-3.966892510652542114e-02,-9.707631543278694153e-03,-8.716237545013427734e-02,6.903287768363952637e-02,8.236670866608619690e-03,7.674683630466461182e-02,-4.250970110297203064e-02,2.191933430731296539e-02,4.052758589386940002e-02,4.884567111730575562e-02,-1.324151754379272461e-01,1.094700768589973450e-01,5.143583565950393677e-02,2.295320108532905579e-02,3.050299361348152161e-02,-9.328255802392959595e-02,3.406677395105361938e-02,-2.956845238804817200e-02,-9.982462227344512939e-02,-6.553116440773010254e-02,-1.312793642282485962e-01,-2.205915190279483795e-02,-7.823538780212402344e-02,-6.214173138141632080e-02,3.833724185824394226e-02,1.794376596808433533e-02,-3.384866937994956970e-02,-6.710711400955915451e-03,-7.086299359798431396e-02,2.366385236382484436e-02,-9.659827500581741333e-02,1.415947102941572666e-03,1.239503249526023865e-01,9.339001029729843140e-02,7.738130539655685425e-02,-4.535446688532829285e-02,-7.432845234870910645e-02,2.918171137571334839e-02,8.607262372970581055e-02,-4.186275228857994080e-02,1.360191591084003448e-02,3.584562242031097412e-02,-1.110978499054908752e-01,4.670581594109535217e-02,7.700892537832260132e-02,-1.906312815845012665e-02,-4.285501316189765930e-02,-2.822010219097137451e-02,-1.343314535915851593e-02,-7.225357741117477417e-02,-8.083423227071762085e-02,2.388404682278633118e-02,2.953818999230861664e-02,-3.168337792158126831e-02,3.819663450121879578e-02,-9.989162534475326538e-02,-5.341479182243347168e-02,1.001704949885606766e-02,4.628100618720054626e-02,6.673635542392730713e-02,-6.912847608327865601e-02,-9.776246547698974609e-02,8.748061954975128174e-02,-2.521167509257793427e-02,-9.085756540298461914e-02,8.648814260959625244e-02,-4.824461042881011963e-02,9.689515084028244019e-02,9.033030271530151367e-02,-2.023624628782272339e-02,1.086321845650672913e-01,3.264205902814865112e-02,6.678250432014465332e-02,5.390643607825040817e-03,6.869070231914520264e-02,-5.264399200677871704e-02,7.807020097970962524e-02,-2.230931818485260010e-02,1.109177172183990479e-01,-5.371883139014244080e-02,1.947687705978751183e-03,7.883074134588241577e-02,9.525598585605621338e-02,-3.976258914917707443e-03,-6.279820948839187622e-02,-8.945472538471221924e-02,6.195332482457160950e-02,4.142954014241695404e-03,7.631035894155502319e-02,7.039100676774978638e-02,8.251781016588211060e-02,8.937241882085800171e-02,4.983920976519584656e-02,-4.864866659045219421e-02,7.769511640071868896e-02,-4.215500876307487488e-02,-3.747799992561340332e-02,1.358127407729625702e-02,1.323268562555313110e-02,-3.839442133903503418e-02,3.621331229805946350e-02,-2.362666884437203407e-03,-4.556767642498016357e-02,-3.754995763301849365e-02,3.755567967891693115e-02,5.270567908883094788e-02,7.316336035728454590e-02,-4.001730680465698242e-02,-3.536850214004516602e-02,8.455701172351837158e-02,-2.866573259234428406e-02,-3.283169493079185486e-02,-1.062104292213916779e-02,-5.787324160337448120e-03,1.752630621194839478e-02,8.324048668146133423e-02,-7.198821753263473511e-02,-9.207360446453094482e-02,1.017132997512817383e-01,2.340436913073062897e-02,-5.135280638933181763e-02,5.263597890734672546e-02,3.034873306751251221e-02,3.046485781669616699e-02,4.399677366018295288e-02,1.898288913071155548e-02,-3.646504506468772888e-02,8.581771515309810638e-03,1.405116263777017593e-02,-5.308874323964118958e-02,-3.525565378367900848e-03,-2.100435830652713776e-02,-9.968052804470062256e-02,1.191344205290079117e-02,5.854083597660064697e-02,-6.865065544843673706e-02,-8.672875165939331055e-02,-6.563864648342132568e-02,-6.292349845170974731e-02,-6.691274791955947876e-02,5.789453163743019104e-03,2.418095618486404419e-02,-3.974089026451110840e-02,5.492946505546569824e-02,-4.097839072346687317e-02,7.216082513332366943e-02,5.387057736515998840e-02,-4.390241578221321106e-02,-2.932538976892828941e-03,-3.280841931700706482e-02,-1.868580281734466553e-02,-4.374944046139717102e-02,1.294965855777263641e-02,-1.056613922119140625e-01,2.251407504081726074e-02,-7.266182452440261841e-02,-2.984542027115821838e-02,-5.112996324896812439e-02,-3.746373206377029419e-02,-9.756566584110260010e-02,3.368856012821197510e-02,-5.854992568492889404e-02,5.946552753448486328e-02,4.142612218856811523e-02,3.706505149602890015e-02,5.575320124626159668e-02,-1.413320191204547882e-02,-8.846405148506164551e-02,-7.820167392492294312e-02,-2.612945437431335449e-02,7.276417315006256104e-02,-8.959119021892547607e-02,7.206938415765762329e-02,-1.042024567723274231e-01,-5.803459882736206055e-02,-8.517279475927352905e-02,7.396665960550308228e-02,-8.939056098461151123e-02,5.309781432151794434e-02,-7.596637308597564697e-02,-2.416367456316947937e-02,-7.904765009880065918e-02,-8.568813651800155640e-02,-1.529622543603181839e-02,-4.043972119688987732e-02,-4.436498973518610001e-03,-2.674216404557228088e-02,-5.353895947337150574e-02,-2.401749975979328156e-02,-9.678433090448379517e-02,2.708732709288597107e-02,1.472180150449275970e-02,-4.145618062466382980e-03,8.715766668319702148e-02,-6.258957087993621826e-02,7.092386484146118164e-02,-9.094100445508956909e-02,3.440541401505470276e-02,6.531655043363571167e-02,1.441066991537809372e-02,-2.926494739949703217e-02,-1.294190436601638794e-02,-5.005292221903800964e-02,-3.659079549834132195e-03,-2.029868215322494507e-02,2.051478065550327301e-02,-1.113518252968788147e-01,-2.861336432397365570e-02,8.648443222045898438e-02,-8.372234180569648743e-03,-7.236815989017486572e-02,7.460363954305648804e-02,-6.351668387651443481e-02,5.521791800856590271e-02,-8.831708878278732300e-02,3.189043700695037842e-02,7.752519845962524414e-02,-4.100467264652252197e-02,5.974582582712173462e-02,3.559165401384234428e-03,4.020686447620391846e-02,2.929953671991825104e-02,6.554738432168960571e-02,-2.328333817422389984e-02,-6.913723796606063843e-02,4.172671958804130554e-02,3.613342344760894775e-02,6.691552698612213135e-02,-9.387944638729095459e-02,-5.910616368055343628e-03,3.040248760953545570e-03,2.214095368981361389e-02,-5.088807269930839539e-02,-4.115893319249153137e-02,7.218206673860549927e-02,-1.122031733393669128e-01,-5.523532256484031677e-02,4.592228215187788010e-04,4.414155334234237671e-02,5.330945551395416260e-02,9.286183118820190430e-02,-5.716814100742340088e-02,5.790561065077781677e-02,6.327414512634277344e-02,-7.791411876678466797e-02,6.543911993503570557e-02,-6.221222691237926483e-03,-5.698086693882942200e-02,2.086626552045345306e-02,3.541854396462440491e-02,1.822917014360427856e-01,-4.384579509496688843e-02,2.758795954287052155e-02,4.196611419320106506e-02,1.446402817964553833e-02,3.974628821015357971e-02,-6.636683642864227295e-02,2.229058556258678436e-02,-1.680989749729633331e-02,-7.730747014284133911e-02,-2.322756499052047729e-02,-3.646353632211685181e-02,8.161793462932109833e-03,7.450921088457107544e-02,3.188252449035644531e-02,2.545139379799365997e-02,-4.224681854248046875e-02,3.557962924242019653e-02,-6.529219448566436768e-02,-2.205183357000350952e-02,-7.892328500747680664e-02,-1.247538924217224121e-01,4.860422760248184204e-02,-6.188033893704414368e-02,7.949366420507431030e-02,-1.061844155192375183e-01,1.076776906847953796e-01,-2.634573727846145630e-02,1.698107272386550903e-02,-3.433789312839508057e-02,8.935137093067169189e-02,5.479631572961807251e-02,-8.543879538774490356e-02,-3.625627234578132629e-02,9.527458995580673218e-02,8.972425013780593872e-02,5.826117098331451416e-02,-9.891983121633529663e-02,-5.540615692734718323e-02,7.751421630382537842e-02,4.000124707818031311e-02,3.993874788284301758e-02,-3.785391896963119507e-02,-2.925579808652400970e-02,8.528889156877994537e-03,1.074341237545013428e-01,8.428376913070678711e-02,-4.759425669908523560e-02,2.601980976760387421e-02,-8.945687860250473022e-02,-1.679430156946182251e-02,-1.200488880276679993e-01,4.364387318491935730e-02,-1.107032224535942078e-01,1.442052517086267471e-02,1.006086245179176331e-01,-1.462310459464788437e-02,-8.858687430620193481e-02,2.322603948414325714e-02,4.732300713658332825e-02,8.879604190587997437e-02,1.899626106023788452e-02,5.561352521181106567e-02,1.118841171264648438e-01,-5.801667273044586182e-02,5.625706911087036133e-02,-7.337532937526702881e-02,1.012212038040161133e-01,-4.567220062017440796e-02,-5.965327098965644836e-02,1.086698174476623535e-01,-4.552767053246498108e-02,-6.316042691469192505e-02,-1.350636333227157593e-01,7.057243585586547852e-02,-3.447016328573226929e-02,-3.700063750147819519e-02,4.910297226160764694e-03,6.532330811023712158e-02,-6.719719618558883667e-02,7.673072814941406250e-02,2.832730114459991455e-02,-3.247407451272010803e-02,-2.719874028116464615e-03,5.188152194023132324e-02,-1.040667816996574402e-01,-4.627027362585067749e-02,-9.150153025984764099e-03,9.164857119321823120e-02,4.672662913799285889e-02,3.369669243693351746e-02,8.993604779243469238e-02,7.426669448614120483e-02,-1.361157596111297607e-01,-8.309364318847656250e-02,-7.659471035003662109e-02,2.925169840455055237e-02,-6.042752042412757874e-02,3.041122108697891235e-02,7.190685719251632690e-02,-8.614152669906616211e-02,-4.624522262020036578e-05,-3.381888940930366516e-02,2.933940850198268890e-02,7.831039279699325562e-02,-1.062403172254562378e-01,-1.891201734542846680e-02,5.203245580196380615e-02,-9.167911112308502197e-02,6.825813651084899902e-02,7.981686294078826904e-02,4.782018065452575684e-02,-8.136551827192306519e-02,1.024105772376060486e-01,5.419838428497314453e-02,3.550763800740242004e-02,-3.276670724153518677e-02,-2.183561399579048157e-02,3.895606379956007004e-03,-9.370298683643341064e-02,-2.394753880798816681e-02,-1.277692709118127823e-02,-3.441951051354408264e-02,9.096337109804153442e-02,1.743499934673309326e-02,1.052455678582191467e-01,7.254203408956527710e-02,-7.332204282283782959e-02,8.599085360765457153e-02,-1.127242649090476334e-04,1.239068359136581421e-01,-2.201176807284355164e-02,-8.987987041473388672e-02,1.164179891347885132e-01,-4.102893546223640442e-02,-5.281068757176399231e-02,1.460229046642780304e-02,5.850324779748916626e-02,4.789637774229049683e-02,1.108536422252655029e-01,1.650899462401866913e-02,-5.758693814277648926e-02,1.021989658474922180e-01,-3.152494132518768311e-02,7.968682050704956055e-02,-2.296473458409309387e-02,2.120379172265529633e-02,-4.473220184445381165e-02,-6.763737648725509644e-03,8.186588995158672333e-03,8.907321095466613770e-02,2.769374102354049683e-02,-1.429124549031257629e-02,-1.169027481228113174e-02,4.846393316984176636e-02,-5.994601524434983730e-04,5.909085273742675781e-02,-1.287984549999237061e-01,5.225785076618194580e-02,5.370412021875381470e-03,1.020841673016548157e-01,5.168263986706733704e-02,3.464647382497787476e-02,8.821146190166473389e-02,-1.294523291289806366e-02,-2.975121140480041504e-02,3.216201066970825195e-02,2.567088231444358826e-02,1.795759983360767365e-02,-3.389990329742431641e-02,9.748027473688125610e-02,8.661587722599506378e-03,8.479437977075576782e-02,-5.853411741554737091e-03,2.384321950376033783e-02,-9.436094760894775391e-02,5.373579263687133789e-02,7.153167575597763062e-02,2.905378118157386780e-02,-2.877418138086795807e-02,8.836816065013408661e-03,3.901972994208335876e-02,3.644479438662528992e-02,6.234486121684312820e-03,5.474927276372909546e-02,7.558085024356842041e-02,-7.491009682416915894e-02,5.034060403704643250e-02,1.049662008881568909e-01,5.310086533427238464e-02,-8.799101412296295166e-02,7.443267107009887695e-02,-2.095517329871654510e-02,-2.220034785568714142e-02,-9.653309360146522522e-03,8.947760798037052155e-04,-2.640311722643673420e-04,3.593646362423896790e-02,3.455775231122970581e-02,-2.341359294950962067e-02,-4.858829826116561890e-02,5.687412340193986893e-03,9.734176099300384521e-03,-2.103541046380996704e-02,3.341896086931228638e-02,-7.284169644117355347e-02,-8.032234013080596924e-02,-3.433246538043022156e-02,-2.581789856776595116e-03,2.985269948840141296e-02,-2.402432076632976532e-02,-8.779561519622802734e-02,-4.588996991515159607e-02,-1.065042465925216675e-01,1.018323823809623718e-01,2.522899582982063293e-02,-1.005045622587203979e-01,-5.553508177399635315e-02,1.086516678333282471e-01,-8.936061710119247437e-02,6.256218254566192627e-02,-2.290529944002628326e-02,2.235796488821506500e-02,-4.506148397922515869e-03,1.879128254950046539e-02,-7.987423986196517944e-02,-9.098052047193050385e-03,5.302075878717005253e-04,9.850934147834777832e-02,1.010378003120422363e-01,-3.172019124031066895e-02,1.154274959117174149e-02,-1.277008503675460815e-01,-1.934481412172317505e-02,-1.142142713069915771e-01,2.368634380400180817e-02,1.999132335186004639e-03,-1.577308773994445801e-02,-6.821787450462579727e-03,-7.277974486351013184e-02,-3.489058837294578552e-02,1.003084853291511536e-01,-3.088168427348136902e-02,-3.346770629286766052e-02,4.860565811395645142e-02,1.239926144480705261e-01,7.140561938285827637e-02,1.339435726404190063e-01,-8.482042700052261353e-02,3.779269382357597351e-02,2.719260193407535553e-02,-8.843526989221572876e-02,-6.552740931510925293e-02,5.752813816070556641e-02,1.035888493061065674e-02,7.018385082483291626e-02,-6.023411080241203308e-02,1.091195121407508850e-01,-1.557692736387252808e-01,-7.256616652011871338e-02,4.913938045501708984e-02,-8.171766996383666992e-03,4.175253212451934814e-02,-4.868504405021667480e-02,-7.880796492099761963e-02,4.190587624907493591e-02,3.551247715950012207e-02,5.614329874515533447e-02,1.163154393434524536e-01,-9.496709704399108887e-02,-8.650850504636764526e-02,-1.246863137930631638e-02,8.939665555953979492e-02,-9.406939148902893066e-02,1.098673269152641296e-01,1.076447428204119205e-03,-7.137175649404525757e-02,-3.571744775399565697e-03,-4.649488255381584167e-02,-5.146492272615432739e-02,7.287528365850448608e-02,-3.873671218752861023e-02,-2.464279532432556152e-03,-5.523495003581047058e-02,-7.558531314134597778e-02,4.119167104363441467e-02,8.088222146034240723e-02,-5.694821476936340332e-03,1.643001846969127655e-02,2.169661223888397217e-03,1.942247152328491211e-03,9.516929090023040771e-02,-4.076856002211570740e-02,-9.392479434609413147e-03,-7.797671109437942505e-02,4.892446845769882202e-02,-2.282125316560268402e-02,7.894010841846466064e-02,-1.768238097429275513e-02,8.043297380208969116e-02,9.057218581438064575e-02,9.517937898635864258e-03,9.498410858213901520e-03,-1.332191973924636841e-01,3.716520965099334717e-02,-7.305241376161575317e-02,-3.732126578688621521e-02,7.631208002567291260e-02,-6.202316842973232269e-03,-3.843562677502632141e-02,-8.394027501344680786e-02,-7.921905815601348877e-02,5.251780152320861816e-02,4.747013747692108154e-02,4.059445858001708984e-02,3.742158412933349609e-03,-5.928260460495948792e-02,4.346960783004760742e-02,-9.017543494701385498e-02,5.011469498276710510e-02,-1.984460093080997467e-02,-3.662228584289550781e-03,-6.024205684661865234e-02,2.466076612472534180e-02,-1.872571930289268494e-02,-8.179723471403121948e-02,4.284840077161788940e-02,8.837075904011726379e-03,6.009468808770179749e-02,-8.995398133993148804e-02,2.488530799746513367e-02,7.561904191970825195e-02,-1.508248411118984222e-02,-1.115766167640686035e-01,-9.712807834148406982e-02,6.880665663629770279e-03,1.507173874415457249e-03,7.683958113193511963e-02,-3.866714984178543091e-02,5.559419840574264526e-02,-4.819405451416969299e-02,1.108634024858474731e-01,9.049243479967117310e-02,-1.463696453720331192e-02,1.107386779040098190e-02,-1.807423867285251617e-02,-6.816012412309646606e-02,2.976022288203239441e-02,-8.358498103916645050e-03,-6.173286214470863342e-02,-6.401008367538452148e-02,-2.786850184202194214e-02,-1.848891377449035645e-01,4.787575080990791321e-02,6.544169038534164429e-02,1.882086653495207429e-04,1.117213293910026550e-01,3.439186513423919678e-02,9.703087061643600464e-02,-1.143780276179313660e-01,8.318975567817687988e-02,-2.338836528360843658e-02,9.753557294607162476e-02,1.094898730516433716e-01,4.388835653662681580e-02,1.043322589248418808e-02,8.637720020487904549e-04,-9.265983104705810547e-02,1.405255794525146484e-01,-2.984210103750228882e-02,1.194780319929122925e-01,-6.800492107868194580e-02,8.383406698703765869e-02,3.000390529632568359e-02,-3.612357750535011292e-02,-1.019054800271987915e-01,-6.588023900985717773e-02,1.306655406951904297e-01,6.394638121128082275e-02,1.079887449741363525e-01,-2.312687225639820099e-02,8.873118460178375244e-02,2.071171253919601440e-02,1.496536433696746826e-01,7.326308637857437134e-02,-1.160089299082756042e-01,-7.333181053400039673e-02,-1.863005757331848145e-02,-8.995195478200912476e-02,-1.037412285804748535e-01,8.409203588962554932e-02,-1.815124880522489548e-03,-7.367885112762451172e-02,1.337112486362457275e-01,7.738278061151504517e-02,1.095039099454879761e-01,-5.534616857767105103e-02,7.554774731397628784e-02,5.182512477040290833e-02,3.278827294707298279e-02,7.192224264144897461e-02,-2.206055261194705963e-02,-7.515006512403488159e-02,9.527243673801422119e-02,1.249476224184036255e-01,3.373607993125915527e-02,-2.027560584247112274e-02,-3.205112740397453308e-02,-1.191042885184288025e-01,-4.961752891540527344e-02,-6.493026390671730042e-03,1.005439683794975281e-01,5.122948810458183289e-02,-1.145916357636451721e-01,8.148250728845596313e-02,-7.919898629188537598e-02,-3.816739469766616821e-02,3.913013637065887451e-02,6.894898135215044022e-03,5.312225222587585449e-02,7.846020162105560303e-02,-1.524571049958467484e-02,-2.233459055423736572e-02,-5.717580392956733704e-02,-4.193380475044250488e-02,-5.303633585572242737e-02,-4.904398322105407715e-02,-1.422743350267410278e-01,6.649463623762130737e-02,1.344353407621383667e-01,4.386961460113525391e-02,7.990036159753799438e-02,1.095424890518188477e-01,1.377205848693847656e-01,-7.290315628051757812e-02,-7.585017383098602295e-02,4.603659361600875854e-02,1.022857129573822021e-01,-1.169528719037771225e-02,1.145633235573768616e-01,-5.596901476383209229e-02,8.572771213948726654e-03,-5.531494505703449249e-03,5.381933599710464478e-02,-7.507148385047912598e-02,6.918507814407348633e-02,-2.604394592344760895e-02,1.106978282332420349e-01,8.195631951093673706e-02,-6.215382367372512817e-02,-5.319439247250556946e-02,-7.873018039390444756e-04,-1.334144175052642822e-01,-1.693770736455917358e-01,1.136040985584259033e-01,-3.907238319516181946e-02,-2.275656722486019135e-02,-8.428520709276199341e-02,-2.442725468426942825e-03,3.113867901265621185e-02,5.925021693110466003e-02,3.810000047087669373e-02,-6.992694735527038574e-02,-9.962312132120132446e-02,2.479945868253707886e-02,1.502138674259185791e-01,-7.603614591062068939e-03,-5.375644192099571228e-02,-5.739340558648109436e-02,5.566860549151897430e-03,3.647819859907031059e-03,4.238804429769515991e-02,-5.069790035486221313e-02,-4.290392622351646423e-02,-3.785766661167144775e-02,-6.179144140332937241e-03,7.123509049415588379e-02,-8.612176030874252319e-02,-7.239386439323425293e-02,-1.350356936454772949e-01,-4.829625040292739868e-02,-6.909937411546707153e-02,4.638313129544258118e-02,-5.306841060519218445e-02,-4.094361513853073120e-02,3.527278749970719218e-05,-7.421269267797470093e-02,7.066845148801803589e-02,3.498309990391135216e-03,-4.053245857357978821e-02,-4.446375742554664612e-02,-8.598454296588897705e-02,-4.197118431329727173e-02,-2.038991451263427734e-02,-2.625665627419948578e-02,-6.023962050676345825e-02,5.880071967840194702e-02,3.163489699363708496e-02,-5.084255710244178772e-03,1.266452223062515259e-01,7.684648036956787109e-02,-5.797177553176879883e-02,2.991281636059284210e-02,9.689144045114517212e-02,-3.317303210496902466e-02,-6.624232232570648193e-02,7.360728085041046143e-02,9.096816182136535645e-02,6.330113112926483154e-02,-6.829717010259628296e-02,-2.689620666205883026e-02,-6.116417795419692993e-02,4.384572058916091919e-02,9.923705831170082092e-03,-1.556566450744867325e-02,-6.668304651975631714e-02,-6.735818833112716675e-02,-4.193589836359024048e-02,-7.900227606296539307e-02,8.259240537881851196e-02,2.512574568390846252e-02,2.208145521581172943e-02,5.424987152218818665e-02,6.381901353597640991e-02,8.647727221250534058e-02,4.673833027482032776e-02,-6.593247503042221069e-02,7.229138910770416260e-02,-9.684805572032928467e-02,4.291004315018653870e-02,1.415861397981643677e-02,1.113183200359344482e-01,-1.505256909877061844e-02,-7.005680352449417114e-02,1.015695258975028992e-01,3.505952656269073486e-02,-8.841253072023391724e-02,-7.995757274329662323e-03,2.604624070227146149e-02,1.498028337955474854e-01,1.620007157325744629e-01,-6.748715881258249283e-03,1.027614325284957886e-01,-9.499739855527877808e-02,2.138219214975833893e-02,2.631344832479953766e-02,3.408420085906982422e-02,9.484608471393585205e-02,4.024493321776390076e-02,1.202702820301055908e-01,5.994246155023574829e-02,3.536312282085418701e-02,9.927318990230560303e-02,-1.173762977123260498e-01,-5.555478855967521667e-02,-6.910364329814910889e-02,8.152011036872863770e-02,1.417580805718898773e-02,4.204220697283744812e-02,-4.538292065262794495e-02,6.183589622378349304e-02,-1.339913439005613327e-02,-1.025345525704324245e-03,1.324928402900695801e-01,3.633815422654151917e-02,-5.161654576659202576e-02,-4.383988305926322937e-02,6.106881797313690186e-02,1.538784503936767578e-01,7.507221400737762451e-02,-4.177298024296760559e-02,1.364009804092347622e-04,-3.711847821250557899e-03,-1.399759948253631592e-01,7.302822172641754150e-02,1.311940979212522507e-02,-4.249448422342538834e-03,-1.006650328636169434e-01,6.950756162405014038e-02,-9.693972766399383545e-02,7.645241916179656982e-02,1.109114661812782288e-01,4.257028549909591675e-02,-2.646397985517978668e-02,-7.085503637790679932e-02,2.050860784947872162e-02,-3.866957128047943115e-02,-7.161429524421691895e-02,-5.829495191574096680e-02,-9.710413962602615356e-02,-1.613935269415378571e-02,-6.145535781979560852e-02,3.900605440139770508e-02,9.967003762722015381e-02,7.993078231811523438e-02,9.758941829204559326e-02,9.240151196718215942e-02,-4.834076017141342163e-02,-1.258658617734909058e-01,1.053023710846900940e-02,-9.031170606613159180e-02,-3.994085639715194702e-02,5.760871618986129761e-02,1.883595064282417297e-02,-1.781320385634899139e-02,6.231190264225006104e-02,1.719726435840129852e-02,7.277002930641174316e-02,-7.191700488328933716e-02,-9.789713472127914429e-02,8.351281285285949707e-02,1.914278604090213776e-02,-1.395830512046813965e-02,-4.908135533332824707e-02,6.483141332864761353e-03,4.485764726996421814e-02,-7.496754825115203857e-02,6.237776950001716614e-02,-4.449844360351562500e-02,-4.487617686390876770e-02,5.030776187777519226e-02,-8.716550655663013458e-03,2.800972759723663330e-02,-4.689747840166091919e-02,-3.709919750690460205e-02,1.570490747690200806e-02,8.465863019227981567e-02,-4.215941205620765686e-02,1.173482090234756470e-01,-2.131516113877296448e-02,-5.054571479558944702e-02,7.076951861381530762e-02,-4.098481312394142151e-02,-1.107232272624969482e-01,-2.191454544663429260e-02,-1.034115552902221680e-01,7.593837380409240723e-02,-2.837649919092655182e-02,-7.445999979972839355e-02,1.858091726899147034e-02,2.076159045100212097e-02,4.788104444742202759e-02,-2.900706604123115540e-02,-4.188284277915954590e-02,-1.670003309845924377e-02,-9.800712764263153076e-02,1.222248282283544540e-02,-6.383308023214340210e-02,-1.762112230062484741e-02,1.235173344612121582e-01,2.178283780813217163e-02,2.307133004069328308e-02,-2.769655175507068634e-02,7.565513253211975098e-02,-2.174792997539043427e-02,1.448419690132141113e-01,-3.907192125916481018e-02,5.666841566562652588e-02,2.904300205409526825e-02,7.232332974672317505e-02,-4.977276176214218140e-02,-9.998437762260437012e-02,3.625046834349632263e-02,-8.553162962198257446e-02,8.820538222789764404e-02,9.398297220468521118e-02,-5.713232606649398804e-02,6.663338746875524521e-03,9.561032988131046295e-03,7.994308322668075562e-02,4.263774305582046509e-02,-4.054867476224899292e-02,1.014524977654218674e-02,-4.911763593554496765e-02,-6.270244717597961426e-02,-9.352747350931167603e-03,-2.372826263308525085e-02,1.115659549832344055e-01,-8.010583370923995972e-02,-1.679982990026473999e-02,-4.310262948274612427e-02,1.743909716606140137e-02,-9.868095815181732178e-02,-1.675412952899932861e-01,7.449048757553100586e-02,9.440783411264419556e-02,1.086520105600357056e-01,-1.439982652664184570e-02,-2.221252582967281342e-02,-3.755694255232810974e-02,1.993436366319656372e-02,-6.250323355197906494e-02,-4.971902444958686829e-02,3.126864880323410034e-02,5.423683673143386841e-02,-1.610295102000236511e-02,-1.406083442270755768e-02,1.025095731019973755e-01,-9.856624901294708252e-02,6.484159827232360840e-02,-3.271558880805969238e-02,1.505429390817880630e-02,2.652346855029463768e-03,6.478839367628097534e-02,9.114707261323928833e-02,-1.428636312484741211e-01,-6.256368756294250488e-02,9.227196685969829559e-03,-2.339605055749416351e-02,1.191548034548759460e-01,1.358248889446258545e-01,-7.437553256750106812e-02,1.046126559376716614e-01,-1.830168813467025757e-02,2.043109945952892303e-02,-6.818772852420806885e-02,6.836789101362228394e-02,1.543503999710083008e-02,-5.160110816359519958e-02,-1.728222705423831940e-02,-5.910694599151611328e-03,-9.623542428016662598e-03,5.573245882987976074e-02,1.797409355640411377e-02,-6.612357497215270996e-02,-9.633289277553558350e-02,-1.705533266067504883e-02,6.030040606856346130e-02,3.665276989340782166e-02,3.361237049102783203e-02,-4.442725330591201782e-02,-3.875022754073143005e-02,4.956979304552078247e-02,-5.922573804855346680e-02,-6.839922070503234863e-02,-2.360151894390583038e-02,6.669628620147705078e-02,-2.954835304990410805e-03,4.436391592025756836e-02,2.279688231647014618e-02,-4.157466441392898560e-02,3.235987573862075806e-02,3.628207370638847351e-02,-7.477042824029922485e-02,9.216964244842529297e-04,-9.615590423345565796e-02,-7.766724377870559692e-02,-9.034304320812225342e-02,1.955356448888778687e-03,-7.156245410442352295e-02,7.136852294206619263e-02,-3.853048756718635559e-02,2.980365231633186340e-02,-7.486763596534729004e-02,-5.647245794534683228e-03,1.811087876558303833e-02,5.153276026248931885e-02,-6.165285129100084305e-03,7.855625450611114502e-02,-5.045086890459060669e-02,-5.371869727969169617e-02,7.058073580265045166e-02,4.168964922428131104e-02,-8.925964683294296265e-02,-2.454041503369808197e-02,-7.733109593391418457e-02,4.897107183933258057e-02,4.922738671302795410e-02,-6.464409083127975464e-02,-4.519777745008468628e-02,2.573870122432708740e-02,-4.465041682124137878e-02,-3.583924472332000732e-02,-5.722530558705329895e-02,-1.660722121596336365e-02,-5.214572697877883911e-02,6.718777120113372803e-02,2.000511437654495239e-02,1.096530072391033173e-02,2.736052870750427246e-02,-4.026001691818237305e-02,-4.454737529158592224e-02,6.382227689027786255e-02,-7.826543599367141724e-02,-7.389217615127563477e-02,-3.354552388191223145e-02,5.240830779075622559e-02,2.817497216165065765e-02,1.036763936281204224e-02,-5.631943792104721069e-02,-6.804802268743515015e-02,8.657217025756835938e-02,-4.596132785081863403e-02,-3.357159346342086792e-02,-7.603655755519866943e-02,-5.067750811576843262e-03,5.673540011048316956e-02,5.656798928976058960e-02,-3.302242979407310486e-02,-6.308417767286300659e-02,-6.130598485469818115e-02,-5.143443495035171509e-02,8.511221408843994141e-02,-7.769834250211715698e-02,2.048784494400024414e-02,5.203239154070615768e-03,-1.636942848563194275e-02,-1.090760529041290283e-02,7.533275336027145386e-02,3.309149295091629028e-02,-4.315309226512908936e-02,-1.901387423276901245e-02,4.922283068299293518e-02,-6.359906401485204697e-03,-8.874751627445220947e-02,-8.994516916573047638e-03,-5.779995396733283997e-02,3.577531874179840088e-02,-6.430049985647201538e-02,-5.184824764728546143e-02,-5.131684243679046631e-02,6.791234761476516724e-02,-6.411574035882949829e-02,-2.031186968088150024e-02,-1.436700858175754547e-02,-6.763032078742980957e-02,7.587832212448120117e-02,-3.238678723573684692e-02,-3.351561725139617920e-03,4.821570217609405518e-02,-1.547148916870355606e-02,-3.185235708951950073e-02,-7.671236991882324219e-03,-7.418569177389144897e-02,-2.758364751935005188e-02,6.116653606295585632e-02,-6.102959741838276386e-04,5.456709861755371094e-02,1.086259335279464722e-01,3.013871423900127411e-02,1.191574558615684509e-01,1.120862364768981934e-01,-1.147745475172996521e-01,3.860473167151212692e-03,-3.152405843138694763e-02,-1.902046613395214081e-02,-5.883940681815147400e-02,8.064961433410644531e-02,-8.577711135149002075e-02,-6.997634470462799072e-02,9.596958756446838379e-03,-5.402181670069694519e-02,1.097346767783164978e-01,1.151355355978012085e-01,9.115570783615112305e-02,-2.848126925528049469e-02,3.908750414848327637e-02,7.733637094497680664e-02,-6.075559556484222412e-02,7.256858050823211670e-03,-8.862137049436569214e-02,-1.541505102068185806e-02,-6.247098743915557861e-02,-2.916701324284076691e-02,-2.882156288251280785e-03,2.701765112578868866e-02,1.008930578827857971e-01,4.718060791492462158e-02,3.479698672890663147e-02,-9.654460102319717407e-02,2.293186821043491364e-02,9.842349588871002197e-02,-7.477320730686187744e-02,-7.190861273556947708e-03,-4.496756196022033691e-02,-4.462314769625663757e-02,-5.526611581444740295e-02,-5.511306226253509521e-02,-7.386409491300582886e-02,4.571842402219772339e-02,5.760554224252700806e-02,1.706232875585556030e-02,-4.190248250961303711e-02,2.927733212709426880e-02,4.763020575046539307e-02,-6.685073673725128174e-02,7.839141786098480225e-02,-1.924545317888259888e-02,-6.408052146434783936e-02,-9.769298136234283447e-03,-7.523712515830993652e-02,5.706872045993804932e-02,5.401935428380966187e-02,7.605621963739395142e-02,-3.425403311848640442e-02,-7.730305194854736328e-02,5.407154560089111328e-02,7.836262881755828857e-02,9.464320726692676544e-03,-7.466524839401245117e-02,1.370092183351516724e-01,4.347269237041473389e-02,-3.597076609730720520e-02,-8.005828410387039185e-02,2.642212530190590769e-05,-9.525480121374130249e-02,8.085107803344726562e-02,2.062892308458685875e-03,6.204998865723609924e-02,-4.101378377526998520e-03,6.173883005976676941e-02,-5.527593195438385010e-03,9.305257350206375122e-03,7.866456359624862671e-02,3.434821963310241699e-02,6.871543824672698975e-03,4.509954154491424561e-02,5.984866060316562653e-03,-2.463164925575256348e-02,9.884219616651535034e-03,8.072670549154281616e-02,-8.781820535659790039e-03,7.255914807319641113e-02,-5.333824828267097473e-02,9.449119865894317627e-02,-2.196064032614231110e-02,6.893438100814819336e-02,-3.019441291689872742e-02,9.760035574436187744e-02,-6.753120571374893188e-02,-1.486982591450214386e-02,7.862299680709838867e-04,-8.743421733379364014e-02,-3.128686547279357910e-02,-7.070750743150711060e-02,9.127955138683319092e-02,4.114954173564910889e-02,-9.459664672613143921e-02,4.389195702970027924e-03,7.095941156148910522e-02,-3.991066664457321167e-02,5.152685567736625671e-02,-4.682032391428947449e-02,3.040976822376251221e-02,8.869723975658416748e-02,9.705740213394165039e-02,-6.023346260190010071e-02,4.126472026109695435e-02,-1.758847013115882874e-02,-2.277022413909435272e-02,-7.856692373752593994e-02,-7.351072877645492554e-02,-1.198104172945022583e-01,-1.888432167470455170e-02,7.277741283178329468e-02,-5.744706839323043823e-02,7.251295447349548340e-02,-8.646457642316818237e-02,-7.510156929492950439e-02,5.463124066591262817e-02,-1.042346004396677017e-02,-1.534115374088287354e-01,-5.993725359439849854e-02,-3.239100798964500427e-02,9.777320921421051025e-02,3.830244392156600952e-02,4.707381129264831543e-02,1.310398336499929428e-02,8.019742369651794434e-02,5.936722457408905029e-02,1.356681287288665771e-01,-9.606011956930160522e-02,-5.207149311900138855e-02,5.790360644459724426e-02,-2.670623548328876495e-02,-3.913326933979988098e-02,-6.735967844724655151e-02,-1.057435423135757446e-01,9.027466177940368652e-02,-5.705573409795761108e-02,8.436864614486694336e-02,6.059223413467407227e-02,8.566110581159591675e-02,-5.427428055554628372e-03,-7.556925714015960693e-02,9.743560105562210083e-02,6.566449999809265137e-02,8.916077762842178345e-02,4.061013460159301758e-02,-4.351384937763214111e-02,8.263589441776275635e-02,6.221697479486465454e-02,-5.426297336816787720e-02,4.822031781077384949e-02,6.188458204269409180e-02,-2.733858127612620592e-05,2.506058663129806519e-02,-7.367040961980819702e-02,4.581061750650405884e-02,1.402996629476547241e-01,-4.181003198027610779e-02,1.001959294080734253e-02,3.296341747045516968e-02,5.319935083389282227e-02,1.059381216764450073e-01,2.819943800568580627e-02,4.099009186029434204e-02,-6.811698526144027710e-02,-6.493634730577468872e-02,-8.225378394126892090e-02,2.065632492303848267e-03,-1.057969704270362854e-01,5.304886028170585632e-02,1.247014179825782776e-01,3.647627681493759155e-02,3.671475872397422791e-02,-3.684988711029291153e-03,-7.677537202835083008e-02,-6.193905323743820190e-02,-1.180427968502044678e-01,-1.272678077220916748e-01,4.946581646800041199e-02,6.246163696050643921e-02,2.400270849466323853e-02,-4.496403038501739502e-02,5.135942995548248291e-02,2.949669212102890015e-02,2.764100581407546997e-02,7.192006334662437439e-03,5.841276422142982483e-02,1.209663227200508118e-01,-3.659595921635627747e-02,8.455039560794830322e-02,8.053519576787948608e-02,1.926065795123577118e-02,-2.330532483756542206e-02,1.317227333784103394e-01,4.254277795553207397e-02,6.596466153860092163e-02,-5.194145441055297852e-02,-2.233692258596420288e-02,7.388971280306577682e-03,-1.802741433493793011e-03,-1.017861440777778625e-01,9.922262281179428101e-02,2.035359852015972137e-03,-4.666402004659175873e-03,-3.134664520621299744e-02,-6.212423089891672134e-03,-1.083483919501304626e-02,1.113817840814590454e-01,6.222533434629440308e-02,-9.312273561954498291e-02,4.091258719563484192e-02,-6.539225578308105469e-02,5.714849382638931274e-02,1.285728998482227325e-02,1.326403170824050903e-01,7.228421419858932495e-02,-7.513543963432312012e-02,3.150309994816780090e-02,-1.348336227238178253e-02,5.459805205464363098e-02,-7.283298671245574951e-02,1.290931599214673042e-03,-8.186224848031997681e-02,-1.351546868681907654e-02,-7.742604613304138184e-02,3.526876494288444519e-02,1.503747105598449707e-01,-2.673402056097984314e-02,1.646807231009006500e-02,-3.745612129569053650e-02,4.847227036952972412e-02,7.754706591367721558e-02,-8.142827451229095459e-02,5.249577760696411133e-02,7.795883715152740479e-02,-6.327357143163681030e-02,-5.858223512768745422e-02,-1.054473128169775009e-02,-4.422492347657680511e-04,7.141028344631195068e-02,4.832100123167037964e-02,-8.669503033161163330e-03,3.840382024645805359e-02,-1.153453439474105835e-02,-8.338591456413269043e-02,-6.030582822859287262e-03,-4.723154753446578979e-02,-5.159405246376991272e-02,1.263226568698883057e-02,5.190565437078475952e-02,-3.754380345344543457e-02,7.807199656963348389e-02,-4.445908963680267334e-02,-1.256629079580307007e-02,5.664063617587089539e-02,4.865134134888648987e-02,-8.916955441236495972e-02,9.050276875495910645e-02,-7.857694476842880249e-02,-3.790294751524925232e-03,-3.735652193427085876e-02,7.175295054912567139e-02,-5.470186471939086914e-02,-3.534706309437751770e-02,-5.779464542865753174e-02,-1.632015104405581951e-03,-8.663122355937957764e-02,-9.809046983718872070e-02,-3.137473016977310181e-03,3.432933613657951355e-02,2.708247676491737366e-02,-8.232894539833068848e-02,-3.819485753774642944e-02,-7.273180782794952393e-02,6.334782391786575317e-02,-9.591235965490341187e-02,-3.861097618937492371e-02,6.627535074949264526e-02,8.380518853664398193e-02,9.295232594013214111e-03,-5.652475729584693909e-02,4.179285094141960144e-02,-5.594074726104736328e-02,-3.881409764289855957e-03,-2.764987945556640625e-02,-5.767333507537841797e-02,5.846238136291503906e-02,2.771780639886856079e-02,1.807452924549579620e-02,-6.051716208457946777e-02,7.139553874731063843e-02,-6.823208183050155640e-02,-7.168179750442504883e-02,8.611528202891349792e-03,-8.745726197957992554e-02,7.214761804789304733e-03,2.122863940894603729e-02,5.940965563058853149e-02,-7.003961503505706787e-02,-7.751766592264175415e-02,4.561767727136611938e-02,-3.909648209810256958e-02,-1.018230840563774109e-01,9.077690541744232178e-02,1.695260591804981232e-02,-4.756012186408042908e-02,-1.005229577422142029e-01,-4.669941216707229614e-02,-6.222654879093170166e-02,-8.943530172109603882e-02,-8.295667357742786407e-03,-3.175705298781394958e-02,-7.664333283901214600e-02,3.529100492596626282e-02,-3.970402851700782776e-02,-3.711906075477600098e-02,-9.377721697092056274e-02,9.279160760343074799e-03,4.320006072521209717e-02,-8.490116894245147705e-02,-1.577622629702091217e-02,1.402245089411735535e-02,-8.075946569442749023e-02,-4.392884299159049988e-02,-8.108238875865936279e-02,-5.762357637286186218e-02,-8.646503090858459473e-02,-3.962435573339462280e-02,3.886297345161437988e-03,-1.977423951029777527e-02,-8.803619444370269775e-02,-4.678904265165328979e-02,6.927566975355148315e-02,1.777895539999008179e-02,5.094078183174133301e-02,3.727705776691436768e-02,4.739571828395128250e-03,-7.339173555374145508e-02,-7.210184633731842041e-02,-2.053168043494224548e-02,4.092451557517051697e-02,-4.724216088652610779e-02,-6.835556775331497192e-02,-6.119509413838386536e-02,-9.732510149478912354e-02,-1.803059130907058716e-02,3.084049001336097717e-02,-9.653799235820770264e-02,6.768343970179557800e-03,-6.889149546623229980e-03,3.537707030773162842e-02,3.915207833051681519e-02,6.178442388772964478e-02,-5.472021177411079407e-02,5.690130591392517090e-02,-2.873696945607662201e-02,7.525600958615541458e-04,-2.932210452854633331e-02,-3.643265366554260254e-02,-5.774988606572151184e-02,6.683810055255889893e-02,-1.565450429916381836e-02,-5.220337584614753723e-02,2.850297838449478149e-02,7.819062471389770508e-02,4.080281779170036316e-02,-1.433974970132112503e-02,-1.011268496513366699e-01,2.860821038484573364e-02,1.793663576245307922e-02,-4.639368131756782532e-02,5.908715724945068359e-02,2.447042055428028107e-02,-7.456066459417343140e-02,-2.866895496845245361e-02,-9.222969412803649902e-03,2.815484628081321716e-02,-5.481052026152610779e-02,-3.050371818244457245e-02,-7.673093676567077637e-02,7.437390089035034180e-02,-1.526162028312683105e-02,1.289162505418062210e-02,-4.684719257056713104e-03,-6.498432904481887817e-02,5.811050534248352051e-02,-8.112697303295135498e-02,6.110871955752372742e-02,-6.941713392734527588e-02,-9.567060321569442749e-02,-9.884376823902130127e-02,-2.025447785854339600e-02,5.215928331017494202e-02,-4.028777033090591431e-02,5.104329064488410950e-02,-6.743326783180236816e-02,4.714324139058589935e-03,-8.982097357511520386e-02,4.616332054138183594e-02,-4.814767464995384216e-02,-1.505775842815637589e-02,-7.998282462358474731e-02,7.617563009262084961e-02,-1.458924147300422192e-03,8.665318787097930908e-02,-5.039583146572113037e-02,-4.503666609525680542e-02,-7.752110064029693604e-02,7.891552522778511047e-04,-3.119012154638767242e-02,-2.985231578350067139e-03,5.117605626583099365e-02,-7.307539135217666626e-02,-6.819460541009902954e-02,-2.772206068038940430e-02,-7.265234738588333130e-02,3.697618842124938965e-02,-1.106978766620159149e-02,-3.250495716929435730e-02,-6.273314356803894043e-02,6.922197341918945312e-02,-3.271584957838058472e-02,2.314297668635845184e-02,-1.495700329542160034e-02,-8.340172469615936279e-02,-8.535848557949066162e-02,2.373394742608070374e-02,-7.697828114032745361e-02,-4.575091972947120667e-02,-5.960321053862571716e-02,2.707317471504211426e-02,4.742144048213958740e-02,-1.949187740683555603e-02,-3.282633051276206970e-02,7.807899266481399536e-02,1.775079965591430664e-02,-3.228128701448440552e-02,1.101650879718363285e-03,-5.598070099949836731e-02,3.240977972745895386e-02,-9.821344166994094849e-02,1.441100984811782837e-02,-2.753504924476146698e-02,6.532499566674232483e-03,6.070980429649353027e-02,1.267610490322113037e-02,4.814587533473968506e-02,7.511397451162338257e-02,1.998999714851379395e-02,-7.208347320556640625e-02,-7.870747894048690796e-02,-7.203684747219085693e-02,-3.710279986262321472e-02,-3.518437966704368591e-02,-3.797407448291778564e-02,7.814785093069076538e-02,-8.835590630769729614e-02,6.229914724826812744e-03,-9.960307925939559937e-02,-7.402907591313123703e-03,1.410350482910871506e-02,-7.856805622577667236e-02,3.404095023870468140e-02,-8.034899085760116577e-02,4.856627807021141052e-02,-7.623146474361419678e-02,-3.255612775683403015e-02,2.286784723401069641e-02,-2.852692082524299622e-02,5.794974975287914276e-03,-7.878706604242324829e-02,1.365032978355884552e-02,2.372102066874504089e-02,-6.019882112741470337e-02,4.989902675151824951e-02,5.649952962994575500e-02,7.065653800964355469e-02,-8.416210860013961792e-02,6.266542524099349976e-02,-1.259566098451614380e-02,-4.648797214031219482e-02,-5.337767302989959717e-02,-5.351117998361587524e-02,-1.508411020040512085e-02,-8.036336302757263184e-02,-1.885700784623622894e-02,7.784608751535415649e-02,3.946865722537040710e-02,3.407371044158935547e-02,-5.795780569314956665e-02,-7.237090170383453369e-02,2.701085805892944336e-02,2.174164354801177979e-02,-1.213347911834716797e-02,-8.979777991771697998e-02,-8.883070945739746094e-02,2.347406931221485138e-02,-7.644030451774597168e-02,2.759879687801003456e-03,-3.773071616888046265e-02,6.192828714847564697e-02,-1.498457789421081543e-02,-8.531653136014938354e-02,-6.575550138950347900e-02,8.801625669002532959e-02,1.446646079421043396e-02,7.074093073606491089e-02,-6.651984900236129761e-02,-9.861727803945541382e-02,-8.861723542213439941e-02,-3.165451437234878540e-02,-8.089184015989303589e-02,7.959489524364471436e-02,-6.792985647916793823e-02,4.155148193240165710e-02,2.345973625779151917e-04,6.878354586660861969e-03,1.512807444669306278e-03,-2.890774607658386230e-02,3.153540939092636108e-02,2.182365581393241882e-02,5.184099450707435608e-02,3.129431977868080139e-02,-1.370226591825485229e-02,-7.826711982488632202e-02,3.505922853946685791e-02,3.603489324450492859e-02,-7.704560458660125732e-02,2.395286923274397850e-03,6.367746740579605103e-02,-8.992246538400650024e-02,-1.957621425390243530e-02,7.734291255474090576e-02,-5.336567293852567673e-03,5.460660159587860107e-02,-7.817895710468292236e-02,-3.443439677357673645e-02,-8.706150949001312256e-02,-2.325566858053207397e-02,1.912504620850086212e-02,-6.472797691822052002e-02,6.635159254074096680e-02,-6.621940433979034424e-02,1.973129808902740479e-02,2.489440841600298882e-03,6.660668551921844482e-02,-9.173344075679779053e-02,2.164770476520061493e-02,6.022986769676208496e-02,-2.402652055025100708e-02,1.586645655333995819e-02,-4.454348981380462646e-02,1.089508086442947388e-02,5.303524434566497803e-02,4.190040286630392075e-03,7.485088706016540527e-02,-3.705442696809768677e-02,3.969163075089454651e-02,3.898178040981292725e-02,7.029350101947784424e-02,-4.149033874273300171e-02,-9.521464258432388306e-02,-7.238281518220901489e-02,-3.679230064153671265e-02,2.499560639262199402e-02,-8.803593367338180542e-02,-4.498700797557830811e-02,-1.909494400024414062e-02,5.027122795581817627e-02,-7.525787502527236938e-02,6.954011321067810059e-02,-8.426597714424133301e-02,2.317270962521433830e-03,1.229756325483322144e-02,-5.377243831753730774e-02,6.621954962611198425e-03,-1.005484461784362793e-01,-2.408117055892944336e-03,6.444528698921203613e-03,3.094412945210933685e-02,-4.441257566213607788e-02,-5.585617572069168091e-02,4.020743072032928467e-02,7.449638843536376953e-02,7.764981687068939209e-02,-8.192159235477447510e-02,-4.608613904565572739e-03,-1.495716813951730728e-02,-3.308552131056785583e-02,-6.653796881437301636e-02,-5.881861969828605652e-02,3.839575126767158508e-02,1.245308220386505127e-01,-9.889996796846389771e-02,5.775013193488121033e-02,-6.553326733410358429e-03,-1.709709316492080688e-02,5.032951012253761292e-02,3.159588575363159180e-02,-9.104838222265243530e-02,-4.195355623960494995e-02,7.589396089315414429e-02,-8.841063082218170166e-02,-4.352941643446683884e-03,-1.032255031168460846e-02,1.650259830057621002e-02,5.477071553468704224e-02,-1.541119217872619629e-01,-6.469196826219558716e-02,-7.613137364387512207e-02,4.388128966093063354e-02,-7.947032153606414795e-02,6.949590146541595459e-02,-7.304323464632034302e-02,2.236216329038143158e-02,-2.748700045049190521e-02,1.237582713365554810e-01,-8.485443890094757080e-02,4.121175408363342285e-02,2.622281387448310852e-02,-1.515774428844451904e-01,7.152064889669418335e-02,2.163792960345745087e-02,1.046141386032104492e-01,-7.990877330303192139e-02,1.240150108933448792e-01,8.686916902661323547e-03,9.791053831577301025e-02,-5.738382227718830109e-03,4.987652227282524109e-02,-8.110522292554378510e-03,-7.344847172498703003e-02,8.508583996444940567e-04,1.610542088747024536e-02,9.326678700745105743e-03,-4.977239668369293213e-02,-7.214554399251937866e-02,1.226474344730377197e-01,-6.318896263837814331e-02,7.552711665630340576e-02,-6.912572681903839111e-02,6.265320628881454468e-02,8.219289034605026245e-02,6.595119088888168335e-02,-5.709004029631614685e-02,5.646473541855812073e-02,-3.616633638739585876e-02,-4.344789311289787292e-03,-7.489041239023208618e-02,6.436552852392196655e-02,6.948971748352050781e-02,-5.968001484870910645e-02,6.116904318332672119e-02,1.498245168477296829e-02,-3.803804144263267517e-02,-3.882409259676933289e-02,-1.263131201267242432e-01,5.698632448911666870e-03,-5.057064699940383434e-04,1.080418303608894348e-01,2.586899884045124054e-02,-1.514766365289688110e-03,5.298415198922157288e-02,-1.920596510171890259e-02,1.224279850721359253e-01,-1.845161244273185730e-02,-4.670990630984306335e-03,3.854840993881225586e-02,1.684801653027534485e-03,8.213556557893753052e-02,-1.081890165805816650e-01,-9.897562861442565918e-02,8.131478726863861084e-02,-7.834976166486740112e-02,7.299047708511352539e-02,-2.402278594672679901e-02,5.416520405560731888e-03,2.050621435046195984e-03,-7.720723515376448631e-04,7.083574682474136353e-02,-5.568173900246620178e-02,-1.761319488286972046e-02,-1.141980737447738647e-01,-3.964514285326004028e-02,-7.379485666751861572e-02,4.271059855818748474e-02,5.074315890669822693e-02,-3.007722459733486176e-02,4.705127701163291931e-02,3.924685716629028320e-02,2.356801927089691162e-02,4.852240160107612610e-02,-3.554844763129949570e-03,4.968103766441345215e-02,-6.198165565729141235e-02,2.932674251496791840e-02,4.767479375004768372e-02,1.696528750471770763e-03,1.595980301499366760e-02,-7.073006033897399902e-02,4.968711640685796738e-03,-1.744736358523368835e-02,-1.379420012235641479e-01,-5.186168476939201355e-03,-8.255099505186080933e-02,1.076001897454261780e-01,9.695527702569961548e-02,-1.495054457336664200e-02,9.770531207323074341e-02,-1.258812844753265381e-01,-7.293903827667236328e-02,1.861124299466609955e-02,7.913120090961456299e-02,8.619694411754608154e-02,-7.279602438211441040e-02,-1.932357624173164368e-02,5.567160621285438538e-02,-3.771439194679260254e-02,-4.462616518139839172e-03,6.851947307586669922e-02,2.099166624248027802e-02,1.706604659557342529e-02,5.155500490218400955e-03,6.020525097846984863e-02,-3.031522408127784729e-02,1.100695878267288208e-01,3.584000840783119202e-02,-1.276987046003341675e-01,7.742159068584442139e-02,-2.106611430644989014e-02,6.980573385953903198e-02,-8.554808795452117920e-02,4.836620390415191650e-02,-6.998912990093231201e-02,4.707164317369461060e-02,-4.956721886992454529e-02,2.000788971781730652e-02,-6.537318229675292969e-03,-6.600940972566604614e-02,7.377807516604661942e-03,-5.472402647137641907e-02,-8.273521810770034790e-02,-3.871168568730354309e-02,1.361067686229944229e-02,4.400321841239929199e-02,-9.707698598504066467e-03,-1.229176446795463562e-01,1.187261492013931274e-01,8.048723638057708740e-02,-2.779319509863853455e-02,-4.015229269862174988e-02,-4.708304628729820251e-02,1.018010079860687256e-01,-3.666090592741966248e-02,-8.548185229301452637e-02,1.459379401057958603e-02,1.032625064253807068e-01,3.113337792456150055e-02,8.513923734426498413e-02,2.352263778448104858e-02,6.553518027067184448e-02,1.003438234329223633e-01,-2.560526877641677856e-02,-6.999321281909942627e-03,1.743177324533462524e-02,5.713977850973606110e-03,-3.144554095342755318e-03,5.236297845840454102e-03,-5.401988327503204346e-02,5.008825287222862244e-02,4.515449516475200653e-03,2.468188293278217316e-02,-3.244361653923988342e-02,-4.496296495199203491e-02,-2.387661486864089966e-02,-6.815111637115478516e-02,1.516541186720132828e-02,1.733568459749221802e-01,-4.133313149213790894e-02,-5.301753059029579163e-02,-8.996372669935226440e-02,-2.279970049858093262e-02,9.394554048776626587e-02,-6.099794059991836548e-02,6.227927654981613159e-02,-3.056522831320762634e-02,4.463966190814971924e-02,6.151249259710311890e-02,3.996169567108154297e-02,-7.821979373693466187e-02,-5.227198079228401184e-02,4.633046686649322510e-02,7.023786008358001709e-02,7.019236683845520020e-02,5.302370712161064148e-02,3.278865665197372437e-02,3.839313238859176636e-02,1.057092547416687012e-01,-1.426719874143600464e-02,-2.200134843587875366e-02,-5.546997115015983582e-02,9.794129431247711182e-02,4.766877740621566772e-02,-5.269267410039901733e-02,-7.782353460788726807e-02,1.231364309787750244e-01,1.705498993396759033e-02,7.806903868913650513e-02,-5.948818475008010864e-02,2.993544936180114746e-02,-1.036402136087417603e-01,6.586207449436187744e-02,-1.152638229541480541e-03,-2.224709466099739075e-02,-1.044774055480957031e-01,1.336940675973892212e-01,5.639246851205825806e-02,-9.022358059883117676e-02,-4.485797509551048279e-02,1.338443346321582794e-02,2.168165333569049835e-02,-5.035564303398132324e-02,-8.210454136133193970e-02,7.773225009441375732e-02,-4.379639029502868652e-02,7.724845409393310547e-02,1.845833100378513336e-02,-1.250704843550920486e-02,-6.442175246775150299e-03,-1.664673089981079102e-01,-7.509131729602813721e-02,8.714887499809265137e-02,-4.811756685376167297e-02,1.794144324958324432e-02,-7.930690795183181763e-02,4.730262234807014465e-02,2.333318255841732025e-02,1.247146651148796082e-01,3.859845921397209167e-02,-7.797703891992568970e-02,-7.823974639177322388e-02,4.170535877346992493e-02,-4.811326786875724792e-02,5.690196529030799866e-03,-2.051102556288242340e-02,-7.307869195938110352e-02,4.267633706331253052e-02,1.331595331430435181e-01,5.049044266343116760e-02,1.097721308469772339e-01,-4.952341690659523010e-02,-3.341105952858924866e-02,-3.260184824466705322e-02,8.888585492968559265e-03,5.113806203007698059e-02,1.160370465368032455e-02,-5.925328284502029419e-02,-3.114301338791847229e-02,1.045395135879516602e-01,6.145693361759185791e-02,-2.764630317687988281e-02,8.354439400136470795e-03,7.838958501815795898e-02,-1.464671790599822998e-01,5.290177837014198303e-02,-2.197119034826755524e-02,1.571038663387298584e-01,9.810589253902435303e-02,6.391793489456176758e-02,1.035905443131923676e-02,-5.904547125101089478e-02,1.324967443943023682e-01,9.729927033185958862e-02,-2.679113857448101044e-02,1.033501401543617249e-01,-3.962970897555351257e-02,1.917823217809200287e-03,3.490734845399856567e-02,-8.319506794214248657e-02,-4.882960394024848938e-02,-1.526547223329544067e-01,1.012536734342575073e-01,8.779196441173553467e-02,6.332883238792419434e-02,6.266665458679199219e-02,1.028004810214042664e-01,-5.031250044703483582e-02,-2.601750381290912628e-02,7.614415884017944336e-02,3.863709419965744019e-02,3.331746906042098999e-02,-2.935685915872454643e-03,-1.391089172102510929e-03,-5.900285206735134125e-03,-1.093124598264694214e-02,-7.565679401159286499e-02,-1.116125211119651794e-01,-6.751983612775802612e-02,-7.293358445167541504e-02,-4.274291172623634338e-02,2.493565157055854797e-02,-7.936280965805053711e-02,-9.673581272363662720e-02,8.172763884067535400e-02,-2.647558413445949554e-02,1.273430231958627701e-02,7.088638842105865479e-02,-1.413625478744506836e-01,5.227321386337280273e-02,7.946343161165714264e-03,1.460183709859848022e-01,6.027363240718841553e-02,4.121745005249977112e-02,1.193197444081306458e-02,-4.765927419066429138e-02,-5.520440265536308289e-02,-6.091784313321113586e-02,-4.921789467334747314e-02,-2.352163009345531464e-02,1.820457726716995239e-02,-4.346406459808349609e-02,-6.944045424461364746e-02,1.627947762608528137e-02,-8.938981220126152039e-03,-9.047519415616989136e-03,-1.089929640293121338e-01,-1.898207701742649078e-02,-1.413978040218353271e-01,-4.536132887005805969e-02,1.016397252678871155e-01,4.204095527529716492e-02,-2.261631563305854797e-02,-6.026333570480346680e-02,-9.582094103097915649e-02,2.273446880280971527e-02,-1.787796057760715485e-02,6.331703811883926392e-02,-6.596773117780685425e-02,1.490221731364727020e-02,5.242846161127090454e-02,1.124150305986404419e-01,1.161007583141326904e-01,-1.519253756850957870e-02,4.139977972954511642e-03,-2.380400709807872772e-02,9.740843623876571655e-02,-3.695410490036010742e-02,1.077464222908020020e-01,8.260673284530639648e-02,-1.260569691658020020e-02,-4.776349291205406189e-03,-8.475767821073532104e-02,-1.066500693559646606e-02,2.382884733378887177e-02,-2.982094511389732361e-02,4.490355774760246277e-02,-1.306073833256959915e-02,-2.440764568746089935e-02,5.482050031423568726e-02,5.025178194046020508e-02,-7.282572984695434570e-02,6.430171430110931396e-02,-8.502314239740371704e-02,-1.388360746204853058e-02,-2.763446420431137085e-02,-1.714455895125865936e-02,5.957313627004623413e-02,6.463561952114105225e-02,5.044057965278625488e-02,2.498256228864192963e-02,-9.256837517023086548e-02,-1.016944721341133118e-01,-5.120595544576644897e-02,-5.136871710419654846e-02,6.478662788867950439e-02,-3.103200905025005341e-02,-9.370515495538711548e-02,2.610607817769050598e-02,-8.848385885357856750e-03,6.854962557554244995e-02,-4.886714275926351547e-03,-4.264955222606658936e-02,-5.228700116276741028e-02,-1.904893666505813599e-02,5.002492666244506836e-02,-2.508554793894290924e-02,-3.607006743550300598e-02,6.356342881917953491e-02,6.782782822847366333e-02,-1.082089692354202271e-01,-7.285539805889129639e-02,4.814105853438377380e-02,-4.358658567070960999e-02,-6.378117203712463379e-02,2.594106644392013550e-02,4.932012036442756653e-02,8.527070283889770508e-03,-6.100590899586677551e-02,1.092733442783355713e-02,2.735622413456439972e-02,-7.820898294448852539e-02,4.251126945018768311e-02,-3.345341235399246216e-02,-6.788134574890136719e-02,9.136459976434707642e-02,4.349306970834732056e-02,-4.401915241032838821e-03,-7.598132640123367310e-02,-1.010910868644714355e-01,3.236178075894713402e-03,-1.513348892331123352e-02,-6.137191876769065857e-02,-3.059279918670654297e-02,4.170886799693107605e-02,8.546231687068939209e-02,-6.846476811915636063e-03,-1.685934257693588734e-04,1.228827610611915588e-02,6.678619980812072754e-02,-3.979476168751716614e-02,9.088923037052154541e-02,-7.564877718687057495e-02,-1.456780266016721725e-02,-3.807337209582328796e-02,5.051580723375082016e-03,1.254170760512351990e-02,4.377884790301322937e-02,-5.598787590861320496e-02,-2.470296621322631836e-02,-7.194469869136810303e-02,2.298256009817123413e-02,-5.727818235754966736e-02,6.915928423404693604e-02,-9.477837383747100830e-02,-6.593299657106399536e-02,-2.689126133918762207e-02,-8.491913229227066040e-02,-6.960240751504898071e-02,-4.948235675692558289e-02,-8.465684205293655396e-02,6.718475371599197388e-02,5.109899491071701050e-02,2.314371801912784576e-02,-1.038934066891670227e-01,-1.215002965182065964e-02,-2.677199663594365120e-03,-5.978174507617950439e-02,-2.772994339466094971e-02,1.976395398378372192e-02,-7.465448230504989624e-02,-2.867030538618564606e-02,-1.325332745909690857e-02,-2.567200921475887299e-02,-4.354282468557357788e-02,-8.400325477123260498e-02,6.349175423383712769e-02,1.287398021668195724e-02,-5.438859760761260986e-02,-8.789435774087905884e-02,7.720333058387041092e-03,-1.059164255857467651e-01,2.457165159285068512e-03,-4.339622333645820618e-02,-6.560797244310379028e-02,-5.226938053965568542e-02,-1.043654680252075195e-01,-9.994690865278244019e-02,-6.263748742640018463e-03,1.917290315032005310e-02,1.962757483124732971e-02,5.376301705837249756e-02,1.148358955979347229e-01,4.279775917530059814e-02,-9.556569904088973999e-02,-2.867497503757476807e-03,1.139478608965873718e-01,-5.970375612378120422e-02,-5.164456367492675781e-02,-4.594160988926887512e-02,-2.624858357012271881e-02,8.416139334440231323e-02,4.706431645900011063e-03,-7.659617066383361816e-02,3.206434845924377441e-02,-5.736681446433067322e-02,6.891223788261413574e-02,2.590653114020824432e-02,-2.117027342319488525e-02,-5.022150650620460510e-02,-1.010060533881187439e-01,1.152322534471750259e-02,-6.397708505392074585e-02,-9.130945801734924316e-02,9.329215437173843384e-02,4.846198856830596924e-02,6.757674855180084705e-04,1.136757805943489075e-01,5.724281072616577148e-05,1.072292178869247437e-01,5.145851150155067444e-02,8.631499856710433960e-02,4.492843151092529297e-02,8.692187815904617310e-02,8.351757191121578217e-03,-7.224925607442855835e-02,9.183762222528457642e-02,8.224160969257354736e-02,7.604076992720365524e-03,-6.624142080545425415e-02,5.665202811360359192e-02,-3.941106796264648438e-02,-8.913765102624893188e-02,7.979678362607955933e-02,7.460899651050567627e-02,-5.357547476887702942e-02,-1.732415147125720978e-02,1.564069278538227081e-02,-1.369825564324855804e-02,-2.312351204454898834e-02,-3.110032901167869568e-02,1.851861551403999329e-02,-5.123898014426231384e-02,-6.959125399589538574e-02,-5.054488778114318848e-03,6.257422268390655518e-03,-9.724087268114089966e-02,7.884483784437179565e-02,7.630687952041625977e-02,-7.555143535137176514e-02,7.745838910341262817e-02,1.282087415456771851e-01,-9.663935750722885132e-02,5.996410176157951355e-02,5.721535533666610718e-02,-5.115258321166038513e-02,-2.623128518462181091e-02,-1.074754297733306885e-01,-2.980099990963935852e-02,5.324850976467132568e-02,-2.023048698902130127e-02,2.546528168022632599e-02,1.266386359930038452e-01,1.167044639587402344e-01,4.571706056594848633e-02,-5.863671377301216125e-02,-2.517236210405826569e-02,-1.121672764420509338e-01,3.909949678927659988e-03,6.808979064226150513e-02,7.708281278610229492e-02,