typedef float data_t;

typedef struct twoD
{
	uint32_t r;
	uint32_t c;
	uint32_t in_channel;
    uint32_t channel;
	data_t *data;
	data_t *bias;
} twoD_t;

const data_t w_0_weight[150]={3.098388910293579102e-01,1.762151159346103668e-02,1.607298105955123901e-01,3.770130276679992676e-01,1.436412632465362549e-01,1.860258579254150391e-01,2.941567599773406982e-01,2.360871285200119019e-01,1.678114235401153564e-01,1.705980896949768066e-01,-1.125477850437164307e-01,-9.743442386388778687e-02,-1.263559162616729736e-01,-1.791379414498806000e-02,6.604268401861190796e-02,-3.036032617092132568e-01,-1.871162354946136475e-01,-1.375251859426498413e-01,-3.095723390579223633e-01,-3.212225735187530518e-01,-4.482757300138473511e-02,-1.888877600431442261e-01,-2.276489287614822388e-01,-1.050869151949882507e-01,7.645642757415771484e-02,-1.058573499321937561e-01,2.218465059995651245e-01,1.867616772651672363e-01,4.225839376449584961e-01,1.713840365409851074e-01,-1.810650676488876343e-01,-1.253534108400344849e-01,-6.719631701707839966e-02,1.380827575922012329e-01,1.521032303571701050e-01,-2.003694139420986176e-02,-2.614898383617401123e-01,-2.022187113761901855e-01,9.703247994184494019e-02,-4.935169592499732971e-02,-3.433988094329833984e-01,-2.138464897871017456e-01,-2.545745372772216797e-01,1.388043165206909180e-01,1.435177028179168701e-01,-1.103768125176429749e-02,-2.618639767169952393e-01,-7.473290432244539261e-03,1.939131021499633789e-01,7.913990318775177002e-02,-3.675263524055480957e-01,-2.653952538967132568e-01,-5.468873679637908936e-02,-1.094276383519172668e-01,-5.515302717685699463e-02,-2.755885422229766846e-01,-3.274073004722595215e-01,-1.961892098188400269e-01,-1.094767590984702110e-03,1.111054327338933945e-02,3.390901088714599609e-01,2.282577380537986755e-02,-1.950940638780593872e-01,-5.134220421314239502e-02,-1.867076903581619263e-01,9.342505037784576416e-02,1.641561686992645264e-01,-2.146333083510398865e-02,7.260842621326446533e-02,3.053243737667798996e-03,1.904015541076660156e-01,2.901038527488708496e-01,3.064402639865875244e-01,1.567341685295104980e-01,1.231118142604827881e-01,-2.223897576332092285e-01,1.404871046543121338e-01,1.388507187366485596e-01,2.083879858255386353e-01,1.339367218315601349e-02,-2.831134572625160217e-02,2.990888953208923340e-01,9.306093677878379822e-03,1.117716822773218155e-02,2.369397506117820740e-02,-2.786595560610294342e-02,2.414427995681762695e-01,7.178908213973045349e-03,2.060225009918212891e-01,-2.425873093307018280e-02,1.097975671291351318e-01,2.571328282356262207e-01,1.535832285881042480e-01,4.290344566106796265e-02,-2.724822461605072021e-01,2.133261561393737793e-01,3.504473567008972168e-01,-8.101718127727508545e-02,-2.598915696144104004e-01,-1.552356183528900146e-01,3.392853587865829468e-02,1.979424804449081421e-01,1.665450185537338257e-01,5.818654224276542664e-02,1.704027056694030762e-01,1.900854855775833130e-01,1.672734469175338745e-01,1.791812926530838013e-01,1.986575424671173096e-01,5.891761183738708496e-02,2.636386156082153320e-01,-3.115781396627426147e-02,2.141682505607604980e-01,-1.184094399213790894e-01,-1.629360467195510864e-01,-4.898833855986595154e-02,-2.079708278179168701e-01,1.566564291715621948e-01,2.619810700416564941e-01,-4.892490431666374207e-02,-2.336755394935607910e-01,-1.793120652437210083e-01,-1.051103174686431885e-01,-7.280425727367401123e-02,2.248059809207916260e-01,6.091961637139320374e-02,-4.012361168861389160e-02,-4.415876418352127075e-02,-2.338029444217681885e-01,-2.148685604333877563e-01,8.765593171119689941e-02,2.753158807754516602e-01,1.523374915122985840e-01,-1.820905804634094238e-01,7.321143150329589844e-02,1.646901965141296387e-01,1.085662692785263062e-01,-8.946965634822845459e-02,-3.950728848576545715e-02,1.770398467779159546e-01,-3.931367769837379456e-02,2.266797125339508057e-01,1.841426938772201538e-01,2.658781111240386963e-01,1.472025513648986816e-01,1.991815716028213501e-01,-1.222790330648422241e-01,-1.378187211230397224e-03,2.424436658620834351e-01,-4.828963428735733032e-02,};

const data_t w_0_bias[6]={5.236564949154853821e-02,2.027213275432586670e-01,8.865946531295776367e-02,-1.500882953405380249e-01,-2.641315339133143425e-03,-1.938485773280262947e-03,};

const twoD_t w_0_weight_2d = {
                           .r =5,
                           .c = 5,
                           .in_channel = 1,
                           .channel = 6,
                           .data = w_0_weight,
                           .bias = w_0_bias
                       };

const data_t w_3_weight[2400]={8.784670382738113403e-03,-7.926932722330093384e-02,-9.187470190227031708e-03,2.473473548889160156e-02,-1.622367203235626221e-01,6.160428747534751892e-02,-7.972665131092071533e-03,2.917616255581378937e-02,-6.075944751501083374e-02,-5.652757361531257629e-02,1.742305010557174683e-01,5.528622493147850037e-02,-1.099610403180122375e-01,-2.908575534820556641e-02,4.580259323120117188e-02,8.289482444524765015e-02,-1.252962499856948853e-01,-1.471039932221174240e-02,7.453925907611846924e-02,2.212553843855857849e-02,-1.071877311915159225e-02,-1.388709396123886108e-01,-1.609541624784469604e-01,3.320758789777755737e-02,6.803889572620391846e-02,-8.427868783473968506e-02,-1.345645487308502197e-01,2.396287210285663605e-02,1.723262816667556763e-01,-4.649757593870162964e-02,-3.542550280690193176e-02,-5.746325477957725525e-02,1.433740556240081787e-01,1.000522524118423462e-01,2.123174630105495453e-02,-2.933019306510686874e-03,-6.022239848971366882e-02,3.597860783338546753e-02,-1.684365607798099518e-02,-8.119146525859832764e-02,-8.717909455299377441e-02,1.508713979274034500e-02,-8.509635925292968750e-02,-2.290435507893562317e-02,4.300541430711746216e-02,-1.232677139341831207e-02,5.706925317645072937e-02,-3.198590502142906189e-02,-6.727402657270431519e-02,1.174540445208549500e-01,1.217859312891960144e-01,-1.193000935018062592e-02,-2.743147686123847961e-02,-1.225926131010055542e-01,-9.238652884960174561e-02,2.108636498451232910e-01,2.953025512397289276e-02,-2.455698326230049133e-02,2.425604499876499176e-02,-6.936033815145492554e-02,9.882935136556625366e-02,3.947174642235040665e-03,4.858485236763954163e-02,-5.303665623068809509e-02,-7.715024054050445557e-02,-2.039844170212745667e-02,6.293077021837234497e-02,9.856222569942474365e-02,7.878128439188003540e-02,-1.177210807800292969e-01,-7.810025662183761597e-02,1.584356874227523804e-01,4.159431532025337219e-02,6.659003347158432007e-02,-1.046988647431135178e-02,1.020940616726875305e-01,3.143278649076819420e-03,-1.819951087236404419e-01,-9.579751640558242798e-02,8.228361606597900391e-02,1.938987374305725098e-01,-1.467073410749435425e-01,-2.184431701898574829e-01,2.717900089919567108e-02,1.515100896358489990e-01,1.907261908054351807e-01,-2.086467444896697998e-01,-2.246818989515304565e-01,5.435493960976600647e-02,7.563060615211725235e-03,-3.067865408957004547e-02,-1.798537522554397583e-01,7.219194620847702026e-02,1.992100626230239868e-01,2.425258280709385872e-03,-1.899883747100830078e-01,8.303794264793395996e-02,2.071988880634307861e-01,1.226194947957992554e-01,-9.392732381820678711e-02,4.048224538564682007e-02,-8.600580692291259766e-02,8.050142973661422729e-02,7.434632629156112671e-02,-1.815587282180786133e-02,-1.612192019820213318e-02,-7.841737568378448486e-02,-1.056358963251113892e-01,7.311921566724777222e-02,8.978007733821868896e-02,-1.956063508987426758e-02,-1.322272866964340210e-01,-4.837307706475257874e-02,1.249739006161689758e-01,1.609937548637390137e-01,-7.463489472866058350e-02,-1.708049178123474121e-01,-8.998841047286987305e-02,4.144676774740219116e-02,1.161106675863265991e-01,-1.924379020929336548e-01,-1.411942988634109497e-01,6.581697613000869751e-02,8.575897081755101681e-04,6.070239096879959106e-02,8.008179068565368652e-02,-1.518082916736602783e-01,-5.022966861724853516e-02,-2.938765101134777069e-02,2.192683704197406769e-02,-1.230086199939250946e-02,-1.700079888105392456e-01,-1.064365729689598083e-01,1.773613132536411285e-02,1.225136294960975647e-01,-2.794291079044342041e-02,-1.731659471988677979e-01,4.076021164655685425e-02,-2.345003560185432434e-02,1.353809386491775513e-01,-1.345550715923309326e-01,-2.498353458940982819e-02,-8.235749602317810059e-02,1.840401627123355865e-02,9.818816930055618286e-02,3.267536684870719910e-02,-3.292431309819221497e-02,-2.719984017312526703e-02,-6.350103300064802170e-03,3.934548422694206238e-02,5.386580154299736023e-02,3.375774621963500977e-02,1.118436753749847412e-01,5.109996721148490906e-02,1.820085197687149048e-01,2.328146845102310181e-01,3.677358925342559814e-01,2.541222870349884033e-01,3.632627129554748535e-01,2.822195589542388916e-01,1.016978919506072998e-01,2.602845132350921631e-01,2.143318206071853638e-01,1.065305471420288086e-01,-6.702667474746704102e-02,-1.663549691438674927e-01,-2.600644528865814209e-01,-2.358150929212570190e-01,-1.004182845354080200e-01,-7.384461909532546997e-02,-4.634567722678184509e-02,-8.310145884752273560e-02,-7.323242723941802979e-02,5.793410167098045349e-02,4.106666147708892822e-02,9.941003285348415375e-03,-2.555942349135875702e-02,-1.586798578500747681e-01,-8.183582872152328491e-02,-7.800517231225967407e-02,-7.445517927408218384e-02,1.693486273288726807e-01,1.802031248807907104e-01,1.017192676663398743e-01,-9.245228953659534454e-03,-3.340825811028480530e-02,8.027461916208267212e-02,6.951519101858139038e-02,2.514207363128662109e-02,-9.940435737371444702e-02,-1.905840635299682617e-02,-1.412995159626007080e-01,-1.047699227929115295e-01,-9.553079307079315186e-02,-1.529735773801803589e-01,-4.617584869265556335e-02,-5.426029860973358154e-02,-7.134789228439331055e-02,7.238894701004028320e-02,-5.648043751716613770e-02,1.728660776279866695e-03,-1.263993680477142334e-01,-1.340703479945659637e-02,5.235992744565010071e-02,-8.429935574531555176e-02,2.552801072597503662e-01,1.051769629120826721e-01,-4.568979516625404358e-02,3.155457228422164917e-02,2.005910733714699745e-03,3.864298462867736816e-01,3.259737491607666016e-01,2.590685784816741943e-01,6.631449609994888306e-02,1.729712188243865967e-01,2.708538435399532318e-03,1.065197885036468506e-01,1.612644642591476440e-01,1.223503202199935913e-01,1.256908774375915527e-01,-1.515992283821105957e-01,-1.429107338190078735e-01,-1.255378872156143188e-01,7.071205973625183105e-02,8.594432473182678223e-02,-1.246008723974227905e-01,-1.362934857606887817e-01,-1.006585583090782166e-01,4.624203592538833618e-02,-2.096437476575374603e-02,-2.820145152509212494e-02,-2.295568436384201050e-01,-2.684638798236846924e-01,-1.559775471687316895e-01,-6.134828552603721619e-02,-5.783643946051597595e-02,-1.347892582416534424e-01,-1.653826087713241577e-01,-6.904518604278564453e-02,5.940827354788780212e-02,6.930710375308990479e-02,1.277453750371932983e-01,5.680461600422859192e-02,7.870125770568847656e-02,5.400238092988729477e-03,1.345428228378295898e-01,6.083722040057182312e-02,-7.400802522897720337e-02,-4.915562644600868225e-02,-6.876958906650543213e-02,-8.622021228075027466e-02,5.072770174592733383e-03,1.386314183473587036e-01,1.425641328096389771e-01,8.631337434053421021e-02,-1.459427624940872192e-01,-1.371066784486174583e-03,5.451949685811996460e-02,5.791903287172317505e-02,1.202882453799247742e-01,-1.369509547948837280e-01,-2.226844877004623413e-01,-1.446945369243621826e-01,-1.642460674047470093e-01,-1.206173375248908997e-01,9.395703673362731934e-02,-9.559473395347595215e-02,-1.587297171354293823e-01,-1.134453788399696350e-01,-5.565962940454483032e-02,3.462770581245422363e-02,1.878639124333858490e-02,4.286246746778488159e-02,8.667298406362533569e-02,5.025313049554824829e-02,-1.401121616363525391e-01,7.162354886531829834e-02,1.617034524679183960e-01,1.990802586078643799e-02,-1.241465844213962555e-02,-8.317143470048904419e-02,-1.801411658525466919e-01,-1.336515396833419800e-01,-1.967519074678421021e-01,-1.968165040016174316e-01,7.274071872234344482e-02,-8.905299007892608643e-02,-3.051880374550819397e-02,-4.569924622774124146e-02,-5.246068909764289856e-02,2.076674103736877441e-01,1.837898641824722290e-01,5.837853997945785522e-02,-1.499048783443868160e-03,6.538987904787063599e-02,8.442375063896179199e-02,9.396220743656158447e-02,7.959357649087905884e-02,6.638338323682546616e-03,1.692428067326545715e-02,-6.597101688385009766e-02,-3.804060518741607666e-01,-1.086180657148361206e-01,1.273077577352523804e-01,7.516765594482421875e-02,7.610883563756942749e-02,-6.313834339380264282e-02,-2.455596327781677246e-01,-4.709991812705993652e-02,3.935962170362472534e-02,5.857228860259056091e-02,1.929660886526107788e-02,-5.218958482146263123e-02,-2.663145959377288818e-01,-1.982207447290420532e-01,-1.046093031764030457e-01,4.662603512406349182e-02,1.238499395549297333e-02,3.309256210923194885e-02,-8.180838078260421753e-02,4.488534107804298401e-02,9.199962019920349121e-02,2.112855613231658936e-01,1.384748518466949463e-01,7.381732016801834106e-02,-4.759117215871810913e-02,-1.985332965850830078e-01,-1.359438449144363403e-01,-5.599293857812881470e-02,7.324503734707832336e-03,-6.763112545013427734e-02,7.581748813390731812e-02,-2.049494087696075439e-01,-1.195289790630340576e-01,8.148388564586639404e-02,9.711153060197830200e-02,1.715239584445953369e-01,1.225323230028152466e-01,-2.076879143714904785e-01,-3.480169922113418579e-02,1.042690593749284744e-02,1.840648651123046875e-01,2.022885233163833618e-01,-5.034497752785682678e-02,-1.359041631221771240e-01,-2.836713194847106934e-02,1.408666837960481644e-02,1.728591322898864746e-01,2.760237269103527069e-02,-6.445439159870147705e-02,-9.394445270299911499e-02,3.313801437616348267e-02,9.622693061828613281e-02,-1.886885613203048706e-02,-2.918072231113910675e-02,-7.852229475975036621e-02,-1.389769166707992554e-01,6.264831125736236572e-02,3.219843655824661255e-02,2.202620729804039001e-02,-2.674049735069274902e-01,-2.529159486293792725e-01,-5.454420670866966248e-02,1.263487339019775391e-01,1.408043056726455688e-01,-8.666270971298217773e-02,-1.503226906061172485e-01,-2.590660452842712402e-01,-1.576683521270751953e-01,1.642267107963562012e-01,1.191859319806098938e-01,3.883751109242439270e-02,-2.009543590247631073e-02,-1.478456407785415649e-01,-1.472052931785583496e-01,1.171015948057174683e-02,-4.612556844949722290e-02,-8.459561504423618317e-03,-9.448872879147529602e-03,-1.438314467668533325e-01,-1.232771575450897217e-01,-1.706738620996475220e-01,-8.040571957826614380e-02,-1.623872667551040649e-03,-1.611433774232864380e-01,-8.863173425197601318e-02,-1.347020268440246582e-01,1.946079172194004059e-02,6.350379437208175659e-03,-7.519581913948059082e-02,-8.270856924355030060e-03,-5.919964239001274109e-02,-2.771269716322422028e-02,-6.814882904291152954e-02,-1.112946346402168274e-01,4.519585520029067993e-02,-4.382215067744255066e-02,-9.766321629285812378e-02,-8.825813233852386475e-02,5.145886167883872986e-02,9.839119017124176025e-02,-3.228977322578430176e-02,-3.034742362797260284e-02,3.163041174411773682e-02,2.478119917213916779e-02,1.082461476325988770e-01,2.147096693515777588e-01,6.526761688292026520e-03,-5.097804963588714600e-02,-1.297621279954910278e-01,5.283490195870399475e-02,1.384249478578567505e-01,1.760976910591125488e-01,-5.183661356568336487e-02,-3.982792049646377563e-02,-3.966093063354492188e-02,-3.679925948381423950e-02,9.084802120923995972e-02,1.517386138439178467e-01,-8.287270367145538330e-02,-7.643574476242065430e-02,-5.228378623723983765e-02,8.607118576765060425e-02,3.682075068354606628e-02,8.981934934854507446e-02,1.396399438381195068e-01,1.578138917684555054e-01,6.736908107995986938e-02,-1.056766510009765625e-02,-6.901509314775466919e-02,6.343318521976470947e-02,1.699753403663635254e-01,1.062705144286155701e-01,5.749512091279029846e-02,-1.180487573146820068e-01,-1.071427240967750549e-01,5.510257557034492493e-02,6.411171704530715942e-02,1.288834810256958008e-01,-6.544917076826095581e-02,-3.717551380395889282e-02,-2.869499102234840393e-02,1.539651025086641312e-02,1.337493658065795898e-01,2.455848827958106995e-02,-7.370654493570327759e-02,-7.764009386301040649e-02,-1.115937978029251099e-01,-2.022632583975791931e-02,-1.028392016887664795e-01,-7.728894054889678955e-02,5.383742600679397583e-02,2.373083531856536865e-01,1.230408176779747009e-01,8.154156617820262909e-03,-1.566317081451416016e-01,-2.274161279201507568e-01,-2.901104092597961426e-02,-8.257023245096206665e-02,8.758509531617164612e-03,2.168435417115688324e-02,-1.729903817176818848e-01,-1.032296121120452881e-01,-3.234629705548286438e-02,1.087418422102928162e-01,1.793674230575561523e-01,2.671181857585906982e-01,1.153613179922103882e-01,7.355381548404693604e-02,2.486207336187362671e-02,1.174897626042366028e-01,1.585409045219421387e-01,6.950058043003082275e-02,-7.991476915776729584e-03,1.559840291738510132e-01,-1.514510959386825562e-01,4.396821931004524231e-02,1.589237153530120850e-01,1.099129244685173035e-01,3.355993330478668213e-02,-1.014638915657997131e-01,-6.160270422697067261e-02,6.420120596885681152e-02,2.088627964258193970e-02,-4.020867869257926941e-02,-6.968555599451065063e-02,-1.620992869138717651e-01,-1.767516434192657471e-01,-2.110666930675506592e-01,-3.680929169058799744e-02,-3.567200838006101549e-05,-5.741367489099502563e-02,-1.166672073304653168e-02,-6.619425117969512939e-02,-7.337105274200439453e-02,6.867706775665283203e-02,1.611264050006866455e-02,1.257083266973495483e-01,4.753340408205986023e-02,-7.264216989278793335e-02,2.150291204452514648e-01,3.366765379905700684e-02,-3.259944543242454529e-02,-9.283410012722015381e-02,-3.748965635895729065e-02,3.712648525834083557e-02,2.368388883769512177e-02,7.785537280142307281e-03,4.631126299500465393e-02,3.201257437467575073e-02,5.188544094562530518e-02,1.562120765447616577e-01,2.285097539424896240e-01,1.066996455192565918e-01,1.251649111509323120e-01,-2.289587818086147308e-02,4.680748656392097473e-02,1.676204055547714233e-01,8.722143620252609253e-02,8.599960058927536011e-02,-2.748798131942749023e-01,-2.903636097908020020e-01,-1.475478261709213257e-01,-2.310863435268402100e-01,-8.632314950227737427e-02,5.325072258710861206e-02,8.858516812324523926e-02,8.617157116532325745e-03,-2.838721312582492828e-02,-9.689623117446899414e-02,-7.841051369905471802e-02,-8.101390302181243896e-02,1.746826618909835815e-02,5.175151675939559937e-02,8.985572494566440582e-03,-7.916983217000961304e-02,-1.029656678438186646e-01,-1.023650467395782471e-01,-2.952096424996852875e-02,-3.057751618325710297e-02,-1.041571274399757385e-01,-1.821640580892562866e-01,-1.533391922712326050e-01,-1.920849531888961792e-01,-1.360911428928375244e-01,-8.239884674549102783e-02,-1.247044652700424194e-01,-1.216547638177871704e-01,-2.985652908682823181e-02,-2.295481413602828979e-02,-1.169860363006591797e-01,-5.502020567655563354e-02,4.254668205976486206e-02,-4.488251358270645142e-02,-7.224673777818679810e-02,8.689809590578079224e-02,-1.087411195039749146e-01,-1.304783523082733154e-01,-1.506291180849075317e-01,-1.081685423851013184e-01,1.390215754508972168e-01,3.234983608126640320e-02,-6.763579696416854858e-02,5.062154307961463928e-02,1.258315294981002808e-01,1.336750239133834839e-01,1.755439937114715576e-01,1.456281244754791260e-01,1.443290859460830688e-01,1.051388755440711975e-01,8.365004509687423706e-02,1.018766388297080994e-01,7.197763025760650635e-02,-3.330065682530403137e-02,8.246555179357528687e-02,-5.000390857458114624e-02,-4.913931339979171753e-02,-1.442205607891082764e-01,-7.010036706924438477e-02,3.024690784513950348e-02,7.714868336915969849e-02,9.550241753458976746e-03,7.144084665924310684e-04,-7.821186445653438568e-03,-1.556333899497985840e-02,7.965648174285888672e-02,1.888024806976318359e-01,1.226042583584785461e-01,2.443825267255306244e-02,-4.050553776323795319e-03,6.005224958062171936e-02,1.690519750118255615e-01,1.410285085439682007e-01,4.802212864160537720e-02,4.631822183728218079e-02,-1.584343314170837402e-01,-5.657864734530448914e-02,-5.049183219671249390e-02,1.002047955989837646e-01,-2.222162671387195587e-02,1.631598174571990967e-01,9.920262545347213745e-02,1.039634272456169128e-01,1.674782782793045044e-01,1.466941386461257935e-01,-1.556150019168853760e-01,-1.761336252093315125e-02,1.837862581014633179e-01,1.728348135948181152e-01,9.415099024772644043e-02,5.255189165472984314e-02,-1.067691668868064880e-01,-1.813073456287384033e-01,-2.542024552822113037e-01,-3.890049457550048828e-01,1.222079992294311523e-01,1.158173009753227234e-01,-3.398844599723815918e-02,-8.342786133289337158e-02,2.445407398045063019e-02,4.802398383617401123e-03,1.973102428019046783e-02,-1.176077350974082947e-01,-8.563850820064544678e-02,-1.147651486098766327e-02,1.134342476725578308e-01,1.333791855722665787e-02,7.072220742702484131e-02,8.379970490932464600e-02,-3.967322781682014465e-02,2.288471348583698273e-02,2.602802217006683350e-02,8.158352226018905640e-02,1.407836824655532837e-01,9.782581031322479248e-02,-1.864703372120857239e-02,7.697088643908500671e-03,9.025164693593978882e-02,4.508068785071372986e-02,-7.890290021896362305e-02,1.239638403058052063e-01,-1.396628934890031815e-02,1.224915832281112671e-01,8.936929702758789062e-02,-1.890005916357040405e-01,7.859925180673599243e-02,1.893632300198078156e-02,1.255028396844863892e-01,5.786097794771194458e-02,-3.681690990924835205e-02,3.116203844547271729e-01,1.423031836748123169e-01,-7.762765139341354370e-02,-1.369866877794265747e-01,-7.756834477186203003e-02,3.253687024116516113e-01,3.180191814899444580e-01,1.202126741409301758e-01,5.508656054735183716e-02,-4.610596224665641785e-02,1.453276127576828003e-01,9.584312140941619873e-02,5.180633440613746643e-02,1.515378206968307495e-01,1.705259978771209717e-01,-5.693321302533149719e-02,5.740623921155929565e-02,-2.279024757444858551e-02,1.097170189023017883e-01,1.635895371437072754e-01,-1.344108879566192627e-01,2.141020633280277252e-02,1.045414805412292480e-01,1.533273458480834961e-01,-1.048064325004816055e-02,-3.977007567882537842e-01,-3.122905790805816650e-01,-2.004829645156860352e-01,-1.782764047384262085e-01,-4.996357485651969910e-02,-7.474274188280105591e-02,-1.037405058741569519e-01,-2.036700099706649780e-01,-2.871735990047454834e-01,-1.411326825618743896e-01,6.204172223806381226e-02,1.693375408649444580e-02,-8.520147204399108887e-02,-1.213113889098167419e-01,3.758513554930686951e-02,-1.256392523646354675e-02,4.475689306855201721e-02,-2.810859307646751404e-02,-5.950981285423040390e-03,1.478929966688156128e-01,6.071864441037178040e-02,-3.033740911632776260e-03,-1.489658504724502563e-01,8.075380325317382812e-02,1.482002586126327515e-01,-1.791440397500991821e-01,-1.673899888992309570e-01,-7.888857275247573853e-02,8.656959980726242065e-02,-2.615601941943168640e-02,-2.019134610891342163e-01,-1.594124287366867065e-01,-9.748391807079315186e-02,-9.671685285866260529e-03,-9.677929803729057312e-03,-8.020784705877304077e-02,-5.014310777187347412e-02,-1.608823239803314209e-01,-1.821603775024414062e-01,-1.318936049938201904e-01,-3.639414906501770020e-02,3.558124601840972900e-02,1.863895915448665619e-02,-9.451118111610412598e-02,4.769713059067726135e-02,2.699261158704757690e-02,-6.970640271902084351e-02,3.179909288883209229e-02,-1.255026087164878845e-02,4.715325683355331421e-02,-3.074058890342712402e-01,-1.346587389707565308e-01,-1.187364459037780762e-01,-1.406036317348480225e-01,-1.246133148670196533e-01,-9.725698828697204590e-02,-1.060102432966232300e-01,-1.850426197052001953e-01,-2.556436955928802490e-01,-8.594785630702972412e-02,1.075759381055831909e-01,8.990558981895446777e-02,6.422922946512699127e-03,-1.912435144186019897e-02,-3.180760145187377930e-02,7.312975078821182251e-02,2.515002526342868805e-02,1.119725778698921204e-01,2.381975390017032623e-02,-6.644095759838819504e-03,3.656603395938873291e-02,2.327258139848709106e-02,2.948365919291973114e-02,1.240519136190414429e-01,2.245392836630344391e-02,1.206326708197593689e-01,-2.147481292486190796e-01,-2.633761167526245117e-01,-1.562869250774383545e-01,-1.390298306941986084e-01,-2.423794381320476532e-02,-2.610272765159606934e-01,-2.893985509872436523e-01,-1.338230669498443604e-01,-2.694785781204700470e-02,-1.861063241958618164e-01,-3.138493895530700684e-01,-2.456369102001190186e-01,-2.089790701866149902e-01,-1.569389365613460541e-02,-8.318189531564712524e-02,-1.395371258258819580e-01,-1.760262548923492432e-01,-1.229946538805961609e-01,3.713638335466384888e-02,1.383281648159027100e-01,-9.916429966688156128e-02,-9.269747138023376465e-02,-8.671136945486068726e-02,1.335167288780212402e-01,1.610718369483947754e-01,2.377429418265819550e-02,-3.053797967731952667e-02,1.181266307830810547e-01,-2.135571837425231934e-02,1.742329001426696777e-01,1.579826325178146362e-01,7.792060822248458862e-02,1.168651040643453598e-02,1.052063331007957458e-01,7.835009694099426270e-02,2.261047810316085815e-01,-1.954900287091732025e-02,-1.322159916162490845e-01,-1.253631114959716797e-01,-7.762300223112106323e-02,8.266939222812652588e-02,-1.702853478491306305e-02,-1.454526036977767944e-01,-9.957706928253173828e-02,6.783246062695980072e-04,7.056724280118942261e-02,-4.038904234766960144e-02,-8.378163911402225494e-03,-6.030891463160514832e-02,3.295959159731864929e-02,3.091116622090339661e-02,1.791787594556808472e-01,-5.947910714894533157e-03,3.410728275775909424e-02,-2.184573560953140259e-01,-3.017617762088775635e-01,-1.164042875170707703e-01,-5.522755533456802368e-02,4.764879867434501648e-02,-1.668313741683959961e-01,-2.375387698411941528e-01,-2.698962390422821045e-01,-1.597743332386016846e-01,-1.040725111961364746e-01,-7.765620946884155273e-02,-1.334483176469802856e-01,-2.542463839054107666e-01,-1.944969445466995239e-01,3.713732957839965820e-02,-2.273519337177276611e-02,-1.329297721385955811e-01,-3.166421949863433838e-01,-1.393676549196243286e-01,2.150846421718597412e-01,9.890762716531753540e-02,-2.435702085494995117e-02,-3.212258964776992798e-02,-1.887100189924240112e-02,-4.473135620355606079e-02,6.044351495802402496e-03,-1.692396700382232666e-01,8.746466785669326782e-02,-3.385857120156288147e-02,6.216114014387130737e-02,-8.049082942306995392e-03,8.769568987190723419e-03,3.513609245419502258e-02,1.769427210092544556e-02,-1.385287567973136902e-02,-1.007998455315828323e-02,-2.535292413085699081e-03,2.816211245954036713e-02,2.893080934882164001e-02,-7.801833748817443848e-02,8.171638846397399902e-02,-2.000151574611663818e-02,2.032760716974735260e-02,3.756080195307731628e-02,-1.793741434812545776e-01,1.711323559284210205e-01,4.789427295327186584e-02,-1.060874387621879578e-02,-1.619660407304763794e-01,-5.805804207921028137e-02,1.215544715523719788e-01,2.032860666513442993e-01,4.661716893315315247e-02,-1.001592874526977539e-01,-1.608460023999214172e-02,-9.501401335000991821e-02,6.880588829517364502e-02,1.247087866067886353e-01,-2.674201875925064087e-02,-4.958858713507652283e-02,-9.282105416059494019e-02,8.392283320426940918e-02,1.772816292941570282e-02,1.109016090631484985e-01,3.555920347571372986e-02,9.995608031749725342e-02,1.557713449001312256e-01,9.406297653913497925e-02,-1.393427606672048569e-02,7.285742554813623428e-03,2.849460206925868988e-02,1.230071261525154114e-01,6.053644791245460510e-02,3.565945103764533997e-02,-6.259766221046447754e-02,-1.155391484498977661e-01,6.027383729815483093e-02,1.479839682579040527e-01,1.966702938079833984e-02,4.114469047635793686e-03,-1.024339199066162109e-01,1.245425716042518616e-01,1.060384958982467651e-01,4.384932294487953186e-02,9.059207141399383545e-02,-4.445419460535049438e-02,4.074361547827720642e-02,1.122382804751396179e-01,1.359407007694244385e-01,6.764046847820281982e-02,-5.587020516395568848e-02,2.084260806441307068e-02,8.420208841562271118e-02,6.461226940155029297e-02,1.223476901650428772e-01,-1.512588858604431152e-01,5.252600647509098053e-03,-7.810099422931671143e-02,-1.264602988958358765e-01,-8.837754279375076294e-02,-9.030851721763610840e-02,-9.758480638265609741e-02,-2.661779522895812988e-03,2.542361430823802948e-02,5.636832863092422485e-02,9.762410074472427368e-02,2.113064974546432495e-01,2.288645058870315552e-01,1.936923861503601074e-01,1.668885722756385803e-02,1.546283662319183350e-01,4.869511350989341736e-02,1.843309551477432251e-01,8.447380363941192627e-02,2.196938842535018921e-01,-4.906384274363517761e-03,-1.025100424885749817e-01,-3.620205074548721313e-02,4.497111588716506958e-02,1.130634099245071411e-01,-2.225027419626712799e-02,1.198324039578437805e-01,1.657281443476676941e-02,-1.224824041128158569e-01,-9.235869348049163818e-02,-2.348113805055618286e-02,-6.444412283599376678e-03,-1.170716807246208191e-02,4.599899053573608398e-02,-1.694351583719253540e-01,-5.425919964909553528e-02,-5.729807162424549460e-05,1.702190041542053223e-01,1.414220780134201050e-01,3.752769902348518372e-03,-1.770228706300258636e-02,-1.051032245159149170e-01,3.610930964350700378e-02,1.469738036394119263e-02,-3.334688767790794373e-02,1.118841581046581268e-02,-4.389530420303344727e-02,3.306376561522483826e-02,-6.332530174404382706e-03,2.190575562417507172e-02,-6.152682006359100342e-02,-5.998282134532928467e-02,-1.054688021540641785e-01,-1.062927618622779846e-01,-1.147192791104316711e-01,4.025251138955354691e-03,5.158128216862678528e-02,-3.485292941331863403e-02,-1.384614706039428711e-01,-8.369087427854537964e-02,9.579536505043506622e-03,-1.574799790978431702e-02,5.720845982432365417e-02,-9.169619530439376831e-02,-1.721500158309936523e-01,1.894652992486953735e-01,2.225917875766754150e-01,1.256968080997467041e-01,3.577798232436180115e-02,-2.130679637193679810e-01,2.227733433246612549e-01,1.317751407623291016e-01,3.242565393447875977e-01,1.224593222141265869e-01,-9.709914028644561768e-02,4.003315232694149017e-03,-2.196743711829185486e-02,-3.608744591474533081e-02,-7.533199340105056763e-02,1.904442906379699707e-02,-6.579783558845520020e-02,4.442761093378067017e-02,-1.111768838018178940e-02,-1.925349533557891846e-01,-1.032180413603782654e-01,-5.349550023674964905e-02,-7.987737655639648438e-02,-9.916026145219802856e-02,-2.009072601795196533e-01,-1.147843003273010254e-01,-3.306562453508377075e-02,-1.191071700304746628e-02,-2.098002284765243530e-01,-1.693851500749588013e-01,-8.963359892368316650e-02,-7.022710982710123062e-03,2.283081412315368652e-02,6.750328000634908676e-03,5.304951919242739677e-04,-9.548813104629516602e-02,-1.744406670331954956e-02,1.291737854480743408e-01,6.450086086988449097e-02,-2.487482875585556030e-02,-4.753681272268295288e-02,4.805706068873405457e-02,4.046959802508354187e-03,7.017221301794052124e-02,5.260723084211349487e-02,4.777406156063079834e-02,5.964772030711174011e-02,7.901081442832946777e-02,1.696464419364929199e-01,1.170215010643005371e-01,5.119523033499717712e-02,7.611860334873199463e-02,-3.441869094967842102e-02,1.306284032762050629e-02,2.026000525802373886e-03,3.679578006267547607e-02,-1.167139187455177307e-01,5.020513199269771576e-03,-1.629365384578704834e-01,-6.066949293017387390e-02,-6.869508326053619385e-02,1.142395380884408951e-02,9.130411781370639801e-03,6.827729940414428711e-02,1.014852672815322876e-01,4.079908505082130432e-02,1.067668646574020386e-01,3.747393190860748291e-02,8.938691578805446625e-03,1.137912645936012268e-02,3.149544820189476013e-02,6.518016010522842407e-02,-5.416982248425483704e-02,5.615441873669624329e-02,-1.997460238635540009e-02,5.133828893303871155e-02,-1.822130978107452393e-01,-9.812999516725540161e-02,-5.485262349247932434e-02,-1.678549945354461670e-01,-8.184199780225753784e-02,-6.531783193349838257e-02,4.686075448989868164e-02,-8.990005403757095337e-02,-9.103122353553771973e-02,-1.233516260981559753e-01,-1.180597692728042603e-01,-5.168092250823974609e-02,-5.061570554971694946e-02,-1.113690808415412903e-01,-7.584156095981597900e-02,1.229848945513367653e-03,-4.267507046461105347e-02,5.935764405876398087e-03,-1.126894205808639526e-01,-7.439453154802322388e-02,1.040374115109443665e-01,1.146918088197708130e-01,2.030763477087020874e-01,1.189839988946914673e-01,1.180426403880119324e-01,1.056854203343391418e-01,2.300092428922653198e-01,2.183756977319717407e-01,1.613506078720092773e-01,2.447074800729751587e-01,5.880711227655410767e-02,8.799455128610134125e-03,-4.375993274152278900e-03,1.076220124959945679e-01,4.323114454746246338e-02,-1.312888115644454956e-01,-4.183804616332054138e-02,-1.693566143512725830e-02,-1.195732206106185913e-01,-1.035847887396812439e-01,-1.225456893444061279e-01,3.876003995537757874e-02,2.057037875056266785e-02,-1.498304158449172974e-01,-1.019766852259635925e-01,-8.971951901912689209e-02,-1.770565956830978394e-01,-9.580215066671371460e-02,1.214306708425283432e-02,-6.327852606773376465e-02,9.120284020900726318e-02,-9.127168357372283936e-02,1.034744828939437866e-01,3.427397832274436951e-02,4.043389111757278442e-03,-1.129304710775613785e-02,1.084909066557884216e-01,4.596809297800064087e-02,9.662634134292602539e-02,4.848110675811767578e-02,-5.723500996828079224e-02,-3.519428521394729614e-02,4.231277108192443848e-02,3.240336850285530090e-02,6.057646870613098145e-02,7.434290647506713867e-02,1.422318965196609497e-01,1.581875532865524292e-01,1.316445320844650269e-01,1.718225628137588501e-01,-5.605314299464225769e-02,1.138674020767211914e-01,2.049457728862762451e-01,9.538955986499786377e-02,5.996051058173179626e-02,-2.661456912755966187e-02,2.167990989983081818e-02,-8.582243323326110840e-02,-2.874084748327732086e-02,-6.178428884595632553e-03,2.175616100430488586e-03,7.840256392955780029e-02,4.533882811665534973e-02,-1.123726181685924530e-02,-2.164477109909057617e-01,3.736421093344688416e-02,1.430316641926765442e-02,-7.443617284297943115e-02,-1.448572725057601929e-01,-1.855044364929199219e-01,1.813407801091670990e-02,-9.698114544153213501e-02,-4.090256616473197937e-02,-7.270005345344543457e-02,-6.823837012052536011e-02,-6.620912998914718628e-02,-3.469384834170341492e-02,-1.188381016254425049e-01,-1.985173821449279785e-01,-1.476833224296569824e-01,-1.316555589437484741e-01,-4.112469404935836792e-02,-5.732915177941322327e-02,-1.322155892848968506e-01,-8.535666018724441528e-02,9.242724627256393433e-03,-6.474043428897857666e-02,-1.877834461629390717e-02,-6.179517135024070740e-02,-2.521945163607597351e-02,-5.153282731771469116e-02,7.776331156492233276e-02,3.405630216002464294e-02,-8.683107048273086548e-02,-7.745359838008880615e-02,5.272114276885986328e-02,4.078725818544626236e-03,7.939857244491577148e-02,2.717257663607597351e-02,-3.135688602924346924e-02,-4.628283437341451645e-03,9.942445158958435059e-02,8.180840313434600830e-02,1.575110256671905518e-01,9.759224206209182739e-02,1.354347616434097290e-01,1.070138067007064819e-02,1.370841562747955322e-01,4.064732044935226440e-02,1.045961901545524597e-01,-8.561413735151290894e-02,-7.256630063056945801e-02,-3.931226581335067749e-02,-1.040887609124183655e-01,9.445063024759292603e-02,-9.540492668747901917e-03,8.286977186799049377e-03,-9.590519964694976807e-02,5.736153200268745422e-02,-4.938304796814918518e-02,-7.736702449619770050e-03,6.096168234944343567e-02,4.990374296903610229e-02,8.892995864152908325e-02,1.088040173053741455e-01,1.665208041667938232e-01,8.177294582128524780e-02,1.755338534712791443e-02,7.139815390110015869e-02,1.520656794309616089e-01,-8.137331902980804443e-02,4.092725738883018494e-02,8.480414748191833496e-03,6.538999080657958984e-02,1.223489046096801758e-01,-1.235422343015670776e-01,-1.359061747789382935e-01,-3.471248969435691833e-02,-1.886817812919616699e-01,-7.118298113346099854e-02,3.863528743386268616e-02,5.396086722612380981e-02,-1.589626371860504150e-01,-2.812611460685729980e-01,-1.009006574749946594e-01,4.732898250222206116e-02,-1.183940214104950428e-03,-2.108207792043685913e-01,-1.611326932907104492e-01,-3.547107055783271790e-02,1.089093238115310669e-01,-2.007981240749359131e-01,-3.676553964614868164e-01,-2.262783050537109375e-01,-7.842246443033218384e-02,-1.081893518567085266e-01,-1.186957880854606628e-01,-1.314841955900192261e-01,-1.199094429612159729e-01,3.098550660070031881e-04,2.901272848248481750e-02,3.991140052676200867e-03,-1.011044532060623169e-01,1.083498373627662659e-01,1.820975691080093384e-01,-9.925010055303573608e-02,2.044917084276676178e-02,1.546264588832855225e-01,3.344115242362022400e-02,-4.247247241437435150e-03,1.170383393764495850e-02,2.358216047286987305e-01,2.212593257427215576e-01,-5.101172998547554016e-02,-3.352844715118408203e-02,2.206649444997310638e-02,1.862443536520004272e-01,9.104236215353012085e-02,-1.637897491455078125e-01,6.025893613696098328e-02,-4.578769952058792114e-02,5.619486048817634583e-02,2.300373651087284088e-02,-7.492882013320922852e-02,1.358939614146947861e-02,3.423754498362541199e-02,1.073184460401535034e-01,-2.679324895143508911e-02,-1.479569226503372192e-01,1.328222155570983887e-01,1.207905784249305725e-01,-2.329353988170623779e-01,-2.422810792922973633e-01,-6.886504590511322021e-02,-8.751230686902999878e-02,7.094078510999679565e-02,-1.638993769884109497e-01,-2.094108909368515015e-01,-2.317855060100555420e-01,-1.332289278507232666e-01,1.289705466479063034e-02,-8.215383626520633698e-03,-8.730328828096389771e-02,-3.299466669559478760e-01,-1.373338401317596436e-01,1.192844063043594360e-01,-3.423546254634857178e-02,-1.879779249429702759e-01,-3.672467470169067383e-01,-1.352723091840744019e-01,1.304966360330581665e-01,-9.670070558786392212e-02,-1.914651840925216675e-01,-1.237390488386154175e-01,1.772446483373641968e-01,3.704915195703506470e-02,-5.545224621891975403e-02,-4.837448894977569580e-02,6.523369252681732178e-02,1.840445399284362793e-01,3.904574736952781677e-02,-3.029998838901519775e-01,-1.567963361740112305e-01,1.926987916231155396e-01,2.853726595640182495e-02,-2.713785506784915924e-02,-3.247141540050506592e-01,4.534494131803512573e-02,1.650158315896987915e-01,-3.684397414326667786e-02,-9.875682741403579712e-02,-4.440007731318473816e-02,1.914639472961425781e-01,1.151583492755889893e-01,-9.936061501502990723e-02,-1.676712557673454285e-02,5.364771559834480286e-02,1.038569062948226929e-01,2.941964566707611084e-02,-1.598043441772460938e-01,-2.843361347913742065e-03,4.297753050923347473e-02,1.121403798460960388e-01,-4.081261809915304184e-03,1.513640116900205612e-02,4.291797801852226257e-02,1.519792973995208740e-01,4.436752572655677795e-02,5.119288712739944458e-02,-3.340314701199531555e-02,-8.770315349102020264e-02,3.375884518027305603e-02,4.679242148995399475e-02,1.035874038934707642e-01,6.841086596250534058e-02,-5.062470957636833191e-02,-2.632234431803226471e-02,1.413028687238693237e-01,3.850709414109587669e-03,-2.199155837297439575e-02,-5.837449803948402405e-02,1.190913766622543335e-01,1.106216162443161011e-01,5.529038608074188232e-02,-9.840042144060134888e-02,-6.621919572353363037e-02,-5.380992311984300613e-03,4.623565357178449631e-03,1.680989265441894531e-01,1.237491369247436523e-01,-6.207750365138053894e-02,-6.551069766283035278e-02,-2.917927131056785583e-02,9.595458954572677612e-02,4.173191729933023453e-03,-9.653104096651077271e-02,-7.420284301042556763e-02,3.514313697814941406e-02,8.231525123119354248e-02,6.987198442220687866e-02,5.553398746997117996e-03,-7.744251191616058350e-02,6.028937920928001404e-02,1.533195227384567261e-01,1.813517324626445770e-02,-3.688037022948265076e-02,6.678992509841918945e-02,1.573679298162460327e-01,8.306451886892318726e-02,1.082415431737899780e-01,-8.890964835882186890e-02,5.604187026619911194e-02,6.165665388107299805e-02,1.877727061510086060e-01,9.623672813177108765e-02,1.040767803788185120e-01,2.188020646572113037e-01,2.089523077011108398e-01,1.575977057218551636e-01,1.470580697059631348e-03,-2.314158156514167786e-02,1.058490481227636337e-02,-1.090097520500421524e-02,-5.445292685180902481e-03,-1.304315030574798584e-01,-7.304400950670242310e-02,-8.448189496994018555e-02,-2.999559789896011353e-02,-1.830167025327682495e-01,-5.060680583119392395e-02,-5.969901103526353836e-03,1.999390497803688049e-02,-7.799861021339893341e-03,-7.719139754772186279e-02,-1.223100796341896057e-01,-7.165420800447463989e-02,-2.430340088903903961e-02,-1.723356731235980988e-02,-1.185676380991935730e-01,1.675231009721755981e-02,-6.012796983122825623e-02,-6.636682152748107910e-02,1.102030575275421143e-01,2.078230259940028191e-03,1.057120338082313538e-01,-5.792430415749549866e-02,-1.683488837443292141e-03,4.793519154191017151e-02,2.332505024969577789e-02,1.219144985079765320e-01,3.417631611227989197e-02,-8.596794679760932922e-03,2.264714986085891724e-02,1.311074346303939819e-01,1.156910732388496399e-01,4.281395301222801208e-02,2.825869480147957802e-03,2.528351731598377228e-02,6.604192405939102173e-02,3.570105507969856262e-02,2.246627211570739746e-02,-4.395195096731185913e-02,-2.972894534468650818e-02,5.072899162769317627e-02,1.615933775901794434e-01,-7.487057894468307495e-02,-8.485091477632522583e-02,-3.147163242101669312e-02,-1.254235506057739258e-01,-5.176233500242233276e-02,-5.440634861588478088e-02,8.087897300720214844e-02,-3.057684050872921944e-03,9.105939418077468872e-02,-3.646247461438179016e-02,-8.983471989631652832e-02,-2.269897982478141785e-02,9.385443478822708130e-02,-4.280250519514083862e-02,-8.349531143903732300e-02,-2.335385382175445557e-01,-1.140047162771224976e-01,-5.933313816785812378e-02,-1.967446133494377136e-02,-7.832881808280944824e-02,-1.200831774622201920e-02,9.614198654890060425e-02,1.572686135768890381e-01,4.787043109536170959e-02,-8.215586096048355103e-02,4.184895381331443787e-02,1.146053075790405273e-01,1.908586546778678894e-02,-1.404772251844406128e-01,-2.538357377052307129e-01,4.634423553943634033e-02,8.480259776115417480e-02,-1.335947215557098389e-01,-2.631152570247650146e-01,-4.998386278748512268e-02,2.156355045735836029e-02,1.051385998725891113e-01,-4.906655848026275635e-02,-1.714650988578796387e-01,-1.129237338900566101e-01,7.946219295263290405e-02,7.469058781862258911e-02,-1.256364956498146057e-02,-1.835024058818817139e-01,-5.226414278149604797e-02,9.672638773918151855e-02,-1.372118853032588959e-02,2.673872932791709900e-02,9.651957452297210693e-02,8.603186346590518951e-03,7.416921108961105347e-02,5.042806640267372131e-02,2.101499773561954498e-02,7.697861641645431519e-02,-3.694913175422698259e-04,1.483302563428878784e-01,1.100880056619644165e-01,-9.719463065266609192e-03,-1.844449490308761597e-01,-1.217240169644355774e-01,3.589748218655586243e-02,4.237417504191398621e-02,-6.452829390764236450e-02,-2.365082055330276489e-01,-8.219283819198608398e-02,9.613977372646331787e-02,-8.017980307340621948e-02,-3.892263770103454590e-02,-1.715098023414611816e-01,-5.975256487727165222e-02,1.052996069192886353e-01,9.712513536214828491e-02,-4.660186823457479477e-04,-4.132181778550148010e-02,-9.130278229713439941e-02,2.315926365554332733e-02,3.159863874316215515e-02,-2.331273443996906281e-02,-6.946039199829101562e-02,-7.991804182529449463e-02,1.134568601846694946e-01,-9.979146998375654221e-04,-7.690808176994323730e-02,-2.136945724487304688e-01,-1.251757051795721054e-02,1.003171205520629883e-01,6.043395027518272400e-02,-1.301526725292205811e-01,-6.416687369346618652e-02,-2.227470278739929199e-02,4.468487575650215149e-02,5.601723212748765945e-03,-1.344153881072998047e-01,-7.376184314489364624e-02,-5.229372531175613403e-02,4.344634339213371277e-02,9.689169004559516907e-03,9.510980546474456787e-02,-1.592550799250602722e-02,1.078461930155754089e-01,8.685024082660675049e-02,9.700293093919754028e-02,1.624173298478126526e-02,4.956736043095588684e-02,9.130502492189407349e-02,-5.702985823154449463e-02,-1.480311062186956406e-02,2.434322051703929901e-02,2.080986648797988892e-01,1.195833459496498108e-01,-1.641344428062438965e-01,-7.646541297435760498e-02,4.358460754156112671e-02,-7.499966770410537720e-02,-1.576005220413208008e-01,-1.621850728988647461e-01,-4.134981706738471985e-02,-7.377078384160995483e-02,2.482000552117824554e-02,3.429604694247245789e-02,-1.281240675598382950e-02,-2.262466102838516235e-01,4.870534688234329224e-02,1.548539251089096069e-01,-6.224690377712249756e-02,6.952708587050437927e-03,4.297463595867156982e-02,-6.331853568553924561e-03,1.346074938774108887e-01,-1.204990129917860031e-02,-4.052701592445373535e-02,-8.214993029832839966e-02,1.556953787803649902e-01,1.255259662866592407e-01,3.777837008237838745e-02,-5.330717191100120544e-02,-1.931572519242763519e-02,8.975471556186676025e-02,1.085009351372718811e-01,2.603800594806671143e-02,-7.816752791404724121e-02,1.185106299817562103e-02,-3.193757683038711548e-02,-2.227364107966423035e-03,-1.211722120642662048e-01,-2.319504916667938232e-01,-2.086187750101089478e-01,-1.918116509914398193e-01,5.477001518011093140e-02,2.075484097003936768e-01,-3.114077746868133545e-01,-1.711447983980178833e-01,-1.271195560693740845e-01,-5.761961638927459717e-02,2.925656270235776901e-03,3.582436824217438698e-03,5.567573010921478271e-02,1.002551019191741943e-01,9.718652814626693726e-02,4.869845509529113770e-02,-7.383105345070362091e-03,1.374543905258178711e-01,2.606164216995239258e-01,3.402275741100311279e-01,3.762626051902770996e-01,1.396371796727180481e-02,4.743969440460205078e-02,6.038524210453033447e-02,2.617776095867156982e-01,2.536490857601165771e-01,1.280357241630554199e-01,5.733383819460868835e-02,-1.914409697055816650e-01,-1.060177236795425415e-01,1.551750581711530685e-03,1.573245786130428314e-02,-2.238127142190933228e-01,-2.811428010463714600e-01,-1.685247570276260376e-01,-7.522443309426307678e-03,-2.456297539174556732e-02,-2.415731400251388550e-01,-3.015209436416625977e-01,-1.633787751197814941e-01,-1.278490424156188965e-01,-1.950629055500030518e-03,-9.682007879018783569e-02,-2.032688409090042114e-01,-1.415715217590332031e-01,-4.164993762969970703e-02,9.115835279226303101e-02,6.530765444040298462e-02,4.414992034435272217e-02,1.318103633821010590e-02,1.521499752998352051e-01,2.176564484834671021e-01,1.098652854561805725e-01,1.944047398865222931e-02,-2.359440084546804428e-03,5.699431896209716797e-02,1.074161604046821594e-01,1.043178364634513855e-01,2.349591813981533051e-02,1.467465516179800034e-02,1.841165125370025635e-02,2.524765394628047943e-02,-2.943642623722553253e-02,-1.157409623265266418e-01,-1.506045460700988770e-01,-2.460706047713756561e-02,-8.927416801452636719e-02,-4.240460321307182312e-02,-1.352604925632476807e-01,-1.949447393417358398e-01,-2.012456208467483521e-01,-1.868879608809947968e-02,2.522543258965015411e-02,-4.607312008738517761e-02,5.683889146894216537e-03,-2.176020294427871704e-02,1.525616645812988281e-01,8.023488521575927734e-02,-4.132518544793128967e-02,-1.050681900233030319e-02,1.060907915234565735e-01,7.408578693866729736e-02,6.926428526639938354e-02,-1.758595556020736694e-02,-8.286295831203460693e-02,-5.466262623667716980e-02,-7.112383842468261719e-02,-4.767230153083801270e-02,-1.477012932300567627e-01,-1.695936918258666992e-01,-2.130006402730941772e-01,-6.679181754589080811e-02,-4.211984202265739441e-02,-9.915645420551300049e-02,1.031656935811042786e-02,4.346103966236114502e-02,7.304039783775806427e-03,1.324372738599777222e-01,9.256890974938869476e-03,1.392143815755844116e-01,1.211970746517181396e-01,2.525876834988594055e-02,3.705487772822380066e-02,1.991380453109741211e-01,9.912623465061187744e-02,-1.892832852900028229e-02,-4.381078109145164490e-02,-2.267687916755676270e-01,-3.531295061111450195e-01,-5.243686959147453308e-02,8.595113456249237061e-02,-3.118390142917633057e-01,-1.745945960283279419e-01,3.101018443703651428e-02,3.029775917530059814e-01,1.874715387821197510e-01,-3.429332673549652100e-01,-6.477396935224533081e-02,1.759083271026611328e-01,1.937010735273361206e-01,9.494695067405700684e-02,-1.208968162536621094e-01,1.067097410559654236e-01,2.803302928805351257e-02,9.827709197998046875e-02,1.174187869764864445e-03,1.357849966734647751e-02,2.541669830679893494e-02,1.536098271608352661e-01,1.794200539588928223e-01,2.445883862674236298e-02,3.332394361495971680e-02,2.237450890243053436e-02,5.932943895459175110e-02,-1.944181621074676514e-01,-2.989018261432647705e-01,3.828458860516548157e-02,1.682296954095363617e-02,-2.586678862571716309e-01,-1.627320945262908936e-01,-6.280807405710220337e-02,-3.864354640245437622e-02,-2.247879803180694580e-01,-3.549420088529586792e-02,8.197486400604248047e-02,-5.686388909816741943e-02,-7.676247507333755493e-02,-4.724716767668724060e-02,-4.597872961312532425e-03,-5.051860120147466660e-03,-1.256172172725200653e-02,-1.315618604421615601e-01,1.713037118315696716e-02,6.899982690811157227e-02,3.054771386086940765e-02,1.251853257417678833e-01,-2.121761292219161987e-01,4.063633829355239868e-02,8.495666831731796265e-02,1.595809012651443481e-01,1.034458130598068237e-01,-7.209513336420059204e-02,8.883452415466308594e-02,6.725700199604034424e-02,-4.891863558441400528e-03,1.624522656202316284e-01,4.273173585534095764e-02,-3.632369264960289001e-02,-5.137493088841438293e-02,2.544193528592586517e-02,2.428458184003829956e-01,-8.960440009832382202e-02,-2.614123821258544922e-01,-9.683282673358917236e-02,9.802274405956268311e-02,1.411389112472534180e-01,-5.538270622491836548e-02,-8.339413255453109741e-02,-2.572202123701572418e-02,9.953288361430168152e-03,2.254938334226608276e-02,-7.598008215427398682e-02,-1.002169698476791382e-01,1.410742551088333130e-01,2.213122695684432983e-01,1.431818306446075439e-01,-6.449289619922637939e-02,1.629995256662368774e-01,2.151356041431427002e-01,-2.190926671028137207e-02,-1.800128817558288574e-01,-3.738503158092498779e-02,6.651042401790618896e-02,9.534030407667160034e-02,-1.081695109605789185e-01,-1.163176819682121277e-01,4.615318775177001953e-02,6.407953053712844849e-02,-1.332999765872955322e-01,-1.081307157874107361e-01,-4.000898450613021851e-02,-8.225723356008529663e-02,-8.895874023437500000e-02,-9.203673154115676880e-02,-1.480069756507873535e-01,-1.860193610191345215e-01,-1.499667316675186157e-01,-1.952350437641143799e-01,-2.013387382030487061e-01,-9.983714669942855835e-02,1.090613305568695068e-01,-2.032510340213775635e-01,-2.198159396648406982e-01,8.098267018795013428e-02,1.218429803848266602e-01,2.064094245433807373e-01,-7.174908369779586792e-02,1.178920790553092957e-01,1.053453311324119568e-01,3.920766338706016541e-02,-8.827918022871017456e-02,-2.647979557514190674e-02,1.470348834991455078e-01,1.535696536302566528e-02,-1.747368127107620239e-01,-1.154177710413932800e-01,-3.728124126791954041e-02,-1.688962429761886597e-01,-6.843104213476181030e-02,-9.870379418134689331e-02,3.176987404003739357e-03,-1.509362906217575073e-01,5.691848322749137878e-02,1.137705370783805847e-01,1.051617860794067383e-01,4.658199474215507507e-02,-7.190266996622085571e-02,2.203001454472541809e-02,-1.285264920443296432e-02,5.166352167725563049e-02,6.896618753671646118e-02,9.464485943317413330e-02,-4.051725566387176514e-02,-3.617367893457412720e-02,-8.969374746084213257e-02,-1.600473225116729736e-01,7.729728519916534424e-02,1.148248836398124695e-01,9.840871393680572510e-02,6.272924598306417465e-03,-6.255055963993072510e-02,-4.062648862600326538e-02,-2.104083448648452759e-02,-4.874245077371597290e-02,-1.016610637307167053e-01,-5.269207432866096497e-02,-1.419200934469699860e-02,-1.596337258815765381e-01,-2.619070410728454590e-01,-2.667516767978668213e-01,-1.495773196220397949e-01,2.904968149960041046e-02,1.528467088937759399e-01,-9.576440788805484772e-03,-5.585578829050064087e-02,-2.392137497663497925e-01,-4.079040139913558960e-02,8.606047928333282471e-02,8.079316467046737671e-02,1.665465906262397766e-02,-1.057378426194190979e-01,1.240170225501060486e-01,-5.246388912200927734e-02,2.116166241466999054e-02,1.672322303056716919e-01,1.429336071014404297e-01,6.999002397060394287e-02,-4.230571538209915161e-02,5.235469713807106018e-02,7.019966095685958862e-02,-9.207414835691452026e-02,-6.536550819873809814e-02,9.623986668884754181e-03,-5.599579960107803345e-02,-1.330370903015136719e-01,-2.071307152509689331e-01,-1.407958846539258957e-02,9.038905799388885498e-02,1.517688930034637451e-01,8.264343440532684326e-02,-1.680228710174560547e-01,5.943098664283752441e-02,3.924658522009849548e-03,3.014990501105785370e-02,1.293413639068603516e-01,2.154084295034408569e-02,3.558058990165591240e-03,-1.221330184489488602e-02,1.003731787204742432e-01,1.096276193857192993e-01,8.939441293478012085e-02,-1.316413749009370804e-02,-2.349577844142913818e-03,-1.103266924619674683e-01,3.678050264716148376e-02,-3.389165550470352173e-02,-9.562072157859802246e-02,1.230866834521293640e-02,-9.069710969924926758e-02,2.172609977424144745e-02,-3.018066845834255219e-02,1.462992876768112183e-01,-1.240819543600082397e-01,-1.096387133002281189e-01,-1.499929428100585938e-01,3.572634607553482056e-02,2.366861402988433838e-01,-1.136630401015281677e-01,-2.253692299127578735e-01,-4.023883938789367676e-01,-7.990469783544540405e-02,1.401414722204208374e-01,1.276307702064514160e-01,4.787633568048477173e-02,-1.608515977859497070e-01,-2.049302160739898682e-01,-8.408987522125244141e-02,9.492316097021102905e-02,1.029272153973579407e-01,2.615811675786972046e-02,-5.194172635674476624e-02,-1.713827848434448242e-01,-9.920641779899597168e-02,-3.442950174212455750e-02,-7.125446945428848267e-02,-5.754734948277473450e-02,-1.381962001323699951e-01,-2.491706423461437225e-02,-1.443195343017578125e-01,-1.570092588663101196e-01,-3.070312738418579102e-02,-3.634179383516311646e-02,-2.899143844842910767e-02,-1.861683428287506104e-01,-8.133611083030700684e-02,-4.222014918923377991e-03,7.893706113100051880e-02,-1.447606682777404785e-01,-1.272008419036865234e-01,-1.614612191915512085e-01,-2.463144063949584961e-02,4.603561758995056152e-02,-1.921355538070201874e-02,3.732394054532051086e-02,5.361072346568107605e-02,-4.951631650328636169e-02,6.602802872657775879e-02,-5.667754914611577988e-03,-3.374779224395751953e-02,-1.138664502650499344e-02,1.091190241277217865e-02,2.704594808164983988e-04,9.074824303388595581e-02,6.878641992807388306e-02,1.257585585117340088e-01,3.367347270250320435e-02,-8.162748813629150391e-02,-3.998654335737228394e-02,7.534191757440567017e-02,1.324111968278884888e-01,1.473319232463836670e-01,-1.342720240354537964e-01,-1.111545264720916748e-01,-3.575613349676132202e-02,2.042562887072563171e-02,3.090815059840679169e-02,5.012978240847587585e-02,3.940265625715255737e-02,5.790266767144203186e-02,3.064357675611972809e-02,-1.018486334942281246e-03,1.947469264268875122e-02,7.261609286069869995e-02,6.858001649379730225e-02,-2.078321389853954315e-02,9.612816385924816132e-03,-4.392268508672714233e-02,-3.983413428068161011e-02,1.336549501866102219e-02,1.467815339565277100e-01,1.433982104063034058e-01,-1.772641986608505249e-01,-1.523339450359344482e-01,-5.485372245311737061e-02,4.518953710794448853e-02,1.648615449666976929e-01,-5.951488018035888672e-02,-1.717842668294906616e-01,-3.779263421893119812e-02,5.434021353721618652e-03,6.249962374567985535e-02,6.996128708124160767e-02,4.840707033872604370e-02,6.699762493371963501e-02,-5.769947543740272522e-02,-1.544075906276702881e-01,1.702847629785537720e-01,2.376198023557662964e-01,5.404943227767944336e-02,-1.423466652631759644e-01,-1.532293409109115601e-01,-2.474240772426128387e-02,-1.014414131641387939e-01,-3.253163024783134460e-02,-9.445753879845142365e-03,1.460203081369400024e-01,-4.952850565314292908e-02,7.412718981504440308e-02,9.203340113162994385e-02,1.215215921401977539e-01,1.127260848879814148e-01,8.000562340021133423e-02,1.496362835168838501e-01,2.138139754533767700e-01,9.879377484321594238e-02,6.024660915136337280e-02,1.999503932893276215e-02,-5.725661758333444595e-03,-4.546449333429336548e-02,1.101728342473506927e-02,9.446604549884796143e-02,-5.233148578554391861e-03,4.296080395579338074e-02,3.253377974033355713e-02,8.649705350399017334e-02,-1.173302456736564636e-01,1.785674877464771271e-02,-5.922168493270874023e-03,-1.745835393667221069e-01,-2.346984446048736572e-01,-1.307960748672485352e-01,-1.440125256776809692e-01,-2.700381577014923096e-01,-1.605307161808013916e-01,5.585686885751783848e-04,-4.730899631977081299e-02,-8.820430189371109009e-02,-1.155992224812507629e-01,-2.872608974575996399e-02,6.325566768646240234e-02,5.185942631214857101e-03,1.549395769834518433e-01,9.547509253025054932e-02,1.628692746162414551e-01,1.472122818231582642e-01,9.095655381679534912e-02,-9.554286301136016846e-02,-7.697293162345886230e-02,1.017374545335769653e-01,7.474766671657562256e-02,1.451089680194854736e-01,8.738487958908081055e-02,1.277896314859390259e-01,1.589843481779098511e-01,4.492476955056190491e-02,7.967408746480941772e-02,1.180326044559478760e-01,6.834916025400161743e-02,-5.426706373691558838e-02,-1.296888142824172974e-01,-3.886737301945686340e-02,-2.528662681579589844e-01,-2.366833388805389404e-01,-3.793889284133911133e-01,-1.139547750353813171e-01,-1.895208507776260376e-01,4.466548562049865723e-02,-7.298135757446289062e-02,-1.879460364580154419e-02,-1.741675883531570435e-01,-8.425410091876983643e-02,7.088252902030944824e-02,-4.225332662463188171e-02,-6.373443454504013062e-02,3.218435496091842651e-02,1.279899030923843384e-01,-4.530734382569789886e-03,1.956672780215740204e-02,7.579938322305679321e-02,-9.980965405702590942e-04,2.936570346355438232e-02,-7.217751443386077881e-02,1.874794065952301025e-02,9.468812495470046997e-02,2.020230889320373535e-02,-3.755173087120056152e-02,-3.679722920060157776e-02,-3.178639337420463562e-02,-1.497281789779663086e-01,-5.646825954318046570e-02,-1.790188997983932495e-01,-8.528745174407958984e-02,1.841589063405990601e-02,-2.173205651342868805e-02,-2.704256772994995117e-02,-7.381206750869750977e-02,-1.988803967833518982e-02,-2.096342295408248901e-02,8.348850533366203308e-03,-1.326522529125213623e-01,-2.940778061747550964e-02,-1.190628334879875183e-01,-1.105487812310457230e-02,-4.343458265066146851e-02,2.016562037169933319e-02,1.490638852119445801e-01,-5.420397594571113586e-02,7.521297782659530640e-02,1.113993600010871887e-01,3.062171489000320435e-02,1.219643130898475647e-01,1.116696372628211975e-01,1.411465704441070557e-01,6.123340129852294922e-02,4.490127414464950562e-02,3.363010659813880920e-02,-7.020645588636398315e-02,-7.471729815006256104e-02,-7.037960737943649292e-02,-1.050855293869972229e-01,-5.061081051826477051e-02,-4.793663322925567627e-02,5.447404459118843079e-02,2.621237561106681824e-02,1.147726029157638550e-01,-1.546346768736839294e-02,2.968439646065235138e-02,1.693551987409591675e-02,1.454686969518661499e-01,4.495612904429435730e-02,1.006416380405426025e-01,1.674276292324066162e-01,-2.461298601701855659e-03,2.014018967747688293e-02,-7.996713393367826939e-04,-6.011355295777320862e-02,1.146718487143516541e-01,5.016065761446952820e-02,-6.225240230560302734e-02,-2.574333734810352325e-02,-1.714351028203964233e-02,3.162980079650878906e-01,2.616927623748779297e-01,1.408739984035491943e-01,2.189130634069442749e-01,1.391752958297729492e-01,8.049201220273971558e-02,2.885926961898803711e-01,1.962852030992507935e-01,9.593962877988815308e-02,-2.708887457847595215e-01,-1.942518502473831177e-01,-6.660418957471847534e-02,-1.214226558804512024e-01,-1.336289048194885254e-01,-2.257763892412185669e-01,-1.004940941929817200e-01,-1.601989120244979858e-01,-5.702276900410652161e-02,9.257189184427261353e-02,2.637305296957492828e-02,-1.511996686458587646e-01,-5.116593092679977417e-02,1.321025844663381577e-02,9.293322265148162842e-02,1.502598728984594345e-02,1.794817596673965454e-01,7.653744518756866455e-02,-1.555044855922460556e-02,2.619565650820732117e-02,-4.631157964468002319e-02,7.707855850458145142e-02,3.522417321801185608e-02,5.796525999903678894e-02,7.534854114055633545e-02,-7.964401692152023315e-02,-5.677323322743177414e-03,-6.206418573856353760e-02,2.639903873205184937e-02,3.119249828159809113e-03,-8.037533611059188843e-02,2.676557004451751709e-02,-5.298081040382385254e-02,-2.060224488377571106e-02,5.944779608398675919e-03,-1.102890893816947937e-01,-6.507411599159240723e-02,-2.408131770789623260e-02,4.314868897199630737e-02,6.145559996366500854e-02,3.311967849731445312e-02,-4.759356379508972168e-02,-9.780406206846237183e-02,-2.461780421435832977e-02,-2.908872812986373901e-02,-2.122789621353149414e-01,1.561285704374313354e-01,7.124913483858108521e-02,1.479237079620361328e-01,4.983874969184398651e-03,4.694592580199241638e-02,2.867511287331581116e-02,1.580206677317619324e-02,7.833617739379405975e-03,9.808783233165740967e-02,1.714163273572921753e-01,-9.373674541711807251e-02,-7.137801498174667358e-02,7.990316487848758698e-03,1.038383319973945618e-01,1.241415962576866150e-01,1.183443609625101089e-02,5.799378827214241028e-02,1.177888512611389160e-01,1.121207326650619507e-01,9.812411665916442871e-02,-2.956024408340454102e-01,-1.674612015485763550e-01,2.869163081049919128e-02,-6.729411892592906952e-03,-2.370889931917190552e-01,-2.375583946704864502e-01,-1.784489154815673828e-01,-1.843903660774230957e-01,-2.685178816318511963e-01,-3.110086321830749512e-01,-4.264146089553833008e-02,-6.938960868865251541e-03,-1.551689058542251587e-01,7.518847007304430008e-03,-2.315123938024044037e-02,2.739587053656578064e-02,-4.278960824012756348e-02,-3.711615130305290222e-02,-3.035089001059532166e-02,4.142751172184944153e-02,-2.949994988739490509e-02,-1.226812452077865601e-01,-5.719511583447456360e-02,-6.579689681529998779e-02,-3.816808387637138367e-02,1.037748977541923523e-01,1.200254559516906738e-01,-3.896356746554374695e-02,8.325374126434326172e-02,-5.233695730566978455e-02,-2.141605764627456665e-01,-7.541064918041229248e-02,-1.155293807387351990e-01,-7.335507869720458984e-02,-2.006568908691406250e-01,-1.737264692783355713e-01,-1.503910422325134277e-01,-1.832758933305740356e-01,-1.581755280494689941e-01,-2.399919740855693817e-02,-4.998489841818809509e-02,-7.135903835296630859e-02,-1.436529308557510376e-01,-6.054960191249847412e-02,9.135888516902923584e-02,6.509907543659210205e-02,-1.948948949575424194e-02,-3.075928241014480591e-02,8.886345475912094116e-02,1.028310507535934448e-01,-5.683731660246849060e-02,-6.613953411579132080e-02,-8.656893670558929443e-02,-1.030760928988456726e-01,-1.711558550596237183e-01,-2.186273336410522461e-01,-2.110296934843063354e-01,-2.248364984989166260e-01,-2.012481689453125000e-01,-1.196004226803779602e-01,-2.570169419050216675e-02,1.848087646067142487e-02,4.445562139153480530e-02,4.643482714891433716e-02,7.217166572809219360e-02,1.008899807929992676e-01,5.177344381809234619e-02,4.079297930002212524e-02,2.782227657735347748e-02,5.545848608016967773e-02,1.255694329738616943e-01,5.240225419402122498e-02,-1.324022095650434494e-02,5.265317857265472412e-02,-5.178301036357879639e-02,-7.139594107866287231e-02,-1.357300877571105957e-01,-1.823591440916061401e-01,-6.349957734346389771e-02,1.847501248121261597e-01,-1.210649535059928894e-01,-2.217268198728561401e-01,-2.606406435370445251e-02,-4.670731723308563232e-02,6.104320660233497620e-02,-3.099358677864074707e-01,-2.187307476997375488e-01,-9.871813654899597168e-02,9.014549851417541504e-02,4.992718622088432312e-02,-2.163274399936199188e-02,-8.240175247192382812e-02,6.825535744428634644e-02,3.407273069024085999e-02,7.080352306365966797e-02,-1.069961935281753540e-01,-1.124690845608711243e-01,-3.391695395112037659e-02,6.716378033161163330e-02,1.291090715676546097e-02,1.193055734038352966e-01,-7.125491276383399963e-03,-2.869472280144691467e-02,-1.166791245341300964e-01,8.416997641324996948e-02,4.849967733025550842e-02,-8.910892531275749207e-03,-8.253461867570877075e-02,-1.256093382835388184e-01,1.030548438429832458e-01,5.276182666420936584e-02,-1.313969939947128296e-01,6.389348953962326050e-02,2.724081464111804962e-02,-1.920881867408752441e-02,9.585523605346679688e-02,-1.973531208932399750e-02,1.410268396139144897e-01,8.280300535261631012e-03,5.677324905991554260e-02,8.696103096008300781e-02,1.141044870018959045e-02,1.518917977809906006e-01,8.172948658466339111e-02,1.409215182065963745e-01,-2.803195714950561523e-01,-1.816199123859405518e-01,-9.542918205261230469e-02,-7.306307554244995117e-02,1.633470505475997925e-02,-2.551763877272605896e-02,-1.149664148688316345e-01,-1.827452033758163452e-01,-1.865807026624679565e-01,1.555483322590589523e-02,5.648779869079589844e-02,-1.188142821192741394e-01,-2.152682393789291382e-01,-6.520202849060297012e-03,2.309118509292602539e-01,-2.308395951986312866e-01,-2.747377157211303711e-01,-2.749397456645965576e-01,5.116957053542137146e-02,1.279420852661132812e-01,-2.729132771492004395e-01,-1.383891701698303223e-01,-5.567172542214393616e-02,1.349029541015625000e-01,1.540015786886215210e-01,-1.563634276390075684e-01,-2.182101085782051086e-02,1.176150962710380554e-01,9.267806261777877808e-02,5.458998307585716248e-02,-1.449469476938247681e-01,1.401618421077728271e-01,8.481720834970474243e-02,-9.520042804069817066e-04,-1.110167875885963440e-01,5.457684770226478577e-02,8.207359164953231812e-02,5.769053846597671509e-02,-6.438808888196945190e-02,-6.792740523815155029e-02,4.766438528895378113e-02,-5.555195733904838562e-03,-6.511074304580688477e-02,-1.644759923219680786e-01,-1.553639620542526245e-01,3.934303671121597290e-02,-1.600132882595062256e-02,-1.377748399972915649e-01,-1.298973802477121353e-02,-9.248249232769012451e-02,2.200109139084815979e-02,3.648573905229568481e-02,-2.109758183360099792e-02,-8.160337060689926147e-02,-4.500955343246459961e-03,2.387455198913812637e-03,-2.537347748875617981e-02,3.157490119338035583e-02,8.580813184380531311e-03,1.856808783486485481e-03,-1.375112775713205338e-02,4.744010418653488159e-02,1.071049422025680542e-01,2.103062719106674194e-02,-5.937850847840309143e-02,2.037505060434341431e-02,-1.792041398584842682e-02,9.440283477306365967e-02,-6.770320981740951538e-02,-3.787516802549362183e-02,1.230785921216011047e-01,7.446706295013427734e-02,4.620179999619722366e-03,-8.383636921644210815e-02,-3.273660689592361450e-02,-3.903237730264663696e-02,1.242478191852569580e-01,4.436973482370376587e-02,-7.926084846258163452e-02,-1.091211214661598206e-01,-7.098527252674102783e-02,1.185522004961967468e-01,1.185444369912147522e-01,-1.047031115740537643e-02,1.755739003419876099e-02,-2.445000782608985901e-02,8.468345552682876587e-02,4.993218183517456055e-02,6.920988857746124268e-02,6.084592267870903015e-02,-5.791985429823398590e-03,1.293205767869949341e-01,1.166283413767814636e-01,-2.096080034971237183e-02,-4.426109418272972107e-02,-6.711434572935104370e-02,7.204478979110717773e-02,7.115426659584045410e-02,1.427216827869415283e-02,-1.626159623265266418e-02,};

const data_t w_3_bias[16]={7.855403423309326172e-02,-3.268028050661087036e-02,2.898997440934181213e-02,-4.646639898419380188e-02,9.082403779029846191e-02,7.396414130926132202e-02,3.336523100733757019e-02,-9.193271398544311523e-02,1.200469117611646652e-02,9.731188416481018066e-02,-3.119686152786016464e-03,-8.609949797391891479e-02,3.856901451945304871e-02,-9.109838306903839111e-02,7.893241196870803833e-02,1.446424331516027451e-02,};

const twoD_t w_3_weight_2d = {
                           .r =5,
                           .c = 5,
                           .in_channel = 6,
                           .channel = 16,
                           .data = w_3_weight,
                           .bias = w_3_bias
                       };

const data_t w_7_weight[48000]={3.311533480882644653e-02,5.673661828041076660e-02,-2.759329788386821747e-02,-1.344242691993713379e-02,-1.164250299334526062e-01,2.053497359156608582e-03,4.416807740926742554e-02,1.140504050999879837e-02,1.823635399341583252e-02,1.353026628494262695e-01,-2.401437610387802124e-02,5.004720017313957214e-02,-3.342900425195693970e-02,-2.150090225040912628e-02,8.248396217823028564e-02,1.417524414137005806e-03,-1.004907581955194473e-02,-5.704283714294433594e-02,-8.041235804557800293e-02,-2.912636473774909973e-02,2.930177748203277588e-02,2.276977151632308960e-02,-1.480399221181869507e-01,-8.017721772193908691e-02,4.806057736277580261e-02,8.245994336903095245e-03,-5.125892534852027893e-02,-3.027664311230182648e-02,-1.053178496658802032e-02,1.696376875042915344e-02,3.022555261850357056e-02,-1.314628310501575470e-02,2.500961907207965851e-02,1.958626210689544678e-01,1.613779366016387939e-01,-3.926752880215644836e-02,-3.243224322795867920e-02,-4.566072602756321430e-04,8.332376927137374878e-02,1.517190188169479370e-01,-1.021080315113067627e-01,-1.950242370367050171e-01,-2.711820304393768311e-01,-1.344618666917085648e-02,1.722424328327178955e-01,-2.516046762466430664e-01,-8.138299733400344849e-02,3.503273800015449524e-02,1.169400811195373535e-01,1.613847017288208008e-01,-3.301587328314781189e-02,-3.397386521100997925e-02,8.535247296094894409e-02,7.385073602199554443e-02,9.135209023952484131e-03,-7.140696048736572266e-03,2.325605414807796478e-02,9.813797473907470703e-02,8.953031152486801147e-03,7.212787866592407227e-02,2.466454356908798218e-02,5.026742815971374512e-02,1.983803510665893555e-02,8.491055108606815338e-03,4.881655331701040268e-03,-1.239296644926071167e-01,-6.978597491979598999e-03,3.439634293317794800e-02,9.842095524072647095e-02,-4.500890895724296570e-02,4.072429612278938293e-02,1.005948483943939209e-01,2.814892120659351349e-02,2.189220860600471497e-02,-3.570750728249549866e-02,-7.290322333574295044e-02,-1.183615345507860184e-02,4.834902659058570862e-02,-2.047116495668888092e-02,2.769042178988456726e-02,-1.243152376264333725e-02,6.398106366395950317e-02,2.169526182115077972e-02,2.085689455270767212e-02,5.285531282424926758e-02,-3.738860785961151123e-02,1.000970676541328430e-01,2.199275791645050049e-02,6.439504027366638184e-02,-3.864100575447082520e-02,-4.320008307695388794e-02,-8.264669775962829590e-02,-1.434900518506765366e-02,2.894338406622409821e-02,5.165815725922584534e-02,-2.561825700104236603e-02,-4.401211626827716827e-03,1.378666013479232788e-01,1.366647034883499146e-01,3.232406452298164368e-02,3.570645302534103394e-02,-1.347001269459724426e-02,2.242886088788509369e-02,-7.525374740362167358e-02,-8.340208791196346283e-03,4.764569923281669617e-03,-7.303769886493682861e-02,1.449670363217592239e-02,2.126966714859008789e-01,1.563641726970672607e-01,8.592637628316879272e-02,1.535953432321548462e-01,6.092504039406776428e-02,5.498228222131729126e-02,6.989520788192749023e-02,3.050679527223110199e-02,-6.498400121927261353e-02,-1.834441274404525757e-01,-4.473030567169189453e-02,9.978153556585311890e-02,-1.721649914979934692e-01,-2.770799696445465088e-01,-2.075221389532089233e-01,9.101475030183792114e-02,-6.248071417212486267e-02,-1.834807731211185455e-02,1.467702351510524750e-02,-7.926939427852630615e-02,-6.708014011383056641e-02,-7.695360481739044189e-02,-1.124500576406717300e-02,-6.516139209270477295e-02,-2.510064514353871346e-03,-7.326202839612960815e-02,1.423083525151014328e-02,-2.333120256662368774e-02,2.120917849242687225e-02,7.786779850721359253e-02,-6.160552054643630981e-02,-2.903752774000167847e-02,7.158559281378984451e-03,-8.255722932517528534e-03,9.544349461793899536e-02,-3.489938098937273026e-03,-1.445201574824750423e-03,7.076191157102584839e-02,8.082266151905059814e-02,2.594132907688617706e-02,2.232008799910545349e-02,2.926421351730823517e-02,2.250090613961219788e-02,6.646725535392761230e-02,8.198661357164382935e-02,2.307408116757869720e-02,4.809587076306343079e-02,5.838162451982498169e-02,2.722586505115032196e-02,2.880185097455978394e-02,9.925128892064094543e-03,5.958375334739685059e-02,-1.471569016575813293e-02,4.332969337701797485e-02,-8.775170892477035522e-02,-4.211682081222534180e-02,8.548040688037872314e-02,-2.958445809781551361e-02,1.253267843276262283e-02,3.056384623050689697e-02,-1.297458261251449585e-02,3.905414417386054993e-02,5.672015622258186340e-02,4.334617778658866882e-02,5.305321887135505676e-02,2.592027932405471802e-02,6.213143095374107361e-02,2.426293119788169861e-02,2.882497152313590050e-03,5.268771573901176453e-02,6.305559724569320679e-02,4.440301656723022461e-02,-2.199926786124706268e-02,-2.947499742731451988e-03,-4.402163252234458923e-02,5.285359546542167664e-02,1.115589290857315063e-01,1.487317215651273727e-02,5.977478995919227600e-02,7.502078078687191010e-03,-1.491710077971220016e-02,4.444658383727073669e-02,-8.322937786579132080e-02,-2.055633440613746643e-02,-2.878084033727645874e-02,-1.503363996744155884e-02,-4.274201393127441406e-02,-1.330279745161533356e-02,7.041960209608078003e-02,1.933252438902854919e-02,3.611200489103794098e-03,3.761174902319908142e-02,5.969527736306190491e-02,5.124549195170402527e-02,1.844827271997928619e-02,4.630528390407562256e-03,-4.310103133320808411e-02,-8.889819495379924774e-03,-8.463802933692932129e-02,8.164719678461551666e-03,-7.727865874767303467e-02,1.773559674620628357e-02,-4.902218654751777649e-02,3.490518406033515930e-02,2.521786838769912720e-02,-8.903212845325469971e-02,-1.041411515325307846e-02,5.968802049756050110e-02,5.375792086124420166e-02,3.368367254734039307e-02,-4.310058429837226868e-02,1.548272091895341873e-02,1.401321142911911011e-01,5.957976356148719788e-02,-3.182882443070411682e-02,2.337462082505226135e-02,3.999022766947746277e-02,3.714148327708244324e-02,1.542969197034835815e-01,-8.555909618735313416e-03,1.461200066842138767e-03,1.482388935983181000e-02,9.527462720870971680e-02,1.117657274007797241e-01,1.982024125754833221e-02,3.138498961925506592e-02,-8.473321795463562012e-02,-2.476511523127555847e-02,-1.375220865011215210e-01,6.041951850056648254e-02,7.550622522830963135e-02,-2.154570445418357849e-02,9.073734283447265625e-02,3.606889769434928894e-02,6.117824837565422058e-02,3.497514175251126289e-03,-1.632506586611270905e-02,-4.148935526609420776e-02,-5.550497677177190781e-03,-1.193550080060958862e-01,-6.496725976467132568e-02,1.270954310894012451e-02,1.221572142094373703e-02,-2.958753332495689392e-02,7.606257498264312744e-02,8.466422557830810547e-02,6.793721765279769897e-02,4.898318648338317871e-02,6.923992186784744263e-02,8.583457767963409424e-02,2.437812834978103638e-02,-1.753446646034717560e-02,-1.979932421818375587e-03,-5.137738306075334549e-03,-2.676612697541713715e-02,1.083932723850011826e-02,-2.215787209570407867e-02,-1.087068840861320496e-01,-7.918251305818557739e-02,-2.460224553942680359e-03,-1.099016889929771423e-02,-5.084113404154777527e-02,-1.492495536804199219e-01,6.603601574897766113e-02,4.115717113018035889e-02,1.773373596370220184e-02,5.044956505298614502e-02,5.014345794916152954e-02,5.129729583859443665e-02,8.471766114234924316e-02,2.171637170249596238e-04,-1.104694381356239319e-01,2.610406605526804924e-03,-9.583356976509094238e-02,-5.748817324638366699e-02,3.826351091265678406e-02,-7.226094603538513184e-02,-1.344322599470615387e-02,9.860737621784210205e-02,1.134947761893272400e-01,6.447763741016387939e-02,4.189103841781616211e-02,8.311882615089416504e-02,9.849108755588531494e-02,2.168133109807968140e-02,-6.903693079948425293e-03,4.620590060949325562e-02,-3.327310457825660706e-02,-1.475690305233001709e-01,-1.181811392307281494e-01,5.754067748785018921e-02,8.306644856929779053e-02,-1.666410942561924458e-03,1.039256341755390167e-02,3.891792893409729004e-02,-3.503737598657608032e-02,6.500442326068878174e-02,1.183336041867733002e-02,6.610076874494552612e-02,1.950630359351634979e-02,-2.534151077270507812e-03,8.816620334982872009e-03,-1.399237476289272308e-02,3.301986493170261383e-03,-4.373402521014213562e-02,1.649050600826740265e-02,1.003666222095489502e-01,1.116084633395075798e-03,2.989551424980163574e-02,-2.060543000698089600e-02,2.654759027063846588e-02,7.867763191461563110e-02,4.016216844320297241e-02,6.616886705160140991e-02,2.134132757782936096e-02,-5.161257460713386536e-03,-8.675178512930870056e-03,1.521471422165632248e-02,4.498237371444702148e-02,-8.778601884841918945e-03,-4.927196353673934937e-02,-4.612045735120773315e-02,-7.618497125804424286e-03,-3.481913357973098755e-02,-4.267822206020355225e-02,1.482922490686178207e-02,6.189935281872749329e-02,4.788284748792648315e-02,1.457442939281463623e-01,6.585070490837097168e-02,-1.950258761644363403e-02,4.779917001724243164e-02,-2.029940485954284668e-02,-1.318483613431453705e-02,-3.126944880932569504e-03,4.161232616752386093e-03,-4.927738010883331299e-02,-9.302649646997451782e-02,-4.169778525829315186e-02,3.904108889400959015e-04,1.038709208369255066e-01,1.682228147983551025e-01,9.888414293527603149e-03,4.195471853017807007e-02,-3.566721826791763306e-02,1.818282343447208405e-02,-8.835823275148868561e-03,1.468725386075675488e-03,-3.927300870418548584e-02,-1.009056791663169861e-01,4.582538828253746033e-02,1.141279488801956177e-01,4.543930292129516602e-02,3.619316732510924339e-03,-6.229021027684211731e-02,2.804958634078502655e-02,-6.175126880407333374e-03,7.825396209955215454e-02,-4.975375533103942871e-02,-9.219513833522796631e-02,2.228937670588493347e-02,5.780304223299026489e-02,-7.845631241798400879e-02,-1.058986261487007141e-01,4.348729271441698074e-03,1.012374982237815857e-01,4.237392544746398926e-02,-1.646675355732440948e-02,8.929347246885299683e-02,3.538579866290092468e-02,5.606889259070158005e-03,9.763713926076889038e-03,-1.852230168879032135e-02,4.408176522701978683e-03,-6.717702746391296387e-02,-4.096195474267005920e-02,-7.302758842706680298e-02,5.994322523474693298e-02,3.792317584156990051e-02,2.606641873717308044e-02,1.320161763578653336e-02,-5.207780748605728149e-02,5.804061517119407654e-02,6.335631012916564941e-02,9.952589124441146851e-02,-3.492056578397750854e-02,-2.877848967909812927e-02,7.750125229358673096e-02,6.873992830514907837e-02,-2.724376879632472992e-02,-4.354621842503547668e-02,7.131595909595489502e-02,-2.429492771625518799e-02,4.795921500772237778e-03,1.289940346032381058e-02,-7.777096331119537354e-02,-8.287923038005828857e-02,-2.023271983489394188e-03,-4.337981715798377991e-02,8.171015977859497070e-02,2.969866059720516205e-02,1.028814539313316345e-01,-5.214275419712066650e-02,-3.561665862798690796e-02,-7.435837388038635254e-02,3.584043681621551514e-02,2.144935131072998047e-01,2.919594757258892059e-02,-9.502084925770759583e-03,-6.230173259973526001e-02,3.599062189459800720e-02,2.839953266084194183e-02,-2.248324267566204071e-02,-1.977884955704212189e-02,-5.198474228382110596e-02,-1.507538184523582458e-02,2.674236148595809937e-02,7.981382310390472412e-02,1.080601662397384644e-01,-4.736288636922836304e-02,-6.587801873683929443e-02,1.957938307896256447e-03,1.501623690128326416e-01,9.141183644533157349e-02,1.742646680213510990e-03,-1.761780977249145508e-01,-6.260251253843307495e-02,2.791360486298799515e-03,5.221520364284515381e-02,-9.183361195027828217e-03,-3.783276677131652832e-02,-1.061356067657470703e-01,-7.068232446908950806e-02,-7.720562629401683807e-03,8.831014484167098999e-02,4.780030995607376099e-02,-8.106990717351436615e-03,-4.636552929878234863e-02,-3.277287259697914124e-02,1.422823369503021240e-01,3.785350173711776733e-02,6.259617209434509277e-02,-5.557649210095405579e-02,-2.978530013933777809e-03,1.143281161785125732e-01,1.773579567670822144e-01,1.461240947246551514e-01,-1.367461383342742920e-01,-5.659956857562065125e-02,6.786184012889862061e-02,3.449245914816856384e-02,-3.055698238313198090e-02,-1.366793364286422729e-01,-1.870186626911163330e-01,-4.330653324723243713e-02,-6.295585632324218750e-02,-1.005717664957046509e-01,1.057120226323604584e-02,3.400924801826477051e-02,-2.177492529153823853e-02,-7.694733142852783203e-02,-7.383827865123748779e-02,1.667339727282524109e-02,3.578631579875946045e-02,4.253103584051132202e-02,3.617903217673301697e-02,4.931398853659629822e-02,-1.617427729070186615e-02,-7.428078912198543549e-03,-1.952726393938064575e-03,8.545303344726562500e-02,3.699481859803199768e-02,1.732208766043186188e-02,-3.721368312835693359e-02,3.591754660010337830e-02,-3.723097220063209534e-02,1.574761606752872467e-02,-1.083185803145170212e-02,-7.269635051488876343e-02,-7.744526490569114685e-03,-1.404922455549240112e-01,-4.426067695021629333e-02,-7.774177007377147675e-03,1.461429614573717117e-02,2.550738118588924408e-02,2.875168062746524811e-02,4.187716543674468994e-02,1.326443403959274292e-01,5.996233597397804260e-02,1.342730224132537842e-01,8.996402472257614136e-02,8.547142893075942993e-02,-3.084700927138328552e-02,2.839407138526439667e-02,-3.313098102807998657e-02,-7.463253289461135864e-02,-1.511124707758426666e-02,-4.852102324366569519e-02,7.838894426822662354e-02,6.447689980268478394e-02,-2.916368423029780388e-03,2.545445598661899567e-02,2.644575433805584908e-03,-7.095914334058761597e-02,2.705187723040580750e-02,-2.948226965963840485e-02,-1.837817952036857605e-02,-3.409366309642791748e-02,-6.923327222466468811e-03,1.503685712814331055e-01,3.228257596492767334e-02,-6.085614487528800964e-02,-6.657324731349945068e-02,1.059456467628479004e-01,2.490510232746601105e-02,-6.907442957162857056e-02,-4.743535444140434265e-02,-7.834891229867935181e-02,-3.124189004302024841e-02,-2.038580924272537231e-02,6.756922602653503418e-02,6.746355444192886353e-02,-2.707121521234512329e-02,-5.908919870853424072e-02,-6.873102486133575439e-02,8.874512463808059692e-02,1.374619305133819580e-01,-4.170445608906447887e-04,-1.368072908371686935e-02,-1.232357248663902283e-01,4.180674627423286438e-02,1.005806773900985718e-01,3.291424363851547241e-02,1.415214873850345612e-02,-6.783919036388397217e-02,-4.905709996819496155e-02,-3.415074944496154785e-02,2.796087414026260376e-02,5.963877215981483459e-02,2.314482443034648895e-02,-6.283389776945114136e-02,-1.584445126354694366e-02,9.735879488289356232e-03,-1.929806917905807495e-02,6.534754484891891479e-02,1.085698455572128296e-01,-1.926037669181823730e-01,-3.114284714683890343e-03,-2.767872065305709839e-02,-4.323348030447959900e-02,6.328961253166198730e-02,-4.714519903063774109e-02,-7.725235819816589355e-02,-2.107895538210868835e-02,-5.803305655717849731e-02,-1.606336794793605804e-02,4.086758941411972046e-03,-5.853018909692764282e-02,1.964570395648479462e-02,-8.735595643520355225e-02,-2.658346854150295258e-02,-4.043211415410041809e-02,1.158330515027046204e-01,7.845574617385864258e-02,6.354188174009323120e-02,4.733620211482048035e-02,8.567967265844345093e-02,4.226385429501533508e-02,3.544894978404045105e-02,1.146806478500366211e-01,-1.805340684950351715e-02,-8.212819695472717285e-02,1.200195588171482086e-02,5.329231731593608856e-03,1.935895346105098724e-02,-4.095935076475143433e-02,-1.237204857170581818e-02,-1.064319610595703125e-01,-9.166677296161651611e-02,-7.889146357774734497e-02,1.612333767116069794e-02,-1.318368874490261078e-02,5.693544168025255203e-03,-1.768447458744049072e-02,-8.290093392133712769e-02,9.929272346198558807e-03,4.187566414475440979e-02,1.190755665302276611e-01,1.138337627053260803e-01,3.846556320786476135e-02,6.611085683107376099e-02,1.223712265491485596e-01,-4.782052338123321533e-02,3.874277696013450623e-02,5.966331809759140015e-03,-3.627732396125793457e-02,3.362052887678146362e-02,-8.642112836241722107e-03,-5.868097767233848572e-02,-1.442019362002611160e-02,1.006461158394813538e-01,2.327796518802642822e-01,2.215967886149883270e-02,-1.442775689065456390e-02,-1.207949966192245483e-01,-3.385814139619469643e-03,1.113471612334251404e-01,1.891665533185005188e-02,-3.147006267681717873e-03,-5.005892366170883179e-02,4.544074833393096924e-02,4.440100118517875671e-02,4.255357757210731506e-02,4.428028687834739685e-02,-1.095821112394332886e-01,-1.884499937295913696e-02,-3.084877098444849253e-04,5.874609202146530151e-02,-8.410915732383728027e-02,-6.024399772286415100e-03,1.750987768173217773e-01,-4.193706065416336060e-02,1.476207077503204346e-01,-4.430564492940902710e-02,-4.211937263607978821e-02,-1.027372479438781738e-02,-3.901166841387748718e-02,1.848359555006027222e-01,-2.105467393994331360e-02,-4.608239233493804932e-02,-1.789627969264984131e-02,-2.342762611806392670e-02,-2.751364186406135559e-02,-1.340307146310806274e-01,-1.937668770551681519e-01,4.445020854473114014e-02,-7.137671113014221191e-02,-8.912499994039535522e-02,-1.051174253225326538e-01,6.553251296281814575e-02,-4.799129441380500793e-02,-1.710723526775836945e-02,1.793970316648483276e-01,2.603077292442321777e-01,1.314895898103713989e-01,-1.436340343207120895e-02,-5.252245068550109863e-02,6.525659561157226562e-02,-3.556951414793729782e-03,4.820379242300987244e-02,-3.096394613385200500e-02,-8.532370626926422119e-02,-6.914638727903366089e-02,4.228527843952178955e-02,4.163683392107486725e-03,-7.472751662135124207e-03,-2.899631485342979431e-02,-9.311471134424209595e-02,6.444668024778366089e-02,4.202669858932495117e-02,-6.956825405359268188e-02,4.418957233428955078e-02,1.360427122563123703e-02,2.093269675970077515e-02,-4.354301095008850098e-02,3.717870637774467468e-02,3.340194001793861389e-02,9.048257023096084595e-02,2.141138352453708649e-02,-2.195138111710548401e-02,-7.515312731266021729e-02,-1.328855752944946289e-01,1.175309121608734131e-01,-9.277499280869960785e-03,-3.118138201534748077e-02,-7.195767480880022049e-03,-1.499307453632354736e-01,1.060569584369659424e-01,4.388858750462532043e-02,-1.813101209700107574e-02,1.165779121220111847e-02,8.291504532098770142e-02,-5.227165669202804565e-02,-3.574267774820327759e-02,3.319660574197769165e-02,1.219406491145491600e-03,5.308434739708900452e-02,6.586179882287979126e-02,8.037545531988143921e-02,1.445398032665252686e-01,8.795332908630371094e-02,3.149506822228431702e-02,-5.073048919439315796e-02,2.364789508283138275e-02,7.257895171642303467e-02,1.820285618305206299e-01,1.506582498550415039e-01,-2.819190174341201782e-02,-6.017392501235008240e-02,-7.602830976247787476e-02,-1.235745102167129517e-02,1.737552881240844727e-02,-1.247244030237197876e-01,-9.076446294784545898e-03,-2.855327911674976349e-02,3.206700831651687622e-02,5.192304030060768127e-02,8.167236298322677612e-02,-4.824268072843551636e-02,-7.612147368490695953e-03,6.343024969100952148e-02,3.425816074013710022e-02,3.527043759822845459e-02,3.993406891822814941e-02,6.601530313491821289e-02,1.006724499166011810e-02,1.182031482458114624e-01,5.036294832825660706e-02,2.461854740977287292e-02,4.367876425385475159e-02,-7.183637470006942749e-02,-1.395233124494552612e-01,1.040925681591033936e-01,6.642572581768035889e-02,-1.358606759458780289e-02,-5.591629073023796082e-02,-1.071075499057769775e-01,-6.141211092472076416e-02,8.264788985252380371e-02,-5.413111299276351929e-02,-7.264954503625631332e-03,-6.906587630510330200e-02,-5.844824481755495071e-03,3.456406295299530029e-02,8.251072838902473450e-03,7.629690319299697876e-02,-8.207290433347225189e-03,3.714670613408088684e-02,9.245747327804565430e-02,4.827133566141128540e-02,1.103762909770011902e-01,1.296375989913940430e-01,7.744546979665756226e-02,5.825230851769447327e-02,-6.332416087388992310e-04,-1.027330458164215088e-01,7.878718897700309753e-04,1.088640168309211731e-01,1.617662757635116577e-01,7.143401354551315308e-02,-1.175595000386238098e-01,-5.698706954717636108e-02,5.165788903832435608e-02,7.110020518302917480e-02,5.563630908727645874e-02,-1.593600511550903320e-01,-1.894592680037021637e-02,-3.425222262740135193e-02,-1.792791532352566719e-03,1.316861063241958618e-01,7.224782556295394897e-02,1.054724492132663727e-02,-3.394746035337448120e-02,1.485762372612953186e-02,-3.233064780943095684e-04,-9.086593240499496460e-02,4.704127833247184753e-02,-1.247489359229803085e-03,-2.339264564216136932e-02,8.540594577789306641e-02,-3.733630850911140442e-02,-8.430003374814987183e-02,-6.898236274719238281e-02,-9.798417799174785614e-03,2.810331620275974274e-02,8.781381882727146149e-03,9.281846135854721069e-02,2.122188359498977661e-02,1.190534210763871670e-03,-5.855311080813407898e-02,-5.495587736368179321e-02,1.437949687242507935e-01,-1.953488215804100037e-02,3.263211622834205627e-02,4.081171005964279175e-03,-7.226074580103158951e-03,9.664078243076801300e-03,2.247499302029609680e-03,8.054550737142562866e-02,-3.555351868271827698e-02,-9.563311934471130371e-03,4.760707542300224304e-02,-5.171137396246194839e-03,3.745404630899429321e-02,1.703194528818130493e-02,1.093966960906982422e-01,1.083526536822319031e-01,2.094705402851104736e-02,-2.617751806974411011e-02,6.148331612348556519e-02,2.746297232806682587e-02,-9.470070898532867432e-02,4.667311906814575195e-02,1.242523044347763062e-01,-2.607068978250026703e-02,-1.380755007266998291e-01,-9.640952944755554199e-02,-2.932458370923995972e-02,4.640251770615577698e-02,4.124367982149124146e-02,-3.159661591053009033e-02,-3.403564915060997009e-02,1.397713087499141693e-02,-3.706779330968856812e-03,-1.497583929449319839e-02,4.686132445931434631e-02,1.179134473204612732e-03,-6.694658100605010986e-02,3.345165168866515160e-03,1.152347493916749954e-02,-3.188948705792427063e-02,-8.823823183774948120e-02,-5.096398293972015381e-02,-2.094686590135097504e-02,-4.748636111617088318e-02,8.452436327934265137e-02,4.729610309004783630e-02,1.254035532474517822e-01,-2.298600412905216217e-02,-7.527128607034683228e-02,1.334175765514373779e-01,1.462205052375793457e-01,1.320665925741195679e-01,3.081905096769332886e-02,9.835356473922729492e-02,2.895748801529407501e-02,1.043210178613662720e-02,5.353840440511703491e-02,1.106492057442665100e-01,7.182236015796661377e-02,1.978828385472297668e-02,-8.511241525411605835e-02,1.811073720455169678e-01,1.088019162416458130e-01,-1.673945970833301544e-02,-9.746913611888885498e-02,-8.375336416065692902e-03,-8.410692214965820312e-02,-1.545077413320541382e-01,-5.790374428033828735e-02,-1.145223248749971390e-02,-7.615780457854270935e-03,-7.560997456312179565e-02,-5.831000581383705139e-02,4.260470718145370483e-02,4.081876203417778015e-02,1.042593717575073242e-01,9.843379259109497070e-02,1.942596584558486938e-02,1.207911893725395203e-01,7.331824302673339844e-02,3.041058033704757690e-02,1.677072234451770782e-02,-2.712342888116836548e-02,1.808046549558639526e-02,6.467970553785562515e-03,-2.473033033311367035e-02,-1.889182999730110168e-02,-3.168730763718485832e-03,-4.193317145109176636e-02,-5.750305950641632080e-03,-5.109469965100288391e-02,-5.213941633701324463e-02,-5.239924043416976929e-02,-4.582504183053970337e-02,-5.521630868315696716e-02,-5.045872554183006287e-02,7.474773097783327103e-03,-3.566522896289825439e-02,4.389313608407974243e-02,-5.473742261528968811e-03,3.222464770078659058e-02,1.350695937871932983e-01,1.411280100001022220e-04,-7.088588923215866089e-02,3.456055745482444763e-02,6.400974839925765991e-02,1.074689552187919617e-01,6.865002959966659546e-02,1.742911338806152344e-02,4.120784997940063477e-02,-2.635396644473075867e-02,6.340195541270077229e-04,4.780722316354513168e-03,1.117219123989343643e-02,-1.413929555565118790e-02,-2.474311925470829010e-02,-7.333666086196899414e-03,1.722206920385360718e-02,3.420739248394966125e-02,-1.165794730186462402e-01,1.286439783871173859e-02,5.571279674768447876e-03,-7.665634620934724808e-03,-7.669654488563537598e-02,3.307192027568817139e-02,2.361399382352828979e-01,3.356554079800844193e-03,1.311390846967697144e-01,1.828082278370857239e-02,1.118331626057624817e-01,2.272281944751739502e-01,8.510921150445938110e-02,2.420430779457092285e-01,7.627213001251220703e-02,1.726905629038810730e-02,-6.985107064247131348e-02,2.114015631377696991e-03,-5.694301053881645203e-02,5.212133005261421204e-02,-4.311068728566169739e-02,2.979672327637672424e-02,-4.496238753199577332e-02,-9.704156778752803802e-03,7.368892431259155273e-02,-1.945187710225582123e-02,-6.070777401328086853e-02,-5.145506560802459717e-02,7.355367764830589294e-03,1.005762219429016113e-01,-1.179573964327573776e-02,-7.278798520565032959e-02,6.234715227037668228e-03,1.604327000677585602e-02,2.784265018999576569e-02,5.232142657041549683e-02,1.508138924837112427e-01,1.998564414680004120e-02,4.792138189077377319e-02,3.409878537058830261e-02,1.310904622077941895e-01,7.342996448278427124e-02,1.125808246433734894e-02,-6.700967904180288315e-03,4.916495643556118011e-03,-3.327381238341331482e-02,9.114282578229904175e-02,-5.571296811103820801e-02,-3.460634499788284302e-02,-2.694881986826658249e-04,1.860877685248851776e-02,3.834375739097595215e-02,1.257942430675029755e-02,-2.675315923988819122e-02,3.072794899344444275e-02,5.428199842572212219e-02,-8.199582248926162720e-02,-3.467744588851928711e-02,4.695454612374305725e-02,-2.733161859214305878e-02,-5.860080197453498840e-02,-8.984711021184921265e-02,3.004943393170833588e-02,3.909805789589881897e-02,1.115268841385841370e-01,3.463110327720642090e-02,1.007824391126632690e-01,2.781782858073711395e-02,-8.437738753855228424e-03,-6.757838279008865356e-02,-3.395649418234825134e-02,3.946416079998016357e-02,-7.533808052539825439e-02,-6.697618868201971054e-03,-6.017549708485603333e-02,-4.242918267846107483e-02,2.624808996915817261e-02,-5.468647181987762451e-02,1.560229714959859848e-02,2.146987011656165123e-03,2.690862631425261497e-03,-1.632511429488658905e-02,8.586389571428298950e-02,-1.617314480245113373e-02,1.609226688742637634e-02,-3.611842112150043249e-04,-9.961342811584472656e-02,7.464443892240524292e-02,-9.748677723109722137e-03,6.798025965690612793e-02,5.140967667102813721e-02,1.694702357053756714e-02,-5.035020783543586731e-02,-5.821214988827705383e-02,1.106021106243133545e-01,9.923527389764785767e-02,7.682581897825002670e-03,-1.070813238620758057e-01,-1.802544854581356049e-02,8.651699125766754150e-02,-5.997296050190925598e-02,-1.380883455276489258e-01,-9.458688646554946899e-02,-1.354267820715904236e-02,5.534981936216354370e-02,-1.221396625041961670e-01,-1.284513324499130249e-01,-4.938187077641487122e-02,-3.557172417640686035e-02,6.622723489999771118e-02,9.893281385302543640e-03,1.192209031432867050e-02,-6.359244883060455322e-02,-4.128269106149673462e-02,-1.851022802293300629e-02,2.769506350159645081e-02,9.995427727699279785e-02,4.307253658771514893e-02,1.349784433841705322e-01,1.780123412609100342e-01,1.199417933821678162e-02,4.972365126013755798e-02,3.629634156823158264e-02,-1.008382141590118408e-01,-5.580735951662063599e-02,6.226299703121185303e-02,2.719621546566486359e-02,9.099787473678588867e-02,-6.851480156183242798e-02,1.488733105361461639e-02,6.657937914133071899e-02,-2.756234817206859589e-02,-1.952980645000934601e-02,-1.504601091146469116e-01,-7.775270193815231323e-02,-5.624974891543388367e-02,-3.816222026944160461e-02,-3.964480385184288025e-02,-2.482581185176968575e-03,-7.396864145994186401e-02,5.605115368962287903e-02,6.284568458795547485e-02,4.707376286387443542e-02,5.108346045017242432e-02,1.044438034296035767e-01,1.216568797826766968e-01,1.344386488199234009e-01,4.174317792057991028e-02,-4.682752490043640137e-02,-4.018778353929519653e-02,-3.266039770096540451e-03,9.384581446647644043e-02,-2.171669341623783112e-02,-1.267965883016586304e-01,-2.228752523660659790e-02,9.871239215135574341e-02,-3.998399898409843445e-02,1.718244329094886780e-02,-9.015668183565139771e-03,-4.240548238158226013e-02,-5.270361527800559998e-02,-2.419422380626201630e-02,7.868060469627380371e-02,1.752403527498245239e-01,2.058820426464080811e-02,-5.292565375566482544e-02,4.638527706265449524e-02,-7.550788670778274536e-02,-7.684976607561111450e-02,-6.583635509014129639e-02,3.733073547482490540e-02,7.212372124195098877e-02,1.035980600863695145e-02,3.142032772302627563e-02,6.463841348886489868e-02,1.174739003181457520e-01,1.348507553339004517e-01,7.562042679637670517e-03,6.244714185595512390e-02,1.561207920312881470e-01,-1.692011021077632904e-02,-1.837239265441894531e-01,-2.290587127208709717e-02,-1.784936785697937012e-01,-2.630138583481311798e-02,-6.926929950714111328e-02,-2.077418193221092224e-02,5.734034255146980286e-02,5.885260179638862610e-02,3.760157525539398193e-02,3.158920258283615112e-02,-6.530240178108215332e-02,2.607563324272632599e-02,1.791466213762760162e-02,-3.769333241507411003e-03,-2.178262546658515930e-02,-1.272960007190704346e-01,-2.148475497961044312e-02,5.727678071707487106e-03,-3.121683374047279358e-02,-2.747309207916259766e-02,-1.264961510896682739e-01,-7.259989529848098755e-02,7.663102447986602783e-02,1.714334636926651001e-02,-3.650632873177528381e-02,3.374683856964111328e-02,8.444648236036300659e-02,6.882830709218978882e-02,1.806995645165443420e-02,-1.611896604299545288e-02,8.998173871077597141e-04,6.674347072839736938e-02,1.913869008421897888e-02,-4.903666209429502487e-03,-3.498580306768417358e-02,-1.250037997961044312e-01,4.068450257182121277e-02,6.353477947413921356e-03,-9.568800032138824463e-02,1.349162124097347260e-02,3.922358900308609009e-02,5.076597444713115692e-04,-3.900948911905288696e-02,-2.741537429392337799e-02,6.230351328849792480e-02,2.600964345037937164e-02,-4.495001211762428284e-02,-5.953174084424972534e-03,-3.485045395791530609e-03,-9.330748766660690308e-02,-6.829251348972320557e-02,7.345023751258850098e-02,-2.232881262898445129e-02,3.269941359758377075e-02,1.071026828140020370e-02,8.490819483995437622e-02,7.629422098398208618e-02,9.266046434640884399e-02,1.359502971172332764e-01,9.569138288497924805e-02,1.695255562663078308e-02,-2.728962153196334839e-02,-1.013997755944728851e-02,-1.203433331102132797e-02,-1.528411917388439178e-02,2.832489833235740662e-02,-1.588371954858303070e-02,7.173995673656463623e-02,3.964403644204139709e-02,8.517032861709594727e-02,3.930172324180603027e-02,5.842429772019386292e-02,1.267237775027751923e-02,-6.560701876878738403e-03,-3.567109256982803345e-02,1.584480553865432739e-01,3.336613252758979797e-02,5.548239499330520630e-02,-4.416020587086677551e-02,-1.234563253819942474e-02,6.784695386886596680e-02,7.537356019020080566e-02,9.749489277601242065e-02,8.472738415002822876e-02,4.390113428235054016e-02,-1.255986988544464111e-01,5.495314672589302063e-02,-1.616061665117740631e-02,-4.346774891018867493e-02,8.611710369586944580e-02,1.260221656411886215e-02,-1.113096773624420166e-01,-7.347305119037628174e-02,-2.095049247145652771e-03,-1.188692171126604080e-02,1.497327722609043121e-02,-6.396198272705078125e-02,-2.525114640593528748e-02,7.811141014099121094e-02,-4.020948708057403564e-02,-9.873398393392562866e-02,-3.792513534426689148e-02,-2.966655604541301727e-02,-4.251136258244514465e-02,-3.965290263295173645e-02,7.135680411010980606e-03,1.092375069856643677e-02,-1.497685909271240234e-02,-1.898998767137527466e-02,6.620319187641143799e-02,5.242727324366569519e-02,-4.252719879150390625e-02,-5.389092117547988892e-02,1.918341405689716339e-02,-3.915052860975265503e-02,-3.114848397672176361e-02,-2.638316713273525238e-02,-5.810400098562240601e-02,-8.273404091596603394e-02,-6.535902619361877441e-02,7.398137822747230530e-03,-7.407778501510620117e-02,-3.895669057965278625e-02,-7.380723953247070312e-03,1.464316993951797485e-02,-6.527666701003909111e-04,1.226967317052185535e-03,-9.394163265824317932e-03,-1.983162574470043182e-02,-1.976116746664047241e-02,2.009036391973495483e-02,-3.211655467748641968e-02,1.407930627465248108e-02,-5.679882317781448364e-02,-2.715229801833629608e-02,3.136729821562767029e-02,-9.088978171348571777e-03,1.839899225160479546e-03,-6.485529243946075439e-02,1.194550190120935440e-02,-8.262773975729942322e-03,-6.886196322739124298e-03,2.845365740358829498e-02,-7.805229723453521729e-02,-3.345965221524238586e-02,-4.978128895163536072e-02,-1.436795573681592941e-03,-2.316112164407968521e-03,-6.126959621906280518e-02,-5.467258021235466003e-02,-4.772276058793067932e-02,-5.939496681094169617e-02,-9.863834083080291748e-02,-2.817058190703392029e-02,-5.715179070830345154e-02,1.884343847632408142e-02,2.759766206145286560e-02,-4.547222703695297241e-02,-2.888385951519012451e-02,3.163830190896987915e-02,-6.719646602869033813e-02,8.298072963953018188e-03,-2.287372574210166931e-02,-2.775176614522933960e-02,2.769085951149463654e-02,-4.958203434944152832e-02,-8.050830103456974030e-03,3.039216995239257812e-02,7.325726561248302460e-03,7.048901636153459549e-03,-3.442266723141074181e-03,8.115765638649463654e-03,-3.034247830510139465e-02,-5.857573822140693665e-02,2.852986566722393036e-02,-1.274837739765644073e-02,-2.154092118144035339e-02,-1.135779265314340591e-02,-1.891771447844803333e-03,1.748925261199474335e-02,-1.375179924070835114e-02,-2.270047180354595184e-02,-6.385078281164169312e-02,3.933289553970098495e-03,2.675497531890869141e-02,-2.213899046182632446e-03,-8.125610649585723877e-03,4.530588164925575256e-03,-7.322944700717926025e-02,-1.887072436511516571e-02,-3.865425288677215576e-02,-9.771772660315036774e-03,2.693809103220701218e-03,-3.130690380930900574e-02,-4.557545483112335205e-02,-1.596744358539581299e-02,-4.611102864146232605e-02,-9.780074469745159149e-03,-7.476802170276641846e-02,-6.507406383752822876e-02,8.492806926369667053e-03,4.029295593500137329e-02,2.965669380500912666e-03,-6.258890777826309204e-02,-4.689815267920494080e-02,-2.307257242500782013e-02,2.272671833634376526e-02,3.163485554978251457e-03,-1.403406448662281036e-02,2.159934304654598236e-02,2.192491106688976288e-02,-6.655307859182357788e-02,-6.485131382942199707e-02,-3.564553335309028625e-02,5.705147515982389450e-03,2.028938569128513336e-02,6.095083430409431458e-03,1.403326168656349182e-02,-4.161250963807106018e-02,-1.631557941436767578e-02,-3.858637064695358276e-02,-3.464975208044052124e-02,-4.277107864618301392e-02,2.813741192221641541e-02,