typedef float data_t;

typedef struct twoD
{
	uint32_t r;
	uint32_t c;
	uint32_t in_channel;
	uint32_t channel;
	data_t *data;
	data_t *bias;
} twoD_t;

const data_t w_0_weight[2400]={4.317078739404678345e-02,-1.144383773207664490e-01,-6.572685390710830688e-02,1.640912294387817383e-01,-5.289537087082862854e-02,-6.593547295778989792e-03,1.195927038788795471e-01,-3.069395013153553009e-02,1.322041638195514679e-02,-9.739867597818374634e-02,9.080766886472702026e-02,8.998939394950866699e-02,5.595312640070915222e-02,-3.915904089808464050e-03,-1.722304970026016235e-01,6.638064980506896973e-02,1.993017345666885376e-01,1.093195471912622452e-02,-1.364458799362182617e-01,-1.478996723890304565e-01,1.401089727878570557e-01,4.998447373509407043e-02,2.343919686973094940e-02,-2.133194208145141602e-01,-9.176321327686309814e-02,-8.171202987432479858e-02,1.731757074594497681e-02,4.333523102104663849e-03,6.096849963068962097e-02,-1.581164542585611343e-03,-8.078105747699737549e-03,1.183578372001647949e-01,-2.501450851559638977e-02,-1.594080328941345215e-01,-6.754560023546218872e-02,8.384949713945388794e-02,1.880041211843490601e-01,-6.758899986743927002e-02,-5.027445778250694275e-02,-8.414063602685928345e-02,5.388960614800453186e-02,2.603673748672008514e-02,3.139321506023406982e-02,-8.988284319639205933e-02,-2.050253748893737793e-02,-3.832271695137023926e-02,3.284324705600738525e-02,1.566864736378192902e-02,-2.055385708808898926e-02,5.690930038690567017e-02,5.947742611169815063e-03,5.396599695086479187e-02,-1.522759795188903809e-01,-2.676736749708652496e-02,6.700142472982406616e-02,2.083218395709991455e-01,2.691915072500705719e-02,-2.669981122016906738e-02,-2.096350938081741333e-01,-7.460809499025344849e-02,6.522299349308013916e-02,2.055284678936004639e-01,1.816089078783988953e-02,-1.956147104501724243e-01,-1.591292172670364380e-01,1.612107604742050171e-01,2.558378502726554871e-02,3.630854189395904541e-02,-4.997882246971130371e-02,-5.954165011644363403e-02,1.211190000176429749e-01,1.559991389513015747e-01,-3.129751980304718018e-02,-1.861883848905563354e-01,-2.928315289318561554e-02,3.585472702980041504e-02,-6.867542862892150879e-02,-8.206521719694137573e-02,1.432868242263793945e-01,-6.751236319541931152e-02,-3.649220988154411316e-02,-2.972915768623352051e-01,-2.810649275779724121e-01,-2.196080088615417480e-01,-1.674717366695404053e-01,1.015499979257583618e-01,3.105726838111877441e-01,1.592799127101898193e-01,8.378665894269943237e-02,-2.854500897228717804e-03,-6.404104083776473999e-02,8.737983554601669312e-02,-3.561712801456451416e-02,8.304180204868316650e-02,1.035009399056434631e-01,-3.834449872374534607e-02,1.043361350893974304e-01,7.520245015621185303e-02,-3.371236845850944519e-02,8.205927908420562744e-02,4.418906196951866150e-02,-5.112136155366897583e-02,-2.995941415429115295e-02,2.098578810691833496e-01,8.858931064605712891e-02,-9.383720159530639648e-02,-1.634342130273580551e-03,-1.017371788620948792e-01,-1.282025277614593506e-01,-8.475259691476821899e-02,3.737353533506393433e-02,1.826043576002120972e-01,2.131060808897018433e-01,-2.058782987296581268e-02,-3.297968208789825439e-02,-1.758903861045837402e-01,-3.711828589439392090e-02,-1.164038851857185364e-01,7.948945462703704834e-02,1.217327788472175598e-01,-1.470002830028533936e-01,-6.556315347552299500e-03,-1.484143547713756561e-02,-1.663526445627212524e-01,9.258119761943817139e-02,3.734514862298965454e-02,-3.083309158682823181e-02,-6.705857813358306885e-02,5.054734274744987488e-02,-1.392230242490768433e-01,-5.565109848976135254e-02,-1.579166799783706665e-01,-2.069788724184036255e-01,-2.568953931331634521e-01,-2.138662636280059814e-01,7.431228458881378174e-02,2.549609243869781494e-01,1.934891790151596069e-01,1.627929210662841797e-01,2.708561718463897705e-02,-3.022356145083904266e-02,-2.276843413710594177e-02,-3.901937976479530334e-02,7.842329144477844238e-02,-9.606960229575634003e-03,3.737879917025566101e-02,1.035160645842552185e-01,4.967699944972991943e-02,-4.239827394485473633e-02,1.883680224418640137e-01,2.483347207307815552e-01,9.666752815246582031e-02,-3.004072792828083038e-02,-1.985015422105789185e-01,1.078869495540857315e-02,1.072084829211235046e-01,7.967153191566467285e-02,-9.401892870664596558e-02,-6.166800856590270996e-02,-2.018814235925674438e-01,-1.217638775706291199e-01,1.156131103634834290e-01,6.332857161760330200e-02,1.142301931977272034e-01,-4.858115687966346741e-02,-6.640677899122238159e-02,2.244108170270919800e-02,2.579745650291442871e-02,-5.713469535112380981e-02,6.420222669839859009e-02,3.313911613076925278e-03,6.278090178966522217e-03,-1.654916107654571533e-01,-1.415651384741067886e-02,1.930300146341323853e-02,1.640509366989135742e-01,1.275389790534973145e-01,-7.736983150243759155e-02,-3.722393885254859924e-02,-3.405741602182388306e-02,-7.274300605058670044e-02,3.999334946274757385e-02,7.391674071550369263e-02,-2.071929536759853363e-02,-3.891300037503242493e-02,-9.157723188400268555e-02,-1.345150768756866455e-01,7.084340602159500122e-02,5.192046612501144409e-02,-4.382672160863876343e-02,-2.108172327280044556e-01,-4.252869635820388794e-02,5.056554079055786133e-02,2.258635163307189941e-01,6.655216217041015625e-02,-5.053190141916275024e-02,-9.687351435422897339e-02,-2.119294181466102600e-02,-9.883210062980651855e-02,9.651903063058853149e-02,8.862460404634475708e-02,1.336602568626403809e-01,-6.467738747596740723e-02,-2.145676910877227783e-01,-2.131754904985427856e-01,3.504924010485410690e-03,4.523884505033493042e-02,1.479415595531463623e-01,6.553151458501815796e-02,-4.037738591432571411e-02,-5.002604424953460693e-02,2.724482445046305656e-03,1.064626574516296387e-01,1.622260063886642456e-01,8.976255357265472412e-02,-1.998509019613265991e-01,-1.992438882589340210e-01,2.234078384935855865e-02,1.793925315141677856e-01,1.336174309253692627e-01,-5.445913225412368774e-02,-1.114850789308547974e-01,-1.714490205049514771e-01,1.228619087487459183e-02,1.376473307609558105e-01,-1.016795411705970764e-01,-1.591997146606445312e-01,2.773341834545135498e-01,8.022059500217437744e-02,-1.920862644910812378e-01,6.208404153585433960e-02,-3.258519768714904785e-01,-1.883571445941925049e-01,2.457183003425598145e-01,1.473330855369567871e-01,2.057145386934280396e-01,9.697144478559494019e-02,-5.206930637359619141e-01,-4.193149507045745850e-01,3.138610720634460449e-02,-2.570481412112712860e-02,3.824875950813293457e-01,3.281225562095642090e-01,-8.719993382692337036e-02,-9.515999257564544678e-02,-1.702767983078956604e-02,-7.833976298570632935e-02,1.175850704312324524e-01,8.994796127080917358e-02,1.184796690940856934e-01,-3.600317612290382385e-02,-6.473764777183532715e-02,2.069281786680221558e-01,1.305735558271408081e-01,-2.072171568870544434e-01,4.501033574342727661e-02,-3.222259879112243652e-01,-2.195429950952529907e-01,4.009240567684173584e-01,1.890917867422103882e-01,2.113617211580276489e-01,9.434686601161956787e-02,-4.319107830524444580e-01,-3.572605550289154053e-01,-5.736662447452545166e-02,-2.131895534694194794e-02,4.017420709133148193e-01,1.736161708831787109e-01,1.602813415229320526e-02,9.323620051145553589e-02,-1.591481119394302368e-01,-1.669155210256576538e-01,2.122866809368133545e-01,-2.107670530676841736e-03,-1.007258370518684387e-01,7.617439329624176025e-02,6.032372638583183289e-02,2.609082758426666260e-01,-5.424110591411590576e-02,-2.958020754158496857e-02,-7.682408392429351807e-02,-1.472716927528381348e-01,-6.693993508815765381e-02,3.142882883548736572e-01,2.345653325319290161e-01,6.810033321380615234e-02,-7.116468995809555054e-02,-2.656408846378326416e-01,-2.114538401365280151e-01,-3.717489540576934814e-02,-8.688876032829284668e-02,2.529234886169433594e-01,1.453348696231842041e-01,-9.861612319946289062e-02,1.144855841994285583e-02,-7.801752537488937378e-02,-1.202762573957443237e-01,-6.600109487771987915e-02,5.160956084728240967e-02,-6.586961448192596436e-02,-8.109956979751586914e-02,2.982533350586891174e-02,2.489926218986511230e-01,2.405240237712860107e-01,-4.753313586115837097e-02,-1.349405944347381592e-01,-4.361570626497268677e-02,1.167866140604019165e-01,2.115006446838378906e-01,-2.728829681873321533e-01,-6.433221697807312012e-02,-3.954412415623664856e-02,2.042092233896255493e-01,-2.913190424442291260e-02,-2.586232721805572510e-01,-3.665405511856079102e-02,-4.705609381198883057e-02,2.021871209144592285e-01,8.479533717036247253e-03,-2.287123650312423706e-01,7.413590699434280396e-02,-4.174198955297470093e-02,2.462710887193679810e-01,-3.178464621305465698e-02,-9.569748491048812866e-02,6.257862597703933716e-02,1.153708174824714661e-01,1.272386312484741211e-01,2.871509790420532227e-01,-7.659873366355895996e-02,5.755124986171722412e-02,2.120824158191680908e-02,1.667949259281158447e-01,-6.680252403020858765e-02,-1.940373778343200684e-01,6.553360819816589355e-02,-2.109746485948562622e-01,8.394228667020797729e-02,8.765094913542270660e-03,-2.318351119756698608e-01,-6.642284989356994629e-02,-2.279496341943740845e-01,7.237796485424041748e-02,-1.699541360139846802e-01,-5.819440633058547974e-02,2.965056523680686951e-02,2.417477034032344818e-02,7.965817302465438843e-02,-3.465936332941055298e-02,-4.290124773979187012e-02,-2.031939569860696793e-03,-3.062388114631175995e-02,-3.498223796486854553e-02,2.346618101000785828e-03,1.635670065879821777e-01,2.076670899987220764e-02,-1.442437171936035156e-01,2.764348126947879791e-02,-1.927961409091949463e-02,-1.576093956828117371e-02,-1.666814982891082764e-01,-6.761006265878677368e-02,1.211014240980148315e-01,-8.550312370061874390e-02,-2.831186726689338684e-02,-3.617641777964308858e-05,-6.796781718730926514e-02,1.113084256649017334e-01,-8.646575361490249634e-02,1.961385458707809448e-01,-8.568432182073593140e-02,-4.004848003387451172e-02,1.938584744930267334e-01,-1.267826557159423828e-02,1.208877563476562500e-01,4.370041564106941223e-02,-8.672468364238739014e-02,-4.569773003458976746e-02,-1.498328521847724915e-03,1.635292619466781616e-01,1.031088549643754959e-02,6.785583216696977615e-03,5.545070394873619080e-02,1.167679056525230408e-01,1.447027362883090973e-02,3.401284292340278625e-02,9.357377141714096069e-02,-2.932661212980747223e-02,8.377272635698318481e-02,6.969273090362548828e-02,5.813623964786529541e-02,-3.009752603247761726e-03,9.767811745405197144e-02,7.673059403896331787e-02,-1.224737893790006638e-02,-1.483760327100753784e-01,3.342820703983306885e-02,-3.825222700834274292e-02,8.609717339277267456e-02,1.271591782569885254e-01,8.842534385621547699e-03,5.313507840037345886e-02,-4.098778124898672104e-03,3.230658173561096191e-02,-2.960617654025554657e-02,4.154923558235168457e-02,1.274217367172241211e-01,1.507912725210189819e-01,1.088592186570167542e-01,8.906929939985275269e-02,2.172472514212131500e-02,4.868074133992195129e-02,2.499766275286674500e-02,-1.159138903021812439e-01,-9.990344196557998657e-02,1.628527231514453888e-02,1.179275587201118469e-01,-5.484610795974731445e-02,-3.973029926419258118e-02,-7.731641083955764771e-02,7.043001800775527954e-02,-8.494077622890472412e-02,7.793200761079788208e-02,3.448961675167083740e-02,-6.055266596376895905e-03,-5.805319175124168396e-02,-1.639448255300521851e-01,-1.212575510144233704e-01,6.137294694781303406e-03,1.209190264344215393e-01,1.519877761602401733e-01,3.651835396885871887e-02,5.412107706069946289e-02,-3.604616597294807434e-02,1.618086248636245728e-01,-7.953312247991561890e-03,-1.814377903938293457e-01,3.634039312601089478e-02,-2.150341272354125977e-01,-1.869059950113296509e-01,-3.099092841148376465e-02,6.823264062404632568e-02,-9.309364110231399536e-02,-7.231270521879196167e-02,-1.983067393302917480e-01,9.601997584104537964e-02,-2.468486875295639038e-02,5.663388222455978394e-02,8.786445111036300659e-02,-4.975074902176856995e-02,-6.068639829754829407e-02,-8.588875830173492432e-02,-7.432550936937332153e-02,1.342600435018539429e-01,3.782849386334419250e-02,8.487226814031600952e-02,-7.080619689077138901e-04,-1.488966792821884155e-01,-1.908499747514724731e-01,2.107892781496047974e-01,5.911757424473762512e-02,1.112072393298149109e-01,8.215125650167465210e-02,-2.108612507581710815e-01,-1.094926223158836365e-01,2.240895107388496399e-02,-3.377537243068218231e-03,1.242393702268600464e-01,-9.589525312185287476e-02,-9.299635142087936401e-02,-1.100659891963005066e-01,4.583714995533227921e-03,1.381495594978332520e-01,1.392238140106201172e-01,3.259363118559122086e-03,1.121603175997734070e-01,-1.660597324371337891e-01,-7.517702132463455200e-02,2.253895252943038940e-01,1.232164446264505386e-02,-2.194727212190628052e-02,-3.422837238758802414e-03,-2.008243352174758911e-01,-1.453706920146942139e-01,3.950287774205207825e-02,1.151057034730911255e-01,1.735847741365432739e-01,7.927362620830535889e-02,-2.648833096027374268e-01,3.782700374722480774e-02,-1.365351211279630661e-02,4.023123905062675476e-02,1.317019760608673096e-01,-1.437750309705734253e-01,-5.995942279696464539e-02,1.017834767699241638e-01,-9.439587593078613281e-02,1.344458460807800293e-01,4.743382707238197327e-02,-1.129753440618515015e-01,-5.349111184477806091e-02,-9.897893667221069336e-02,-1.396003961563110352e-01,2.324915081262588501e-01,6.390536576509475708e-02,9.726605564355850220e-02,1.859940961003303528e-02,-1.787515431642532349e-01,-7.973652333021163940e-02,6.917276978492736816e-02,-1.105002239346504211e-01,-5.412562750279903412e-04,1.169705167412757874e-01,-9.142453223466873169e-02,6.412431597709655762e-02,-8.907047659158706665e-02,-6.104554049670696259e-03,1.330393254756927490e-01,-8.210375159978866577e-02,2.156912814825773239e-03,6.217354536056518555e-02,-7.759905606508255005e-02,1.850320398807525635e-01,-2.109456248581409454e-02,-1.314557194709777832e-01,1.314982622861862183e-01,1.583161503076553345e-01,2.116060443222522736e-02,-7.188125699758529663e-02,9.030843526124954224e-02,1.469232589006423950e-01,-1.063798181712627411e-02,1.259597539901733398e-01,7.488726824522018433e-02,-1.372450888156890869e-01,2.031650990247726440e-01,1.363873183727264404e-01,-7.094581425189971924e-02,-3.317462280392646790e-02,-1.254576742649078369e-01,1.803578808903694153e-02,3.442590683698654175e-02,2.579266764223575592e-02,-2.093274444341659546e-01,-1.086716055870056152e-01,-4.147800058126449585e-02,1.054540053009986877e-01,2.960730902850627899e-02,-9.612471610307693481e-02,-1.040343120694160461e-01,-1.834433376789093018e-01,-1.126863062381744385e-01,-9.794811159372329712e-02,4.836503416299819946e-02,5.929153785109519958e-02,-1.563499718904495239e-01,6.263030692934989929e-03,-9.396924078464508057e-02,3.208312019705772400e-02,1.942347437143325806e-01,-1.290377258555963635e-04,-1.239237096160650253e-02,-9.336876869201660156e-02,5.954227969050407410e-02,1.634021252393722534e-01,-1.363907903432846069e-01,-8.043798059225082397e-02,3.377952426671981812e-02,1.419484429061412811e-02,1.258392352610826492e-02,-1.389113068580627441e-01,-5.265217274427413940e-02,5.304248631000518799e-02,7.500053197145462036e-02,1.297792643308639526e-01,-7.249608635902404785e-02,-2.153063565492630005e-01,-1.642064452171325684e-01,-6.323558092117309570e-02,1.757900267839431763e-01,-2.052733898162841797e-01,-2.073275744915008545e-01,-1.133320257067680359e-01,4.238830506801605225e-02,2.972949743270874023e-01,-2.456144690513610840e-01,-1.389860212802886963e-01,9.903240948915481567e-02,2.101005166769027710e-01,1.096047013998031616e-01,-1.975728869438171387e-01,-1.659384667873382568e-01,1.096319779753684998e-01,9.302452206611633301e-02,2.129331380128860474e-01,5.720445420593023300e-03,4.379690811038017273e-02,2.163082361221313477e-01,4.285597242414951324e-03,1.844126358628273010e-02,1.496661305427551270e-01,7.107798010110855103e-02,-1.063242629170417786e-01,-7.504519820213317871e-02,-8.081971853971481323e-02,1.086822822690010071e-01,1.680798456072807312e-02,-1.208634823560714722e-01,4.340906161814928055e-03,-1.206485033035278320e-01,7.445929944515228271e-02,-1.607708632946014404e-01,-1.965883076190948486e-01,-2.425601184368133545e-01,-6.612671911716461182e-02,2.515951693058013916e-01,-2.008163370192050934e-02,-1.920187920331954956e-01,-7.594534009695053101e-02,3.200024366378784180e-02,4.144169762730598450e-02,-2.266614735126495361e-01,-1.308764964342117310e-01,-9.781895577907562256e-02,-3.592284768819808960e-02,1.515754871070384979e-02,-6.455446779727935791e-02,-1.002202183008193970e-01,-9.195021353662014008e-03,-3.856588155031204224e-02,1.447034329175949097e-01,7.113935053348541260e-02,1.066468283534049988e-01,-6.946285814046859741e-02,3.234405815601348877e-02,4.789789393544197083e-02,-2.266791649162769318e-03,-1.076172478497028351e-02,3.742833063006401062e-02,3.401294350624084473e-02,6.836070865392684937e-02,-8.445604890584945679e-02,1.553694605827331543e-01,-2.328161150217056274e-02,1.117712482810020447e-01,-1.568905450403690338e-02,-9.885788708925247192e-02,1.190323829650878906e-01,5.531252175569534302e-02,5.353742279112339020e-03,-2.590805888175964355e-01,-1.832053959369659424e-01,2.522625774145126343e-02,-5.005126073956489563e-02,3.056679293513298035e-02,-1.741143912076950073e-01,-4.443365335464477539e-02,-1.000746339559555054e-01,1.103726997971534729e-01,-5.300901085138320923e-02,-2.808486577123403549e-03,-6.410690397024154663e-02,8.687757700681686401e-02,1.183472871780395508e-01,1.136889085173606873e-01,-9.261137247085571289e-02,-3.935674950480461121e-02,2.087894529104232788e-01,1.791113764047622681e-01,-2.632180415093898773e-02,2.210247330367565155e-02,-1.503656338900327682e-02,1.302841305732727051e-01,1.574192047119140625e-01,6.297860294580459595e-02,-2.672818303108215332e-01,-1.693314164876937866e-01,-3.340355753898620605e-01,-1.727892756462097168e-01,-1.557786613702774048e-01,-2.506956458091735840e-01,-1.225389689207077026e-01,-2.373476177453994751e-01,-4.748603329062461853e-02,-5.325231328606605530e-02,-1.636918634176254272e-01,1.438262686133384705e-02,1.672101393342018127e-02,-3.099026530981063843e-02,1.442556679248809814e-01,-1.764692924916744232e-02,2.558891475200653076e-01,2.642555832862854004e-01,2.778652906417846680e-01,2.708790302276611328e-01,1.149240061640739441e-01,1.924451440572738647e-01,1.423529386520385742e-01,2.259485274553298950e-01,2.295985668897628784e-01,8.779009431600570679e-02,2.178754508495330811e-01,1.359337866306304932e-01,5.657397210597991943e-02,4.110544547438621521e-02,-3.355457633733749390e-02,-7.723469287157058716e-02,1.011133310385048389e-03,-1.143528055399656296e-02,-1.329085379838943481e-01,-1.129357591271400452e-01,1.428056391887366772e-03,-7.257218658924102783e-02,-1.309100687503814697e-01,-8.734875917434692383e-02,-1.084242239594459534e-01,2.382194250822067261e-02,-1.240044161677360535e-01,8.502008020877838135e-02,9.209746494889259338e-03,-1.832847595214843750e-01,1.042216345667839050e-01,1.074298545718193054e-01,1.948629273101687431e-03,1.317557394504547119e-01,7.754363864660263062e-02,2.799940407276153564e-01,2.086095809936523438e-01,8.543466031551361084e-02,2.110548615455627441e-01,1.309556663036346436e-01,4.478722810745239258e-02,2.931553497910499573e-02,3.182284533977508545e-02,1.100088506937026978e-01,1.823146492242813110e-01,1.582473516464233398e-01,-3.460664302110671997e-02,1.913947239518165588e-02,-4.956536367535591125e-02,1.476577818393707275e-01,-2.841004543006420135e-02,-8.767565339803695679e-02,-1.544622480869293213e-01,-1.253999918699264526e-01,-8.963241428136825562e-02,-2.770672142505645752e-01,-2.795545458793640137e-01,-2.542299330234527588e-01,-3.323545455932617188e-01,6.467691063880920410e-02,1.119832228869199753e-02,1.003165245056152344e-01,4.839989915490150452e-02,-9.847882390022277832e-02,8.585182577371597290e-02,-7.992810755968093872e-02,3.761652391403913498e-03,2.989564277231693268e-02,-2.502723038196563721e-01,2.603544294834136963e-01,3.302502632141113281e-02,-1.517005860805511475e-01,4.555680230259895325e-02,-8.170879632234573364e-02,3.379354774951934814e-01,8.232253044843673706e-02,-3.529445528984069824e-01,-5.666750669479370117e-02,2.829925715923309326e-02,3.994734585285186768e-02,-4.258647188544273376e-02,-1.131844371557235718e-01,1.447356343269348145e-01,-1.054656654596328735e-01,-7.515090703964233398e-02,-4.667853191494941711e-02,-3.243872523307800293e-02,-4.031459614634513855e-02,1.052708327770233154e-01,1.595779508352279663e-01,-6.357166916131973267e-02,2.588104084134101868e-02,7.167757302522659302e-02,-2.896198444068431854e-02,1.093223467469215393e-01,-5.056239664554595947e-02,-2.796152234077453613e-01,-1.616049303265754133e-05,9.796633571386337280e-02,2.112044245004653931e-01,6.257959455251693726e-02,-3.544221818447113037e-01,-1.272929906845092773e-01,1.947764456272125244e-01,-4.700693115592002869e-02,4.011974483728408813e-02,4.681708291172981262e-03,6.185424048453569412e-03,2.752650529146194458e-02,-6.697662919759750366e-02,-8.551199734210968018e-02,9.390526264905929565e-02,-4.297840595245361328e-02,-1.241486370563507080e-01,3.722245746757835150e-04,4.678865894675254822e-02,-2.819383703172206879e-02,1.387606840580701828e-02,1.216334849596023560e-01,-2.587984316051006317e-02,-8.479040698148310184e-04,-2.523448318243026733e-02,4.622653871774673462e-02,1.104010641574859619e-01,1.126453876495361328e-01,-8.207142353057861328e-03,-2.214068174362182617e-01,-9.211756289005279541e-02,7.640337944030761719e-02,5.003421381115913391e-02,-5.456485599279403687e-02,4.269387573003768921e-02,2.858188375830650330e-02,-5.707819014787673950e-02,1.073548346757888794e-01,4.482712969183921814e-02,6.469139456748962402e-02,1.091938391327857971e-01,-1.063662841916084290e-01,5.197423323988914490e-02,-5.993349850177764893e-02,9.234721958637237549e-02,2.009687870740890503e-01,1.050291000865399837e-03,-6.460254639387130737e-02,1.646891534328460693e-01,1.538913995027542114e-01,-6.577130407094955444e-02,1.037388220429420471e-01,2.408609353005886078e-02,-6.776717305183410645e-02,1.668002158403396606e-01,2.017923071980476379e-02,1.367802023887634277e-01,1.976480484008789062e-01,-1.268710792064666748e-01,-1.693311519920825958e-02,1.685027778148651123e-01,6.892985105514526367e-02,-1.916510760784149170e-01,-2.131399214267730713e-01,1.222065929323434830e-02,-4.713350161910057068e-02,-2.368924207985401154e-02,-4.661846905946731567e-02,-9.385033696889877319e-02,-7.178161293268203735e-02,-2.817928418517112732e-02,-3.406631946563720703e-02,-1.044761016964912415e-01,-2.382590249180793762e-02,-5.347345024347305298e-02,-2.103197723627090454e-01,6.812685728073120117e-02,-1.773111522197723389e-01,-1.982582733035087585e-02,1.240746825933456421e-01,-3.847427293658256531e-02,9.576635062694549561e-02,1.256662905216217041e-01,-1.619083285331726074e-01,-4.883493110537528992e-02,5.096874013543128967e-02,1.141475737094879150e-01,1.353824287652969360e-01,-6.472135335206985474e-02,1.288534104824066162e-01,9.167763590812683105e-02,-1.000123769044876099e-01,2.458694949746131897e-02,-1.198513340204954147e-02,4.905742779374122620e-02,1.153014749288558960e-01,-6.222161650657653809e-02,-1.310750693082809448e-01,9.202407300472259521e-02,-1.184892654418945312e-01,-3.112056851387023926e-02,-6.719745695590972900e-02,1.230601407587528229e-02,-6.017943099141120911e-02,7.387126982212066650e-02,-1.130913868546485901e-01,-5.269254744052886963e-02,1.443375498056411743e-01,-1.793265938758850098e-01,-1.629634052515029907e-01,5.111986771225929260e-02,-4.334421083331108093e-02,-1.798899322748184204e-01,-2.379373610019683838e-01,-1.853212863206863403e-01,-2.700869441032409668e-01,-1.596015244722366333e-01,1.261944472789764404e-01,3.843429684638977051e-02,-4.641842097043991089e-02,-2.704012766480445862e-02,-1.337088197469711304e-01,3.538663089275360107e-01,4.500925242900848389e-01,3.396191895008087158e-01,8.386997133493423462e-02,1.758782118558883667e-01,3.056034147739410400e-01,2.807963192462921143e-01,1.352218985557556152e-01,2.351938001811504364e-02,1.025550067424774170e-01,7.017080485820770264e-02,3.311962354928255081e-03,-1.784374713897705078e-01,-1.953651756048202515e-01,-2.428433150053024292e-01,2.304725199937820435e-01,1.325426399707794189e-01,4.951574653387069702e-02,1.141687929630279541e-01,2.213441729545593262e-01,-4.635837674140930176e-02,-4.002546519041061401e-02,7.028122991323471069e-02,1.709546335041522980e-02,6.693537533283233643e-02,-1.749547123908996582e-01,-3.136180937290191650e-01,-2.419079840183258057e-01,-4.860954731702804565e-02,-1.897304356098175049e-01,-3.192792236804962158e-01,-2.710896730422973633e-01,-1.525812596082687378e-01,-6.762083619832992554e-02,-8.518502116203308105e-02,-4.072500020265579224e-02,-1.050518602132797241e-01,-6.158022955060005188e-02,8.060235530138015747e-02,6.828260421752929688e-02,8.232466876506805420e-02,1.791005730628967285e-01,1.315293163061141968e-01,1.428511142730712891e-01,-3.662988543510437012e-02,-1.464799344539642334e-01,-2.326152846217155457e-02,-2.312142960727214813e-02,-3.145758435130119324e-02,9.759885072708129883e-02,-2.568905055522918701e-01,-2.368540465831756592e-01,-1.657900810241699219e-01,-3.814820200204849243e-02,-6.357935816049575806e-02,-7.665725797414779663e-02,-8.123350888490676880e-02,-1.878133229911327362e-02,3.076152876019477844e-02,3.991725668311119080e-02,1.555767841637134552e-02,1.256479173898696899e-01,2.427192479372024536e-01,2.051214873790740967e-01,1.749945878982543945e-01,1.482081413269042969e-01,-1.035255417227745056e-01,-3.737193048000335693e-01,1.268898099660873413e-01,3.093003034591674805e-01,1.621134430170059204e-01,-5.611925572156906128e-02,-3.717034459114074707e-01,-1.475733816623687744e-01,2.609542012214660645e-01,2.269955426454544067e-01,8.447356522083282471e-02,-2.013190537691116333e-01,-2.844905853271484375e-01,-3.815374150872230530e-02,7.194756716489791870e-02,1.387262493371963501e-01,-4.541621729731559753e-02,-1.527989655733108521e-01,1.288058012723922729e-01,1.398100554943084717e-01,6.055100634694099426e-02,8.867873251438140869e-02,-2.915754169225692749e-02,-8.550116419792175293e-02,8.776865899562835693e-02,-2.838185243308544159e-02,-2.878274023532867432e-01,-1.352249234914779663e-01,1.913090348243713379e-01,1.816154718399047852e-01,2.000777423381805420e-01,-2.481815814971923828e-01,-1.965868473052978516e-01,7.536669820547103882e-02,1.610914915800094604e-01,1.303543895483016968e-01,2.345852553844451904e-02,-1.770772635936737061e-01,5.523690208792686462e-02,-1.175923943519592285e-01,8.505584299564361572e-02,8.876115083694458008e-02,-7.620174437761306763e-02,4.387060180306434631e-02,-5.923070386052131653e-02,-1.204623095691204071e-02,7.034294307231903076e-02,-5.720607191324234009e-02,-7.793851941823959351e-02,-1.046389788389205933e-01,-1.631350368261337280e-01,-3.827666118741035461e-02,-2.527584135532379150e-02,1.179822161793708801e-01,5.803059414029121399e-02,1.565899848937988281e-01,-1.659562438726425171e-02,-1.853164285421371460e-01,1.527338922023773193e-01,-1.673146933317184448e-01,1.177415028214454651e-01,-1.025391295552253723e-01,-7.119904458522796631e-02,1.950303167104721069e-01,-1.038334593176841736e-01,7.064829766750335693e-02,3.171126171946525574e-02,-6.834642589092254639e-02,1.177421957254409790e-01,-1.967822611331939697e-01,1.143375188112258911e-01,1.147416159510612488e-01,-1.278182677924633026e-02,2.610358968377113342e-02,-1.273096203804016113e-01,-2.853373065590858459e-02,3.016788661479949951e-01,6.754649430513381958e-02,1.568487584590911865e-01,-1.408222019672393799e-01,-4.765214771032333374e-02,2.300354838371276855e-01,4.006124138832092285e-01,1.525893658399581909e-01,-2.813971936702728271e-01,-2.909395396709442139e-01,-4.180466234683990479e-01,-3.734682127833366394e-02,1.732176244258880615e-01,1.920747756958007812e-02,9.985381364822387695e-02,-2.121699899435043335e-01,-1.439538747072219849e-01,1.199191212654113770e-01,-1.731475740671157837e-01,-1.845218837261199951e-01,-7.029833272099494934e-03,-1.630022078752517700e-01,5.415370687842369080e-02,-8.220206201076507568e-02,-5.687176436185836792e-02,2.248316071927547455e-02,-1.797457486391067505e-01,-4.284167662262916565e-02,2.168675512075424194e-01,-1.004212629050016403e-02,2.047666907310485840e-01,3.564724326133728027e-01,5.023972317576408386e-02,2.008021436631679535e-02,-1.420525610446929932e-01,-2.186141014099121094e-01,1.960428506135940552e-01,-5.449946969747543335e-02,-8.461961150169372559e-02,5.230006575584411621e-02,-4.671480134129524231e-02,-4.560191929340362549e-02,2.210245281457901001e-02,5.315215513110160828e-02,-1.244381964206695557e-01,-4.379985388368368149e-03,-1.211235970258712769e-01,1.076327487826347351e-01,6.257972866296768188e-02,-5.428871139883995056e-02,-1.835548430681228638e-01,-4.664905071258544922e-01,-3.942483365535736084e-01,3.157292008399963379e-01,9.630851447582244873e-02,1.249040216207504272e-01,1.851954907178878784e-01,-3.353511989116668701e-01,3.010216914117336273e-02,4.420800507068634033e-02,5.192374438047409058e-02,1.393355131149291992e-01,-2.406588196754455566e-01,1.603169143199920654e-01,2.934872806072235107e-01,-3.580709919333457947e-02,-7.781132124364376068e-03,3.779161721467971802e-02,3.207544237375259399e-02,6.765535473823547363e-02,1.196948140859603882e-01,4.216482862830162048e-02,1.626887619495391846e-01,-7.379674911499023438e-02,-1.641866005957126617e-02,-4.641728475689888000e-02,6.074131280183792114e-02,1.188172027468681335e-01,-2.760669589042663574e-02,-4.695011302828788757e-02,5.848584696650505066e-03,-4.181560128927230835e-02,1.313082687556743622e-02,3.917526453733444214e-02,4.323099553585052490e-02,8.570849150419235229e-02,4.866428673267364502e-02,-2.814756147563457489e-02,-1.162826716899871826e-01,2.273513376712799072e-02,5.654188618063926697e-02,7.667074352502822876e-02,-5.451178550720214844e-02,-1.003631129860877991e-01,-2.347678318619728088e-02,-1.874942332506179810e-02,1.686582341790199280e-02,-1.551822479814291000e-02,7.242607325315475464e-02,3.649128484539687634e-04,-9.096181392669677734e-02,7.146973907947540283e-02,5.922884494066238403e-02,3.680198639631271362e-02,6.816852092742919922e-02,-1.299497485160827637e-01,-9.191352128982543945e-02,1.772231012582778931e-01,4.920562356710433960e-02,-6.377454102039337158e-02,6.492295861244201660e-02,-1.591739356517791748e-01,2.027625590562820435e-02,1.885687001049518585e-02,-7.341559976339340210e-02,-5.849885568022727966e-02,-1.497901678085327148e-01,5.269729346036911011e-02,-6.198878586292266846e-02,5.042380094528198242e-02,7.300065457820892334e-02,1.783754974603652954e-01,-1.189451143145561218e-01,-9.841251373291015625e-02,-5.331236869096755981e-02,6.241121888160705566e-02,7.160676759667694569e-04,-1.148672178387641907e-01,1.517972648143768311e-01,1.283714622259140015e-01,2.020508609712123871e-02,-7.812625169754028320e-02,-7.503473758697509766e-02,-4.634673707187175751e-03,2.054182887077331543e-01,9.958813898265361786e-03,-5.110599473118782043e-02,-1.346430629491806030e-01,9.714646637439727783e-02,5.264478549361228943e-02,1.083453670144081116e-01,1.813849247992038727e-02,-4.015004634857177734e-02,2.350237593054771423e-02,5.568658560514450073e-02,6.418038159608840942e-02,1.053112819790840149e-01,-1.070318296551704407e-01,6.523431837558746338e-02,2.310433387756347656e-01,7.409495115280151367e-02,1.195373907685279846e-01,-1.672102957963943481e-01,1.889447867870330811e-01,-1.596495509147644043e-01,-3.352695107460021973e-01,-2.865287363529205322e-01,-9.574674814939498901e-02,-2.306895554065704346e-01,-5.582144111394882202e-02,1.075765863060951233e-02,1.625230461359024048e-01,1.893920153379440308e-01,4.715609829872846603e-03,1.532957702875137329e-01,4.373038932681083679e-02,-4.116119071841239929e-02,-1.705967336893081665e-01,2.440537884831428528e-02,6.904167681932449341e-02,-9.201727807521820068e-02,-1.591738760471343994e-01,-7.215075194835662842e-03,2.769204042851924896e-02,9.515050053596496582e-02,1.600000709295272827e-01,9.740667045116424561e-02,-1.796086281538009644e-01,1.431957930326461792e-01,-1.860403269529342651e-01,-2.908203005790710449e-01,-2.706331312656402588e-01,-1.463349312543869019e-01,-2.197138965129852295e-01,-1.921815723180770874e-01,5.271722376346588135e-02,2.558788359165191650e-01,3.349691331386566162e-01,-8.533747494220733643e-02,2.231582254171371460e-01,1.173221394419670105e-01,1.450184136629104614e-01,1.019410043954849243e-01,9.061074256896972656e-02,2.288715355098247528e-02,-1.398427295498549938e-03,2.531150821596384048e-03,9.629096835851669312e-02,2.095744609832763672e-01,3.411970436573028564e-01,1.984814256429672241e-01,1.027579829096794128e-01,5.907648801803588867e-02,2.527759373188018799e-01,-5.502886697649955750e-02,-1.350062936544418335e-01,-2.678667008876800537e-01,-2.162449248135089874e-02,-2.473408728837966919e-01,-2.252734154462814331e-01,-2.722921036183834076e-02,1.774379760026931763e-01,-6.962241604924201965e-04,4.238625057041645050e-03,1.102985255420207977e-02,-6.137593183666467667e-03,-3.058545291423797607e-02,-1.390455216169357300e-01,-3.952600061893463135e-02,-1.117061153054237366e-01,4.812094382941722870e-03,-8.814828097820281982e-02,-5.248306319117546082e-02,1.502091735601425171e-01,1.002656519412994385e-01,3.985859826207160950e-02,-1.341156959533691406e-01,3.580918302759528160e-03,2.982173301279544830e-02,-2.858452685177326202e-02,9.267900884151458740e-02,1.671782881021499634e-02,-1.683576591312885284e-02,-1.328910291194915771e-01,-9.036903083324432373e-02,4.693629965186119080e-02,-6.455497443675994873e-02,3.729031607508659363e-02,-3.850429877638816833e-02,-4.941564798355102539e-02,-1.381276398897171021e-01,-1.136965155601501465e-01,-2.419734001159667969e-01,5.418765172362327576e-02,-1.163971126079559326e-01,1.683240639977157116e-03,2.399218454957008362e-02,8.975949883460998535e-02,7.381714135408401489e-02,1.989396475255489349e-02,-9.205485135316848755e-02,-2.243797108530998230e-02,-4.770598933100700378e-02,-7.739805430173873901e-02,-2.626574225723743439e-02,-3.320674225687980652e-02,1.630702018737792969e-01,-1.746625453233718872e-01,-4.059591144323348999e-02,-9.318277239799499512e-02,9.553171694278717041e-02,2.432837635278701782e-01,3.692433005198836327e-03,-9.125073254108428955e-02,-1.756202243268489838e-02,7.830151170492172241e-02,-2.837267518043518066e-02,-1.141481846570968628e-01,-7.234784960746765137e-02,-1.665269583463668823e-01,3.587248548865318298e-02,1.032849028706550598e-01,1.345042791217565536e-02,-7.197960466146469116e-02,4.305712878704071045e-02,6.772517412900924683e-02,-9.785795956850051880e-02,-3.026570677757263184e-01,2.736653573811054230e-02,-8.479779213666915894e-02,2.122574597597122192e-01,2.609054446220397949e-01,-4.181763157248497009e-02,1.924896091222763062e-01,2.033399492502212524e-01,3.257236480712890625e-01,3.381606042385101318e-01,1.680821180343627930e-01,3.049537725746631622e-02,-3.644534200429916382e-02,1.803057640790939331e-01,4.962793737649917603e-02,-1.205959022045135498e-01,-1.887392699718475342e-01,5.908941477537155151e-02,1.347039788961410522e-01,-3.346680477261543274e-02,-1.352282911539077759e-01,7.852008938789367676e-02,1.957238465547561646e-01,6.135512515902519226e-02,-6.942676752805709839e-02,-3.859297931194305420e-02,-8.356092870235443115e-02,1.031019017100334167e-01,1.039177328348159790e-01,1.098670996725559235e-03,-4.889594763517379761e-02,-1.703766435384750366e-01,6.516055762767791748e-02,1.249690949916839600e-01,-4.951624665409326553e-03,-1.518259346485137939e-01,-6.647570431232452393e-02,8.401454985141754150e-02,1.833985932171344757e-02,8.001182973384857178e-02,-9.077279269695281982e-02,-2.577972039580345154e-02,1.349513512104749680e-02,-6.753735244274139404e-02,-2.703255042433738708e-02,-1.553405672311782837e-01,-3.984399512410163879e-02,-4.635233432054519653e-02,8.634307980537414551e-02,-1.412318926304578781e-02,-8.709452301263809204e-02,-2.167587727308273315e-01,1.921391114592552185e-02,6.656295806169509888e-02,1.329253911972045898e-01,-4.652795940637588501e-02,-1.748837381601333618e-01,-2.177823893725872040e-02,2.264558225870132446e-01,1.547283828258514404e-01,1.386587787419557571e-02,-2.453925758600234985e-01,-6.292457878589630127e-02,6.130714714527130127e-02,1.384961158037185669e-01,1.297401338815689087e-01,-1.675552725791931152e-01,-3.006835002452135086e-03,1.163701489567756653e-01,7.059356570243835449e-02,1.184477359056472778e-01,-9.324667602777481079e-02,-8.366060792468488216e-04,-6.775337969884276390e-04,-6.006328039802610874e-04,7.545137405395507812e-02,-1.494923382997512817e-01,5.495636723935604095e-04,1.564785093069076538e-01,7.404776662588119507e-02,-5.749524384737014771e-02,-1.996107101440429688e-01,-1.332242786884307861e-01,2.007251232862472534e-01,9.412085264921188354e-02,2.170946635305881500e-02,-2.397712022066116333e-01,-1.124901175498962402e-01,1.676764041185379028e-01,1.121735274791717529e-01,2.561279200017452240e-02,-6.890833377838134766e-02,-1.291582733392715454e-01,2.991894632577896118e-02,-4.747649654746055603e-03,1.665518619120121002e-02,6.963046640157699585e-02,2.983512356877326965e-02,1.695916205644607544e-01,-9.589344263076782227e-02,9.498484432697296143e-02,1.515693068504333496e-01,-2.577153209131211042e-04,6.385153532028198242e-02,8.620689809322357178e-02,-7.016324996948242188e-02,-5.797173362225294113e-03,-3.097311258316040039e-01,-3.155690431594848633e-01,2.148294262588024139e-02,1.367381066083908081e-01,-2.400091439485549927e-01,-5.729807913303375244e-02,-1.952055469155311584e-02,-1.099067623727023602e-03,-2.010472817346453667e-03,6.959525402635335922e-03,2.565202116966247559e-01,1.763533055782318115e-02,9.369675070047378540e-02,-5.124854296445846558e-02,-2.194764912128448486e-01,1.767351478338241577e-02,6.654861569404602051e-02,-1.198059692978858948e-01,1.709301397204399109e-02,1.802324652671813965e-01,-7.532265782356262207e-02,1.009971499443054199e-01,4.861679859459400177e-03,-5.720873549580574036e-02,-6.632116436958312988e-02,-1.679085195064544678e-01,-2.849471271038055420e-01,1.900338334962725639e-03,8.659009635448455811e-02,-1.339215487241744995e-01,-5.035174265503883362e-02,1.366584002971649170e-01,4.406807944178581238e-02,-1.007089167833328247e-01,1.878934204578399658e-01,2.620415985584259033e-01,1.598944216966629028e-01,9.931608103215694427e-03,-7.309187948703765869e-02,-1.668603420257568359e-01,5.524284020066261292e-02,7.136295735836029053e-02,-7.226531207561492920e-02,-2.956762909889221191e-02,1.091972663998603821e-01,-4.460395872592926025e-02,2.116668596863746643e-02,4.287054017186164856e-02,-8.572862297296524048e-02,5.069908872246742249e-02,-2.106334120035171509e-01,-2.247626483440399170e-01,-8.522065728902816772e-02,-8.675958961248397827e-02,6.906935945153236389e-03,-4.123520478606224060e-02,1.050564199686050415e-01,1.755517348647117615e-02,3.199035301804542542e-02,-9.425671887584030628e-04,2.095317244529724121e-01,8.082023262977600098e-02,-8.525602519512176514e-02,9.242741763591766357e-02,4.060050472617149353e-02,1.968562155961990356e-01,-6.332113593816757202e-02,-2.042597383260726929e-01,1.418873220682144165e-01,1.963225901126861572e-01,3.354869782924652100e-02,-4.186090528964996338e-01,2.493195235729217529e-02,1.237148046493530273e-01,2.113006860017776489e-01,-4.805973470211029053e-01,-3.271814808249473572e-02,2.924903333187103271e-01,8.444842696189880371e-02,-7.726201321929693222e-03,-3.110387027263641357e-01,4.285188913345336914e-01,6.315065175294876099e-02,-1.741767078638076782e-01,-1.141980811953544617e-01,1.357936412096023560e-01,2.223297804594039917e-01,-1.080275028944015503e-01,-1.533302962779998779e-01,7.473742216825485229e-02,6.322344392538070679e-02,-4.118474945425987244e-02,-2.736072540283203125e-01,1.411488056182861328e-01,9.753037989139556885e-02,-8.441241085529327393e-02,-2.415837496519088745e-01,-7.625930756330490112e-02,2.506472766399383545e-01,1.203085184097290039e-01,-4.482616484165191650e-01,-7.903712242841720581e-02,2.228944897651672363e-01,2.971588447690010071e-02,-1.362188160419464111e-01,-2.799444496631622314e-01,3.980242013931274414e-01,1.673670560121536255e-01,-8.579111099243164062e-02,-1.051657944917678833e-01,-5.057851225137710571e-02,3.007739782333374023e-01,-9.170415252447128296e-02,-5.646979901939630508e-03,5.306373536586761475e-02,1.594748795032501221e-01,-7.024637609720230103e-02,-1.423203945159912109e-01,-5.870242416858673096e-02,2.211025059223175049e-01,-4.132508765906095505e-03,-2.802535891532897949e-01,3.322115913033485413e-02,3.116982989013195038e-02,2.505895793437957764e-01,-2.841881811618804932e-01,-1.038125082850456238e-01,1.424239277839660645e-01,4.608852788805961609e-03,-2.604840695858001709e-02,-1.685066521167755127e-01,1.586735844612121582e-01,2.038894295692443848e-01,-1.043106094002723694e-01,5.902883410453796387e-02,6.587662734091281891e-03,8.608674257993698120e-02,-9.570063650608062744e-02,-9.146459400653839111e-02,-1.196200549602508545e-01,-5.031137913465499878e-02,-5.170420929789543152e-02,-4.882626608014106750e-02,2.547717988491058350e-01,-1.926332861185073853e-01,-2.196701467037200928e-01,-1.829369366168975830e-01,6.482845544815063477e-02,1.154915243387222290e-01,-9.482035785913467407e-02,-1.507515609264373779e-01,-1.271645352244377136e-02,1.224735751748085022e-01,2.363402396440505981e-01,-3.727624192833900452e-02,9.608936309814453125e-02,3.624363616108894348e-02,1.226135566830635071e-01,7.757818698883056641e-02,-5.057360231876373291e-02,-5.141546484082937241e-03,-2.010065317153930664e-01,-2.335418574512004852e-02,-3.916509822010993958e-02,-5.672855675220489502e-02,1.690615341067314148e-02,-1.147955432534217834e-01,2.457908913493156433e-02,-2.631280012428760529e-02,-3.218415752053260803e-02,-4.654513671994209290e-02,-1.635417789220809937e-01,-1.006507687270641327e-02,9.925293922424316406e-02,-1.172602549195289612e-01,2.952497685328125954e-03,-2.547786384820938110e-02,2.508337050676345825e-02,-1.554882153868675232e-03,-1.578877307474613190e-02,2.944994485005736351e-04,1.361503452062606812e-01,1.354212462902069092e-01,4.625158384442329407e-02,-1.260780245065689087e-01,2.574810199439525604e-02,-3.809676319360733032e-02,-5.304015427827835083e-02,3.452735021710395813e-02,1.994560845196247101e-02,-2.044501155614852905e-02,-3.762895613908767700e-02,3.346057608723640442e-02,1.030297130346298218e-01,-1.298082917928695679e-01,-5.358260124921798706e-02,-1.279028803110122681e-01,5.421242490410804749e-02,1.480487138032913208e-01,1.472150236368179321e-01,1.570651978254318237e-01,1.413818448781967163e-01,2.147361785173416138e-01,1.635424345731735229e-01,1.481782495975494385e-01,1.344700157642364502e-01,-6.427120883017778397e-03,-7.393880933523178101e-02,-1.484725624322891235e-01,2.835497818887233734e-02,-6.606046110391616821e-02,4.302684590220451355e-02,-2.076569758355617523e-02,-1.339126378297805786e-01,5.903748050332069397e-02,-2.136811241507530212e-02,2.133571952581405640e-01,1.601334810256958008e-01,1.875270158052444458e-02,-7.080783694982528687e-02,-1.249177381396293640e-02,2.447986602783203125e-01,-2.137811630964279175e-01,-1.154297497123479843e-02,-1.078040804713964462e-03,2.129195183515548706e-01,-3.022856265306472778e-02,-3.589909970760345459e-01,1.788844168186187744e-01,-8.287818729877471924e-02,-8.071703463792800903e-02,-2.885923385620117188e-01,2.571435272693634033e-01,1.143372152000665665e-02,7.465138286352157593e-02,-1.382734179496765137e-01,5.320823192596435547e-02,1.492564678192138672e-01,-3.145217597484588623e-01,9.071463346481323242e-02,-1.119308695197105408e-01,8.252817206084728241e-03,-1.544264052063226700e-02,-5.052736774086952209e-02,9.504121541976928711e-02,1.977901533246040344e-02,1.757827252149581909e-01,-1.678611040115356445e-01,1.403493434190750122e-02,7.406125217676162720e-02,2.701167464256286621e-01,-6.356553640216588974e-03,-2.820990979671478271e-01,8.000815659761428833e-02,6.092798709869384766e-02,-1.540266275405883789e-01,-2.374305576086044312e-01,1.625878363847732544e-01,8.584383875131607056e-02,6.997538264840841293e-03,-4.225366935133934021e-02,1.690526455640792847e-01,5.307321622967720032e-02,-4.073682725429534912e-01,-8.053784817457199097e-02,-1.770593523979187012e-01,-1.141896024346351624e-01,-6.089249998331069946e-02,-1.982229761779308319e-02,-9.587901085615158081e-02,-8.048669993877410889e-02,7.418099790811538696e-02,-1.951510608196258545e-01,1.868571639060974121e-01,-1.836435347795486450e-01,1.966929584741592407e-01,-1.532535254955291748e-01,-2.408615201711654663e-01,2.445779889822006226e-01,-1.731915920972824097e-01,-4.158298298716545105e-02,-1.732742935419082642e-01,3.977568745613098145e-01,1.918031573295593262e-01,1.645322740077972412e-01,-1.092465966939926147e-02,2.001264691352844238e-01,1.781887412071228027e-01,-1.347784101963043213e-01,6.586243957281112671e-02,1.392930448055267334e-01,6.013597175478935242e-02,1.174750179052352905e-01,1.125106811523437500e-01,1.967755854129791260e-01,3.942129313945770264e-01,2.138689160346984863e-01,3.357837796211242676e-01,2.066552340984344482e-01,-9.937550872564315796e-02,1.727949082851409912e-02,-9.461300820112228394e-02,-1.242326870560646057e-01,-2.343490272760391235e-01,-1.313482969999313354e-01,-1.003119200468063354e-01,-1.619155108928680420e-01,-1.013952344655990601e-01,-2.808277010917663574e-01,1.191827352158725262e-03,7.102460600435733795e-03,-2.075207531452178955e-01,-1.096517667174339294e-01,-2.011753767728805542e-01,2.936573699116706848e-02,1.178154945373535156e-01,-5.074280127882957458e-02,-1.972116678953170776e-01,-1.001157909631729126e-01,-4.059271886944770813e-02,1.091947555541992188e-01,1.545259505510330200e-01,4.485541954636573792e-02,-2.112982794642448425e-02,-1.498958021402359009e-01,5.035640671849250793e-02,-9.776967577636241913e-03,-3.614095970988273621e-02,-1.799608021974563599e-01,-8.403125405311584473e-02,1.201958283782005310e-01,-2.376087754964828491e-01,-1.877413243055343628e-01,-9.954836219549179077e-02,1.150401309132575989e-01,7.808852195739746094e-02,-2.674288302659988403e-02,1.097605228424072266e-01,5.869694286957383156e-04,-1.202807500958442688e-01,-1.728150993585586548e-01,-1.797245144844055176e-01,-1.954603344202041626e-01,-4.486153833568096161e-03,-9.692190587520599365e-02,-2.801769971847534180e-02,-3.996801096946001053e-03,1.898315362632274628e-02,1.307023465633392334e-01,7.300290465354919434e-02,1.483426988124847412e-01,1.781297475099563599e-02,4.684023186564445496e-02,6.203833594918251038e-02,-2.386897243559360504e-02,3.809696808457374573e-02,1.039192825555801392e-02,4.121505469083786011e-02,4.895128309726715088e-02,1.303715165704488754e-02,1.717230230569839478e-01,2.584795281291007996e-02,2.024165093898773193e-01,1.731999963521957397e-01,3.281382471323013306e-02,-8.097146451473236084e-02,5.413171835243701935e-03,1.750650443136692047e-02,-1.734159514307975769e-02,-6.133912876248359680e-02,-1.860144585371017456e-01,-1.174758002161979675e-01,-2.121628075838088989e-02,-1.153482794761657715e-01,-2.088608294725418091e-01,-3.433822691440582275e-01,-1.156406924128532410e-01,-1.450960934162139893e-01,-1.326738744974136353e-01,7.354373112320899963e-03,1.131877228617668152e-01,1.063813716173171997e-01,1.165839731693267822e-01,-4.019641131162643433e-02,1.583787947893142700e-01,1.898449212312698364e-01,2.536635398864746094e-01,2.788458764553070068e-01,1.566209644079208374e-01,-2.136228047311306000e-02,-3.260927274823188782e-02,-3.578323125839233398e-02,3.074041754007339478e-02,-8.839836716651916504e-02,6.318476051092147827e-02,-7.852554321289062500e-02,7.330735772848129272e-02,4.575248062610626221e-02,-8.833964169025421143e-02,-1.741138286888599396e-02,-6.584915518760681152e-02,-1.527810841798782349e-01,-1.920763403177261353e-01,-1.460221409797668457e-01,2.420741133391857147e-02,5.008414387702941895e-02,5.048742145299911499e-02,-5.804965645074844360e-02,-2.600059844553470612e-02,5.844266712665557861e-02,4.925569519400596619e-02,1.570451408624649048e-01,1.101000010967254639e-01,-4.351333715021610260e-03,1.151287257671356201e-01,-5.065036006271839142e-03,3.365859016776084900e-02,4.416080936789512634e-02,7.352846115827560425e-02,1.387898623943328857e-01,9.168006479740142822e-03,6.494358927011489868e-02,6.596766412258148193e-02,1.154140383005142212e-01,-6.063105538487434387e-02,-1.620685867965221405e-02,-1.557948738336563110e-01,-7.737894356250762939e-02,-2.548676729202270508e-02,5.609511584043502808e-02,3.063125349581241608e-02,9.444181621074676514e-02,-1.340034417808055878e-03,1.392068713903427124e-01,4.349767789244651794e-02,-5.046935752034187317e-02,1.363188121467828751e-02,-6.154334172606468201e-02,-5.036595463752746582e-02,-1.236783266067504883e-01,-1.843653619289398193e-01,-2.737249732017517090e-01,1.639949828386306763e-01,1.954055875539779663e-01,-1.995029449462890625e-01,-1.705059111118316650e-01,-3.438434749841690063e-02,1.411630362272262573e-01,2.910248935222625732e-01,-2.736859917640686035e-01,-8.497342467308044434e-02,-1.779440231621265411e-02,2.706410288810729980e-01,1.703402101993560791e-01,-1.747461855411529541e-01,-1.258665919303894043e-01,4.127373397350311279e-01,1.717606931924819946e-01,-1.398724317550659180e-01,3.980316594243049622e-02,5.681290850043296814e-02,1.284666508436203003e-01,-7.431098818778991699e-02,-1.175915673375129700e-01,3.394134342670440674e-02,-6.772101670503616333e-02,-1.814773827791213989e-01,3.086736612021923065e-02,1.151787787675857544e-01,5.219991505146026611e-02,4.474029410630464554e-03,-1.146102547645568848e-01,8.234550803899765015e-02,-5.916881840676069260e-03,5.361348763108253479e-02,9.027427062392234802e-03,4.898562282323837280e-02,1.243465207517147064e-02,-9.365683048963546753e-02,-5.171278957277536392e-03,1.270805299282073975e-01,2.398946285247802734e-01,-1.590321958065032959e-01,-2.722947895526885986e-01,1.030598804354667664e-01,1.465850174427032471e-01,-3.343459218740463257e-02,-3.383419811725616455e-01,-2.548614144325256348e-01,2.691343799233436584e-02,9.887424111366271973e-02,-1.625265330076217651e-01,7.437669485807418823e-02,-1.014447584748268127e-01,-5.297585576772689819e-02,1.452006101608276367e-01,2.420694567263126373e-02,1.261390149593353271e-01,-1.141282618045806885e-01,7.448788732290267944e-02,4.897784907370805740e-03,-4.152418114244937897e-03,9.256225079298019409e-02,-1.960125518962740898e-03,-2.571698464453220367e-02,3.590290248394012451e-02,2.148892432451248169e-01,5.794906243681907654e-02,-2.030275613069534302e-01,1.746312156319618225e-02,1.598692089319229126e-01,1.222923398017883301e-01,-1.770336627960205078e-01,-3.874872252345085144e-02,1.011067554354667664e-01,9.118163585662841797e-02,2.475677281618118286e-01,5.757085606455802917e-02,-5.325303226709365845e-02,-1.573158986866474152e-02,-1.437688246369361877e-02,3.052496351301670074e-02,1.032879725098609924e-01,7.075577229261398315e-02,-9.594744443893432617e-02,7.734838436590507627e-05,1.380784660577774048e-01,2.306325137615203857e-01,1.566085815429687500e-01,-1.533539593219757080e-01,-1.453458517789840698e-01,-4.512433707714080811e-02,1.673161424696445465e-02,2.596975266933441162e-01,-1.460127532482147217e-01,-1.110037267208099365e-01,7.485599070787429810e-02,-1.831461861729621887e-02,2.871018089354038239e-02,-1.701406985521316528e-01,-1.831495016813278198e-01,3.020178526639938354e-02,1.292762011289596558e-01,-3.812652826309204102e-02,-1.840842664241790771e-01,-2.665455639362335205e-01,-1.674112230539321899e-01,2.254288457334041595e-02,-1.792596303857862949e-03,-1.090303957462310791e-01,-2.248020917177200317e-01,-1.907246857881546021e-01,2.236905321478843689e-02,1.484445631504058838e-01,-5.723692942410707474e-03,-2.383539378643035889e-01,-2.653153538703918457e-01,-1.696991622447967529e-01,7.301614433526992798e-02,-5.729216709733009338e-02,-1.326543539762496948e-01,-7.536934316158294678e-02,-1.752758473157882690e-01,-1.346861124038696289e-01,2.473998218774795532e-01,1.312687247991561890e-01,-3.335552290081977844e-02,2.354784868657588959e-02,7.169241458177566528e-02,2.315684556961059570e-01,1.491819918155670166e-01,9.696628898382186890e-02,1.132854376919567585e-03,-1.423367261886596680e-01,1.892274916172027588e-01,1.088655814528465271e-01,5.933037772774696350e-02,4.489689320325851440e-02,-9.692928194999694824e-02,1.093939021229743958e-01,-2.129879407584667206e-02,-1.415672991424798965e-02,-1.159466728568077087e-01,-1.345118731260299683e-01,6.249484419822692871e-02,8.392945677042007446e-02,9.585648775100708008e-03,9.112766943871974945e-03,-2.072760015726089478e-01,-1.219018027186393738e-01,-1.526909172534942627e-01,-7.658597826957702637e-02,-2.709266841411590576e-01,-1.263677030801773071e-01,-1.244754623621702194e-02,-2.781727612018585205e-01,-4.946336522698402405e-02,-7.543969154357910156e-02,-5.603487789630889893e-02,1.030820831656455994e-01,-1.966028213500976562e-01,5.926446616649627686e-02,-1.070206761360168457e-01,6.230419129133224487e-02,6.401844322681427002e-02,-1.956698857247829437e-02,1.763018895871937275e-03,-3.538689762353897095e-02,-6.864357739686965942e-02,-5.575173348188400269e-02,1.572689861059188843e-01,-3.836289420723915100e-02,-4.124743491411209106e-02,-2.543352311477065086e-03,9.649778157472610474e-02,1.307293176651000977e-01,3.168734908103942871e-01,1.710402220487594604e-01,2.621927559375762939e-01,2.140078544616699219e-01,7.038518786430358887e-02,2.288867384195327759e-01,2.600798308849334717e-01,2.638745009899139404e-01,6.771826744079589844e-02,5.213399231433868408e-02,3.286448717117309570e-01,4.365523345768451691e-03,1.496909409761428833e-01,-6.440113484859466553e-02,1.059253737330436707e-01,2.182183265686035156e-01,6.388382613658905029e-02,-5.132609233260154724e-02,-1.567066758871078491e-01,1.476703733205795288e-01,-1.689285784959793091e-01,-7.481099665164947510e-02,6.670858711004257202e-02,-4.224734380841255188e-02,-1.226887553930282593e-01,9.372364729642868042e-04,-9.142591059207916260e-02,-1.685016453266143799e-01,9.603628516197204590e-02,-1.539273262023925781e-01,-2.230172418057918549e-02,-2.616598904132843018e-01,-7.496415078639984131e-02,2.372513897716999054e-02,-2.236882448196411133e-01,1.646130345761775970e-02,-2.389698326587677002e-01,-9.625373035669326782e-02,-1.535679330118000507e-03,-1.234177127480506897e-01,-8.916043490171432495e-02,-7.903541438281536102e-03,-8.326667360961437225e-03,4.939519241452217102e-02,-1.120439358055591583e-02,-5.799129232764244080e-02,-5.411200597882270813e-02,1.516848504543304443e-01,-2.984492480754852295e-01,-6.986851245164871216e-02,9.778536111116409302e-02,2.992798686027526855e-01,2.403488010168075562e-01,-2.045755684375762939e-01,-1.230799034237861633e-01,-1.297695841640233994e-02,2.067775130271911621e-01,9.757079184055328369e-02,-1.291052103042602539e-01,1.842663623392581940e-02,-4.940439760684967041e-02,3.131398186087608337e-02,1.527717709541320801e-01,-1.275021135807037354e-01,-3.753768280148506165e-02,2.341271564364433289e-02,1.617967486381530762e-01,1.125235408544540405e-01,-1.199692040681838989e-01,-1.583811938762664795e-01,-2.403706684708595276e-02,9.334307163953781128e-02,4.039834439754486084e-02,7.267627865076065063e-02,2.665713056921958923e-02,1.250474806874990463e-02,7.294768840074539185e-02,2.797464840114116669e-02,9.367596358060836792e-02,-7.792064547538757324e-02,-1.710995137691497803e-01,-6.436619162559509277e-02,1.839236170053482056e-02,8.596814423799514771e-02,-5.452055018395185471e-03,-2.467479258775711060e-01,-7.509331405162811279e-02,-1.720533818006515503e-01,1.223735064268112183e-01,7.579085975885391235e-02,-5.523857660591602325e-03,8.244110643863677979e-02,2.967458963394165039e-02,2.002905495464801788e-02,-1.053904592990875244e-01,-1.744694858789443970e-01,1.159849390387535095e-01,4.164154082536697388e-02,2.277841418981552124e-01,5.433403700590133667e-02,-1.733108460903167725e-01,3.408041317015886307e-03,-2.090445309877395630e-01,3.592824041843414307e-01,9.714731574058532715e-02,-1.107090935111045837e-01,-9.566482156515121460e-02,-2.848529517650604248e-01,3.271288573741912842e-01,1.341103613376617432e-01,-1.019510477781295776e-01,-2.025323659181594849e-01,-3.153354227542877197e-01,2.292633801698684692e-01,1.632611006498336792e-01,1.459408551454544067e-02,-1.236278750002384186e-02,-2.090531960129737854e-02,1.457226574420928955e-01,-1.659132353961467743e-02,-1.371725928038358688e-02,-4.063748195767402649e-02,-6.310556828975677490e-02,3.789846971631050110e-02,-9.182731807231903076e-02,-9.786794334650039673e-02,-5.654863640666007996e-02,-9.222835302352905273e-02,-1.012694910168647766e-01,-2.833796665072441101e-02,-1.493188887834548950e-01,-6.333802640438079834e-02,-2.207277417182922363e-01,-1.777103394269943237e-01,2.430934086441993713e-02,-2.664653025567531586e-02,1.349400430917739868e-01,-1.251789331436157227e-01,-8.182676136493682861e-02,3.536695986986160278e-02,-1.587682664394378662e-01,-1.475698202848434448e-01,-1.045522466301918030e-01,3.365686861798167229e-03,-9.088780730962753296e-02,-1.228540167212486267e-01,9.323783963918685913e-02,-8.203085511922836304e-02,2.184087783098220825e-02,-2.315196022391319275e-02,1.315425038337707520e-01,-3.707993775606155396e-02,1.580206304788589478e-01,-9.912884235382080078e-02,6.475938484072685242e-03,-9.882768243551254272e-02,2.853023633360862732e-02,-3.833476826548576355e-02,-1.130897849798202515e-01,-4.082752391695976257e-02,2.687430381774902344e-02,2.148720473051071167e-01,8.943807333707809448e-02,-9.669703245162963867e-02,1.184186935424804688e-01,-1.241118609905242920e-01,-5.307843163609504700e-02,2.928031841292977333e-03,4.852985963225364685e-02,9.347981959581375122e-02,-5.355956964194774628e-03,9.589240700006484985e-02,-9.213032573461532593e-02,9.806020557880401611e-02,1.051998063921928406e-01,1.137467995285987854e-01,1.734369546175003052e-01,1.316148042678833008e-01,1.094779148697853088e-01,1.460037231445312500e-01,4.149693995714187622e-02,-5.445909127593040466e-02,1.536514796316623688e-02,8.565788716077804565e-02,1.642193943262100220e-01,1.056336164474487305e-01,7.239271700382232666e-02,1.248698830604553223e-01,-1.786643713712692261e-01,1.537501066923141479e-01,-1.157910376787185669e-01,-6.316991895437240601e-02,2.273674122989177704e-02,9.437363594770431519e-02,6.793922930955886841e-02,1.125315502285957336e-01,5.558412894606590271e-02,-1.020643040537834167e-01,2.113243378698825836e-02,1.149721369147300720e-01,2.861740253865718842e-02,-6.873773038387298584e-02,9.629362821578979492e-02,-1.565532535314559937e-01,1.549467444419860840e-01,-2.719963788986206055e-01,-6.355138123035430908e-02,1.019189953804016113e-01,-1.444700360298156738e-01,3.121349215507507324e-01,-2.791809439659118652e-01,-1.679451912641525269e-01,3.399628102779388428e-01,-1.808267980813980103e-01,2.603180408477783203e-01,-1.445735543966293335e-01,-2.290352135896682739e-01,1.950527131557464600e-01,-8.512482047080993652e-02,1.971095800399780273e-01,-3.986304625868797302e-02,-1.847747564315795898e-01,1.230974718928337097e-01,-7.352322340011596680e-02,4.031322151422500610e-02,-1.077007725834846497e-01,-4.478647932410240173e-02,-9.693016856908798218e-02,-4.642303660511970520e-02,2.166314572095870972e-01,-2.342392206192016602e-01,-1.467474400997161865e-01,1.360773444175720215e-01,-7.250587642192840576e-02,3.714549541473388672e-01,-1.788555979728698730e-01,-1.222359463572502136e-01,2.875519096851348877e-01,-4.750849306583404541e-02,4.357565343379974365e-01,-1.107839941978454590e-01,-3.799497187137603760e-01,6.176945194602012634e-02,-9.664991497993469238e-02,2.744306921958923340e-01,5.055394768714904785e-02,-2.207330167293548584e-01,-1.789735257625579834e-02,3.526863083243370056e-02,2.824688330292701721e-02,-9.852223098278045654e-02,3.782553225755691528e-02,3.476659953594207764e-02,-1.049671620130538940e-01,1.884822398424148560e-01,-8.607922494411468506e-02,-3.100231522694230080e-03,1.790385809727013111e-03,-5.142476037144660950e-02,3.299794793128967285e-01,-1.978744119405746460e-01,-1.130463778972625732e-01,1.548319160938262939e-01,-2.770783305168151855e-01,2.680349946022033691e-01,-1.435600221157073975e-01,-2.765459716320037842e-01,1.515828967094421387e-01,-8.246748894453048706e-02,1.980357021093368530e-01,1.149766221642494202e-01,-1.683409959077835083e-01,8.526770025491714478e-02,1.670604944229125977e-02,1.032522693276405334e-01,-1.438008435070514679e-02,1.803785189986228943e-02,-1.577106863260269165e-01,-9.207857400178909302e-02,-8.700191229581832886e-02,-2.573811113834381104e-01,1.568883098661899567e-02,-1.324259936809539795e-01,2.161494046449661255e-01,2.958632111549377441e-01,2.189113199710845947e-01,2.029431313276290894e-01,4.768705368041992188e-02,-1.059886738657951355e-01,-3.350505605340003967e-02,-3.976795449852943420e-02,8.606367558240890503e-02,-3.039180301129817963e-03,-1.365418285131454468e-01,-1.700561344623565674e-01,-5.174722149968147278e-02,-2.856070920825004578e-02,-9.878058731555938721e-02,-7.491763681173324585e-02,1.670261472463607788e-01,-2.023215591907501221e-01,1.637718975543975830e-01,-7.653139531612396240e-02,-2.688223719596862793e-01,-2.210475951433181763e-01,-2.720047235488891602e-01,1.336579471826553345e-01,-1.184090673923492432e-01,1.035618931055068970e-01,3.162152469158172607e-01,3.328584432601928711e-01,2.403364330530166626e-01,6.521341949701309204e-02,4.567165393382310867e-03,7.362452894449234009e-02,-9.862364828586578369e-02,1.412792354822158813e-01,-7.951508462429046631e-02,-1.807617992162704468e-01,5.679373443126678467e-02,-7.291362434625625610e-02,4.278840869665145874e-02,-5.418821796774864197e-02,-2.254081331193447113e-02,2.370836734771728516e-01,-3.248595818877220154e-02,1.129891127347946167e-01,1.831081323325634003e-02,-5.938040092587471008e-02,2.335431240499019623e-02,-2.224708944559097290e-01,5.670117214322090149e-02,5.643519386649131775e-02,1.815111041069030762e-01,2.886970043182373047e-01,3.829250857234001160e-02,7.806993275880813599e-02,1.396569907665252686e-01,-9.821379790082573891e-04,-9.021944552659988403e-02,-1.518484503030776978e-01,1.005083918571472168e-01,-1.120886281132698059e-01,-9.527564793825149536e-02,-7.745856046676635742e-02,-2.474420368671417236e-01,-8.091122657060623169e-02,-6.286931037902832031e-02,};

const data_t w_0_bias[32]={-1.300831437110900879e-01,-1.521825641393661499e-01,-4.167748391628265381e-01,-8.379291743040084839e-02,-5.199252367019653320e-01,-2.664151787757873535e-01,-2.641904354095458984e-01,-1.802196502685546875e-01,-2.277531474828720093e-01,-1.864447742700576782e-01,-1.356415003538131714e-01,-1.036805137991905212e-01,-4.170471429824829102e-01,-2.322533577680587769e-01,-2.286050915718078613e-01,1.723305284976959229e-01,-2.308641076087951660e-01,-3.829321861267089844e-01,-2.593275308609008789e-01,-1.406422257423400879e-01,-1.227809935808181763e-01,-4.034906029701232910e-01,-7.586815953254699707e-02,-2.687534093856811523e-01,-2.646759152412414551e-01,-1.580258607864379883e-01,-2.816417515277862549e-01,-1.436013579368591309e-01,-4.210989177227020264e-01,1.810380257666110992e-02,-1.043129414319992065e-01,-1.453030109405517578e-01,};

const twoD_t w_0_weight_2d = {
                           .r = 5,
                           .c = 5,
                           .in_channel = 3,
                           .channel = 32,
                           .data = w_0_weight,
                           .bias = w_0_bias
                       };

const data_t w_3_weight[12800]={2.265909221023321152e-03,-5.110382917337119579e-04,-1.033037677407264709e-01,-1.072571799159049988e-01,-2.566182315349578857e-01,-2.202903665602207184e-02,-7.755297422409057617e-02,1.460126638412475586e-01,-3.347333893179893494e-02,-1.740606874227523804e-01,-8.523995056748390198e-03,2.099273540079593658e-02,1.296364963054656982e-01,-3.627146780490875244e-02,5.555868521332740784e-02,1.326066851615905762e-01,1.294020116329193115e-01,-6.959805637598037720e-02,-9.751213341951370239e-02,5.108278617262840271e-02,1.179637610912322998e-01,2.116982266306877136e-02,-1.100989580154418945e-01,7.936062663793563843e-02,-1.355468109250068665e-02,4.202425852417945862e-02,8.688520640134811401e-02,-6.047962233424186707e-02,-3.845959529280662537e-02,8.772143162786960602e-03,1.542837172746658325e-01,-8.335880935192108154e-02,-4.664151743054389954e-02,2.648614905774593353e-02,1.420483831316232681e-02,5.624171718955039978e-02,4.892880469560623169e-02,-3.007042109966278076e-01,-1.244706735014915466e-01,-4.105937480926513672e-02,9.608515352010726929e-02,1.053366735577583313e-01,1.247300654649734497e-01,1.026060432195663452e-01,8.222577720880508423e-02,1.195815578103065491e-02,2.773465961217880249e-02,-1.314976904541254044e-02,-5.559471994638442993e-02,-3.941871225833892822e-02,1.022840738296508789e-01,-8.123555034399032593e-02,1.446628272533416748e-01,7.634034752845764160e-02,-4.387757182121276855e-02,1.248492598533630371e-01,1.312558054924011230e-01,-2.384613752365112305e-01,1.657188087701797485e-01,6.807819008827209473e-02,-1.866655796766281128e-01,2.694987505674362183e-02,-1.553370505571365356e-01,-2.866508364677429199e-01,7.686579972505569458e-02,6.087239016778767109e-04,-1.140335295349359512e-02,-1.608448475599288940e-01,-9.567753225564956665e-02,-1.797013431787490845e-01,-5.988687276840209961e-02,2.442481368780136108e-02,-1.349170804023742676e-01,7.498848438262939453e-02,2.553347647190093994e-01,2.436549030244350433e-02,-9.269373863935470581e-02,5.051379650831222534e-02,4.519759118556976318e-02,-5.561839044094085693e-02,4.215257987380027771e-02,1.253173947334289551e-01,-1.033558472990989685e-01,1.393801122903823853e-01,2.430988103151321411e-01,1.662256270647048950e-01,-1.760595105588436127e-02,1.138289198279380798e-01,1.343679428100585938e-01,2.708608806133270264e-01,4.020534455776214600e-02,9.924084693193435669e-02,1.278018802404403687e-01,1.282819956541061401e-01,-2.530422806739807129e-02,-3.131081163883209229e-02,-5.188297107815742493e-02,1.032786816358566284e-01,-9.349933266639709473e-02,-6.296953652054071426e-04,-1.102131083607673645e-01,-1.111546754837036133e-01,5.811860039830207825e-02,1.085980087518692017e-01,-8.570076525211334229e-02,-2.494159191846847534e-01,-9.373543411493301392e-02,1.218323260545730591e-01,1.198677942156791687e-01,-4.076562449336051941e-02,-2.124915421009063721e-01,-1.996494382619857788e-01,1.462260335683822632e-01,1.818489432334899902e-01,-2.333331853151321411e-01,-2.856628596782684326e-01,-1.385673996992409229e-03,5.879222229123115540e-02,-1.334168165922164917e-01,-7.050326466560363770e-02,1.570909051224589348e-03,-1.123107150197029114e-01,-3.229520618915557861e-01,-9.287601709365844727e-02,-7.201062142848968506e-02,5.445590615272521973e-02,-1.262686797417700291e-03,5.059374868869781494e-02,8.848301321268081665e-02,3.729788586497306824e-02,-1.738229207694530487e-02,9.197477251291275024e-02,-2.830183133482933044e-02,-1.547993123531341553e-01,-1.783577799797058105e-01,5.545588955283164978e-02,5.792171135544776917e-02,6.428246945142745972e-02,-8.511687070131301880e-02,-1.557646095752716064e-01,1.319432407617568970e-01,1.219981350004673004e-02,-1.043260693550109863e-01,1.253756601363420486e-02,1.133292913436889648e-02,-3.672900050878524780e-02,-8.399689942598342896e-02,4.000740125775337219e-02,-9.675605222582817078e-03,7.280094921588897705e-02,-1.299591213464736938e-01,-7.782115042209625244e-02,1.884269118309020996e-01,-4.689725860953330994e-02,7.221262156963348389e-02,4.050008952617645264e-02,-2.175290882587432861e-02,1.889932900667190552e-01,1.054035648703575134e-01,-3.820186853408813477e-02,-1.991144567728042603e-02,-4.062026366591453552e-02,6.524906307458877563e-02,-2.490779943764209747e-02,-2.328659221529960632e-02,1.087360158562660217e-01,4.877753928303718567e-02,2.411132492125034332e-02,4.592039063572883606e-02,5.642699450254440308e-02,-3.418049961328506470e-02,-7.633440662175416946e-03,4.505459219217300415e-03,1.813318394124507904e-02,-2.738930471241474152e-02,1.902772858738899231e-02,4.122281074523925781e-02,-1.571851968765258789e-02,-1.449933797121047974e-01,-1.355561316013336182e-01,-3.043664246797561646e-02,-6.894923001527786255e-02,-1.565871089696884155e-01,8.501096069812774658e-02,-2.011148072779178619e-02,6.118723377585411072e-02,-5.842933431267738342e-02,-3.010435402393341064e-01,6.993331760168075562e-02,5.242907255887985229e-02,-3.817950561642646790e-02,-1.453678905963897705e-01,-1.454440802335739136e-01,6.627970933914184570e-02,5.976570770144462585e-02,-4.229693859815597534e-02,-3.651496767997741699e-02,9.067016094923019409e-02,6.808722764253616333e-02,1.650908589363098145e-02,6.823670864105224609e-02,1.661010980606079102e-01,1.771537661552429199e-01,1.053937971591949463e-01,1.252525597810745239e-01,-5.591296777129173279e-02,-1.131461467593908310e-02,4.060851782560348511e-02,-2.310868725180625916e-02,-4.423132538795471191e-02,-9.360769391059875488e-02,-9.674344211816787720e-02,-2.506990730762481689e-02,4.297025129199028015e-02,-5.861780419945716858e-02,-1.027163863182067871e-01,-3.701285924762487411e-03,1.437755823135375977e-01,1.081040650606155396e-01,1.114329323172569275e-01,-1.683857887983322144e-01,-7.263637334108352661e-02,-8.991664648056030273e-02,-3.561565652489662170e-02,1.639590263366699219e-01,5.402954667806625366e-02,-8.089290559291839600e-02,-3.190340101718902588e-02,-1.236227899789810181e-01,5.177675187587738037e-02,-6.316025555133819580e-02,6.991448812186717987e-03,-1.260711401700973511e-01,-1.443442981690168381e-02,1.447619944810867310e-01,4.136164486408233643e-02,-1.292560249567031860e-01,-1.493509560823440552e-01,1.537947505712509155e-01,1.909546256065368652e-01,-7.152009010314941406e-02,-1.705607175827026367e-01,1.404422521591186523e-02,1.225969269871711731e-01,3.182510659098625183e-02,6.248706020414829254e-03,1.367419809103012085e-01,1.845572590827941895e-01,3.458705544471740723e-02,-7.319197058677673340e-02,9.633921086788177490e-02,1.181476656347513199e-02,2.212265972048044205e-03,-6.301798671483993530e-02,1.520122960209846497e-02,-6.208743155002593994e-02,5.047836899757385254e-02,1.034613996744155884e-01,9.139250963926315308e-02,7.826057076454162598e-02,-6.385472416877746582e-02,2.849426120519638062e-02,2.391247749328613281e-01,1.278953701257705688e-01,2.757137082517147064e-02,-4.330358281731605530e-02,5.433940887451171875e-02,2.589557878673076630e-02,-1.899394392967224121e-01,-1.993868499994277954e-02,4.849975928664207458e-02,7.763120811432600021e-03,-1.723419427871704102e-01,-1.081491187214851379e-01,1.067889034748077393e-01,-6.306769698858261108e-02,-7.170171942561864853e-03,3.716900199651718140e-02,4.904187843203544617e-02,7.165164686739444733e-03,-7.180523872375488281e-02,4.837073502130806446e-04,1.687690988183021545e-02,-1.388304401189088821e-02,-1.552932057529687881e-02,-1.577033996582031250e-01,-1.184696033596992493e-01,-9.272392839193344116e-02,-2.351574413478374481e-02,-3.320324048399925232e-02,-1.192732900381088257e-01,2.857837267220020294e-02,7.948397099971771240e-02,5.245755985379219055e-02,-4.206021875143051147e-02,1.068779174238443375e-02,6.481146067380905151e-02,2.676351927220821381e-02,1.322132796049118042e-01,-2.765941061079502106e-02,2.364836186170578003e-01,2.630619145929813385e-02,-1.509197056293487549e-02,1.828848011791706085e-02,1.180602088570594788e-01,6.547747552394866943e-02,1.299773901700973511e-01,1.805492788553237915e-01,-2.423985600471496582e-01,-4.167383313179016113e-01,-1.809673160314559937e-01,-1.921973973512649536e-01,-2.349810898303985596e-01,-4.453213810920715332e-01,-4.953399002552032471e-01,-3.434816896915435791e-01,-8.623555302619934082e-02,-3.875647187232971191e-01,-4.269960224628448486e-01,-3.120841085910797119e-01,-4.241176545619964600e-01,-5.658552050590515137e-01,-5.067740678787231445e-01,-8.595130592584609985e-02,-1.341310888528823853e-01,8.564890362322330475e-03,1.136156171560287476e-01,-1.164661124348640442e-01,1.436184346675872803e-01,2.065805941820144653e-01,-7.445283234119415283e-02,-4.207027703523635864e-02,9.449385106563568115e-03,2.073073685169219971e-01,2.913656830787658691e-02,2.644835598766803741e-02,3.638235107064247131e-02,1.354402154684066772e-01,1.602674126625061035e-01,-3.979403153061866760e-02,7.724259793758392334e-02,4.741931799799203873e-03,5.699741840362548828e-02,3.894235566258430481e-02,-2.575539052486419678e-01,-2.326662391424179077e-01,-4.607905447483062744e-02,7.571893185377120972e-02,-2.512088119983673096e-01,-2.684657275676727295e-01,1.249017938971519470e-01,-4.805595055222511292e-02,2.600038051605224609e-02,9.547445178031921387e-02,-9.928716719150543213e-02,1.514076292514801025e-01,-1.111100912094116211e-01,-6.666872650384902954e-02,-1.433268748223781586e-02,5.521614104509353638e-02,1.019040048122406006e-01,4.663797840476036072e-02,-4.700429365038871765e-02,1.927772164344787598e-01,-3.960565105080604553e-02,-3.275050222873687744e-02,1.119731813669204712e-01,4.172287136316299438e-02,-1.278216838836669922e-01,-2.205666154623031616e-01,-2.221001088619232178e-01,-2.154663503170013428e-01,-2.245423346757888794e-01,1.194625645875930786e-01,-1.431706696748733521e-01,-6.448844820261001587e-02,-1.895065307617187500e-01,-9.534877724945545197e-03,-6.228265911340713501e-02,-3.211995363235473633e-01,7.063418626785278320e-02,-3.189284354448318481e-02,5.764317512512207031e-02,-1.319480389356613159e-01,-1.254977583885192871e-01,-1.842378824949264526e-02,5.627237632870674133e-02,2.226962149143218994e-02,-1.081315577030181885e-01,-8.700852096080780029e-02,1.732911169528961182e-01,9.224767237901687622e-02,-4.948599264025688171e-02,-1.335689518600702286e-02,-8.698099851608276367e-02,9.853170067071914673e-02,-1.181211229413747787e-02,3.479202743619680405e-03,1.409377809613943100e-02,-2.890543639659881592e-02,5.737283825874328613e-02,-1.024272963404655457e-01,2.206004038453102112e-02,1.397834420204162598e-01,1.519741141237318516e-03,3.738901764154434204e-02,5.012697353959083557e-02,1.722689368762075901e-03,1.650459319353103638e-02,4.754912108182907104e-02,3.545594587922096252e-02,3.606766089797019958e-02,-9.902136027812957764e-02,9.778750687837600708e-02,1.399329900741577148e-01,-1.619406603276729584e-02,6.728616356849670410e-02,1.259791254997253418e-01,-6.099620833992958069e-02,2.038902044296264648e-02,2.908684015274047852e-01,1.660216301679611206e-01,-9.373916685581207275e-02,6.694913376122713089e-03,1.712487661279737949e-03,-4.017107561230659485e-02,7.994599640369415283e-02,6.055944249965250492e-04,5.535979941487312317e-02,-6.097057461738586426e-02,1.940821558237075806e-01,1.600986272096633911e-01,-2.437845319509506226e-01,-3.011270463466644287e-01,-2.568245530128479004e-01,-3.535549342632293701e-02,-2.270945012569427490e-01,-2.472838014364242554e-01,-1.530638039112091064e-01,-2.261933386325836182e-01,-1.246681362390518188e-01,6.148097291588783264e-02,-1.710667610168457031e-01,-1.995836198329925537e-01,-2.465747594833374023e-01,-7.981392741203308105e-02,2.470115125179290771e-01,-8.954041451215744019e-02,-1.869026869535446167e-01,3.130860328674316406e-01,-6.529529392719268799e-02,-3.792301565408706665e-02,7.393689453601837158e-02,4.123304784297943115e-02,-3.768343478441238403e-02,-7.452121376991271973e-02,-6.593936681747436523e-02,1.220264844596385956e-02,-2.978785708546638489e-02,4.134700819849967957e-02,-1.698090881109237671e-01,-4.372096434235572815e-02,4.610218107700347900e-02,1.748402565717697144e-01,1.078358963131904602e-01,-2.039865553379058838e-01,-8.930204063653945923e-02,6.116909440606832504e-03,7.574389129877090454e-02,-1.897103935480117798e-01,-1.851086318492889404e-01,-1.428083050996065140e-02,-8.354512602090835571e-02,-7.296387851238250732e-02,-1.419523507356643677e-01,-9.946149075403809547e-04,-2.860800921916961670e-02,1.954775750637054443e-01,2.889920771121978760e-02,-5.936611443758010864e-02,2.937545254826545715e-02,9.423445910215377808e-02,-1.766086816787719727e-01,-9.680280834436416626e-02,8.661501109600067139e-02,-7.319809496402740479e-02,-1.833122782409191132e-02,-5.514130461961030960e-03,2.468062750995159149e-02,6.737465411424636841e-02,4.858064651489257812e-02,7.220690604299306870e-03,1.531006097793579102e-01,1.660328507423400879e-01,3.455334156751632690e-02,-7.127125561237335205e-02,2.132031135261058807e-02,9.450513869524002075e-02,-3.172537311911582947e-02,-4.534378647804260254e-02,8.517733961343765259e-02,8.404870331287384033e-02,1.083556339144706726e-01,-9.650234133005142212e-02,-2.166576683521270752e-01,7.737718522548675537e-02,1.439321041107177734e-01,1.956435143947601318e-01,8.049723505973815918e-02,1.313776075839996338e-01,1.573277711868286133e-01,1.447425484657287598e-01,3.600749075412750244e-01,2.635451853275299072e-01,2.981841862201690674e-01,-4.659555107355117798e-02,5.232602730393409729e-02,6.827493757009506226e-02,3.285262584686279297e-01,1.453059762716293335e-01,4.216006398200988770e-02,1.153479740023612976e-01,2.744000852108001709e-01,-2.191501297056674957e-02,4.614018276333808899e-02,2.346012443304061890e-01,1.322181671857833862e-01,9.677610546350479126e-02,-8.892401820048689842e-04,-6.418272107839584351e-02,-8.335449546575546265e-02,-2.011565119028091431e-01,-9.939886629581451416e-02,-1.214134320616722107e-01,-8.649036288261413574e-02,-8.778197318315505981e-02,-3.574325144290924072e-02,-3.894847929477691650e-01,-1.758213937282562256e-01,-6.950331479310989380e-02,-7.277067005634307861e-02,-8.833040297031402588e-02,-3.385341465473175049e-01,-3.141694888472557068e-02,-4.460305348038673401e-02,6.705224514007568359e-02,-9.495324641466140747e-02,-1.237007826566696167e-01,8.314131945371627808e-02,1.196056604385375977e-01,1.002315506339073181e-01,2.910133264958858490e-02,1.318943947553634644e-01,-6.080926582217216492e-02,-2.502370178699493408e-01,2.050183266401290894e-01,7.103276252746582031e-02,2.743163406848907471e-01,9.711088240146636963e-02,-9.201270341873168945e-02,8.475979417562484741e-02,2.491052448749542236e-01,2.044122517108917236e-01,8.421517908573150635e-02,5.428767576813697815e-02,-8.692012727260589600e-02,1.355162709951400757e-01,1.888246387243270874e-01,3.321882337331771851e-02,-2.835230901837348938e-02,2.257941477000713348e-02,2.610877156257629395e-02,2.732722759246826172e-01,8.050891011953353882e-02,2.159523777663707733e-02,-2.046030946075916290e-02,7.932806015014648438e-02,-1.462241709232330322e-01,-1.064686477184295654e-01,-6.952504813671112061e-02,7.690364960581064224e-03,-1.036356985569000244e-01,4.903578758239746094e-02,1.652235686779022217e-01,5.745561793446540833e-02,-1.234096214175224304e-01,-4.706361889839172363e-02,-4.313735291361808777e-03,-1.930168718099594116e-01,-9.549436718225479126e-02,5.242505110800266266e-03,1.216591149568557739e-01,-2.742711603641510010e-01,-3.173738718032836914e-01,-3.164462046697735786e-03,-1.683812290430068970e-01,7.905174978077411652e-03,-2.444372475147247314e-01,3.768481686711311340e-02,5.130777508020401001e-02,-6.360818445682525635e-02,-1.296517699956893921e-01,-7.695428282022476196e-02,-1.052259951829910278e-01,-6.945991516113281250e-02,-1.083930134773254395e-01,-1.796522587537765503e-01,-6.263811886310577393e-02,7.536629587411880493e-02,1.157544739544391632e-02,-8.523996919393539429e-02,3.488967195153236389e-02,-3.888136520981788635e-02,-7.486724108457565308e-02,2.194172143936157227e-01,-8.012071996927261353e-02,1.503713708370923996e-02,2.065914310514926910e-02,5.860675871372222900e-02,6.876231729984283447e-02,-1.074405014514923096e-01,-1.694213785231113434e-02,1.331775188446044922e-01,-6.051482632756233215e-02,-1.265995800495147705e-01,-1.379603147506713867e-01,-6.721392273902893066e-02,3.091042675077915192e-02,3.709331899881362915e-02,-1.070982590317726135e-01,-1.530840396881103516e-01,-1.157769560813903809e-02,1.139921993017196655e-01,1.973933130502700806e-01,1.028774902224540710e-01,6.298119574785232544e-02,2.998312711715698242e-01,2.111033797264099121e-01,-5.066680163145065308e-02,1.338551491498947144e-01,2.364192456007003784e-01,-1.252753585577011108e-01,-1.146600842475891113e-01,1.255286484956741333e-01,9.127973765134811401e-02,2.155711352825164795e-01,-1.090597659349441528e-01,3.447629511356353760e-01,9.063132107257843018e-02,-6.686460226774215698e-02,-5.984569713473320007e-02,-8.950751274824142456e-03,5.889285728335380554e-02,1.211141273379325867e-01,2.598703503608703613e-01,-2.074672840535640717e-02,-1.313675008714199066e-02,-1.080902293324470520e-02,1.448751986026763916e-01,1.570184230804443359e-01,5.079490365460515022e-04,1.153533831238746643e-01,-7.155738770961761475e-02,8.427344262599945068e-02,1.200116127729415894e-01,-1.165297776460647583e-01,-1.523284167051315308e-01,-5.903207231312990189e-03,-7.320836186408996582e-02,-2.029703855514526367e-01,-6.417240947484970093e-02,-1.726372689008712769e-01,-7.670862972736358643e-02,-5.498819798231124878e-02,-2.816808596253395081e-02,2.666796147823333740e-01,1.367631703615188599e-01,1.475958973169326782e-01,3.912846371531486511e-02,6.193538010120391846e-02,1.306642293930053711e-01,1.018380895256996155e-01,1.380879431962966919e-01,-8.085737377405166626e-02,-1.695610582828521729e-01,2.567691355943679810e-02,2.778183668851852417e-02,-1.232158578932285309e-02,-1.947578638792037964e-01,-1.217765882611274719e-01,3.312717378139495850e-02,-1.638623923063278198e-01,-5.772531032562255859e-02,-9.679801762104034424e-02,-4.528792947530746460e-02,-6.976369023323059082e-02,-1.271248310804367065e-01,4.243677109479904175e-02,6.135183572769165039e-02,2.769643440842628479e-02,5.072389543056488037e-02,1.313042044639587402e-01,1.295336429029703140e-02,-1.109617948532104492e-02,-1.732848584651947021e-01,-1.047590747475624084e-01,1.592284254729747772e-02,-1.554672718048095703e-01,6.802624557167291641e-04,-5.928999185562133789e-02,-1.053815558552742004e-01,-1.472474541515111923e-02,-1.643767505884170532e-01,-1.409591138362884521e-01,-1.683387323282659054e-03,1.431998517364263535e-02,3.700805082917213440e-02,-4.585506767034530640e-02,-2.416725903749465942e-01,-1.747538298368453979e-01,1.215884387493133545e-01,5.114286765456199646e-02,8.487630635499954224e-02,-2.738893926143646240e-01,-2.045703381299972534e-01,1.353311538696289062e-01,7.947637885808944702e-02,7.876951992511749268e-02,9.701617807149887085e-02,2.109780907630920410e-01,2.382335662841796875e-01,3.909118846058845520e-02,7.470078766345977783e-02,1.129950676113367081e-02,8.447769284248352051e-02,4.509416967630386353e-02,-8.550604432821273804e-02,-1.659662723541259766e-01,-2.986297309398651123e-01,-1.281261444091796875e-01,-6.323949247598648071e-02,-2.665176391601562500e-01,-8.675735443830490112e-02,-1.578042209148406982e-01,-1.885181851685047150e-02,-7.546995580196380615e-02,-5.375875905156135559e-02,1.283885389566421509e-01,7.606387138366699219e-02,3.060027956962585449e-02,-2.119645103812217712e-02,4.217586480081081390e-03,2.068212442100048065e-02,1.388944983482360840e-01,1.127537619322538376e-02,5.783219262957572937e-02,5.288349464535713196e-03,5.437232553958892822e-02,1.703293770551681519e-01,1.133214682340621948e-01,-5.100408196449279785e-02,1.808276027441024780e-02,1.614531576633453369e-01,1.823649108409881592e-01,5.671689659357070923e-02,-1.871092915534973145e-01,-1.009067967534065247e-01,-7.765556126832962036e-02,-1.372039467096328735e-01,-2.643784880638122559e-01,-3.863191306591033936e-01,-1.675327867269515991e-01,-2.621144652366638184e-01,-2.243057936429977417e-01,-1.802957206964492798e-01,1.204198226332664490e-01,5.215193331241607666e-02,-2.677676081657409668e-02,-4.742427170276641846e-02,-2.458037286996841431e-01,-9.070305526256561279e-02,-1.320795118808746338e-01,8.322534151375293732e-03,-5.375003069639205933e-02,-2.746553160250186920e-02,-9.748522937297821045e-02,8.207230269908905029e-02,-9.351070225238800049e-02,-1.968595013022422791e-02,-1.841301918029785156e-01,-1.331400424242019653e-01,-9.825464338064193726e-02,-2.396422475576400757e-01,-5.863669514656066895e-02,-2.090741842985153198e-01,-2.478362917900085449e-01,-2.346279323101043701e-01,-5.948172509670257568e-02,1.802087388932704926e-02,-3.343594446778297424e-02,2.095681801438331604e-02,3.740948811173439026e-02,-8.110419660806655884e-02,1.198296174407005310e-01,-1.833588629961013794e-01,2.460719272494316101e-02,-3.202037140727043152e-02,-9.271524846553802490e-02,1.062063779681921005e-02,-9.688996523618698120e-02,-1.561184674501419067e-01,-5.777926370501518250e-02,-3.888075053691864014e-01,-1.325310021638870239e-01,-1.427905857563018799e-01,-3.786336481571197510e-01,-1.999911665916442871e-01,-2.411291599273681641e-01,-1.668028533458709717e-01,-1.045061424374580383e-01,-7.672083377838134766e-02,-1.488594263792037964e-01,1.690824776887893677e-01,6.882511824369430542e-02,-1.038866490125656128e-01,8.386833220720291138e-02,-1.145083084702491760e-02,-1.685182563960552216e-02,-3.078206069767475128e-02,8.934465795755386353e-02,3.564557759091258049e-03,3.025716170668601990e-02,4.666898772120475769e-02,1.083231940865516663e-01,1.531913876533508301e-01,1.563232690095901489e-01,1.137227118015289307e-01,1.483471989631652832e-01,1.774433255195617676e-01,3.944610059261322021e-02,-8.754955232143402100e-02,1.294522453099489212e-02,-1.223624590784311295e-02,-1.020324900746345520e-01,9.161371737718582153e-02,-3.388306125998497009e-02,4.180027171969413757e-02,9.947162121534347534e-03,-1.292547583580017090e-01,-1.139989867806434631e-02,-6.547982245683670044e-02,-2.524142563343048096e-01,-9.783544391393661499e-02,-2.590577602386474609e-01,-1.052362620830535889e-01,-1.669552177190780640e-01,-1.274829804897308350e-01,4.609895125031471252e-02,-1.018429771065711975e-01,-6.909529864788055420e-02,-3.465580567717552185e-02,-1.242976710200309753e-01,2.864075303077697754e-01,2.074409276247024536e-01,4.038077965378761292e-02,-1.070703789591789246e-01,-9.095370024442672729e-02,-4.545601829886436462e-02,-1.415805052965879440e-02,1.061770915985107422e-01,5.183919798582792282e-03,-2.741729840636253357e-02,-1.153889372944831848e-01,3.315871953964233398e-02,1.049978435039520264e-01,2.248346507549285889e-01,8.750436455011367798e-02,9.512811899185180664e-02,9.826574474573135376e-02,2.878791093826293945e-02,6.045183539390563965e-02,1.882953941822052002e-01,1.757610589265823364e-01,1.078166142106056213e-01,-6.015786901116371155e-02,-7.175984233617782593e-02,-1.364656090736389160e-01,-1.502225250005722046e-01,-1.809151172637939453e-01,9.251186624169349670e-03,-6.201046332716941833e-02,-9.991495311260223389e-02,-2.124250680208206177e-01,-2.860965728759765625e-01,-1.677371859550476074e-01,4.310321435332298279e-02,-1.356221288442611694e-01,-3.365995585918426514e-01,-2.449810802936553955e-01,-1.210485212504863739e-02,3.813584893941879272e-02,-8.164642006158828735e-02,-6.743018329143524170e-02,1.077882498502731323e-01,-1.079377382993698120e-01,1.450023353099822998e-01,-7.012748718261718750e-02,2.930720895528793335e-02,-5.579353496432304382e-02,-1.220383215695619583e-02,-3.838580101728439331e-02,-3.191902488470077515e-02,-9.330364875495433807e-03,1.662675477564334869e-02,-3.692477941513061523e-02,-3.462120890617370605e-01,-3.956591486930847168e-01,-6.398051977157592773e-02,1.186409685760736465e-02,-3.500070795416831970e-02,-5.380371585488319397e-02,-1.753738820552825928e-01,-7.851593196392059326e-03,8.823261409997940063e-02,-8.462451398372650146e-03,-7.181464880704879761e-02,-7.594490051269531250e-02,3.746134415268898010e-02,-8.866286277770996094e-02,-2.020349055528640747e-01,-5.307238176465034485e-02,-1.366616636514663696e-01,-2.084604091942310333e-02,2.284654416143894196e-02,-1.314551979303359985e-01,3.771964088082313538e-02,-4.424929618835449219e-02,1.065811514854431152e-01,4.644777253270149231e-02,-9.321573190391063690e-03,8.790170401334762573e-02,6.287877261638641357e-02,6.017543375492095947e-02,1.212776377797126770e-01,6.351393461227416992e-02,-8.198387175798416138e-02,-4.088414832949638367e-02,7.679624110460281372e-02,1.359659433364868164e-02,2.409088192507624626e-03,-8.275572955608367920e-02,-9.219497442245483398e-02,-8.757302910089492798e-02,-8.898180723190307617e-02,3.595933318138122559e-02,1.006393060088157654e-01,2.824681065976619720e-02,-4.125004634261131287e-03,8.755810558795928955e-02,6.448183953762054443e-02,-3.211219236254692078e-02,7.791945338249206543e-02,7.392069697380065918e-02,7.173635065555572510e-02,6.060339137911796570e-02,-1.404116302728652954e-01,-2.025233954191207886e-01,-3.934716582298278809e-01,-1.611867994070053101e-01,-4.763285443186759949e-02,9.558223187923431396e-02,-6.020967289805412292e-02,-2.737685572355985641e-03,1.933529973030090332e-02,2.858506143093109131e-01,-2.027731016278266907e-02,-9.100717306137084961e-02,-4.989895597100257874e-02,-1.545469015836715698e-01,-1.289875060319900513e-01,-2.432842738926410675e-02,-3.764266893267631531e-02,4.287001863121986389e-02,5.721003189682960510e-02,-5.874302983283996582e-02,-6.106666103005409241e-02,-1.834034770727157593e-01,-8.003820478916168213e-02,-7.739622145891189575e-02,-1.175549700856208801e-01,-1.221325471997261047e-01,-1.679310798645019531e-01,-3.577422797679901123e-01,-2.370529919862747192e-01,-2.393848448991775513e-02,7.532279938459396362e-02,5.812443047761917114e-02,4.398816078901290894e-02,1.008445024490356445e-02,1.434264928102493286e-01,1.476286095567047596e-03,1.543301250785589218e-02,1.135313510894775391e-01,-1.052495166659355164e-01,-9.468312561511993408e-02,2.684750966727733612e-02,4.955287091434001923e-03,4.942485690116882324e-02,-4.808662924915552139e-03,2.728924527764320374e-02,-6.397393532097339630e-03,-8.765397220849990845e-02,1.581673882901668549e-02,5.480380728840827942e-02,4.156092554330825806e-02,-7.726953923702239990e-02,-1.177659630775451660e-01,-6.197678297758102417e-02,-3.028836473822593689e-02,-6.844355165958404541e-02,4.308081790804862976e-02,4.002737998962402344e-02,-2.676957286894321442e-02,1.283228695392608643e-01,9.871750324964523315e-02,-8.088937029242515564e-03,-5.048615857958793640e-02,1.220674663782119751e-01,2.232982032001018524e-02,4.301970824599266052e-02,-1.082065701484680176e-02,5.491206422448158264e-03,7.958727329969406128e-02,1.116767004132270813e-01,2.002806030213832855e-02,1.419242024421691895e-01,-4.173088353127241135e-03,4.945811256766319275e-02,4.510328546166419983e-02,1.201714500784873962e-01,1.558269113302230835e-01,1.355735957622528076e-02,8.463650196790695190e-02,1.022335793823003769e-02,1.077867895364761353e-01,4.551038146018981934e-03,7.516618072986602783e-02,2.319646626710891724e-02,-6.823076307773590088e-02,6.503418087959289551e-02,-9.514091908931732178e-02,1.571729928255081177e-01,1.268571913242340088e-01,2.505511939525604248e-01,1.454118341207504272e-01,-3.605993837118148804e-02,6.816782057285308838e-02,-2.686919271945953369e-01,-4.023588821291923523e-02,-5.635590106248855591e-02,-2.181641608476638794e-01,-2.967003285884857178e-01,-3.253930509090423584e-01,-3.447609543800354004e-01,5.336550623178482056e-02,5.606118217110633850e-02,-8.529618382453918457e-02,-8.478856831789016724e-02,-1.272007375955581665e-01,2.099963277578353882e-01,5.480909347534179688e-02,1.508823409676551819e-02,-1.709582470357418060e-02,-3.930184617638587952e-02,1.460055112838745117e-01,1.055375933647155762e-01,4.535837564617395401e-03,2.993033267557621002e-02,-2.222678661346435547e-01,1.324986368417739868e-01,-6.079388782382011414e-02,-3.836854547262191772e-02,1.333323214203119278e-02,-6.717589497566223145e-02,6.190607696771621704e-02,6.180195137858390808e-02,1.339264586567878723e-02,-1.156179886311292648e-02,-7.508662343025207520e-02,5.951819568872451782e-02,9.959423542022705078e-02,3.283713303972035646e-04,-4.359178710728883743e-03,-9.044644981622695923e-02,-5.334078893065452576e-02,1.768857240676879883e-01,5.007649958133697510e-02,4.365771636366844177e-02,4.300570860505104065e-02,1.863937377929687500e-01,9.018042683601379395e-02,6.925392895936965942e-02,2.544975280761718750e-01,1.325421780347824097e-01,-5.586677417159080505e-02,-1.743325032293796539e-02,-1.161980405449867249e-01,5.646906420588493347e-02,-7.033063471317291260e-02,1.141559258103370667e-01,1.826096028089523315e-01,2.778988778591156006e-01,1.468102931976318359e-01,9.253073483705520630e-02,9.155652672052383423e-02,5.407326295971870422e-02,6.819033622741699219e-02,2.237105369567871094e-02,-2.649962157011032104e-02,2.951917052268981934e-02,-2.199663668870925903e-01,-2.202443927526473999e-01,-1.056848466396331787e-01,-7.545518130064010620e-02,-1.394861042499542236e-01,-1.490970849990844727e-01,1.909414120018482208e-02,7.732970267534255981e-02,1.634809225797653198e-01,4.653249308466911316e-02,3.675477951765060425e-02,-5.065394565463066101e-03,1.224491670727729797e-01,1.516429334878921509e-01,7.464852929115295410e-02,-6.185517460107803345e-02,-8.736169897019863129e-03,-1.763082295656204224e-01,-7.517286390066146851e-02,-1.372951120138168335e-01,-4.096851944923400879e-01,-6.812360286712646484e-01,-8.222166895866394043e-01,-2.302993983030319214e-01,-2.745042555034160614e-02,-2.573983743786811829e-03,-2.381528317928314209e-01,-2.975894808769226074e-01,6.146689876914024353e-03,3.037300109863281250e-01,-8.130968362092971802e-02,-1.069343909621238708e-01,1.254777014255523682e-01,2.258235663175582886e-01,1.744470298290252686e-01,-6.446122378110885620e-02,3.947843983769416809e-02,-8.433533459901809692e-02,-1.981296576559543610e-02,-2.351816371083259583e-02,-1.459616869688034058e-01,1.085775205865502357e-03,8.883877843618392944e-02,-1.016880422830581665e-01,-1.940247267484664917e-01,2.369182556867599487e-02,-2.134975939989089966e-01,2.534014172852039337e-02,-5.768230929970741272e-02,1.913021504878997803e-02,4.342038184404373169e-02,9.562674909830093384e-02,-2.696207761764526367e-01,-5.488590523600578308e-02,-1.180358137935400009e-02,3.162351250648498535e-02,2.776937372982501984e-02,9.205459058284759521e-02,8.418946713209152222e-02,6.630218774080276489e-02,8.167733997106552124e-02,3.238038346171379089e-02,4.707568883895874023e-02,2.488997206091880798e-02,-2.503000013530254364e-02,-1.458801422268152237e-02,-5.178654938936233521e-02,-3.677252307534217834e-02,-2.367302402853965759e-02,2.343862876296043396e-02,4.239366948604583740e-02,2.544060862419428304e-06,-1.080285161733627319e-01,-1.201877966523170471e-01,1.105410791933536530e-02,-8.198183774948120117e-02,4.932264238595962524e-02,3.737544268369674683e-02,-4.112935066223144531e-02,8.410150557756423950e-02,1.816164888441562653e-02,-1.404293160885572433e-02,1.179379969835281372e-02,2.912952378392219543e-02,-1.080964356660842896e-01,-6.120046600699424744e-02,-7.691719383001327515e-02,-1.012738943099975586e-01,9.510357677936553955e-02,-1.882706880569458008e-01,4.615790676325559616e-03,5.906985327601432800e-02,2.295040525496006012e-02,2.104536890983581543e-01,5.331040173768997192e-02,4.102694243192672729e-02,-1.686275452375411987e-01,3.275274112820625305e-02,2.239379435777664185e-01,1.555954813957214355e-01,-6.626135110855102539e-02,4.155530128628015518e-03,6.645011901855468750e-02,-2.741872332990169525e-02,1.472291499376296997e-01,-1.157032921910285950e-01,-1.235893741250038147e-01,-5.364734306931495667e-02,-1.419932842254638672e-01,4.352153465151786804e-02,1.153459865599870682e-02,1.270608603954315186e-01,-1.946992054581642151e-02,1.632382906973361969e-02,1.501538455486297607e-01,-1.166665833443403244e-02,-3.494978323578834534e-02,6.641271710395812988e-02,9.276444464921951294e-02,2.012818753719329834e-01,-1.324231177568435669e-02,-9.842938929796218872e-02,-2.265522778034210205e-01,-7.458467781543731689e-02,2.130826115608215332e-01,-2.931765094399452209e-02,5.128740146756172180e-02,-6.567686051130294800e-02,-9.700002521276473999e-02,2.460185438394546509e-02,1.156516894698143005e-01,2.926879934966564178e-02,1.595615744590759277e-01,-5.357021093368530273e-02,8.272574841976165771e-02,-1.409082114696502686e-02,-6.400404870510101318e-02,3.962853550910949707e-02,7.727485150098800659e-02,-1.378553174436092377e-02,4.401380196213722229e-02,-2.553842365741729736e-01,-9.022320806980133057e-02,-7.123024761676788330e-02,-1.377682685852050781e-01,4.002622514963150024e-02,-2.359129935503005981e-01,-2.680013775825500488e-01,-2.993955016136169434e-01,-1.898783892393112183e-01,9.105482697486877441e-02,-7.805987447500228882e-02,-2.764459550380706787e-01,-9.165802597999572754e-02,-1.707237027585506439e-02,6.159381940960884094e-02,-8.635732531547546387e-02,-3.068321617320179939e-03,2.620471455156803131e-02,4.493945464491844177e-02,1.142295151948928833e-01,1.489785760641098022e-01,1.782365590333938599e-01,2.093882411718368530e-01,1.226626932621002197e-01,7.694052904844284058e-02,-7.243863493204116821e-02,-1.406478788703680038e-02,3.732024505734443665e-02,1.166596412658691406e-01,-1.100601777434349060e-01,-5.913978070020675659e-02,8.200769126415252686e-02,-1.069328412413597107e-01,-2.120171859860420227e-02,-4.463269934058189392e-02,3.268742933869361877e-02,1.284340862184762955e-02,7.101242244243621826e-02,1.652645170688629150e-01,3.046605885028839111e-01,1.993602812290191650e-01,2.211554534733295441e-02,-4.258313216269016266e-03,1.318698525428771973e-01,1.169164702296257019e-01,3.839628770947456360e-02,-1.101503148674964905e-02,7.067466620355844498e-03,2.230024635791778564e-01,-2.149318456649780273e-01,-2.296454608440399170e-01,-3.733514249324798584e-01,-1.946742534637451172e-01,-6.164532899856567383e-02,-4.091756343841552734e-01,-5.973201394081115723e-01,-4.543634355068206787e-01,-2.012963742017745972e-01,-9.202230721712112427e-02,-1.137980297207832336e-01,-1.272495388984680176e-01,-1.612692624330520630e-01,1.076346784830093384e-01,2.448419332504272461e-01,-1.445034891366958618e-01,-1.387222260236740112e-01,-1.497328579425811768e-01,3.935052827000617981e-02,-1.689718812704086304e-01,-1.803637146949768066e-01,-1.752732396125793457e-01,-9.020904079079627991e-03,-4.875480383634567261e-02,-8.394286036491394043e-02,-5.422553047537803650e-02,-2.993680303916335106e-03,-3.980246372520923615e-03,5.192631110548973083e-02,4.050501808524131775e-02,6.951308995485305786e-02,4.608994349837303162e-02,-1.604535579681396484e-01,-4.966825619339942932e-02,-1.169194653630256653e-01,-6.500914692878723145e-02,2.333263903856277466e-01,2.023542225360870361e-01,1.507965624332427979e-01,-5.593108385801315308e-02,1.502872854471206665e-01,2.323332130908966064e-01,2.418979257345199585e-01,1.520292609930038452e-01,9.015126526355743408e-02,1.984010264277458191e-02,-2.582603394985198975e-01,-4.866690188646316528e-02,4.014215990900993347e-02,5.818048864603042603e-02,-2.003051489591598511e-01,-4.327328205108642578e-01,-2.381925731897354126e-01,2.923462726175785065e-02,8.869747072458267212e-02,-6.014602258801460266e-02,-6.259866803884506226e-02,-5.381822702474892139e-04,1.353259533643722534e-01,2.306426167488098145e-01,-1.231724098324775696e-01,-2.214360237121582031e-01,4.134732857346534729e-02,1.270045787096023560e-01,1.915883868932723999e-01,6.394197046756744385e-02,-1.677169348113238811e-03,-8.551870286464691162e-02,-1.013878732919692993e-01,-1.660243719816207886e-01,2.816868722438812256e-01,6.609329581260681152e-02,4.012804478406906128e-02,6.200274080038070679e-02,1.032043695449829102e-01,1.220813915133476257e-01,-5.031114071607589722e-02,4.492978006601333618e-02,9.707861393690109253e-02,1.712433993816375732e-01,1.835962831974029541e-01,1.075570881366729736e-01,4.082701727747917175e-02,5.676343664526939392e-02,1.852142065763473511e-01,4.568240046501159668e-02,-4.770345985889434814e-02,9.778642654418945312e-02,2.125737071037292480e-01,1.671839058399200439e-01,5.371037125587463379e-02,-1.003512144088745117e-01,8.077229722402989864e-05,3.570935502648353577e-02,1.173720955848693848e-01,1.228468120098114014e-01,1.368120610713958740e-01,1.682260334491729736e-01,1.079752296209335327e-01,8.809489011764526367e-02,7.078074663877487183e-02,3.973514214158058167e-02,2.452443540096282959e-02,-2.959682606160640717e-02,2.304915785789489746e-01,-7.841458544135093689e-03,1.310536712408065796e-01,2.439838200807571411e-01,2.480257004499435425e-01,2.570507228374481201e-01,-2.903056889772415161e-02,-4.243780300021171570e-02,4.953298345208168030e-02,1.542683318257331848e-02,-1.195827033370733261e-03,1.628397405147552490e-01,2.554445993155241013e-03,4.549762606620788574e-02,1.372070163488388062e-01,-8.633397519588470459e-02,-5.619770288467407227e-02,-1.404723823070526123e-01,-4.271440953016281128e-02,-5.291362106800079346e-02,-4.122731089591979980e-02,-1.273683756589889526e-01,-1.952248513698577881e-01,-7.120241411030292511e-03,-2.321100421249866486e-02,2.071611434221267700e-01,-5.510791018605232239e-02,-3.817729055881500244e-01,-1.471787989139556885e-01,-2.957451622933149338e-03,-5.612718686461448669e-02,2.394976317882537842e-01,-1.654148660600185394e-02,-5.448234453797340393e-02,3.248546645045280457e-02,2.139977663755416870e-01,3.457355871796607971e-02,6.758952885866165161e-02,-4.309129342436790466e-02,-4.584734141826629639e-02,1.176377907395362854e-01,-2.604900486767292023e-02,7.907431572675704956e-02,4.319353029131889343e-02,1.650274149142205715e-03,1.230462566018104553e-01,1.404601614922285080e-02,-1.324998736381530762e-01,-7.783088088035583496e-02,-5.539206787943840027e-02,5.272607132792472839e-02,1.076300367712974548e-01,-1.627451181411743164e-02,